{"poolingLayer": {"combPooling": {"all": 6, "take": 4}}, "convLayer": {"combConv": {"all": 4, "take": 2}, "convCore": {"weight": [[[-0.34480180955351514], [-1.0344508461067228]], [[-3.971489497760013], [-1.7654723413374618]], [[-4.09525102805577], [2.843707709891121]], [[-6.855989828171183], [-2.4900863677836065]], [[-2.4062613849090395], [-8.373193330514136]]], "Num": 5}}, "fullConnect": {"inputLayer": {"inputDataShape": [10, 75], "weight": [[-0.07311767232666522, -0.34651535518109483, 0.060411468470230684, -0.5500269451927362, 0.1442523630261988, 0.1819439512213073, -0.06969949274858778, -0.02210999559687072, -0.08601296068550136, -0.22122994738989293, 0.10326565625651472, -0.18639344560065552, -0.09087082173671297, 0.27516134315305996, -0.09460588417836015, -0.23228541529292324, 0.13340720511314808, 0.4659660861139657, -0.18600081935941157, 0.14265936059503906, -0.02929838892260439, 0.029495081348488387, -0.23521701789520108, 0.21161079742147146, 0.2915847002467732, 0.18571236988285603, -0.2750149240206691, 0.01796841788671068, -0.18054189827086348, -0.10540518439581455, -0.12713512296410973, -0.12965405335928348, 0.09346383374078698, -0.0038885049133563707, -0.13587617398622412, 0.034697964084160655, 0.11237670357397894, 0.142800871633772], [0.004915089780104034, -0.017741700186318616, -0.050965408675091, 0.11524018726129984, -0.09733500144730847, -0.01737945663592211, -0.17656602351912956, 0.11677149985734606, -0.04790548854129784, -0.10859058311106587, 0.020733847021238982, 0.1059137889421975, -0.009421704864556681, 0.0029448504758014075, 0.04041762167926725, 0.10300473726679357, 0.03972302283308769, 0.083841040846309, 0.0638155468639517, -0.1954091092974074, 0.1635274408686597, 0.09794871035194555, 0.1690221886466038, 0.19039679975751989, 0.12012702789107761, 0.06114756583841369, -0.03499153084938756, 0.17133444508431095, 0.08454879574794973, 0.15652346727995134, 0.14795936953244906, 0.05788471534701233, 0.09845389848144767, -0.0727040303895319, 0.16085488406147672, -0.06816473575126798, 0.0370532938237403, 0.012090518028482614], [-0.06877554679940888, 0.14800619048557836, 0.15309230384349715, -0.07654634183791077, -0.0436315577168777, 0.08460160560008398, -0.12004039268857777, 0.13815323360242257, -0.05410614810237737, -0.1321599101392953, 0.10804875725783214, 0.11634503208528023, -0.0016039651191438898, 0.009293526442793085, -0.0740182049674672, 0.13130368870023262, 0.1234858973549724, 0.10768739878396642, 0.01396007689411186, 0.14283367094134697, 0.012596214306302804, 0.042056774503983346, -0.13435676987983836, 0.12276732917839932, 0.027959708780664134, 0.035887910608845254, -0.06683234328357268, 0.15397401914408368, 0.07198129414143206, -0.1263164364964904, 0.11805348058965616, 0.0016696774749060499, -0.004103667751717677, 0.023585480462525156, -0.10241975669475838, -0.0556948659691155, 0.006237594108617306, -0.00630255204922844], [0.1797799073487098, -0.027414999993751164, -0.011278304258146809, -0.11844678983790406, 0.0020960700295952948, -0.131002884830756, 0.04352123056011396, 0.14345479060435032, 0.095139427214676, 0.11593843917329642, -0.046315073455529786, 0.09881832199602081, 0.05306889881654371, -0.01092528383845402, 0.0020099628892812334, 0.13893810801751388, 0.04107517243851513, 0.1123756526641058, -0.011764958347647075, 0.16133931399781043, -0.005198267061201937, 0.1609022254366954, -0.022419563501248768, 0.08254215660481612, 0.047632299623137475, -0.033274080648060964, -0.22703552102779645, -0.07507636779055375, -0.11618365923043798, -0.08069202020361639, 0.07903095094718376, -0.11435898287565684, -0.1046839795999694, 0.11942973261214, -0.15729322100557955, 0.05131430262636282, -0.15606439263955926, -0.051014599864976376], [-0.02251836957311319, -0.04030075723606941, 0.11768260006605072, 0.043371527328103225, 0.07854094988704582, -0.08100277913815422, -0.0752777132391152, 0.15302776185717404, 0.10392701017064551, -0.1299039646405272, -0.06322022969999516, -0.057768826869978085, 0.10019905061884293, -0.10990738962269773, 0.10022236196046329, 0.030577358273229466, -0.03095939083354523, 0.039195182524707314, 0.013744166636865757, -0.13957227801554978, 0.009188518599902752, -0.11702512410015209, 0.12334378769696289, 0.07303189187932044, 0.043352369112076024, 0.05987755307811156, -0.07233167940550352, -0.09417373611581488, -0.12895940623692992, 0.02837473935819733, 0.015790877361188414, -0.02430089085081769, 0.15012890654932023, 0.08842151451637859, -0.012886497145223864, -0.12368013141404548, 0.04774509999036058, -0.14301691007101228], [-0.11903484218094489, 0.15252419145493695, -0.08461152201726788, 0.017877801455433225, -0.13114917097425877, -0.13679136290701518, -0.11050032779337295, -0.024630212933220538, -0.045353059247039564, 0.12076325603216069, -0.0672383721346545, 0.0701071820267485, -0.17323146366070907, -0.09688490924645057, -0.07101486278347865, 0.009705882362045164, -0.054892396509263384, -0.117310212126356, -0.1700431795296899, 0.1382902491970344, -0.12969994866086115, -0.11614099246770733, -0.18662936260092824, 0.1307790476011351, -0.01861749277455317, -0.018644803740484973, 0.043407257684141685, -0.15633822763809888, 0.024473736196326645, -0.10405174075160868, 0.06878201961064588, -0.0064929450239207655, 0.12644040678672225, -0.09323770664404424, 0.0153663753369459, 0.014036173214948674, -0.09386648787201296, -0.1296713459245089], [0.04896586729453528, 0.054239625701093606, -0.010484146758023729, 0.053040708338726025, 0.14732297066319452, 0.0446414581616368, 0.06845053124811983, 0.1731515793878707, -0.026076252711117992, 0.12051064112277593, 0.01123066776602382, 0.015796262132413908, 0.04867901308433319, 0.07326454443855275, -0.13123856317446592, -0.11212400372299933, -0.08463041428873909, 0.010668533639124044, -0.008367442859335505, -0.07887277263347624, 0.06468411266521844, -0.14636947052643348, 0.02486167317896155, -0.014857559451947002, 0.04811844473191138, 0.12783585508675818, -0.012353401184670747, -0.16213178703720302, -0.025247042643744975, -0.03604466690621081, 0.14941909121419866, -0.1587493426932656, 0.09902863622345513, 0.042874097741614145, -0.0628401461665498, 0.11411590302659737, -0.06777732973922655, -0.1282826748036282], [-0.046110251209763205, -0.09950810889888845, 0.15467489554490532, 0.040809237549766335, 0.1400933472723445, -0.11131767374258855, 0.15311124490211742, 0.13925403973535258, -0.15634452947073801, -0.023017568004036294, 0.004420492419765692, 0.0203603760763405, -0.16522041274839783, -0.14340511468809083, 0.1373242099822302, 0.09529863782556892, -0.10005224130328201, -0.1124187822989108, 0.08648651617506403, 0.05676299047942443, 0.0861847461894308, -0.07168032440609606, -0.12778623225690977, 0.19755660980457362, 0.1399334279920982, -0.15634172733591334, 0.15466211864094592, -0.036994954143282, -0.059509227409618407, 0.02897515920298157, 0.13907496690744606, 0.16187622859141276, 0.1361980986520616, 0.07892084942104617, 0.07223766647921978, -0.1428119967840901, 0.06380144814135938, -0.016088107047847085], [0.02262569453541066, -0.010699016204294056, -0.03022224183856511, -0.18233864224479207, -0.14105020706763682, 0.1043792951789901, -0.10703073376194014, -0.022545535774013425, -0.12216071151088163, 0.02951726049567842, 0.0858976842817347, -0.090278235649239, 0.03825962814574227, 0.17230177227190932, 0.06447438693053396, 0.06420810173726307, 0.08274668668774351, 0.10295498390868599, -0.13283171389633913, 0.0807667279226505, 0.06600951062126441, 0.13126782512707816, 0.012564869068910769, -0.08223298063442742, 0.08029849280600752, -0.10385302091937564, -0.07741230830653603, 0.03482078082906706, -0.013469213072071877, 0.04236079015669645, -0.041430664615947674, -0.189250181926203, -0.07212336691865164, -0.1716215345610174, 0.052981998258454836, -0.05050111652448269, 0.14733175874633744, 0.09379823117962159], [0.02633611764140906, -0.07381950138852517, 0.14033862453878815, -0.06720442904333507, -0.0319287365134162, 0.12191870150672862, 0.1182851208084692, 0.09966751334886818, 0.1477432231474449, -0.0940898942188225, 0.11251388944370024, 0.10848978272081837, -0.04937614967195214, 0.019684558735676896, -0.07144727847684401, -0.15684932037410343, -0.03898521022002682, -0.03089306407323098, -0.14841058866402307, -0.11910832879464428, -0.13794239005320294, 0.12305426656792282, 0.11411881910346862, 0.029786974001425517, 0.10435655301909827, 0.05241196440733192, 0.1481284866389195, -0.17776093840390716, 0.05390214209000008, -0.14284460580426245, 0.08832034316343693, 0.03962389470111727, 0.10619907949796438, -0.011625927195295418, -0.21209821972474976, 0.12797344957866189, -0.04473880455752513, 0.15871324352780802], [-0.060463167428281846, -0.01067612061062663, -0.1515721042847426, -0.02605365054429344, -0.11430941442549666, 0.013228399623562388, 0.05556471754823106, -0.09637256294886466, 0.11695500504115096, -0.10834497198401469, 0.17013696978426426, -0.14637294021092673, -0.11278095886550317, -0.10737259759337923, -0.005573744930057636, 0.021798438952489056, -0.06903949795223725, 0.03322608018981825, -0.14934336226765382, -0.10743712784147272, 0.007743527582008181, -0.02657499058642856, -0.15154559766042097, -0.08907012236450432, 0.2046283337361043, 0.13801422488482226, -0.09614937387610248, 0.017782606295115192, -0.08846993464969474, -0.07069638146294357, -0.1244492313512776, 0.05560006348971101, 0.035392556548770986, 0.031219856554919316, -0.03109365731972609, -0.13931813487480899, -0.06945582557345618, 0.0981023211731919], [-0.08989955627183566, 0.0218533194255062, -0.05094526567405608, -0.15721734295181564, 0.07069868201174101, -0.1568902004512691, 0.054046648308267504, 0.049333825655986166, 0.08866099757610317, -0.047252326515992135, 0.08375231967799397, -0.10822995661317895, -0.08858382154290848, 0.07653825107099875, 0.039473828604224104, 0.061195817888605335, -0.17588659981175925, -0.11904376811908994, -0.07433380422168055, 0.11797144929162023, -0.07425295367834336, -0.12770596851634572, -0.15490346181239578, -0.09845271171386029, -0.04459613162591919, 0.11406509204808901, 0.06596964014005112, 0.03498110074878251, 0.13007912486515824, -0.20255583520566758, 0.042537093613103934, 0.18136610218702917, 0.059313573467646846, 0.06085660131353871, 0.13642477579309062, 0.13726218357165168, -0.08707617940241309, 0.13762112579397176], [-0.06272722748679793, -0.1231499177758692, 0.019623262636674233, -0.020218252354846557, -0.0436270991797939, 0.1706808412264536, -0.00012598082737986355, -0.09812389721612692, 0.02151761569897942, 0.12713186223833914, 0.09355946912510064, 0.06318214070217795, -0.15105633229040025, 0.08079446145012834, 0.007394306113374823, 0.08841181465378833, 0.07615724328672394, -0.05155632490362912, 0.01589570694096551, -0.07239385875528279, 0.10961532055497086, -0.08424805016047772, 0.12885479029390137, -0.0424923967155902, -0.012931053091158832, -0.030640479847571758, -0.10206606898940017, -0.02867679850123891, -0.21283985966861435, -0.1426661091023798, 0.032076879544831766, 0.09740447204751229, -0.11657771313910287, 0.0012264697554588311, 0.08325860282648397, 0.061134662375175605, 0.05472715466778012, 0.0981106313415382], [0.14445193887034136, -0.18958799978909024, -0.14917742760245647, -0.04331511078744031, -0.15146887518180333, 0.13983247528293835, 0.02022853317837935, -0.04846906408433067, -0.061218290823742326, 0.04990176804336857, 0.04711477128175019, -0.06838972591808051, -0.036350520075436356, 0.05837276666559895, -0.08648156378670112, -0.11115974181722071, 0.0880709808705071, 0.048962399937951276, 0.07528808560126728, 0.16515791820214595, -0.010511292470283843, 0.027384875642468644, -0.0749702425694996, 0.05348432667864315, 0.08413521840379533, 0.029474476378574643, -0.08408220355800473, 0.07797939468859456, -0.19326166749468676, -0.1403662189907999, -0.09345112413386969, 0.17361883874647552, -0.14268508953591852, 0.038862017388676326, -0.07979803874921741, -0.049618433308739204, 0.10707787048286833, 0.09089022199423515], [-0.07744681143343103, 0.137282343278285, 0.12288430658232609, -0.17074364025707942, -0.09619654936585192, -0.0749007351239706, 0.08539181394917514, 0.1615185642723647, 0.04236168432679743, -0.13269863799403367, 0.18721769401942048, 0.17189731133313219, -0.03544840267309761, -0.03395459316279755, 0.055811663456727355, -0.043298360219433715, -0.1362841316169909, -0.01506362588238277, 0.09875039715957037, 0.1398073322785829, 0.06378833439417443, 0.04731797695032442, -0.007508548838931111, -0.03146392257313158, 0.11242532036031458, 0.1110121867958432, -0.12588643217844217, -0.20062379758085952, -0.09884413031751345, 0.14262214733109316, -0.12173425111037622, -0.10776554983582301, -0.0011952173076693585, -0.08005958340774308, 0.01952928686942077, -0.13763482361689935, 0.15990079671128737, -0.12447394514828677], [-0.058613710572528205, 0.08540099034676583, -0.00029311231672637624, -0.19639994319779977, -0.013922465013177295, 0.07374068370503101, 0.14241768555018816, -0.014542244825944177, 0.03155149747594324, 0.06105197277488362, 0.08061108891631763, 0.1456190180995246, -0.1282577625824039, 0.056080064091827066, 0.0492665092453079, 0.01671818149945896, 0.02908333068883626, -0.11530297504186718, -0.0003061770805941203, 0.20034878010104007, 0.040554915918743745, -0.02738503045869067, -0.17079846615173597, 0.06653056302311283, -0.07149522258270347, 0.2013515761800451, 0.03869854370547053, -0.21153302685588793, 0.11754116223926715, -0.12491825036286289, 0.04799715108640496, -0.09637000445105069, -0.13962075216308056, 0.07940331627173489, -0.04104737184150072, 0.055486519604123985, 0.06059880853704393, -0.01214588639869657], [-0.01072830084663839, 0.2903730000060624, 0.13930487683508871, 0.125949353223801, 0.14750966138750665, -0.11370048148151228, -0.3117157285079109, -0.19430238994645577, 0.05034719274121326, 0.0509403119593182, 0.1271019296070489, 0.03599478510137586, -0.16565087043729246, 0.04197814773018297, 0.21988155693180392, -0.0028164851550372388, -0.06385426602881614, -0.17633819768536182, 0.19960872440238622, -0.13465331150454793, -0.017500278368246, 0.10894335619706634, 0.11154982515358482, -0.14432344360843907, -0.32220370052032055, -0.25474019217927996, 0.25710890858154983, 0.3516854595567634, 0.28235425255006075, 0.3043442313862234, -0.07848136061831375, 0.010497516317668, -0.01165187398419305, -0.14512203595014272, 0.14620384998681574, -0.11546340083803726, -0.20035117628499344, 0.1041927666821522], [-0.18426396738748788, -0.05588669915405175, 0.053101333485619066, -0.11125414503292422, 0.044666452653516896, 0.274315393143325, 0.14258235493139568, -0.15887022351965033, 0.020257474303295005, 0.2226716998415926, 0.07342331991412401, -0.11137582612817595, -0.20386698226936292, -0.16439843174943608, -0.05649241828268392, 0.15074989145090695, 0.15977546443392146, 0.11720749139847896, -0.005413066037740976, -0.23099878386761935, -0.0759947827752748, -0.04337039922686567, 0.33438667516451376, -0.24537317614689583, -0.09781519857196165, -0.005914109276880369, 0.14634897432733388, 0.22794059408754325, -0.029892894702514224, 0.008398404112142252, 0.008364338471532777, 0.24371252315857828, -0.000990566501030935, -0.19546663615226245, 0.09753800240467, -0.0553692514894435, -0.03921653589724826, 0.08761523113750841], [0.1459033279995315, 0.15506357190018757, 0.028972364712298124, -0.33192522651146816, 0.12579057082594303, -0.044714197345273377, 0.02822321533859522, -0.08692908300348237, -0.04499372164661467, -0.14006684706183678, -0.09943415563824172, -0.07296270285728253, -0.17154101936011543, -0.284797781510719, 0.10489557918236173, 0.010382693148834953, -0.11871903812564844, -0.2388901205610849, 0.09171840787683608, -0.10893045471881391, 0.19849798899241475, 0.033813040879842486, 0.015341829777611893, -0.07248480388883621, -0.10895407177665077, -0.14475446675763845, -0.2362170879502635, 0.030491797242088666, 0.012192049135299187, 0.21080115006320552, -0.03914838825771921, 0.0028188885997284994, 0.06805279273958123, 0.14127667312290965, 0.21308606822733872, -0.12993580972621002, -0.17300030132251654, 0.052195093105540775], [0.16818773150908203, 0.0248763207652884, -0.05403505608084946, -0.06330184719299645, 0.04685779276218724, -0.19396775151973614, -0.15934907741887627, 0.12125528580014369, 0.032644628307303726, -0.09103357669945006, -0.10151951532630477, -0.07638746012798123, -0.1337553547087025, -0.34515658876770816, 0.20417597229030965, -0.03686065248591225, 0.017947444897804313, -0.2054477779787086, -0.04227599260302546, -0.11067137945694823, -0.009199066405577962, 0.17991148019371292, 0.1277783450974739, -0.003417253956012535, -0.26986923295208043, -0.16870661300363565, 0.225920705704382, -0.10536051273115067, -0.015177161553357724, 0.20101563571915956, -0.028324798778180116, 0.12613158677636865, 0.10823435476229684, 0.02244687046550552, 0.27890970466890774, 0.10480446627392109, -0.21615872634036004, -0.15490631999484233], [-0.08446697924214214, 0.029052384031498978, 0.01972263240919133, 0.00825000601670363, -0.14395945299431634, -0.06806270253651234, -0.13003163105794, -0.09548967468024341, 0.11254675891468835, -0.013195030770767713, -0.08260173963154176, 0.014912583892583936, -0.02367017235825746, -0.16948155156597125, -0.032992019039933554, 0.08501033608563154, -0.01316300569025946, -0.10117661066784543, 0.18105626700083113, 0.08324889554004103, 0.10958947502197919, -0.027429024496524297, 0.1997902624927323, -0.2535107369595701, -0.09115540067576132, -0.03250848796117224, 0.004315561489798421, -0.051094626097757966, -0.05183748294176935, 0.2156109513857058, -0.1389510593192692, 0.28920608415004184, -0.12053702820545698, 0.08098296461581378, 0.21613264490070908, -0.11952734727556934, -0.05311872266411658, -0.11980510673738348], [-0.10451229342053901, 0.10211842516223466, 0.2360293072647664, 0.016065151831645925, -0.002108901552746843, 0.05056060921080957, 6.962115458778308e-05, 0.14106739327408477, 0.3238185500322652, 0.20349126809138737, 0.028986982993975986, -0.01072352068969374, 0.07673207521768119, -0.062892212610951, -0.0643322838306187, 0.01468178055020136, 0.12691140118805969, 0.17150899172919082, 0.13116884037565518, -0.33330769519243636, -0.24125985263530497, 0.1126880697818925, -0.01771074497628745, 0.09999362766862221, -0.1723627395293773, 0.11136405724611594, 0.16363589065705708, 0.2846920071110723, 0.17404834977498, -0.09311827779551227, -0.29261967850700865, 0.11098614715901807, -0.1587683857411343, -0.05170302517949278, 0.025811055913459696, -0.17460521689759298, -0.2894554162642219, 0.09773820884951787], [0.06224382245826741, 0.09184318956071535, 0.1125465060629885, 0.13443607427529666, -0.0815175790483135, -0.13190320181782203, -0.1258637156051152, -0.27642353027948136, 0.11076089020059902, 0.1850496189969378, 0.0329702692009955, -0.09121871065311477, 0.04995776233782579, -0.2636542783871532, 0.14228713407110008, -0.005348887834208203, -0.01030989579759715, 0.019210009302920692, -0.2615256200270746, -0.3942410059435054, -0.18637044139329098, 0.03267862195854181, -0.14840280839901654, -0.2999902014516405, -0.4084796795999307, -0.07912497133178834, 0.09492766248024029, 0.561893933932806, 0.2693004209697333, -0.17114422799516882, 0.09248166991637952, 0.01983419893579362, -0.023034065111230108, -0.08001291407641523, 0.052129996501602285, -0.3135446683244085, -0.029734847094060983, 0.09780204856624301], [-0.07692946620980028, -0.20332771647506132, 0.30308245240812703, 0.07988463777752346, -0.15515527428674597, -0.16393334342358248, -0.3159322398231692, -0.09209850442590829, 0.22841112218624232, 0.25401333079646227, -0.07694144466873479, -0.08621355388940748, 0.5349463210481427, -0.025113734482707893, 0.08376070887910286, -0.06892960987675929, 0.10952118043191646, 0.11495543887573656, -0.22860996232061265, 0.03735959641364194, -0.19297835915952358, -0.004697293597300257, -0.22992705052601645, -0.1718810052042454, -0.5226396784607983, 0.028487117252180026, 0.0074426115853282755, 0.3720839034417032, 0.11873157646071696, -0.12020543108413309, -0.21545803834571461, -0.35714060234956563, 0.18295330573488403, -0.29620013952805835, 0.08192382805478078, -0.25139380079308654, -0.08591319295263604, -0.10213757990184603], [-0.25779988044409, -0.09251714043851686, 0.06759379235820112, 0.16158492647137518, -0.013103146992934555, -0.05654565815216677, 0.0320360704989385, -0.2024816234021156, 0.15939787626439933, 0.24469470459246717, 0.12388286312466783, 0.131040464170738, -0.016808746521535915, 0.009446456803882813, 0.05357218828953454, -0.17746170095946232, 0.12386574404498987, 0.354174740484951, -0.10037685797646456, 0.12745995271527374, 0.149754562962882, 0.016186470538961283, -0.11088331825138145, -0.16596776314595474, -0.10305046069371328, -0.14708771431833062, 0.3084240312433313, -0.09397492442534675, 0.25543996376146455, 0.04991051831960991, -0.010786548295109631, -0.08727808477798474, -0.06660128270095116, 0.0121776440671893, -0.06378732360991347, -0.04400892239504651, 0.031432779189296545, 0.10660794986079652], [-0.002516033445105787, -0.013477848234509378, -0.09420213287919868, 0.02647278302432705, 0.007223348592779192, -0.34948818787369984, 0.008525198784027067, -0.2857128690483703, 0.2616991888405409, 0.07465152561218714, 0.27869530852121643, -0.0016188394477676415, -0.2515972024105862, -0.14848157392593048, -0.024138943334490594, -0.11747877081205227, -0.14728335489604025, -0.02071382295326619, 0.039126003482671846, -0.31052644811146307, -0.08635541621248614, -0.15936673623278247, 0.05925170170437123, -0.16999110091458344, -0.18902955658563372, -0.2118797933595776, 0.3160796454837278, 0.30545086172446, 0.288302858548634, -0.0005812564707532864, -0.11052223043515959, 0.02431681939403926, -0.007674615936132169, -0.060748313407677626, 0.17544247481493505, 0.00870760235828299, -0.18759994371240754, 0.10287206219675238], [-0.27386481082589265, -0.1311431062855943, -0.08717969043683212, -0.13719866716094242, -0.07779550850317674, -0.37081361956037073, -0.17493604251611458, -0.28484241937447385, 0.25559067452062967, 0.27026926948824515, 0.14230276097825262, -0.2870768234741355, 0.10453937711215115, 0.03995517886356703, 0.09457362891691921, -0.02479309167006766, 0.04997307333044231, 0.054057911249769004, -0.1471464129759544, -0.02537641531726036, 0.049038249213091016, 0.08748914302561751, 0.28218958630202434, -0.02587245082137279, -0.2238222962873175, -0.21677769132905458, 0.35705593066829955, 0.14045819664108142, 0.07432562758223858, -0.1629947961091309, -0.06361359010383899, -0.16528478042591538, -0.14329059042625128, 0.06193984347650544, 0.26511873339649794, 0.03123150699701897, -0.19389922585377964, 0.12237843316646287], [-0.13178714009093798, -0.14398741188236605, 0.14084619787087416, -0.10988945747102077, -0.14192377939046863, -0.014503437803478608, -0.0947198605628923, -0.32408162305202964, -0.004252416226070344, 0.2768686618151088, 0.11645100751170122, 0.12090042205994192, 0.1299534018298909, 0.1399054974293069, 0.1983315481448371, -0.06016844198204885, -0.08453529561081204, 0.2726616261405354, -0.043628498714542496, -0.003995646223071459, -0.037031670657855925, -0.02636914856895566, 0.055938517949128776, -0.04681653549938118, -0.1076428619362649, -0.08917149035788062, 0.025334465802925824, 0.12611147949950216, 0.24152567177030315, -0.18396757210509415, -0.234335223716001, -0.28612608474659235, -0.1563269509878373, -0.10147225339076485, 0.2068542768695153, -0.18208401839531874, -0.11954430735279106, -0.04659345788516337], [0.1243397585827569, -0.29730049974906736, -0.05805230281035791, -0.2605768362722643, -0.14005289933999882, -0.39182068871640247, 0.07476309533033934, 0.11781767284199564, 0.09079686433881515, -0.2660671723338507, 0.19586956276070042, -0.007515186512161931, -0.2592371327614632, -0.153374544236974, 0.17044817746898397, -0.2570278234892712, -0.09508092444277348, 0.2431672840308657, -0.31100005282483933, -0.17092639055563658, -0.3398527394815608, -0.09055846213968782, -0.17503686074827451, -0.03432122626152806, 0.14046223033190405, -0.0472094907396521, -0.07956334177104796, 0.13388121744668977, 0.10474832710082857, -0.27219520801630553, -0.0824598747634919, 0.11849753321641872, -0.09486468615483573, 0.12790641237177053, -0.019569508279213197, 0.1407561001276524, -0.23939531783248316, 0.016708172407917565], [-0.01905332627699166, -0.13686321440050656, 0.0792985427802664, 0.30002747643695843, -0.09975638253037139, -0.31137607585067095, -0.07753258778347331, -0.4844444219437301, -0.04154911159551626, 0.41973575152378095, 0.33489691934506083, 0.08668926651400907, 0.14281822903300648, 0.002595141774360353, 0.12595611251438274, -0.03727536419660093, -0.045194263228645545, 0.1807321199400991, -0.2029010369684743, -0.24735253883196456, -0.23974416499006163, -0.15546199788003065, 0.04711300588314521, -0.0758625916509304, -0.0992123211623685, -0.016196759522799052, 0.07537251934437793, 0.3581236886679227, 0.02236510690211662, -0.13629622489160603, 0.0016593469537003218, 0.1039939428525575, 0.07711134700576654, -0.04306593943320211, 0.20543102265846025, -0.058183793770118085, -0.00959775937323882, 0.07042116870360285], [-0.05568766138656947, -0.01452775044718133, -0.13615765210202782, 0.21151404934371204, -0.03197510667122569, -0.19284700484288647, -0.10363682187134705, -0.10336012274230665, -0.12684960960899694, 0.470536991610508, 0.013784532977642166, -0.2451282286089989, 0.3950779885478977, 0.2634369063132363, 0.3042084116101835, 0.003562479794375939, -0.0930900679760136, -0.0974849249686437, -0.023764474702833195, 0.22870403446619939, -0.021233763332582537, -0.020960180443450365, 0.01719478363565229, 0.0939483532852643, -0.2825738337290366, -0.09066261384312843, 0.12958157689989636, -0.1567377563784737, 0.16757061731062012, -0.2308723812106912, -0.06407147720933651, -0.3201767534058781, 0.07539156562902298, -0.08602780494710785, 0.05354663884568541, -0.09555522122121338, -0.10858465338186296, 0.03364873185403738], [-0.13383653298628662, -0.4055480990700982, -0.04333945254957682, -0.007411363678413763, -0.2807140831334102, 0.004845218985360916, 0.21606016797607908, 0.20717274945637196, 0.26894861956919186, 0.2551308397778772, 0.4054538184212597, 0.13074536982916046, -0.60245409619068, -0.48711219920555304, 0.045378655604439155, 0.0706427083221045, -0.02666141678758922, 0.24513218516368535, -0.05045242608917211, -0.0484320962376896, -0.3657246384992137, 0.11009926829901442, 0.5361001493044427, -0.06338361964296721, 0.14592901351160678, -0.2565551180333346, -0.07428169830219658, 0.2640433526173016, 0.02515387453190867, -0.06785394469036314, -0.5276342568429112, 0.28194819774689156, -0.1416729663170328, -0.18397079587022755, 0.06416944835790672, -0.05024945093191449, -0.2445716584434717, -0.032576660245287034], [-0.01467278980508886, -0.05218957741700609, -0.0773107474800542, -0.22451531604063682, -0.144907937670464, -0.17202794634750107, 0.05494758977643286, -0.21264169970050192, 0.48911380273725785, -0.10235460987488465, 0.2365017260658473, -0.07500102520153579, 0.07894512133397365, -0.24513890953000284, 0.06726620276818936, -0.07563115844337007, -0.128685402695498, 0.10651433649222938, -0.2809857046027745, -0.2693210532624737, -0.1964911250386512, 0.023827849140591703, -0.15126499075849292, -0.21854961565525957, -0.014155919311752977, -0.2398072401492659, 0.05750572123649146, 0.2527683321900809, 0.12013708341260475, 0.12576638202006507, 0.165842553273894, 0.36208944303068163, -0.04814118758209715, 0.20886401924523662, 0.04460904000411849, -0.3788956505594864, -0.2399559903605797, -0.1229868546148655], [-0.13867230403115335, -0.17234946859264166, 0.07033656628839342, 0.2241108777527608, 0.035426190353255144, -0.36231033954996544, -0.20338997605283088, 0.12989235629449924, 0.1796785220781943, 0.292745406041122, 0.10745247342685436, -0.22635374649802373, 0.19961005287115782, -0.41717131374272765, 0.06622176360625218, -0.010520094809417803, 0.04965581109070552, 0.0948295048742524, -0.4785277167554497, -0.10397077000739283, 0.04721434403392746, 0.30917342926973806, -0.15104042244189614, 0.565880662793989, 0.08573747803031513, -0.2815955398919813, -0.22904286801822232, -0.5539526482356774, 0.04134309170868584, 0.18597460118934636, -0.0401508220859399, 0.09983290252182431, 0.1319202571249372, -0.12593749287336542, -0.05337825481352039, -0.06780422415550146, -0.16171658776349485, -0.022091346551648797], [0.06327231216588647, -0.10030840370613481, -0.16897727816131214, 0.10307962383012109, -0.15565738683386188, -0.16551188206955295, 0.09190966731857181, -0.29471261876857613, 0.14418447502760356, 0.27764735216233555, 0.4053624442549062, -0.013422315057964158, 0.17153674534485472, -0.11630156652419886, 0.09601314821311306, -0.08085162281495688, 0.05806935152026188, -0.3794864690174358, -0.5768551597329682, 0.04030532773761635, -0.15901022041096122, 0.1467532822124383, 0.15185180657521952, -0.05429770527905163, 0.09497487822350836, -0.23674504394870713, 0.2252979503454978, -0.051760731429111785, -0.14783803709306415, 0.12363287966288353, -0.11880097976057331, 0.368817939727804, 0.19126858979347583, -0.13370230580585235, -0.022147137637356665, -0.2543867941703916, -0.064787332804203, -0.08342584263713101], [-0.00670377056562105, -0.28165869241704417, 0.22684688659788632, 0.2540583571537158, -0.21867650896565569, 0.07017790610084557, -0.11828738803956672, 0.19447894264527046, 0.041975488717432334, 0.2707986126880343, 0.1738190684803594, 0.20893758463478865, -0.6550029589616148, -0.10691178614784745, 0.16966500366569706, -0.12017876870545884, 0.2568494008801405, 0.1003752249670063, -0.03318133592025401, -0.2704778404246758, -0.14458054940050363, 0.12518351591149146, 0.2738541578660238, -0.03860444655955739, -0.006325713568683223, -0.053599158622296306, 0.07198559170329923, 0.0028535995885138983, -0.0049453315282824255, 0.4947103525244569, -0.4073265697274685, 0.169766604197831, -0.2259061263371494, -0.27583185980082053, 0.12614505837511492, -0.06123291675659153, 0.017894569326937795, 0.13849510905805612], [0.10642235695413763, 0.2922068228919563, 0.36279218013793035, -0.24991199903277148, 0.09043889056192023, 0.05489386427843831, -0.38890875997565844, 0.3484455271607993, 0.13480981719401647, -0.013155272272897884, -0.105527737949298, 0.3708457813807389, 0.004391190600749368, -0.2327417344581735, 0.10840388889211881, -0.14809237784160187, 0.07220632222417381, 0.03821461246465701, 0.2368461171374381, -0.2517500219828124, -0.16902917205375698, -0.05202618818969361, 0.0041476868781796, 0.16679806406850423, -0.6517153132168461, 0.016565734030016935, -0.3075323305860765, 0.67954290426277, -0.4235122989323568, 0.04979831941641315, -0.2404492326815689, 0.32643199044093324, 0.1513962588479999, -0.30118947237815913, 0.34077196646823654, 0.1050280481947949, 0.1306321552435746, -0.1285725589423578], [0.10780091209575343, -0.07494435577034722, -0.2925836009278724, 0.09796842722181615, 0.14853447951703846, 0.08640493323689176, -0.1960393771142692, 0.07845164888686516, -0.08741010035531394, -1.0132918033182972, 0.09522231165730698, 0.3015515577900807, 0.0014213994423300498, -0.0978060744098614, 0.1923807357857875, 0.27122877239633963, -0.02830883411757244, 0.13216131392393832, 0.18862258077972927, 0.49674546842761613, -0.11043557984911725, 0.17240686227192056, -0.2033608522985744, -0.050739630803534226, 0.1536655379339482, -0.0806587301187832, -0.2792586396153003, -0.5486142119958569, -0.09293381925211718, 0.08111976773956202, 0.10827179953186329, -0.35750436596009205, 0.0509094577312271, -0.11688040642649113, -0.23112095908900565, -0.21521300757069106, 0.28825083236522214, -0.010418815252616603], [0.209118965781009, -0.08909407742745311, 0.0619170696492762, -0.12821241432691438, -0.03255201924278109, -0.17088737454785866, -0.1961342715425343, -0.21123512452352194, -0.4104972699536574, 0.6427266494240024, 0.20862596942071687, -0.03169430145099748, 0.18665431175575686, 0.19284549531756612, 0.32577582314798315, 0.15124934968149734, -0.17088775571942721, -0.13373646273042977, -0.37147488495995756, 0.37360053000575216, 0.09026211991345187, -0.08686102461232595, 0.026337119256050714, 0.20834955721689305, -0.37109120421625347, -0.2212562220132526, 0.32472913517572766, 0.12959809416939466, -0.020449681380852243, -0.01772450575694293, -0.12937568124103369, -0.14354719175306122, 0.1374965339224044, -0.3711103917465661, 0.39096774281655766, -0.09292074161769388, 0.0254620743208235, 0.055533616854029334], [-0.07769965675029318, -0.3899203478655502, 0.40887510239417774, -0.08536763467404698, -0.24126676223448806, 0.053223572219736774, -0.12838029652830746, 0.15407509563890848, -0.1109279971753879, 0.11249329705991017, -0.10139353170426238, 0.41554952928382594, 0.012239405287715744, 0.28681208741936404, 0.21520941926034648, -0.1469747610569445, 0.0010649020369590601, 0.1864388768553026, -0.17151821289720864, 0.1330902853367351, 0.19819253142428112, 0.1575672090730705, 0.10768049736659145, 0.2617845655189906, -0.5773772847279065, 0.23579407922072307, -0.02837824037982216, -0.10372124993657911, 0.021520828015214995, 0.37190610010677655, -0.4327218370334653, -0.09846702844833127, 0.02862229987698211, -0.41103245779351105, 0.08633662028690811, 0.5089495672330547, -0.12530300536239408, 0.10787491260149529], [-0.059893350954111226, -0.019725891261711207, -0.058975422271428324, -0.4501951002268846, -0.00529375792727363, -0.17125228200327097, -0.16597755436752668, 0.05034423947188858, 0.4689694692429438, -0.15300125179904578, 0.053962667138621856, -0.3063206919819423, 0.12984957506680816, 0.24778547008343807, -0.008956340400365371, 0.11975209407978252, -0.14504470330737182, -0.1272788808785187, 0.2937195504589179, -0.036608851434206134, -0.19612634853890176, -0.17156641827760596, 0.0050455500745131806, -0.2765852738537195, 0.030706971277549205, -0.09118092855824556, 0.009484543861085645, -0.0042807664842008115, -0.013777800925190997, -0.2656827096942119, 0.5291436560593314, -0.14175770369231447, 0.35766671135326633, 0.30544966267577633, 0.10307901128132423, -0.2749673889225156, 0.35844120861541556, -0.048744717885938274], [-0.6401293053170755, -0.06754227844477254, 0.3015728123233389, -0.1266666481765645, 0.2861065868676575, 0.27781567718516265, -0.26227983923745346, -0.09943676762535328, -0.057166032516500924, -0.5840679584380463, 0.06885187559342933, 0.1034721810206417, 0.007752742960746096, 0.0028021717199778794, 0.2130488544241823, 0.2848540419817519, -0.1722640782180901, 0.0680628518346953, -0.4498997606332912, -0.2490697792629479, -0.24162545137898278, 0.058729999511934354, -0.23665346911496415, -0.2623040969281724, 0.5358441651652216, -0.07650389522244748, -0.2444094194064227, 0.05561999634894466, 0.16422697189666968, -0.23496108150658243, 0.02129383488584413, -0.7781341745841619, 0.0356746189482035, 0.2991336720091829, -0.6529156451631384, -0.36154375627574603, -0.02432627407150664, 0.09350976128920864], [-0.07987560621764976, -0.21236528373441016, 0.24940847167186794, -0.16679180536184518, -0.0129152703896875, -0.04456918299694477, -0.07345044665703497, 0.04973149673617149, 0.45627683959136417, 0.2733121066038519, 0.2788461499386366, 0.3226811294227262, -0.015585942284092892, 0.12537854800804088, 0.049104832278389826, 0.026012855669662684, 0.11729974902794252, 0.22093533276966162, -0.07917079667015764, -0.23773138401072186, -0.310767383259714, -0.12149042203800325, -0.17320602524487116, 0.19710164534586763, -0.37893306314183034, -0.06555033648816455, 0.08928246767740342, -0.11932488362275935, 0.22202203292086747, 0.3213606575270902, 0.0969096881601765, 0.14835691805629303, -0.022432147946533545, 0.13860133819496834, -0.06681513396968597, 0.18152407791512615, -0.30980081442411667, -0.020728553263385803], [0.008895104321440587, -0.11452408952429491, 0.1642745126158463, 0.11070397697004337, -0.037368425629358326, -0.22194651414172406, 0.20168442440229367, -0.007259786937847252, 0.011451777746675948, 0.4461456618194083, 0.024406716990076016, -0.11263148672181351, 0.5242657604190475, 0.25271213429042544, -0.11149134419522856, 0.3514005798808545, -0.08996311857769324, -0.5050071719860754, -0.035460354262263384, 0.16161277955991393, -0.0030794789783099995, 0.1182030759893098, -0.17521634198993233, -0.14593487405564917, 0.3488446832890533, -0.07980018200661416, 0.3968587319491684, -0.2213652330732874, 0.05160816053294477, -0.06402350446438376, 0.39061876564584697, -0.46603341993351843, 0.45695103126601, 0.04420717397887641, 0.1004783040436087, 0.02251485611269586, -0.0573826482471416, -0.17323620083199667], [-0.30477070577882204, -0.15722081710662134, 0.10236610469889199, -0.08121842350490384, -0.07391536827847367, 0.0729029836116162, -0.10964486733882213, -0.0005119960794279989, 0.18307467888373732, 0.06905944268334245, 0.08384228870395352, 0.19186738544845797, -0.05791466502451519, 0.5236751208850225, 0.10069150555871016, 0.3613218962310844, 0.20789638125341842, -0.10100291726974579, 0.08536657144344145, 0.11125276146780132, 0.31598276340669457, 0.027770464449402843, -0.24034933272750209, 0.10612577215680898, 0.16358997020056137, 0.28468613066198006, -0.11155486855009807, -0.7275248428565176, -0.05396762035458899, 0.4653409714083712, 0.07780580259796985, -0.40613741159817235, 0.19105182294240153, -0.11464281638407565, -0.1772254079916234, 0.05441475333325702, 0.21235551684389592, -0.1545953217645142], [-0.18334857775824312, -0.343231586495669, 0.07801450921546718, -0.646781476454219, -0.02411381217341546, 0.13536354407729384, 0.25896245301327137, -0.09879130006322799, 0.09617158518456433, 0.347054876178118, 0.39484912555154694, 0.3358695572991639, -0.06982005288499797, 0.17981107624900616, 0.060219542347673245, -0.015964555748243146, 0.004387133737899781, -0.03927038416671958, -0.46440105823295313, 0.12046397528333141, -0.25146157368532496, 0.2510123343725349, -0.009332021108310459, 0.09803626665512973, -0.013147322233496957, -0.004545089823339071, 0.0007983749949263, 0.1399975919899774, -0.33310811858653655, 0.19378819408897352, -0.2708375345294164, -0.07685510549010986, 0.409553458550642, 0.23661083317645018, 0.0158241694137031, -0.21345162912292118, -0.2734854805159108, 0.11848849374687925], [0.1905159704696156, 0.44643708289170014, 0.3102716334925167, 0.11493430187730865, 0.09025909703674306, -0.26514378332459454, -0.1615247477254557, -0.32668567564833134, 0.05587551585982096, 0.15839836180276332, 0.04757710532898072, -0.1415296961424593, -0.3532734590117074, -0.043254936313241225, 0.2808011719841156, -0.05771780595930165, 0.19953879283262932, -0.05003055283452379, 0.00856677118030633, -0.583820600523991, 0.2578175887941074, 0.013954872232619694, 0.2902651502605271, -0.38769601016146543, -0.7186678477330963, -0.3450219611733766, 0.6229874867133407, 0.3982671234507701, 0.5003295095407982, 0.36346403261006804, -0.2729663203603256, 0.10021646762808274, -0.053914464227652774, -0.19191453167278658, 0.3636806127593641, -0.2886209437269926, -0.23710436524249237, 0.08085416690652386], [-0.28782974283595, 0.05780772803049012, -0.006860913346855732, 0.08468485092821833, -0.11354250882709106, 0.002670609719485596, -0.002365281631568979, -0.20803698802385392, 0.03958768752051972, 0.23813488813404346, 0.20934808722316064, 0.012021957615901382, -0.31669510586654986, -0.13504436016197224, 0.04043076684122637, 0.050354747300638866, 0.13453609491380866, 0.18944040405703938, 0.16179469563247323, -0.2570511802186295, 0.22293838982351905, -0.010381174116968253, 0.6813647853024324, -0.46634684048856856, -0.1405744280945433, -0.24479521993101905, 0.03133189011198557, 0.3111693132571317, 0.05101698900247587, 0.19097043736738697, 0.11746198235225924, 0.052293059548703454, -0.04203315700805569, -0.1484936698467047, 0.44016491728849805, -0.1739504246335264, 0.017174864778061353, -0.11897472068696287], [0.10137872573400601, 0.23581290002246416, 0.04731921568943418, -0.3757077230543589, -0.11418258371477434, -0.09736168974657754, -0.07968303611390339, -0.28163539906014917, -0.12051680810125963, 0.03331801808276929, 0.06488138286554443, 0.22037817649993666, -0.4148897771755852, -0.11307293644270106, 0.31190578376846145, -0.07256453363018836, -0.034076640778595096, -0.3100753320726621, 0.09820427519823431, -0.21201821064510154, 0.10462329316250951, 0.057917975184284314, 0.13692201339905855, -0.22080578278606403, -0.2032174449217639, -0.1681913330414168, -0.27337716202193907, -0.0051852417510416665, -0.10990351062356482, 0.2090502721870197, -0.05444532876475743, 0.2186603699997677, 0.08940658547443442, -0.17695778472158083, 0.4253149853569274, -0.08968071813844926, -0.03168159600189771, -0.07112399686209038], [-0.059567547050566334, -0.07878551688914424, 0.1238829035401747, 0.0488202983219385, -0.13072231678408588, -0.14944338206567925, -0.36394348639237717, -0.17919191027016634, -0.08035679799844656, 0.1604505279714592, -0.0061312305656437156, -0.05549310595328018, -0.48894466959799127, -0.41786507318417776, 0.3595561914589481, 0.1750730365469194, 0.08409281020443136, -0.07075977143587478, 0.12329196006383869, -0.12484738680267483, 0.18485588381928833, 0.17628331464335473, 0.41330636757805156, -0.4460964145551613, -0.12748709421110446, -0.42232286941594904, 0.1313053096971089, 0.09699276271358427, 0.36987192750874914, 0.3391765586665292, -0.06153204375204517, 0.07885806361638464, -0.08942932627309454, -0.2483362798742313, 0.4323869268139586, -0.12131655967967934, -0.27595941761281184, -0.2262553150451771], [0.23022173495312198, 0.10216496105753636, -0.08729973022232461, 0.17647330114120152, -0.08792220155593192, -0.21643230781700712, -0.06860933500288918, -0.2145652812194475, 0.13272212607990808, 0.17324399910890484, 0.033770309504242445, 0.2059329940469515, -0.06310961607367407, -0.3030319832769481, 0.2581307437280198, -0.0011404813733547903, 0.017345866952208713, -0.09873469976014876, -0.08514032354754733, 0.06914735373338032, 0.04081027282219087, 0.25485376542960436, 0.27507260291626695, -0.31236173595828287, -0.16789916993881338, -0.2783886431548698, 0.06911842819742048, -0.23985898416324541, 0.2772126308515447, 0.1841222050809352, -0.02662599109846722, 0.31666781633956065, -0.043249367343533324, -0.14588794991006382, 0.19045204519275896, -0.37017859245529994, -0.12239213383673354, -0.12415759868654759], [-0.15798910844415306, -0.029182571176668722, 0.43508801326882146, -0.03776130422999658, 0.15765906192755794, -0.04733732261224317, -0.23723869844244933, 0.014506630578649905, 0.48725240015189625, 0.05503807198660758, 0.196468632090054, 0.0010570804651417792, -0.021622174396283545, -0.06945401187894878, 0.29837106940351, -0.35977394428089904, -0.13890266706019455, 0.29090381779257296, 0.2555548017623744, -0.443637612258554, -0.17551792744447764, -0.06755408870431129, -0.055389561568709576, 0.3232633259375832, -0.18228878874313242, -0.12007504302024509, -0.11905019612175859, 0.6052520363355511, 0.025736859989492784, -0.19409631579727143, -0.08634435082518993, 0.08107455717327035, -0.033725456832531066, -0.04632250948785602, -0.15451817376327504, -0.07818471596606737, -0.2965054161428385, -0.0003596365309885903], [-0.17909774773028228, 0.15694188721227617, -0.002070145945066153, 0.1834595975634839, -0.041814724287639674, -0.5812761157762613, -0.293103580519075, -0.34411004218398217, 0.3295601511875859, 0.3256155835996044, 0.016440746185085894, -0.1451427022858132, -0.06714130364500422, -0.262317479593704, 0.28253744471202197, -0.08019584410645494, -0.03824976826135954, 0.2023735006671464, -0.030682398900604757, -0.47897942012333605, -0.28100680671948375, -0.05444537076804722, -0.19577702864430957, -0.3303243907384567, -0.540229698656638, -0.20333804562974148, 0.4543097489733415, 0.7336935641226552, 0.21979573514772957, -0.24247466992697292, -0.20239295606555377, 0.0656260805797293, 0.2178680367226524, 0.06470448916037023, 0.1999360076012664, -0.37344018698257914, -0.2987263549782985, 0.0778378013051783], [-0.3176661445638826, -0.2985005477219338, 0.29388303186276227, 0.07169178160320537, -0.10366536733808432, -0.33819228941464907, -0.22000350096024826, -0.5690783603443864, 0.15272306911851855, 0.2789349611612208, 0.08900640856874556, -0.3212382954336923, 0.693068261062351, 0.20758557510158507, 0.2880755048725666, -0.1423974156863343, 0.015871629604550862, 0.14284591648005426, -0.3661423100281476, -0.0694135646973978, 0.11837092364691922, -0.04026305306296418, -0.1932531943313132, -0.17164926815543624, -0.8212208299681178, -0.23089404406136407, 0.29445313167539483, 0.40185814423698374, 0.2664259010707194, -0.25878201498734826, -0.38191989231064133, -0.30889335841652044, 0.206344298560629, -0.21088970836018875, 0.27881464518807225, -0.29654520349470465, -0.09091760958956287, 0.12220101340891983], [-0.12901638033082877, -0.24411081467294626, 0.09553377950557707, 0.07833531979424373, -0.004146194441747627, -0.09928738995531378, -0.23947826528139024, -0.38325666247836876, 0.29506211979388197, 0.1596114038239749, -0.03817457801750371, 0.14866615546667564, 0.3350540733119224, -0.02138992721485308, 0.2727899314509463, -0.11801646692097617, -0.05800801738405136, 0.287624680321363, -0.2615193034632625, 0.20971962277602618, 0.11725842833632363, 0.027670320337557428, -0.3511966684905352, -0.4511553252611201, -0.13882984944061325, -0.13363462478330806, 0.2562830754886939, 0.12781445592457572, 0.22363880931987062, -0.2520433122339364, -0.33990996305820004, -0.22220047139120308, -0.0331267084974845, 0.06227013038299677, 0.12937702528537845, -0.20069740539094336, 0.03974983512796287, 0.031441871168313214], [-0.02453014413221259, -0.09406513545302304, 0.1040047124428924, -0.006020674791689414, -0.026652326729029174, -0.40827201582048833, -0.07582748937450887, -0.3182045872949874, 0.20306137592184426, 0.16676368522865034, 0.2467139273978376, -0.18494838357615329, -0.2182795809086709, 0.24995232838363346, -0.005230136737484628, -0.19720997242482996, -0.0470665348175432, 0.23287309425423117, 0.01801436514806259, -0.5002146843948615, -0.2406402996756745, -0.11878297556797288, 0.26110811388678135, -0.4216822546953607, -0.22531654633914458, -0.19393566240708196, 0.23904009227697376, 0.35592933494064505, 0.09243517296611424, -0.2312274072422856, -0.010194973652774716, 0.1965943587354189, 0.10877369932816887, -0.09514528447597799, 0.4356472611367972, -0.3164204844039128, -0.1006084264857673, 0.07457029681692413], [-0.3765892990464571, -0.4063879912629207, 0.2114280967983158, -0.19293782012511806, -0.11209789014823661, -0.4598487383700109, -0.2761513764724327, -0.34218832599171645, 0.06504581344835465, 0.15886272848970934, 0.03580296494173268, -0.14550116403765892, 0.6304595854807674, 0.5142258245594095, 0.17316384434958548, 0.056396059579414064, -0.17080101673786693, -0.05084783443636367, -0.04935827053189814, -0.011606342354190937, -0.13253750999664826, 0.13508962505434333, 0.35035964834604, -0.29363877788430215, -0.3776057113722213, -0.18934255220048715, 0.200589821266788, 0.33759625205071137, 0.4698609073021058, -0.11810622969166329, -0.19010019682790721, -0.45877765851890157, 0.12374339982472872, -0.053196999829249525, 0.6085605383190574, -0.15556331382514696, -0.4114098266009244, -0.04596039505077999], [-0.35860351815344815, -0.18794892387281614, 0.06612900262967558, -0.1709444237149956, -0.08595831130011024, -0.1948908017563608, -0.06729318609972025, -0.327776626223789, 0.1281375401031638, 0.20584755483852174, 0.20194426988460998, 0.1993540897636791, 0.4222633423979589, 0.591827006869724, 0.23903537425216648, -0.11788934637436005, -0.03506362378034826, 0.32916511276236904, -0.032114620055259245, 0.027725238540125517, -0.09543931330260046, 0.06270641967320519, 0.40671297839062914, -0.4687971610820297, -0.14407838950182802, -0.07297175604906729, 0.11110081682009276, 0.2680866063667478, 0.0989133473551905, -0.17198538894485563, 0.05486478486028682, -0.36368476301206676, 0.02185444218350981, -0.0035268974813237102, 0.37597583980711813, -0.4373840243908004, -0.05121699965827581, 0.1353473241275457], [-0.008141694676885419, -0.39533316957112025, -0.0351468230238684, -0.6248970478371194, 0.1080101748208868, -0.4768327519695473, 0.0753041969321433, 0.022369558847794374, 0.02359498726468267, -0.48951554273634185, 0.07582941484566008, -0.1652827489942442, -0.28733527844988654, -0.2878930881831641, 0.25157235913196563, -0.37118401510118115, -0.07260492316086664, -0.007739112112365712, -0.4070731925996659, -0.05388556589114359, -0.11442852293670067, 0.017297313219610606, -0.17100681794342198, -0.15366485510495184, -0.0973657783430444, -0.32806268353039325, -0.2184837260711366, 0.26373371024137854, -0.02136788678323335, -0.15640525423538973, -0.10046953810101877, 0.024820415450913392, 0.14747905268067127, 0.29266330686002967, 0.2912920633336377, -0.1795292966225877, -0.3170631460011447, 0.09408623571427213], [0.12660474940365185, 0.005385934414866393, -0.18811751364312984, 0.36113871240731105, -0.10822170258177656, -0.4273651209406004, -0.021687366671559353, -0.4983671852360676, 0.16278882604700518, 0.3107416872516497, 0.25018204112622033, 0.25449904493412046, 0.21771409474399503, 0.003575708228898927, 0.13026690138262814, -0.25605823337921957, -0.04406268784354512, 0.11626175827946478, -0.3069411760021835, -0.14183165594701747, -0.2126852471290386, -0.04394585601807604, -0.2142896543093259, -0.5128899155968673, -0.25580396444160663, -0.2124784540217862, 0.32598439646108684, 0.4796919888208423, 0.04674825404880597, -0.3077158282686909, -0.23952757881098755, 0.21607312733284786, 0.18909396002365034, 0.2244600301229508, 0.33192080162836624, -0.47332158891809134, -0.06213847819949236, -0.008150284860395457], [-0.431525143791238, -0.2958407415286392, -0.05528845063308291, 0.2405759062580231, -0.06474753517074437, -0.3727362003126662, -0.2982429403386159, -0.3667992923645412, 0.0898730510353041, 0.5884531365205873, -0.21818290641997934, -0.3168605124159146, 0.7353737604356344, 0.21612852295070595, 0.18296453948539468, -0.006218255278992776, 0.006633112269804456, -0.046183772975064374, -0.33918402612258236, 0.1391093312021923, 0.1075245698254688, 0.3335866277140022, -0.05889840123385152, 0.1390393053012535, -0.5252580144934952, -0.3545322901214449, -0.036101918506888604, -0.33169268984830375, 0.2818324776123334, -0.13609357059703353, -0.017160752991706996, -0.4585030831551725, -0.014366259646315311, -0.28849015090517416, 0.29839951639384293, 0.006849022291292734, -0.16412632941572422, 0.07247350567095587], [0.019471514471751467, 0.6586894618328198, 0.076389170184725, 0.2573490790721866, -0.013024338602897784, 0.09214070247860424, -0.2725668000163896, 0.006751090247214009, 0.2155441916317975, -0.32554756067437957, -0.26178093194271607, 0.2707603221928886, -0.05314804365053095, 0.8304849506332316, 0.12214366527626586, 0.22660281627215845, -0.08333955061100523, -0.28019358081425433, 0.42006710075057024, -0.07244688877506841, 0.3673959270097308, -0.338902071043976, 0.27649575246795755, 0.33744428683243033, 0.5806582232263705, 0.27763922868482466, 0.16249337102108988, -0.009943474765014611, 0.2153207136418759, 0.14394574409584515, -0.07629389628502997, -0.5621648377797104, -0.018034885174717036, -0.12224214652273731, -0.046798478129330405, -0.11471782665068846, -0.10606132384263127, 0.058189705452577685], [-0.05550849474621258, -0.02471690636318799, -0.04079206266362015, -0.12299975504485165, 0.14835383542813665, 0.6830796415534979, -0.1802045898962184, 0.04125608433821616, -0.32041533124036053, -0.13566014514556016, 0.1940915440343963, 0.10730034185866828, 0.06485241107240952, 0.45041632229884265, 0.06596553036455984, 0.5622641777631421, 0.018125528391698887, -0.40940270154353287, 0.08200688471466398, 0.49302701183757586, 0.06659463573120358, -0.1376368206258367, 0.01773639380781325, 0.11025925200853236, 0.37587177873752964, 0.27773128596107743, -0.44616286114870746, 0.42207998380610345, -0.33448202313534325, -0.0364480662567859, 0.2716449160727329, -0.0011030996684208228, -0.047762144042799284, 0.1227079295524684, -0.1572615839406034, -0.13476784737477568, 0.00034758057778465763, 0.04240917226776902], [0.2986755331186696, 0.19917512566378642, -0.028374867994063666, -0.18246795535282254, 0.12411873018811645, -0.1187309827501147, 0.2119006088841591, 0.08236010535665926, 0.28183444523408746, -0.3345645828716768, 0.3115575155789458, 0.11675191306065989, 0.1327430656523984, 0.33410120611479727, 0.18356161606117347, -0.07151698113196507, 0.005029856903608769, -0.2447844999288622, 0.07581906611656647, 0.4998565805433751, 0.30144879198003166, 0.18568237884873215, -0.5126781167239339, 0.14599247440551688, 0.3373519283337805, -0.04033115087352716, -0.8712468231717879, 0.15264887162486143, -0.9333662972106487, 0.12356929940027304, -0.0005553362754846499, -0.2863206425823271, 0.327492035772167, 0.2778984118978123, -0.24489546421773578, -0.2521889789495381, 0.09938374360348536, -0.16613144720145315], [0.33263812158932227, -0.04724619455206964, 0.10748883168183629, 0.11169328950115949, 0.025681308617086847, -0.19102727193555594, -0.37911436852864105, 0.6097374468109966, -0.05173580073470207, -0.5077342752054843, 0.12232395817998244, 0.1612062412648993, 0.04762068663043846, -0.09522463222031613, 0.10380030872962864, 0.3738556968311386, -0.05005919911181543, -0.45847245163609757, 0.24678054866153012, 0.14993076007664105, -0.018653112024190732, -0.1138122829941396, -0.19540264815832184, 0.014383025309706412, 0.46179692986930815, 0.08290016497175394, -0.11244171196433267, -0.31604880028943455, -0.36391872717308893, 0.24026425135649704, 0.190154120439661, 0.20961801783494186, -0.10801379009128857, -0.007369025291176312, -0.3342033355264644, 0.15416864184077464, 0.052034103934497894, -0.03099380234446404], [0.387323845849106, 0.5072295844025074, -0.2883179585460077, 0.49311083362822344, -0.12205151581594142, 0.03238145067261111, 0.26090171632031006, 0.23902485943408855, 0.31676168698897894, -0.059861245462470326, 0.3974474035080261, 0.1612274051381863, -0.17397881246072455, 0.06597737460812764, 0.10233656893577696, -0.046566184640824786, -0.13394576724704224, 0.5614937525581167, -0.22231533436452086, 0.6344885656367739, -0.214177056398654, -0.13203723274588006, -0.43723974214786765, 0.5449686222390167, 0.4641090503142184, 0.43942841678101624, -0.0723804994482226, -0.8767999598457781, -0.019648769408427996, 0.2679200453960565, 0.1799240928264295, 0.4435595528535164, -0.10399473358372674, 0.10076824169734429, -0.6004097803821687, 0.38350211045773935, 0.2240311058715373, -0.15182995934522778], [-0.2057095074020233, 0.05462059849148235, 0.009934274284088978, 0.05418687209578862, -0.059493831950752696, 0.9850208651335317, -0.12873525302876931, 0.018616889321676558, -0.4931072332613102, -0.195671126307103, -0.0381540684198711, 0.2554618654030067, 0.1978233307964548, 0.29747262122553947, 0.057321495339849364, 0.20937603490162207, -0.15115107295296967, -0.2870744796301222, 0.3728358409164346, 0.2785726198671261, 0.2677936797405146, -0.08452361605888609, -0.26225535839596403, 0.30191052944891805, 0.39036495461311477, 0.14529669739880013, -0.5597318748072906, -0.132015694704772, -0.6410037589539409, -0.20691148484005142, 0.0010986879762351267, -0.25225551545891883, 0.2020604329500918, 0.006544294920061739, -0.18532012274020335, -0.22398607361036088, 0.19576450443789262, 0.08081917625421042], [0.47037744107078316, 0.23779639991003212, 0.15581315310892527, -0.05489317347406891, 0.10148075967354958, 0.09326997552191413, 0.2154049288785353, 0.06004670429049783, -0.09610534289303563, 0.08736496795989958, 0.02866556877022081, -0.30246961652386223, -0.13039893065460323, -0.22077314541330684, 0.2542486882346149, 0.0035770742209629814, -0.14967636277713717, -0.27859972856760307, -0.0220652273800211, -0.42737316474108766, 0.3033132500644374, -0.09666990197870777, -0.5064599965047708, 0.37217065399626575, 0.3787566626034148, -0.007941311501002395, 0.11224108614243453, -0.562462577905473, 0.09660425241686289, 0.4259870791262263, 0.10110644265284532, -0.06873193460210228, 0.462590444028931, -0.30112970300688796, -0.055706979035506685, 0.027693756118669133, -0.2644769433035752, -0.0855338034550915], [-0.0552217282475454, -0.3413725515219655, 0.043750645526448514, -0.39292633897878415, 0.08642639574603757, 0.40754689027269264, -0.4138120061970347, 0.7800440969768881, -0.17763513161690614, -0.5248523351267728, -0.04162538107025376, 0.008837470847095234, -0.052710347871615076, 0.38574956045262504, 0.35411370241215845, 0.23108265570734174, -0.02590859284278204, -0.28494224087176756, 0.1693672642720363, 0.20575183888076276, -0.3179521024963128, 0.09317544945026379, -0.28867033233060657, 0.39855789061116065, 0.33544545139411525, 0.5362851042303189, -0.3267619522167221, -0.26697815622263754, -0.45009819532487405, -0.00863074926624848, -0.11472306001140409, -0.4674807810405464, -0.19033966989543466, -0.3112219622425394, -0.16166083742414633, 0.14192809969377804, 0.08443551397415927, -0.11728895574628033], [0.057194478317102206, 0.36397441972199934, -0.08875328012478813, -0.06614093544026466, -0.14481725644705348, 0.5069934457867981, 0.268908062489857, 0.39491326000811716, 0.5739103773072934, 0.006492065216537841, 0.27032499891622375, 0.4540571585635913, -0.21963401748420142, -0.2593165078550345, -0.07063331172323262, -0.12944642436054263, -0.054406001247113416, 0.5342767695322381, -0.18915021543737445, 0.1399188398560122, -0.3702663267633527, -0.11051359913452595, -0.3235242158719281, 0.32598208584229305, 0.4552099060262675, 0.39779280045731086, -0.044802589601068386, -1.0268750975250789, -0.2535763872652774, 0.16854839906992414, 0.19354984327624075, 0.2540676883090487, 0.11254362185924228, -0.15598309181556885, -0.6877222790417351, 0.13699462513959876, 0.4274846695880841, 0.05151611511639256], [0.07760692446631379, 0.0052261101214941185, 0.08591555991516803, 0.09149065227615132, -0.14161043743703206, 0.7983224493394336, 0.15743068096956853, 0.1333313754252698, -0.38182185422005255, 0.15116262489520138, 0.16665711035878336, -0.09494675541769439, 0.07108896480582692, -0.1702332914572697, 0.09043705324053247, -0.019595610323681432, -0.28015491614167226, -0.25251593126179095, -0.15888599205968348, 0.15200010602514535, 0.16681086793366412, -0.24142692939906468, -0.12770465702916617, 0.05025519351988059, 0.2599166741591257, 0.02367653322428461, -0.2891500666759908, 0.029971431051887328, -0.43423805827216627, 0.0017968605775275318, -0.03214982503676689, 0.013180492076040249, 0.30019415268634236, -0.05567795381909176, -0.1633221373381159, -0.02722515503991627, 0.10942812897445564, 0.017553029214014897], [-0.137807796314548, -0.615653850740552, 0.380125428910414, 0.15170048248076226, 0.032955788911098724, -0.12401063557952666, -0.4095872443829581, 0.1824319078410049, -0.061512816635517414, 0.13781175904823312, 0.1696308627115626, -0.17367124065325473, 0.45242874190150817, -0.26763674653506253, 0.4627893130745235, 0.2484454973769711, -0.11556879973971455, -0.19805564458885397, -0.34639502077352285, -0.03052326481849964, -0.24763722888326287, 0.1260650898278182, 0.15488248439089666, -0.19242857692165752, -0.3634298621975439, -0.27861452518561397, 0.013832209010653821, 0.5228083277395417, -0.038164729437502, -0.23177040311426964, -0.17634740232776336, 0.18569941813279162, 0.11421097823708563, -0.3731127842142847, 0.17044746487305146, -0.12415901110580482, -0.21214372874362564, -0.09076992768921702], [-0.06841893550598709, -0.19909623988673592, -0.2063821226079783, 0.19825229310620002, -0.21155807707612617, 0.7606027895270314, 0.09700155814001461, 0.1379942032635262, 0.10203770976624506, 0.12084618321568745, 0.34678770948197035, 0.44275700157684017, -0.2735294008946856, -0.39524140636722366, 0.01867785384535633, -0.17685412794430924, -0.016969551594180118, 0.5151285247335992, -0.09017216183264219, 0.670058029614314, -0.16112384209016406, -0.07857689512980626, -0.1762897139044972, 0.343106462780357, 0.4638399580659851, 0.32633452211379377, -0.2889320888440745, -0.6002259277604151, -0.5634064676832626, -0.22587814576549625, 0.20227985023677875, 0.3688920718588097, -0.14655364965000753, -0.051564718369580875, -0.40102514693261965, 0.4825189881231695, 0.45867629431242213, 0.1955420214346281], [0.11945537275254546, -0.19157326829655444, 0.0542680472899423, -0.38767457363368735, -0.12347886766156688, 0.2922820815750871, 0.07805137934597992, 0.5273883945408644, 0.0656775509463951, -0.22644592705821617, 0.11088157394195759, -0.15477312101141555, -0.10633909321513953, -0.4670248063543861, 0.056683524049700916, -0.0009225929982707787, 0.016397564916455797, -0.1906058545390459, 0.013979301179732591, 0.15092445971395899, -0.2718735281949683, 0.15351394130800697, -0.0783404100608232, 0.49785788981764445, 0.392352419269222, 0.17993691189764993, -0.33943224902549535, -0.2735652440206265, -0.28317795784198996, -0.19367282109166387, -0.0531393599302473, 0.16945465604831045, 0.007588405760688232, -0.09668979877677238, -0.28437706936920837, 0.3051480869813552, -0.28151694273666916, -0.1918547164037681], [0.44083712198597064, 0.30781388264884774, -0.09755870872266263, 0.06146607452356671, -0.050560641842972494, 0.20917703333252227, 0.3200110836364352, 0.28070747017183806, 0.4283724523911756, -0.04419049455682452, 0.29642401983796646, 0.4067064959985702, -0.41618276535080834, -0.33044781982494337, -0.10497543535560551, -0.2347688841973201, -0.16884623655142797, 0.1998033062043705, -0.328176490515424, 0.3160222506624323, -0.21815900894052132, 0.0654775018468226, -0.19208721001290882, 0.458282425711351, 0.5035464468754635, 0.20444290657004996, 0.01695539392997164, -0.8501206658963781, -0.33096127285435367, 0.04711598170333926, 0.09473593309177399, 0.29991402789893595, 0.061556067182931544, 0.07910514979767962, -0.5982196554513343, 0.0796817461078328, 0.3141614649974711, 0.09123800720447008], [-0.0909147333744568, -0.3716930524625488, 0.07636933061000899, -0.33589413910544036, -0.2501843584411219, 0.3585389192629118, 0.093754686711185, 0.7522116345121505, 0.34413647203002784, -0.16186028160498347, 0.25803013636651956, 0.41847560118147853, 0.08018321116789649, 0.027736738881266782, -0.028195252261243125, 0.1455750547658079, 0.16174325143235638, -0.05036548687774696, -0.11380212367212725, 0.6457010211898776, -0.23683868981154793, 0.01455974672492302, -0.11626888054135724, 0.21565244735187664, 0.12865081705425638, 0.6713181720580909, -0.25414703769744, -0.8959919590442366, -0.18690923899070963, -0.2386803310800115, 0.11158713841170624, 0.09304685210279239, -0.20580963047639078, -0.09240637790218535, -0.6222902444573901, 0.19669690218525804, 0.2784648718645362, 0.08136289039261745]]}, "midLayer": {"midInputDataShape": [10, 39], "weight": [[0.043049319795408963, -0.09139385282305773, -0.09582954630684527], [0.6582559277840367, 0.3935712841344575, -0.7853644721372935], [0.17867740819907219, 1.5721827463826596, -1.3924715965219017], [-0.20376018441368596, 0.8536279082367226, -1.039694001026989], [1.2843327929291293, 0.6402319038391063, -2.1932560984800826], [-0.617220328698112, -0.37517114838311116, 0.1926949420685367], [-1.8660593069202875, 0.316590510014902, 1.219555585969659], [1.3102555678920689, -1.1699977493293083, -0.3355611613279637], [0.4344568696402218, -1.77918323051154, 1.0721983553488672], [1.0724994105499346, -1.6765113535878375, 0.1981424807479195], [0.440667344614623, 1.1965682074405335, -1.8036145879361263], [0.8266176395027538, -1.4532818251577404, 0.3312063296588581], [-1.667974254725377, 0.745106886539338, 0.6711564357335245], [-1.0143675243425516, 2.0981103340858156, -1.0299002207105359], [-1.5640314501397123, 0.20575463659603113, 0.8522557075525886], [-0.926075497347518, 0.842555284703134, -0.38172335393943657], [-0.8075947934442278, 1.0337490120315989, -0.13346653875648995], [-0.010272441298747558, -0.0753254273411529, -1.098647155942537], [0.790907310231864, -1.6102965004264937, 0.7265352648139533], [-1.4975220203523707, 0.15301490667203144, 1.120140340818095], [-1.3707047776933285, 0.5473681128713479, 0.67115467208886], [-0.24917809990496484, 1.2064547011798659, -1.1233475661225454], [-0.9561283862934514, -0.07133829212809874, -0.3658084507924877], [-1.4655357482174267, 0.8636417734278543, 1.246136553019376], [1.8332596944362511, -1.1837339204305064, -0.36026162660130123], [0.3800990635621766, -2.086130725013667, 1.5434211610028608], [-1.3721735371895951, 0.058087878687370205, 1.0556506586844379], [0.8203898833232596, 0.3691141910520461, -1.211598271389018], [-2.019130467166634, 0.4772403107615385, 1.524072967853476], [0.9958091569925204, -0.05121296934473865, -1.1484000869607263], [1.5338544632898554, 0.48515161605548507, -1.6702569160542453], [-1.2469478791293953, -0.33422994518315174, 1.0486745730401836], [1.449579528733605, -1.0171853234583819, -0.6331426088766695], [0.035783724014865306, 0.7272154412761256, -0.7787077617853678], [0.3063875117908496, -1.1048362096269446, 0.4073407895765332], [-1.3369886155027604, 0.5897378448958007, 0.575589096233178], [1.162522746559626, -1.0551884142534398, 0.5526481899921524], [-0.7688602263089866, 1.0920033188393918, 0.4266955061955723], [0.1610052681221938, -0.4547129362957609, 0.5157247070914187]], "yclassNum": 3}}}