{"convLayer": {"convCore": {"Num": 5, "weight": [[[3.4759259215915543], [-1.4919553014189435]], [[-1.257245263161708], [-2.891863160221056]], [[-8.092986312284564], [0.2586987321237852]], [[2.0381609706736983], [-7.1187934022061645]], [[-2.0958619227352835], [-4.197973843843155]]]}, "combConv": {"take": 2, "all": 4}}, "fullConnect": {"inputLayer": {"inputDataShape": [10, 75], "weight": [[-0.044150621474060577, -0.09381447901822296, -0.007552320247425309, 0.14409208583879876, 0.0616038157092019, -0.31531600021184525, -0.075817462451174, -0.06985173682199511, 0.14345168257262533, 0.11778695900435805, -0.11953326196911594, 0.05167880785617145, -0.2384129369895989, 0.36550333713978744, 0.022205241552584652, 0.014768672864517461, 0.4067557780299314, -0.09234417395384514, -0.04273531722398099, -0.049936926218474724, 0.2657818430255885, 0.04552232306066943, 0.020309243519329525, 0.13622139083600213, -0.0651300717779201, 0.18153795971974276, 0.2766986077016968, -0.27046982441516826, 0.21268040336985827, 0.007808315805218309, -0.028401486902332202, 0.026855198002425595, -0.33977683379048407, 0.24388749273571714, 0.05373973506933304, 0.021523295439338855, -0.24924376606789422, -0.16386787117367657], [0.1706650365611431, 0.3857821615573985, 0.4869375718531567, 0.1309591950909821, 0.28813669029331423, 0.0644394507255359, -0.1250243098877385, 0.19246365443885277, 0.26340562333231593, -0.6106692810742477, -0.15652331389315755, 0.18604905759320284, -0.60133982194991, 0.15778230804206972, 0.4146264313049333, -0.2048111060434169, 0.6026647432390941, 0.08778837071509513, 0.31538983883631766, -0.027147673631165728, 0.4756677870908079, -0.30246757808200603, -0.14359332804571356, -0.2055472556837796, 0.040685009591958914, 0.1811504264220924, 0.13391123446214181, -0.005341228768813413, 0.29129242725153365, 0.3923640435243255, 0.2153366687742788, -0.17752554153876357, -0.12588803528073622, 0.5160467354255615, 0.35494944251020716, 0.23350536467610802, 0.17156646980883186, -0.5842017596193334], [0.03156086002389452, 0.3167220636260711, 0.19398374493326795, 0.07743301307985025, -0.2788543323493533, -0.4152077100684985, -0.018305251649684696, 0.1980348478000164, 0.44520628372465354, -0.0455936065217183, -0.1808439693102768, -0.08639333660692029, -0.008029936952700148, 0.2225721264776313, 0.31425567221791817, -0.10516286916867926, 0.14743285336233752, 0.013706565766655203, -0.7928185842671035, 0.006625475274052184, 0.14222383319469603, 0.3265800046693112, -0.21456398216433642, -0.005288671891290083, 0.16221252364666905, 0.2199339968324016, 0.787672990086425, -0.1417981265885663, 0.3475338534525539, 0.16916381143509232, -0.08638156681636042, 0.21449971148576824, -0.3182742223232747, 0.12315023216168224, -0.25503158246595103, 0.13484049549247099, 0.4422066362415912, -0.19673340213353768], [0.28730027657313817, 0.31095942670900156, 0.10190683118345842, 0.14357999709500915, -0.042879889442150314, -0.5055876910418162, 0.008500450961984493, 0.05281870013017832, 0.27764276804715265, 0.08870195325175058, 0.3695855576657344, 0.30747867160461223, -0.2959185474017095, 0.14260502896594443, 0.5180068983968216, 0.19916421573332754, 0.09544512699093113, 0.04500274611994066, -0.6084614116869562, -0.18042350248785227, -0.05968785558007381, 0.13424801482939738, -0.19641459252263196, -0.12822919590052684, 0.07960786991003732, -0.013285686499845096, 0.1382752025699249, 0.15203933515007642, 0.03348742519359439, 0.12211783720105956, -0.02092762073086174, 0.45967631678614274, 0.3123230125115119, 0.03561154675481929, -0.38441614650505485, 0.20138082965102044, 0.3642245574440725, -0.3575838244166624], [-0.28931621676448877, 0.43850409982478133, -0.0008468054068451279, -0.15908419364930068, 0.19346544017475117, -0.2837875303010388, -0.04729573520778454, 0.20454038511724576, 0.19175966593013263, 0.1898965517718621, 0.4491003974808137, 0.12005249046557225, -0.2658868254702828, 0.24230148432668705, 0.26449739184159216, 0.16642820884103232, -0.2776091567661837, 0.040707908451978005, -0.41830030164685067, 0.001808560144670874, -0.08710060888155984, -0.07866494827569562, 0.05709455801260583, -0.35114696249815003, -0.033627783326972506, 0.06627656526360064, -0.021345725523584925, -0.06338183536126067, 0.041590719844894035, 0.41817282108283477, 0.16653091099605677, 0.21130350658958263, 0.3819822495667513, -0.4072322444785257, -0.3105481100080475, -0.03910104220932597, 0.5248575348094182, -0.014501236214501648], [-0.1148010294089707, 0.3318426987228053, 0.17992154295946705, 0.15842565247334967, -0.36883050284676167, 0.010683248677097202, -0.25407803138831997, -0.13380350148494702, 0.02912106381551444, 0.3114642108592702, 0.4449856941751578, 0.2908367624283292, -0.2230520531376708, -0.009143027989927456, 0.5839930605720836, -0.11468924531301423, -0.16283110667334041, 0.14133574987896222, -0.5000591549532222, -0.30378674483788226, 0.17846968414934902, 0.2156706471820652, -0.1061736027102353, -0.11801599772185516, 0.14927228970392944, -0.32814406678678787, 0.2549974087918998, -0.2189596694161321, 0.05928375413172581, 0.27408510776953127, 0.21062087399120613, 0.15021943094546727, 0.07996866249922546, -0.0019237711513460606, -0.5009155994026206, -0.049970710601423995, 0.6919887299816431, -0.368942688934012], [-0.18245876996831292, -0.0935095123519517, -0.3421792284237545, -0.3182976091278299, 0.006758243240077105, -0.3240264646295709, 0.13125944042918392, -0.17795128448943728, 0.2312377762410335, 0.17682277893972811, 0.1896203919068633, -0.27926449011249993, 0.2657620400950405, -0.36007556728913215, -0.27921107826643754, -0.5337014807308874, -0.040686523500826584, -0.23491760939561596, 0.36399247091546627, 0.16098849789056138, -0.3928379570240705, -0.11655503922973025, 0.3810078219929108, 0.4145519388084427, 0.19805408927191895, 0.4584304467119057, -0.05152156309122322, 0.43283262875575895, -0.30916846432760703, 0.3474960078124598, -0.05513067734668954, -0.32665064853964637, -0.5237392337679365, -0.1200772744168125, -0.054508034984867955, 0.23026869614325693, -0.30287486067852104, 0.04460396269506816], [0.13007479458521023, -0.2218432499448059, 0.0433498308109045, 0.14384145181048524, -0.018263722754539566, 0.1497718337712274, 0.12116877538193853, -0.09788985192602231, 0.06945944647589401, -0.0934930156506869, 0.1715244853026852, 0.0666142538636256, -0.17363376953814724, 0.020210667895040023, -0.030338444669599212, 0.35915619344339395, 0.4814224572266663, 0.14074422433771483, 0.10852531437122388, -0.1546752656617103, 0.03567226991085678, -0.053068340614140515, -0.046662165494103194, 0.11766107181849021, 0.050261840779021495, -0.02447797524848436, -0.5278278670265462, 0.3091621269981757, -0.04302987268047747, -0.22227120621845106, 0.17326935854532213, 0.13747591063004141, 0.18051150784037273, 0.13157304582534513, 0.12235562334080362, -0.15321235660101554, 0.007964863270371525, 0.05063638336355049], [-0.2667437702567334, -0.34311720211763624, 0.06834653995338082, -0.06011190763174039, 0.04635424543485667, 0.5510530619553659, 0.13657780532366304, -0.14413667200106137, 0.010933271796528308, -0.1686206127027461, 0.07868942094238235, 0.09648748614844019, -0.1917484462521509, -0.0951012315018621, -0.053835435119832464, 0.36271069081914553, 0.057227728471029436, 0.07275145808042119, -0.05338668852154111, 0.11030709937365048, -0.1582975386091861, 9.94516074273148e-05, -0.18094599587335733, -0.24333963327069022, -0.013958780508321032, -0.11971264075206148, -0.6574598416993255, 0.07975318903795374, -0.19206620820040327, -0.2462872942581872, 0.21583593352447225, 0.018616488087076492, 0.2701801617745685, -0.06661870187740028, -0.04181947902670293, -0.16857032162212962, -0.20630603372456383, 0.3479707542304896], [0.09276968935054913, -0.3350230109587106, 0.15427072849899262, 8.61216042355857e-05, 0.2742607217669637, 0.2932289095789488, -0.07807503480895983, -0.19284161568695737, 0.23774790112455868, -0.1651586933764003, 0.36247517577924593, 0.2050592433837729, -0.012367145388077521, -0.35737927228390076, 0.1594084948229293, 0.013254490408748137, 0.16850752147971598, 0.24952548853011317, -0.04294496975774548, 0.05965388240642316, -0.09751155695565453, -0.09390511986673446, 0.09747541447880627, -0.0838868865130068, 0.17786432964901006, -0.04733267861999131, -0.48946027000109166, 0.25622198997489326, 0.12107006447044089, -0.19274731140837667, 0.2141893156947451, 0.02896698429916084, 0.29075948322446643, 0.19729917252337378, 0.16279390110815367, -0.15762956440759138, -0.0775806434126828, -0.12344847538194742], [0.2710232415983277, -0.1150900782129722, 0.03691385334965577, 0.09602475918070583, -0.05188677393690373, -0.05508103599274428, -0.0797809167004319, -0.06668335499614844, 0.24113125646222944, -0.08680531651707925, -0.49533628995624224, -0.19184921606259794, 0.11800475217491586, 0.08628614967247131, -0.12277211480905334, -0.10492018519881635, 0.5578169067113643, -0.2857711242585819, 0.031516950021956834, 0.15240446882678121, 0.38380609998423315, 0.1127003563121752, -0.21993447717155767, 0.10195740839835281, 0.1397878784775879, 0.10346278610801499, 0.1680367869539401, 0.17194135103940864, 0.15999254119692058, -0.3550701448879351, 0.05969531111131506, 0.08905456520065844, -0.6991248608855831, 0.03832974374868438, 0.05643514039842525, -0.02203830450191516, -0.29512875906423175, 0.10284671865306728], [-0.3965246345245136, -0.004240331523587883, 0.12359623380591638, -0.1459573334869164, -0.22445972140281456, 0.2547294658790324, 0.0613627711170231, 0.06316398204977755, 0.07946885319160388, 0.06486084555033207, 0.24602583082948337, -0.08290004074951984, 0.12507318332568618, -0.11859010560656152, -0.28240923704849435, 0.28136440083910014, 0.09792830606238276, -0.23601060584673875, -0.15295132328168784, 0.05922231315573368, 0.09435785284726733, -0.3035706466467846, -0.2351570509861671, -0.4185590090489359, 0.015196102218892367, 0.01714983671927998, -0.21203188750506496, 0.1872777866025466, -0.031144188716321134, -0.31411360307776803, -0.10430971898432262, 0.09206287318395251, 0.11678346245114948, 0.22244208335237425, 0.1346997048972427, 0.17901603026887783, -0.07524956405573588, 0.5510959175969903], [0.01152657382371215, -0.18777665356740705, -0.020125311554344497, -0.05409468903353371, -0.09209142231271582, 0.20169643436340132, 0.15967781022292854, 0.03382079273229635, 0.11036464250051059, -0.11489132924163474, -0.33170127544671507, -0.12479901114791311, -0.027441597094106714, 0.19130355588386436, -0.23882884849601915, -0.3187797717542524, 0.37463910366578806, -0.1792647230125711, -0.05200393105535223, 0.1583970156578478, 0.4218212935455941, -0.14496707299240322, -0.03958270509698768, 0.16548693659503239, 0.21984954327090456, -0.12874316428881516, 0.24510603673787873, 0.20906247790870966, 0.20588303066587882, -0.3178985224266574, 0.0647838793146595, -0.04936919955285275, -0.5584748858761617, 0.33379634979698203, 0.08178734827063013, -0.2411824351068529, -0.0020970424535697503, -0.11217310622832229], [0.2090194257990221, -0.22256129094132582, -0.00401129445168892, 0.20040445800704515, 0.20156968514404178, -0.14511916146847012, 0.008053057449021662, -0.09439947289512378, 0.043903156941773484, -0.07418392617992313, -0.022727113740975337, 0.185556536358782, -0.18775823133065736, 0.058899148996576334, 0.12047258649345827, 0.10502957667277599, 0.3918568046512542, 0.020378431503060387, -0.004131207809409201, -0.10109230806021836, 0.2773738182055296, -0.0861276135542857, -0.1018686244706984, 0.06370603020313649, -0.05836336341735865, -0.19563962141236793, -0.36275879836857133, 0.1317099380192637, -0.09086452444641481, 0.15897342214587545, 0.30996879977863656, -0.15730674030175282, 0.1954067866913117, 0.0899839582917877, -0.03736057808121859, -0.31450920845346864, 0.005922833078611028, -0.03601378701195974], [-0.08573413323957622, -0.2997111579090593, 0.21762621071045546, 0.13591204672475607, 0.17533435771456596, 0.26092229948590306, 0.07094931536849722, -0.17560061332776358, 0.249390852485226, 0.3625457785068618, 0.12183237794435155, -0.07513588999285037, -0.1780925437936169, -0.3412847051246747, 0.1159320925934021, 0.028854275461081994, 0.32727768375211386, -0.005081407248240655, -0.18278315753494745, -0.14974039151222757, 0.2855493173165231, -0.08232305140922913, 0.30917066553891104, 0.12930640971147986, -0.025399696150744635, -0.12502357398295927, -0.482468623553833, 0.04413640820672638, 0.07079917197662677, -0.23370612799683976, 0.09716088721006898, -0.14411239678259682, 0.08565056214715427, -0.04997349069926547, -0.0389119471225766, -0.15090313346639767, 0.12423077532717954, -0.026861474886718646], [0.5894980421427533, 0.14224986510773158, -0.14034719303965423, 0.6332049006391731, -0.49794026820863785, -0.46223436135258694, -0.8671886516579069, -0.17449458701019996, -0.10201500337434365, 0.18374795243588862, -0.3051886217362582, 0.40169012522099573, -0.23262824303735968, -0.308475884678752, 0.18966947776126403, -0.4303943645421402, -0.06825558057069801, 0.14374374751391797, 0.10943651667979203, -0.09572507930395524, -0.005773412524019388, 0.523671417770343, -0.4843673693053874, 0.28334420080262357, 0.20748723255137985, -0.24604907735036172, 0.8304853679939022, 0.43937531156438214, -0.09893625639657859, 0.7179980069145203, 0.2671165966570185, 0.41091299208540705, -0.275865524219882, 0.22860376822246106, 0.1803582520379847, -0.34662381117755087, 0.16645558131956018, -0.046595115240120055], [-0.2206260131794917, 0.02176183231875238, 0.23801232175382134, -0.11225981748953905, 0.1380869378464308, -0.1258208687366596, -0.0005740853798187726, -0.1316232569473046, 0.20165445022524645, 0.040844839711226946, -0.26308226635807114, 0.03225203290727008, -0.16931494055065513, -0.1101627561327688, 0.06929730579399383, -0.007930924224293501, 0.0024619235957264824, 0.0034562482864680063, -0.03363611198884706, -0.03585190498357335, 0.19236070932806243, -0.06939639047682017, 0.19088269245225672, -0.05268225898065107, -0.10706486664632169, 0.08759850767350905, -0.28702966594268176, 0.1716895185234758, 0.1843634709082977, 0.00546295339740326, 0.08900576950091242, -0.1750469060371829, -0.07768399915040392, -0.11371329802729654, -0.016397319948431802, -0.05036431678129721, -0.16948271583044905, -0.05959916393073082], [-0.07379425441273745, -0.1472115158494214, 0.035854452480382056, -0.0938698505486291, -0.10310207215672576, -0.04379225206366892, 0.0454045077211655, 0.07808627023787541, 0.12320997140654873, -0.17614740790310612, 0.3300189113644119, -0.1055758735250987, -0.003165309996828654, -0.0034773590706788965, -0.09818899073478196, 0.20087577186779149, 0.0012080814364752472, 0.10187826551313962, -0.3073069698596016, 0.18234309592443312, -0.013665990855293735, -0.04666019590693373, -0.1325392306594092, -0.08600765568361851, -0.025707942672096386, -0.2939539860476247, -0.18919071942146684, 0.15760073242107847, -0.036697543305065417, -0.049851490547980465, -0.05744200972311361, -0.17970792684896278, 0.13393052915080808, -0.05407480592079251, 0.18438193114720514, -0.2004577897594227, -0.03201623668379024, 0.11237476063795696], [0.06539094166421741, -0.002219813863226978, 0.052135282937619896, -0.1527311059162135, 0.1381765017857254, -0.023606265267277955, 0.09113848339798161, 0.07023022962944434, 0.12380280046561783, 0.05457487482676734, -0.1354821279708319, -0.0021171986898515295, 0.08248769360986667, -0.12681627087650152, -0.1490367692978459, -0.026545687042199326, 0.23643401569311487, 0.17004376021113465, 0.11651599161564238, -0.05522805601338788, -0.0322181664187069, -0.2598654187505799, -0.13040242129663196, -0.16391549942909658, -0.108359310914971, 0.030139699192676984, -0.02543174529193922, -0.11484759467907911, -0.0405190426916075, -0.2831440920054163, -0.09994629486690317, -1.5833609429187666e-05, -0.009434032234498861, 0.06850563172818404, 0.008642223026557438, -0.1608467069678132, 0.13803169938368956, -0.24905487229964393], [0.05925201568957768, -0.1599951707588184, -0.07465158813375955, 0.04301214257707126, -0.1335898245877115, 0.07508197265268673, 0.039327045992909516, -0.16698536078769746, 0.18541755223017128, 0.07313333130756262, 0.05034415446406192, -0.09599551684534798, 0.12657627862370469, 0.13184843884107272, -0.12204685111117125, 0.27174996090522247, 0.07721301645916782, -0.06845895409177856, -0.0705910719621838, 0.026526729418077332, 0.23956172314717694, -0.21101030168563767, -0.26353466937847786, 0.15536430043212787, 0.000585965504574645, -0.204612655520388, 0.14431148773392044, -0.16213632372478662, -0.19885633539986666, -0.11465625564292314, 0.046733916768770395, 0.03361675443843335, 0.0445668426924206, -0.030752507963052345, 0.10869646005073125, -0.09750304217386357, 0.09607418341185188, 0.0778899033540331], [-0.052048965037942214, -0.13788682336111724, -0.06851947364212516, 0.07666171280817029, -0.08954359512280721, -0.09976975869136141, -0.20437416934034744, -0.0012836411494260146, 0.013634700275756, 0.34879379141120387, 0.17772718334232673, 0.06969827331872576, 0.07081945420303737, 0.18224757594447932, 0.04379483972507859, 0.12463604534129372, -0.06844351436290134, -0.07836175925944923, 0.02881032619201932, 0.02026625140836964, -0.025865934213351826, 0.16760546068194623, 0.1698579581319604, 0.14737191526535676, 0.11119740327738971, 0.007388962054149633, -0.13038031495593405, -0.15619537094834, -0.027870525916723555, -0.07340375007119851, 0.13747436296942298, 0.007795200623606132, -0.11775689011039132, 0.1685784656909137, 0.022780145435789736, -0.14570247916584647, 0.044452595917246, -0.20397360658662358], [0.09333341132386305, -0.2390938236157464, -0.05755840423901148, -0.017993766322152493, 0.022212435507041543, 0.07313430704599505, -0.08920179602784858, -0.15087628131911623, 0.12688016942132768, 0.007221884885469046, 0.20437095335316416, -0.10246816768160487, -0.08044982412161363, 0.10948258494024696, -0.24618825309909195, 0.2919689700616886, -0.10080410592363566, -0.031575801238489, -0.26111012760718566, 0.11518377355022236, -0.19660585738634614, -0.1054133161592256, -0.04188082443136922, 0.16498556587642632, -0.18640609974244604, -0.12869727942837728, -0.23792741914777485, 0.16041286280359301, 0.07696134835818179, 0.13433222999634195, -0.039969820272553955, -0.19221111774228689, 0.08944224444389402, -0.037488001736175044, -0.03191694611331962, 0.027098747645800194, -0.12659544018532626, 0.24318697259042849], [0.28386283794578987, -0.10950148034560371, 0.09094457651447334, 0.09396113663007288, 0.05086467450079082, -0.06476702494973346, 0.17476130626534175, -0.0050978331575589975, -0.0013387524411588364, -0.06725993382858897, -0.12893380710877414, -0.14601130875840862, -0.2043178895249635, 0.08909798179738684, -0.12896340511413307, 0.019209576808164253, 0.175180622883842, 0.07901620281385359, -0.01227517053236232, 0.11627376701373697, 0.13896358842907816, -0.2305942232483428, 0.027556681323956143, -0.0951382054502472, -0.021774358042725657, -0.02914979187450852, -0.1005583146821952, -0.1389385481397223, -0.10747263903969649, 0.12182463531139791, 0.12177630988088238, -0.19414732401418752, 0.0527678352725615, 0.06972126002143605, 0.32227419535010754, -0.13351484757813353, -0.013007458698762039, -0.1991744185229746], [-0.04125705000334884, -0.18064142940787412, -0.10385371666830193, -0.11364455849885434, 0.033900066537251874, -0.09662389149885699, 0.15257521241991645, -0.11330767326903768, 0.2427820730629594, 0.13326666925310754, -0.10116513220239724, -0.15961485142061682, 0.14170744229836044, 0.0601756068396993, -0.015929023838794083, 0.23476625959120878, 0.010309779278224898, -0.11446296310177093, -0.15597334589827525, 0.21119667688796862, -0.14109206068761743, -0.2109250282694478, -0.1123716323714897, -0.14634777801269105, -0.04302554012288139, -0.15817386153549368, -0.05168386519186259, -0.059944090880795255, 0.12636896337177986, 0.04385320561479781, -0.06117081245903776, -0.056749474957637124, 0.12177610753994243, 0.024816646656878723, 0.06437260939534069, 0.03076324108137508, 0.098187014241495, -0.0028603441021357932], [0.06295945357521722, -0.11175902777632551, -0.08583403549885056, -0.040226634479395805, -0.08719448442061258, 0.03834524324036988, -0.16467249989126093, -0.055994969801343615, -0.1806481328336592, 0.3268501607832619, 0.06072112360163194, 0.15044365211182487, 0.10268941690157035, -0.17411757681212345, 0.2153824798609636, -0.1758512801049221, 0.10585364846563583, -0.10973857291905487, -0.1746342570518767, -0.006313426905427974, -0.08708273656112625, 0.17453309114463245, 0.02502792148472943, 0.03361213890420381, 0.11287805462987958, -0.08011894998338406, -0.0007988688993404063, -0.12265643788080301, 0.08761354636262025, -0.2464332628981089, -0.08769466865359436, -0.02578821722933176, 0.02732382570923039, -0.04260537812549345, -0.15789507554208373, 0.012788027091715554, 0.1632921724964336, -0.24012363334057324], [0.13504696499613258, -0.07954167161330555, 0.18205161382954704, -0.23531158644740205, -0.03314866407656381, -0.1990551426316007, 0.013271187063274539, -0.0009365808318224383, 0.15248469170890105, 0.06174360940376584, 0.225443289124118, 0.061836576643266694, -0.009899278331921807, -0.04765770478905669, -0.10902740314271561, 0.24218623614334597, -0.3322964927052208, 0.26600901385784964, -0.09829317723064931, -0.053882191421506, -0.2513523461381411, -0.030108360398066566, -0.09461799085723159, 0.09626959728866007, -0.23519349541642917, -0.4290624690645547, -0.1552842462417304, 0.17347052653261, -0.13439448820489353, -0.21614419726332362, -0.17224489000831658, 0.011631680503590026, 0.15649035488363178, -0.03899260474942182, 0.14660171303782152, -0.16097310235695342, -0.021709814754458438, 0.07781994044454905], [0.10289432347998735, -0.1254574957014933, -0.03977749979469512, 0.08223858679465607, -0.1299485103744906, -0.24172761397690848, -0.19332198206191153, -0.17162314154046895, 0.14751938976309184, -0.016044537896933574, 0.08594657991810024, 0.10830581408705817, 0.012023759558024818, -0.06377648424793382, -0.12725063910800888, 0.02396753602837982, 0.05391288108662092, 0.0625945286806725, -0.04880660978709291, 0.15097026321204998, -0.08918422165446688, 0.17162184752352694, -0.12199498414790283, 0.19252055993302097, -0.1738332040575948, -0.23987864586563493, 0.04766492748612295, 0.059592406874745214, 0.2292861748827708, -0.1113503049263503, 0.02274869497075287, -0.11297871314494592, -0.1987689650806071, -0.1027858271209119, 0.07731076962568191, 0.006380002043318442, 0.20060851537748534, 0.3350057036330815], [-0.03924447544331986, -0.0732379975714958, 0.048867824850318, 0.06980277227521113, -0.2566072329264457, 0.12256389559475696, -0.3040007578985486, -0.07189243523404273, -0.04823619226101687, 0.17948990258671849, 0.2512104441942215, 0.18825989270872348, 0.11432400260566052, -0.0398845186135691, 0.030178769786995067, 0.051912171058230594, -0.41204156131684333, 0.0029452656763771863, -0.20342542369357433, 0.0980703448579312, -0.16903832755347253, 0.03861972470448921, 0.15985377322020541, 0.19687376445982863, 0.21626789338800637, -0.21958320186191577, -0.043106381085262865, 0.15129204329128293, -0.06260456692256183, 0.0956888890684186, 0.22642307531921896, -0.09989709885449029, -0.03380147683537881, -0.02035749991720019, -0.010850829150466005, -0.08003403945932545, 0.05444987642528519, 0.23602301307201848], [-0.03617550219471975, -0.2628959500017878, -0.26562417914682757, -0.11373913125162927, 0.2146192560288382, 0.13378552438321634, 0.08315822515235487, -0.04353942286435086, 0.208213094500116, -0.005026717459442492, 0.0061381525194446444, -0.06553785018066242, 0.12370065807372836, 0.12650099746521565, -0.028444464824864003, 0.05128244195368193, 0.24181761280805314, 0.05629257145522791, 0.07424644488742509, 0.05692486400698554, -0.02974298957271976, -0.2210904346752696, -0.30163070268475994, -0.09964609989549753, 0.15638873097925635, -0.06017297962463644, -0.05228583136583793, -0.13742826055190438, 0.056569029665800484, -0.10588612473212818, -0.17228417230254028, -0.2900518310262317, -0.003109413255470718, 0.02470683717912482, 0.047562369153299436, -0.04287178545709573, -0.07934142590425175, -0.03538552014485255], [-0.06497050700723513, -0.22405007819978226, 0.05749169031911214, 0.026761182942575543, -0.09669312181120908, 0.26893696683269575, -0.0018962291856114398, -0.0680457037179326, -0.1367670727296467, 0.0723623716197049, 0.06770489568997427, -0.15019814724224997, 0.024624162531911617, -0.010480077236033506, 0.07587773957672465, -0.18384340355738432, -0.14462939243741205, 0.22049489712896234, -0.06140371956566599, 0.012573874206215415, 0.021249684604976553, 0.06675598006627508, 0.23067319799432093, -0.11029842502758533, 0.1424286663605553, -0.2024926920754207, 0.005646785794807175, 0.15058450808824772, -0.011647182169355418, -0.10130151276060201, 0.13054469933850812, -0.2210977949351649, -0.030512679936231312, 0.034479623312403625, 0.1451025621712256, -0.13598484776515957, -0.02951894916709726, -0.2053847346437004], [-0.09944207750713484, -0.23026761428562567, -0.20554274880450135, 0.04223758221209935, -0.1919156951266703, 0.16773061380111526, -0.25399359423422196, -0.00849336476548663, -0.02334462402076971, 0.27510260703106126, 0.13664813107299972, -0.04242231970663877, -0.008376595379013151, -0.19105573497339304, 0.02756967547585882, -0.0648026784238854, 0.14999876747004376, -0.16294385224323651, -0.006896739284165833, 0.06660279910812243, -0.02758917201301002, 0.2746908144874073, 0.18309989669788004, 0.06839582859234719, 0.15199460568393355, -0.1404983989607497, 0.305751908136689, 0.02765001598651377, 0.07050853942407072, 0.12339998602863857, 0.07814857898856661, -0.05817668521764736, 0.01695943551231867, 0.03681900017828302, -0.09740825081653733, 0.04396680912639636, 0.25323726420712844, -0.0006656304478369121], [0.18671194299917232, 0.14525153748184702, 0.2111979217052032, 0.33896911342337477, -0.0032274258784823935, -0.19834022254264322, 0.00569453652591123, -0.2525729242893195, -0.07893812458431809, 0.2699959424581146, -0.28689007064033084, 0.18401833725026956, -0.2658733228471019, 0.49193852569343116, -0.040240855870542006, -0.13257246275299192, 0.8539220935100783, 0.43353894837849405, -0.40777595290334545, 0.09709622663737683, 0.5299968511735813, 0.2036114824286756, -0.31747647480277774, -0.023552214221247175, -0.1519648000264058, 0.4110261089627349, 0.025093582534572192, -0.22474800152794308, 0.06439959343255122, 0.21002675962095738, -0.06519062412081715, 0.4405376400789348, -0.4176954934798094, 0.2848442097955752, 0.25611886073264595, -0.13619420166319302, -0.12750872020666126, -0.514215865062356], [0.07168814314494144, 0.27002560381891655, 0.2008623872796313, 0.3183316219261761, 0.1289254651097797, -0.347374800643818, -0.020146871311781906, -0.4209120120216426, -0.1488948993634634, 0.16336366781019482, -0.12898532056425505, 0.023349331229360427, -0.2013063557484326, 0.6124890415761227, 0.0015664186045941575, -0.1489233897594321, 0.8178621941753331, 0.3801024197826346, -0.13400195374456897, 0.07696630083287148, 0.6123346318272027, 0.16652837205114562, -0.33463553380337246, 0.024690282463935478, 0.012370634820726404, 0.48940248987442847, 0.034540480673227895, -0.21517808903446847, 0.2821297466545404, -0.17289001348300917, -0.12718275264022288, 0.3075560847073477, -0.44158990638830486, 0.5242155971769737, 0.14733126637719984, -0.2368232585946782, -0.006780998051048537, -0.5563142698964384], [-0.08571401504690412, 0.5355228046621996, 0.2980862204155843, 0.35260522473319605, 0.11945995961051398, -0.0502294572037231, 0.00686054865042398, -0.27248691203526354, 0.03401769490898198, -0.18279029063640725, -0.13456943223312876, 0.20692696619694564, -0.3306564267326414, 0.24762158705874524, 0.0467952177657482, -0.14662570319611112, 0.4292799367811455, 0.1594786724525576, -0.41554421741411623, 0.03689349893631351, 0.5952989672936461, 0.09347586274359204, -0.14725158639159325, -0.23700361781750826, -0.10051739455026583, 0.3981884121199074, 0.08800592153467277, -0.05692250559885384, 0.2785458912633439, 0.06442982323567713, -0.11299820394479469, 0.3842967076366009, -0.07700610106849226, 0.5658451869375214, 0.036133338458054456, -0.03346284468316, -0.1187759150569195, -0.4461369060837165], [0.028067499441362026, 0.2982138984355058, 0.47070384675243915, 0.3461234105425662, 0.17939690411162845, -0.2944806922718151, -0.09559862521894241, -0.3162689377354439, -0.17434947899852093, -0.037636042421493404, -0.26888765671528725, 0.01828465850202207, -0.22080530495783973, 0.5676356220568655, -0.12938941367241305, -0.4046052802242381, 0.880532055074863, 0.22462903657165942, -0.20012192534397927, 0.06867997223508131, 0.5440367508180757, 0.1803203928830753, -0.19762048665111587, 0.084820543671004, -0.08147544582296465, 0.5123634112100416, 0.17040647981782955, -0.10033764616474723, 0.22317131248735272, 0.20062982520014433, -0.08679469321900643, 0.14441164952769925, -0.19738212802034655, 0.4064280511672242, 0.17583736887992732, -0.2523099153115427, -0.21643762299231875, -0.5557667316009386], [0.11038199400132541, 0.452228548475199, 0.13834843798808097, 0.39455310489370726, 0.22206951756514473, -0.27797124085038616, 0.12416033169905404, -0.16111936095542612, -0.1120014947410829, 0.23562534825782058, -0.13734707222939763, 0.028502735944986014, -0.28731882466133296, 0.43086047833225544, 0.13279625940354217, -0.3212320886961437, 0.5931472183005347, 0.2215329273252111, -0.18047697014688072, 0.0053250036280013315, 0.4452958262444267, 0.07620186047055631, -0.26501449149110057, 0.12341538175884813, -0.09105718344618223, 0.5017020382221103, 0.25163953993990174, -0.26912345241270874, 0.3625686068133952, 0.0904707101627227, 0.003497277191106679, 0.2084795451000945, -0.3702570767815864, 0.5817718792172698, 0.042004488009063014, -0.12967712139766993, -0.10299350334418261, -0.43060285278652866], [0.5708850180927038, 0.532129361375457, 0.19003901375471957, 0.5732180224845257, -0.23111175799982922, 0.07586307050917802, 0.08714833477626227, -0.6664582290246591, 0.41449264321280826, 0.5459251507923669, 0.31916868543393395, -0.15091006790448977, 0.2762724473001033, -0.6681015483442982, -0.14120341050453816, -0.9463032230422717, 0.4123600575238571, -0.3172319779612783, -0.19823674936951446, 0.06569389895539512, 0.0843986741895551, -0.12620545793107033, -0.49654132705431164, -0.1066410695400434, 0.5143972840671419, -0.22566877423470047, -0.16995978380968813, -0.06500692490942406, 0.8852288758501305, -0.7149301538602755, -0.1081317504605258, 0.5931502735136933, 0.3600667547735183, -0.01020459760903418, -0.17675355916093444, -0.8030900372288909, 0.16352249144545145, -0.15585400003943423], [-0.16182816836737768, -0.0029440675875935934, 0.31708503135800864, -0.057080321399925006, 0.16605045597267104, -0.09236022583174949, 0.19902569667997325, -0.032907766808691244, -0.10809183208007807, -0.0892255013536264, -0.013512929949294882, 0.10940178161197142, 0.0030012708864499515, -0.3554387872299292, -0.055443754879804324, -0.1219512829542794, 0.12505096783664588, 0.10776113807898129, -0.021854082357070665, -0.0430460404884666, -0.042574374951644664, -0.16348055731864675, -0.1587463464367234, -0.17580114681829098, 0.47378102504313263, 0.23061690155371378, -0.1239885858388076, 0.4481268087962042, 0.15762211117689648, 0.24977175424643505, 0.15735522202153734, 0.26770619536427853, -0.13353542882848257, 0.004402674627705721, -0.019510617606504767, -0.05684677298541713, 0.029620488960913884, -0.04986024516391156], [-0.25256619401089736, 0.3040679181371318, 0.24121676804619585, -0.050195023823020705, -0.06710021706310743, 0.2089717540448273, 0.04138556789606205, 0.16385763820648105, -0.13226612537007001, -0.3879836200656341, 0.10971109023395188, 0.15377484477147152, -0.07956270710969802, -0.48143359815022396, 0.23648038982419875, 0.13251716408608818, 0.36473461638067384, 0.16953946154975902, -0.06989335980118719, 0.11734174446439188, -0.02918692842277322, -0.22863309182430222, -0.1911416306099128, -0.1593533736450411, 0.3154646649402737, 0.047919981056574794, -0.020195199726768573, 0.4058128933695418, 0.055545484728978065, 0.3146463073171406, 0.05081743231477925, 0.3132553135953186, 0.2530444339336183, 0.15518869720196493, -0.003292069816786999, -0.05900315122103785, -0.16759209242162224, 0.0018279254473413918], [-0.06308767129274243, 0.2295892368799545, 0.25423257426024876, -0.06520768179724275, -0.057838111348405816, 0.15366305642474998, 0.15721321958338125, 0.10429566657494234, -0.07885324764552663, -0.28989157835032386, 0.3813249292793041, 0.0007317699138597537, -0.013090092200122853, -0.4219272827435451, -0.056654731002979374, 0.047398353260376086, 0.2983736067439417, 0.1901773031571138, 0.10644402786722847, 0.08118671755131066, -0.05298790418536531, -0.15705240315449928, -0.25386317664370234, -0.17644463544601852, 0.21688375821494005, 0.23281424587312458, -0.03617211009506063, 0.444743003250054, 0.1844968376331443, 0.08475992765390584, 0.15789344749118595, 0.17185306354853744, 0.022743874745404784, 0.15738034759874492, -0.03478977568393313, -0.007914340424806795, 0.025371755733162273, 0.043522154476701894], [0.05298193630575839, 0.18418406810232163, 0.19060143509011984, 0.20335517168425923, 0.1631387464188513, -0.047215084729134264, 0.26095641331214414, -0.1319656115141115, -0.020476160786145163, -0.20242062701395727, 0.12085846719775628, 0.12603813931566946, -0.048296008009867615, -0.13927493415903208, -0.12076819760292183, -0.2587324862474462, 0.3994515639424679, 0.13234960813271124, -0.16326876948653296, -0.005502930761142724, -0.11741908828044291, -0.18918801659054557, -0.4567635740716073, -0.09542005953421896, 0.31378549706262565, 0.2607530128721521, 0.017355274534167985, 0.5390940542936734, 0.24141175334860554, 0.3231544257585511, 0.11562891646903246, 0.3027145197635935, -0.15787598942520883, 0.0889259669715991, -0.14846924652469712, -0.0512498478566933, -0.03992184323058025, -0.010307926563848359], [-0.2444693112637157, 0.11682609365679171, 0.46298100558509275, -0.02379517115207383, -0.06724119877823957, 0.2144842110389606, 0.23045022992029676, 0.1080366812933029, 0.21698670775079829, -0.22884759246572228, 0.02397109900090952, 0.06120185656762191, -0.1913378154700299, -0.30676468728246425, 0.040818055055233234, -0.22149110210972775, 0.14544638114771172, 0.1133869504196913, -0.05225253301062631, 0.12996641618746876, -0.054398488032869896, -0.06946321484673952, -0.47056828565319325, 0.05070343112698129, 0.3216406448014961, 0.2126763012115563, -0.008105615648524245, 0.45589900329110994, 0.29347034048312387, 0.2038709296154198, -0.09447617923272718, 0.18967871593794466, 0.010581601361625767, -0.010519632527602098, 0.02694774304794964, 0.013461784088861286, -0.05639407710564013, -0.10492088878438796], [-0.23929201464411143, 0.19683211590850044, 0.39861394519819304, -0.017610367143086697, 0.11420420890926986, 0.19353344590758847, 0.19977535342310476, -0.06208757348017992, 0.12476762662620203, -0.2915921175008144, 0.3159638094306297, 0.17176390355635135, -0.0223871687467407, -0.3640473759407491, 0.19386124524074888, -0.2935418504134026, 0.32845757970244954, 0.15762377765303628, -0.06774508877122662, -0.12142499965219053, -0.21819197694790418, -0.2407780459616514, -0.2969333661662782, -0.17213579411096366, 0.3410775454234447, 0.25625068291255065, -0.21066582534982792, 0.4606924878351231, 0.28238422414964787, 0.30264882780789243, 0.016136264677250878, 0.3362283327939694, 0.17598376684541878, -0.0028907573622580073, 0.023386605265369818, -0.17904280321451635, -0.1187635083365381, 0.18349645967755343], [-0.14308624152215288, 0.12065371936993922, 0.34775595403227927, 0.037434293828093365, -0.06111190749288694, -0.03299008296198798, 0.10302837681159353, -0.10716201246303651, -0.023056792103878482, -0.318442411668653, 0.09251819411679672, 0.10314889430258221, -0.22389137023725755, -0.21452584928876584, -0.07731069194329324, -0.08584231563767568, 0.3787046744236629, 0.22849649852422912, -0.09928865152205964, -0.0007286661573983832, 0.006139580573496574, -0.17890358842622356, -0.14997710692979646, -0.17448001307585143, 0.30138806152988873, 0.2741736969056421, -0.17610862078846642, 0.5183685187586893, 0.2520307172947704, 0.3726889458844676, -0.03873047577547214, 0.4390608982881347, -0.08660269668299674, 0.020752358361253106, 0.2531182700983269, 0.015547091858076845, -0.03287072346415625, -0.05646985024032628], [-0.2481961274593289, 0.1625457274227868, 0.38962235616698526, 0.01587452069675737, 0.0845612825662315, 0.0498164870719674, 0.17789652156615765, -0.07124729885594124, 0.06472442481046603, -0.42083700649388533, 0.031102661817535536, 0.07391452174428825, -0.054962566937546045, -0.32614590025361656, 0.13994573978685085, -0.21257723039488807, 0.10354809682642875, -0.01741616508102942, -0.03744812631739812, 0.08498293521712544, -0.005879596237636044, -0.07268417904933923, -0.389434768102778, -0.08985101634884668, 0.26471526188729727, 0.23078687379099236, -0.032672259972396506, 0.318271173123876, 0.27508201261084325, 0.24350167972094225, -0.20318879172897633, 0.2888485839538816, 0.043502463920339816, 0.1967597734361921, 0.1699201089498795, -0.007556675257195288, -0.05816652742446528, -0.057759788229800386], [-0.049535478740101904, 0.07286696964126536, 0.44931889713936324, 0.1811498240494487, 0.19315887132496348, 0.17596935233771369, 0.21645773898116968, 0.006622039828026954, 0.0819642519384363, -0.3015334652031324, 0.06969238657677931, 0.2522932127809101, -0.14937241904883666, -0.2777000693897322, -0.01963791215870524, -0.008973893747979873, 0.4264435651860222, 0.14291471431750186, 0.22321408187891983, -0.004369161183964283, -0.03360947026495254, -0.2280021231657101, -0.3535740307998434, 0.029892414759649762, 0.1620662833987532, 0.2786610882426129, -0.1571383330674006, 0.5106480064925661, 0.31279888925531696, 0.3393713542732494, 0.03852118478848995, 0.23257808855053771, 0.07434698028364367, 0.18175249118550607, 0.15352783113024673, -0.016223762989999238, -0.32287063180127207, 0.05134393291846735], [-0.1490866104223198, -0.01172281364100474, 0.09366844743256172, 0.12198370215128211, 0.02661668279819847, -0.2474206958095502, -0.3170970331784196, 0.2944796945664543, 0.753147803931411, -0.6051983036385524, -0.2076852626290865, 0.0488845435708223, -0.3381483394476787, 0.0717555731096879, -0.23179148246712397, 0.04579423887384026, -0.1934549766278146, 0.36519426135957694, -0.3025941802741635, 0.1860762233317645, 0.022058194445362018, -0.2089419581953156, -0.3884725251657604, 0.10351006829827032, -0.06215457193642805, 0.1311262389944548, -0.029293093782500702, -0.15598691112020505, -0.032862962695741904, 0.04410662858837964, 0.008450816156771868, 0.016670804487441997, -0.008164957619217579, 0.07669858090781748, 0.28005909864884587, 0.0280068604600481, 0.07733452675531022, 0.10886861940461041], [-0.07039861328477147, -0.1313147127934377, -0.3351731403489027, 0.03573130098625887, 0.05050444931956234, 0.29561487448828594, 0.0015459993195709831, -0.04941046591334512, 0.33064604718108576, -0.40567834270903674, -0.3273025181630503, 0.09800100965969413, -0.14864707047028516, -0.13745545911308843, -0.19284482967239902, 0.004960312247537179, -0.219467993879921, -0.03167694732522428, -0.04320358129447464, 0.01983322023817432, -0.04278232164275104, 0.10281604099907549, -0.06617428400647354, -0.15643116760444822, -0.12731765397307182, 0.1042897093718171, -0.1474023093062328, -0.07227519009722609, -0.29860609642930847, 0.522945951803729, -0.013803542048761478, -0.16623152295077612, 0.22607282690417, -0.07067870286671687, -0.032206873588971695, 0.36448850101584107, -0.023897718830143008, 0.4759525975129922], [0.11523195800598407, 0.07853647661084877, 0.08560797229404186, -0.15665371723386998, 0.07695455738509968, -0.32319388207066535, -0.18510396872677248, 0.0023752657541318144, 0.3870284158783751, -0.45501227997153515, -0.36041368498093185, -0.07452900723251107, -0.3352154200291093, 0.15402963266386788, 0.08900388171881785, 0.18452074090836673, -0.020333559222620035, 0.18683388818611624, -0.0818965263631228, 0.019458676539678182, -0.008668324668111136, -0.16819410468961815, -0.1513538693131316, 0.07669448379882214, -0.05062486999765412, 0.22369712655648233, -0.1997149538060847, 0.1019217662892275, 0.025423636748133333, 0.006921167668352547, 0.13153779068043328, -0.06705911400744118, 0.32773165796133125, -0.25643376842811433, -0.03370940291108668, -0.1335850548552437, -0.05009651453765473, 0.010755839269067714], [0.14491135213752246, 0.33834782732042035, -0.04859299435117193, -0.4426806814084158, -0.056861874335703014, -0.4174514563835347, -0.0769354786080705, 0.01679358447400117, 0.34182383195859706, -0.26093642687637897, -0.11126619167442038, -0.10157825796116343, -0.22236208750113368, 0.159855726047176, -0.13701669171628186, 0.2141486421930431, -0.7573668290530372, 0.016711668784402268, -0.4204693496919565, 0.027590470128925636, -0.17036390802792, -0.08454346938865666, -0.32216661896002, -0.3341068163240011, 0.2418517083860964, 0.14404230652866012, 0.07715788736488824, 0.009001037389407869, -0.11837387655414248, 0.302133231345397, -0.026263306176704526, -0.4297650891494905, -0.020972575478392343, -0.023324367588366937, 0.14474804056728122, -0.1676003258312415, 0.07167955164284615, 0.12049995453265105], [0.16288848742081127, -0.06006221448324329, -0.1615477831415221, 0.14475247188235352, -0.09155687605385132, -0.20519787710327814, -0.31996806144457984, -0.26008995116716654, 0.04600541692449083, 0.6610569474045319, 0.11049431639990477, 0.23253239130716608, -0.07791103241142858, 0.24980408823301894, 0.5758395724331864, 0.021364461010098007, -0.46737940624358537, 0.2944128006944564, -0.2253892088306699, -0.11294002596069949, -0.1253611375522592, 0.35697266961601826, 0.4257467964271733, 0.2859576940814277, 0.14744750659468978, -0.32296472505782087, 0.1253785816020446, -0.3072737420505122, -0.3292242345909773, -0.16832191280057618, 0.21898077464476104, -0.0091161915467404, 0.3050456150828309, 0.04857369007312761, -0.2547914036138478, -0.2856069960951904, 0.4672562362717199, -0.465327385252497], [0.04375516500871524, 0.14406484135197145, -0.38338589874810164, 0.163686136433581, -0.13304231533642358, -0.28640019129847943, -0.15032241222385215, -0.04513214242489521, -0.2349318088831489, -0.1590477841831779, 0.22959659146017725, -0.09863551503910349, 0.041104741506396994, -0.11412341103785678, -0.008399515794961877, -0.03847361633344603, 0.08430300445644127, 0.08764647691443017, 0.059993017635427554, -0.08095223895986198, -0.1253214962450127, 0.06500099731392862, 0.20455216448689806, -0.06580934267169326, 0.18761899910464158, 0.08716202505995442, -0.0693456320849797, 0.11199647916531111, -0.7909758209135775, -0.056692513729284834, -0.22214983572934713, 0.0024550380603556394, 0.09308110259057577, -0.12333300026308715, 0.0045962554952350175, -0.19402952365989892, -0.052576943455592974, 0.23488578944180882], [0.03258877735120746, 0.24149128002619089, -0.4454511092497858, 0.05533812470311967, 0.15478060104967636, -0.2886323090113377, 0.005341294978480655, -0.07678723510281146, -0.30858224654854116, -0.1642413316457402, 0.019313602378155593, 0.1156353991830145, -0.18727763530900862, 0.2088538521399646, 0.27533879825967156, 0.004072909078801687, -0.033725056974547286, 0.4291451818517498, 0.1778039313999092, -0.2268327952494121, -0.3268683376148831, 0.03582999646468534, -0.1020661331434546, -0.03867898814044662, 0.18797659081664936, 0.15596939760103765, -0.06703579651353365, 0.13794993446701725, -0.4428241588317788, -0.48840780804480166, 0.012483390452402968, 0.3403768956974834, 0.14816323907341122, -0.21660912159335138, 0.18954553784391057, -0.16756938583809558, 0.021319919886852553, 0.012560056899531685], [-0.07662127142449641, 0.1738113739392893, -0.5853169358663021, -0.15932883708905618, -0.04013253596615671, -0.192655858662129, 0.006042068436620709, 0.07902342700696277, -0.24085310302922394, -0.021768806973271985, 0.32414373530635143, 0.2619107384272269, -0.17294246129542662, 0.2910246690072254, 0.24628073704297856, 0.12305140661785462, -0.5588095867561259, 0.07183118121723933, -0.011995626063419645, -0.2529038091760787, -0.1891562296316211, 0.011556228643847491, 0.0036947896876425284, -0.10827554815809667, 0.0701956020418263, -0.02357281409308323, 0.26962177123350767, -0.10634293103237281, -0.5614492941755926, -0.15462321243208574, 0.0203004259494436, -0.19904356403975335, 0.15197503479085522, -0.11687119351571101, -0.0649403224187578, -0.2991154244922664, 0.09482430474472141, 0.4559741611401567], [-0.19708989872223937, -0.27407957129747007, 0.06786120766280124, 0.14200415115709764, -0.27381014051877395, -0.04564279374625706, -0.21610778246644455, 0.009513785281507819, -0.11089989964010316, 0.3881155715898761, 0.5998067681579765, 0.03982991569237681, 0.06324189947908682, 0.05421435846674989, 0.16787454395782425, -0.21960215492048993, -0.199521317761177, 0.11923174778144076, -0.08931659268517267, -0.3284626983809238, -0.23762172896941555, -0.028599571660793847, 0.39168189374260626, 0.33315051860364286, 0.336291180278652, -0.3336878148559622, 0.26740705487608, -0.3814264703311208, -0.3030566091591375, -0.36915919768920485, 0.27209002836639123, -0.16720151820022625, 0.2993942203675489, 0.2077774240221374, -0.04680586928107062, -0.20653968197593905, 0.190268009046742, -0.2238281654923926], [0.3422756618531236, -0.09984880018774309, -0.7635484816680899, -0.0317845750343046, 0.010093449476420402, 0.4047709595086252, -0.01336833641870246, -0.1432854975059555, -0.11542061550850852, -0.3707891971173777, -0.3970746745477452, 0.04579415745850544, -0.124292145641911, -0.18781627424996372, -0.023562438549081906, 0.0487475239834682, 0.015160713466372567, 0.14780694739608713, 0.08835824767024843, -0.014434320100830376, 0.14740593914551012, 0.1874032169713191, 0.061579659412500314, 0.11739756106202531, 0.03970811228955816, -0.18288694048599016, -0.5136762484352498, 0.2935531648526727, -0.6372468469700303, -0.15210357847486888, -0.061642906083663365, 0.03932014021918163, 0.12341742414205306, -0.3790926814279988, 0.2090304546981749, 0.16171217377605104, -0.16647349919269971, 0.15302312063574944], [-0.804534758126815, 0.12660199993010768, -0.5981508577638629, 0.07525359685953237, -0.10775213051232121, 0.4856322781848114, -0.2980521062693901, -0.09884958417339418, -0.006251767133410944, 0.25722913336095227, -0.2225016757842202, -0.04613361130076692, -0.16782713592843068, -0.08825820409824009, 0.19438808638989166, -0.10853924615332243, -0.6350620125510628, -0.34592737479349805, -0.06796551143561241, -0.05474340237583819, -0.31230438285750595, 0.16355375232606054, -0.12663355725036646, -0.25223122713255614, 0.44768844416751785, 0.24065705516440378, 0.26023625956477786, -0.41784958804413164, -0.27483921979708353, -0.6314833426078229, -0.06740690593778594, -0.11134408736130175, -0.1552766365385738, -0.5796706259971467, 0.20399473451718078, 0.3063860855840763, -0.03557248355785401, 1.2711969884252372], [-0.1504801004103188, -0.6434297448096006, -0.37530670142348505, 0.18649622014858705, -0.295115180150809, 0.46221138385468474, -0.14148226690158314, -0.15089405937331446, -0.062425609315209976, 0.12066288835240466, 0.3032419941903048, 0.1074014802270151, 0.22241518477223848, 0.24290786051915872, 0.394809487476845, -0.11376660522931697, -0.19826721747664408, 0.12923555563872682, 0.030924590734249878, -0.3284589747614543, -0.13100993372825798, 0.11636054575193878, 0.4908854225449675, 0.08186471927873806, 0.11719337060317979, -0.1785802189510392, -0.21831557257881776, -0.3763396450534393, -0.2893630883974037, -0.1947254315894707, 0.1393206161328864, -0.2817931749648721, 0.3768614578091409, -0.06277197100204769, -0.09511257068110088, 0.3591871378181868, 0.1388758950632893, -0.0841030730775756], [0.607579476786537, 0.10047901978633612, -0.3608491072928425, 0.019987869738658664, 0.009653850327048075, -0.3141798197189932, -0.1368452893252405, 0.013346657101844843, -0.139480380234838, -0.4285154469798318, -0.5326245698059763, 0.22410110449840054, -0.2378809152835413, -0.11088674248847825, 0.050570011060905036, 0.2801737326821812, 0.03556649048854034, 0.3086745051994584, -0.06740081136314217, -0.25844483464588114, 0.2625980230295611, 0.028964371238525015, 0.09092066031234018, -0.1627648413366233, 0.09935732863765918, -0.18977505421597562, -0.02834200686574359, 0.109827140354004, -0.49399151398727686, -0.30219399256978347, 0.14240044056646806, 0.24991917865303298, 0.007341638697159475, 0.0682919949769126, -0.03794572640431858, -0.37756179416962976, 0.05037935521217534, 0.004505514735978837], [-0.39521887773142517, -0.24241719210951249, -0.1162363703785505, -0.12250680997444854, -0.05382779475392874, -0.110664269136581, -0.316024841436023, -0.3084980834951489, 0.0030214319807651655, 0.20705941922418267, 0.0679446117932748, -0.037637214415043696, 0.15328598872454266, -0.41371575112467285, 0.4525905260835745, -0.22521913504993415, -0.27986562293158207, 0.3462766914121404, -0.19897999548040773, -0.21200513734782742, -0.17918223055504381, 0.13130892259739452, 0.6825171319573003, 0.13268081776239468, 0.418618552794721, 0.20785279851292163, -0.004782960864273775, 0.04535381641221461, -0.3770325542586082, -0.5259057296990409, 0.27982460475836984, -0.16726516882099143, 0.5191397869618561, -0.21046049021658722, -0.13761919024877944, -0.06093690724868485, -0.10844742154328167, -0.22824642689517818], [-0.5400034598981385, -0.3536708283852793, -0.01062523078160244, 0.05477947333483793, -0.1980153148851152, -0.17187876690865186, -0.38952252355299294, -0.045216641747567426, -0.14340100175293435, -0.11788531427081284, 0.6329340744757895, 0.08008632503407245, 0.09219528719809109, -0.0373644476488807, 0.16805989099020577, 0.45204298488954403, -0.8952886627575951, 0.03790179938875905, -0.35014358203888907, -0.06842192577292686, -0.05322005531563287, 0.3392169957404009, 0.027313997372853824, 0.34548218712199513, -0.1621296789148382, -0.7748921398628028, -0.0984012368677598, -0.11946671049032456, -0.2322727697404441, -0.10280304201165097, 0.2978893696775506, -0.23986997630096446, 0.18512711158860984, -0.12494730215973933, 0.019018555751032177, -0.1820402872728959, -0.04645363897971454, 0.019194745520220494], [-0.057496795088461235, -0.008642657125853978, 0.25829426072664263, -0.023752712518095676, 0.09492571896257045, -0.0329673054720164, -0.06750700170604404, -0.11211120292302482, 0.2410054416983229, -0.06154628523565916, -0.3428534363328091, -0.043330678388145374, -0.03584917546983972, 0.014596055240694107, -0.13654198785914756, 0.028897814851815112, 0.18967557783072597, -0.05738792893833283, -0.17381900536345013, 0.020767633812393986, 0.19084886930817208, -0.0929259820075892, 0.05860189590057925, 0.018399660510009394, 0.031137996641905617, -0.12561931541079518, -0.3370719683869333, -0.0022190987806764537, 0.06136671015362628, -0.17305070804297001, -0.06472062335258277, 0.06443392832524635, -0.10943353538291781, -0.15703170697555036, 0.07838178392945536, -0.13572508525011373, 0.08550495551730934, 0.023135899924345192], [0.1322196737676765, -0.0014117927131861267, 0.08932162301387465, -0.27136807068409113, 0.13124205826943958, -0.40983072051450264, -0.16756325050340293, 0.013713681950144276, 0.21446721310942163, -0.3213903399204213, 0.1476018274637247, -0.1162249378006528, -0.14923721651286617, 0.007252346862137526, -0.12263505357370882, 0.2211978771052541, -0.2782953991462232, 0.07836636014397094, -0.39622191401851875, 0.15483347798605207, -0.11373041103163448, 0.03340243338419906, -0.2068836445210154, 0.22355683670978146, -0.2240460771136352, -0.3845641374099894, -0.08062854629996173, 0.038727355043391955, 0.2055040538611308, -0.04307456306436672, 0.07266861691059423, -0.13178557867540075, -0.05284302555156514, -0.010056814651631319, -0.03247716910771843, -0.17572318077668472, 0.016623449053875743, 0.24525394208355156], [0.3863299690628022, -0.16178495069726387, 0.002952804357407801, 0.114875070437012, 0.11234468216257282, -0.058238446014797905, 0.16043669081100906, -0.0842076596638138, 0.19530756748849462, -0.2736298378417953, -0.027432170764315922, 0.1230515344303514, -0.10678769299200387, 0.1613310732540828, -0.07200348904941031, 0.32875814385473945, 0.0002274113687445105, 0.2813708298073503, 0.16375454009990134, 0.24117672309306307, 0.23282853296045483, -0.25668574129621463, -0.2602698599058865, -0.06370252134910774, 0.01748357609010188, -0.24262658616269198, 0.040137483585396164, -0.044652344781563824, -0.18701077478499536, -0.10917756719591915, 0.03262491966690219, -0.24474706945737518, 0.09687372892852934, 0.028171706121872354, 0.3068663911334985, -0.056558763053654294, 0.08173708134259122, -0.20860441303917746], [-0.033991854427637185, -0.0953262786459982, -0.17391465632511335, -0.06927425784899538, -0.0030817979040660103, -0.20602815721051898, -0.008474095172475797, -0.09414601184395899, 0.2137289377471937, 0.19275527941068682, -0.21279044867984834, -0.1005736943369012, -0.004943651437289148, 0.0018592278543999629, -0.20886749746953043, 0.4273500668185457, 0.2106946595048239, -0.07631376720933085, -0.010488869486139129, 0.06947555853617167, 0.2306956327334505, 0.02877624647823771, -0.131827555440785, 0.03418719069222464, 0.018381659172947297, -0.1967790065546192, 0.11024861518744289, 0.012609568652916032, -0.03838853603682232, -0.13565808768367568, -0.10235377871989089, 0.05243206388068368, -0.18296450741896178, 0.039901651201158024, 0.22873104943721292, 0.06506213670279207, 0.2142563779067143, 0.11782914980223597], [-0.15956881340380202, 0.03568010852139973, 0.15548695846935293, 0.14776484260235515, 0.05107342277911211, 0.17252695929637304, -0.1910410495269106, -0.13134967994226526, 0.09397852126095907, 0.47741127252597515, 0.058913219020686886, 0.15333941311246216, 0.04364285683072194, 0.029571939576174718, 0.20576587604257274, 0.05712913901338576, 0.16171523298637536, -0.04838751549310443, -0.19624311582529622, -0.08730277293130143, 0.23659842796709188, 0.2403608330179527, 0.22936122064498582, -0.10590803219667877, 0.25055419190697764, -0.11077810920935444, 0.04480571260523715, -0.07278921356348997, 0.0686105235698358, -0.16599713301661678, -0.0393892954066767, -0.05087692203061051, -0.016685138215140727, 0.16520068272861058, -0.2310046710177968, -0.14297689126458107, 0.23528287637089612, -0.4118741324274313], [0.24014305930522659, -0.14484267365898873, 0.15898110041062102, -0.05526244982755153, -0.08930523725604145, -0.28041214692576577, -0.005321095524936574, -0.15070964669114056, -0.058436017076771755, -0.044131508271632654, 0.3474396710055155, -0.18485602294220202, 0.05536905321138899, 0.1845269596801765, -0.20402288727279538, 0.2713351379166622, -0.2984586429705135, 0.2315673628994827, -0.14065278856707109, 0.14972004982014783, -0.41072013977510025, -0.03342275782344816, -0.17209126763881374, -0.029475802864148658, 0.0070307128484265605, -0.4232443814537057, -0.13842712500321888, 0.1821123321220344, -0.06102951418561515, -0.10099412577849853, 0.021294204751963884, -0.1994146136353329, 0.20249157129962886, -0.23147007843083, 0.041379911126375, -0.1046617872159749, -0.10501162484239235, 0.23388597911662057], [0.2377260855259943, -0.1263679970479384, -0.015749909649965196, 0.07495226656746823, -0.03089466060741296, 0.14415914171539715, 0.11475476239075298, -0.06959214769128355, 0.0013474534719596525, -0.10885836151927288, -0.2449467413903758, -0.08932017530211396, 0.0385369691702117, 0.06784765244278385, -0.10176557195708019, 0.09085157692517151, 0.3386567522711758, 0.17475806820040374, 0.1286604012499182, 0.15337866068997147, 0.4793108793082083, -0.0955967550261802, 0.11757028120807379, -0.03227490918442178, 0.08694785131823583, -0.04607532940704013, -0.28658930655712234, -0.2646380548379871, -0.08467744158997463, -0.12490594724402013, -0.032205131989038564, -0.25730549448592543, -0.20717126696138538, 0.05177827222224055, 0.22853101961337968, -0.07865196989885094, -0.08512483060826599, -0.09561335025063865], [-0.24464063201501715, -0.02425561289831573, 0.02308488271452912, -0.2575127577583286, 0.0459438750661307, 0.04105657402347361, 0.06791777053986814, -0.22594581667854272, 0.28277253090777765, 0.11538641112662502, -0.071996173558996, 0.05000943556376856, 0.11652801738764473, 0.0541416515237441, 0.0007307142687793943, 0.18789628805621028, 0.22933684282254516, -0.08163111897236325, -0.209173743968449, 0.17923616785155638, -0.048053477881922206, -0.004797393215528691, -0.11419092192274685, -0.14843073305996826, 0.06633687248314549, -0.20337728893286944, 0.0785709710488778, 0.037297207487787726, -0.19796159852134593, -0.02429242919611365, -0.09548611632117156, -0.2583857633005741, 0.14034669018942741, -0.3413016366482449, 0.16934759156034188, 0.15997473112356547, 0.10184819894086351, 0.2999679339078774], [-0.025116520245823438, 0.012449322994112463, 0.021809126038134195, -0.009017215678434769, -0.11724793670177411, 0.28623715565348407, -0.18488352760599025, -0.052270716471366795, -0.2004287067985235, 0.5081445540234434, 0.2528616839849792, 0.12833115373007023, -0.06079974857492216, -0.014855008462232517, 0.13479100916493902, -0.31682276867180253, 0.012311390620710573, 0.05797346192921826, -0.2341801051234158, -0.20779477927167542, 0.12684120627138393, 0.13287760698968676, 0.26971930264075367, -0.12273430500048936, 0.2958399100438789, -0.17538177786060785, -0.12076562392174743, -0.12060956576322009, -0.17876555024591884, -0.1657821032812211, 0.05096125897244479, -0.2559044492084664, 0.02871920248642239, -0.18924330949038648, -0.12921294997717409, -0.24344747694703214, 0.17168410355552532, -0.04749969226901659], [0.4564849236967735, -0.055799915158087215, -0.04940343334294049, -0.053428364346741496, 0.09874496102024422, -0.20036556518095497, -0.12547984739521825, -0.08183747668559428, 0.11932910587707488, -0.2218814139121617, 0.3495693777527093, -0.03153580873089324, 0.0808050532022072, 0.1813598448418307, -0.2108094626560208, 0.40876186218947524, -0.3416293671820499, 0.31635296719865147, -0.08540052044747273, 0.009431020826264735, -0.24913178787092455, -0.018609951942728346, -0.010488660030129958, 0.04516584848921488, -0.3091411037834265, -0.5138007124159537, -0.30237442700317385, 0.13931415174466188, -0.042253156853297856, -0.26595579843766404, -0.09421058978852462, -0.11372789507789936, 0.05536622389999176, -0.1857917294908175, 0.1491369459301177, -0.3200932923582204, -0.14625354204050348, 0.1315098832921326], [0.06572223038790535, -0.03304259380026774, 0.004621928299698664, -0.1189210425209569, -0.2607099198642059, -0.42476681599892174, -0.061190061333849965, -0.17687822788509686, 0.2545529535309042, -0.09304397595153067, 0.2588315515319494, 0.010611455097621236, -0.07570128623525636, 0.12322869480748477, -0.24953949976323336, 0.12610160795206618, -0.22632612810306516, -0.07634562700796259, -0.40071635349287743, 0.13804755427564355, -0.17707649290763222, 0.13200676092178798, -0.3712515525579285, 0.26121064404730493, -0.12070457020351545, -0.44359396036404103, 0.23798315764411374, 0.007904806187840662, 0.21569956271720037, 0.13260444966662324, -0.18651206953638877, 0.06341051646406946, -0.06318516601342873, 0.06802648776952709, 0.07982161778295878, -0.18878925787958076, -0.018814695053246643, 0.38698705532993327], [-0.027634868524531193, -0.1822588731123261, 0.0799480229938801, -0.1107649621153058, -0.08172458418784145, 0.028204139416748115, -0.4223776863076332, -0.13412842716453457, -0.1943633850571017, 0.4167685911484998, 0.4765071406545568, 0.0893484847478995, 0.1286579057488587, -0.1995481341743817, 0.25265576943991563, -0.045668966245062476, -0.38606438944323507, 0.2700932868358398, 0.0037855164042033124, -0.16938140139801447, -0.26765069327397, 0.2625025166421828, -0.03593959690367313, 0.18277552644327663, 0.09343793437795532, -0.3018892346277257, 0.10544847349508807, 0.16076607961666045, -0.13851722406418085, -0.03245704012519604, 0.2171890189434503, -0.07446739785897472, 0.11253294643811024, -0.2474346308241004, -0.2124840123443945, -0.021174749163216783, 0.162503200092519, 0.2067915915496913], [0.2766864938970067, -0.31773559095311055, -0.08455081133444199, -0.11348416061198416, -0.06050771166599909, -0.07263380481217158, 0.06240941817702244, -0.010005854638975829, 0.3549062483655602, 0.3429365030479644, -0.044689486829260154, -0.12945788956402232, 0.007654654948440992, -0.07780132138241747, -0.27453449490698223, 0.21768090275578977, 0.24828835252206374, 0.14113668547152058, 0.03319981479467827, 0.0775708612239565, -0.09050901849854123, -0.2088167621426502, -0.12665204477554526, 0.08628351663783221, 0.11626252517846945, -0.32155861981538375, 0.20517491502662738, -0.1507087570698287, -0.23074772013955958, -0.13416503700952775, 0.09516900818061112, -0.1952531814831033, 0.024115726723255345, -0.23649764064268863, 0.1582305348330218, 0.18611823049152543, -0.14306774147804335, 0.12166437763785465], [-0.07805111217657747, -0.12338483603743504, 0.0791812913639048, -0.11052042271777467, -0.08957694181085553, 0.11440408149191436, -0.13538245739696822, 0.019751719018965032, 0.021534304159109004, 0.15776005953466818, -0.08127623487135298, -0.09904694208352896, -0.10023884533165982, 0.10033338315603733, -0.05741845220737464, 0.11188034559269114, -0.005067017672477274, 0.20868261682571546, 0.17339636627797853, -0.11386247533063872, 0.07164034389383368, 0.11063368057473315, 0.3034516370664694, -0.05903358094634245, 0.2180724247612007, -0.18413224112138127, -0.2573799959781011, 0.11880543110273624, 0.050626419592201696, 0.026021530367375353, 0.06225231842068748, -0.37605219954827357, 0.1533850435699148, 0.04234900661829234, -0.05240908250109906, 0.012184442140416857, 0.20825767866533673, -0.06735315016124767], [-0.06877265724642449, -0.19686959151550346, -0.3360599408641696, -0.19453651713038836, -0.1406462803795761, 0.05497611268280026, -0.09325572098236654, 0.07813024902680273, 0.1540402507313396, 0.2807789316592605, 0.16209077510047928, 0.09781238637921935, -0.0020079659388092556, 0.09240677022644693, 0.16565717574169475, 0.08148396326019418, 0.023952373381902318, -0.1888644802615612, 0.0809936998142151, -0.1629333018012573, -0.1976174457145445, 0.06531762509926203, -0.06984457293549527, -0.0508069875999729, 0.1469763805243933, -0.11798385473247615, 0.12932077556927135, 0.004269609959023864, -0.09004231374818762, -0.12429322513859949, -0.059815448232548266, -0.1800691461434635, 0.11223959077649902, -0.12259596356139199, -0.18593434283700447, -0.007256529833887439, -0.01595872107571396, 0.07248210100124813]]}, "midLayer": {"yclassNum": 3, "weight": [[-0.22095836544339786, -0.6601055619282067, -0.5191836055780834], [1.4651585258930144, -0.44165808092531794, -1.0903669770030866], [-1.2147880389751429, 1.4010058790966868, -0.3531929769350641], [-1.8354714547218731, 1.2349316137146318, 0.7916890393835881], [0.24753309665116718, 1.1246961251050134, -1.1134307575890456], [1.2477615727718947, -0.8735158852781595, 0.08918264722603482], [-1.3571860642188787, -0.30805622004492605, 1.4677141286848852], [1.3375249658804187, -1.8886093469610887, 0.6599417604594205], [-0.8556303154306907, 0.06808750149497877, 0.7641954568220792], [-1.5861686380989644, 1.1340724258443224, 0.33445542879476725], [1.2560990858406558, -1.270947923496093, -0.35892239864094516], [0.21860387231437048, -1.526219200586779, 1.6423209068581248], [0.34399421775310957, -0.847563876501859, -0.010597557123049378], [-0.5266724315817664, -1.2343101517214694, 0.9679275941585461], [1.3396960203675874, -0.09290111152418419, -1.7603969208418209], [1.970276374104824, -1.4238842008714445, -0.41169540205285987], [0.4872512192721819, -1.42761857740933, 1.079397199974321], [2.1759173893221524, -1.7612523008342746, -0.8828782628892934], [1.1798720377168443, -0.4379405632137238, -1.0892865350249819], [-1.4965337303469555, 1.1591233163366912, 0.31876797594961187], [0.24784058456740796, 0.34382028220065325, -0.8664625192091605], [1.0654770168274617, 0.6832195991505573, -1.1373649992307548], [-0.5767859336594964, 1.283457732631737, -0.6911811667456477], [1.5350355459212561, -1.3331379755551684, 0.030409791809809295], [0.4642566117053994, -0.12861478652620573, -0.7687088291665453], [-1.3639336899194758, 1.0281551424338027, 0.06308024802453352], [-1.715852649685891, 1.3648701455379444, 0.755493770896088], [-0.37724163466918076, 1.4596851783445917, -1.4101931162167098], [-2.0327741359990106, 0.45196527479835763, 1.4303871296185375], [-1.3755359268818097, 1.6899269343522714, -0.41638359505919725], [-0.5027081254319324, 1.9567060485217886, -1.2806175674734201], [0.36957167561990584, -0.6978730735647378, 0.39421327670667244], [1.1020224642257979, -0.6645283840369353, -1.23649604388077], [-1.1153043180911368, -0.4562048041879198, 1.2392581275372165], [0.500455071818245, 0.922396846065878, -1.070086198440461], [0.3768533800343649, 0.704167311516495, -1.7698097434720201], [-0.4647010765233306, -0.909663577105056, 0.8453720939811469], [-0.7755741440080652, -0.961467490239591, 1.0771299611701288], [-1.7633170660211055, 0.693081209068198, 0.8644087049483196]], "midInputDataShape": [10, 39]}}, "poolingLayer": {"combPooling": {"take": 4, "all": 6}}}