{"poolingLayer": {"combPooling": {"all": 6, "take": 4}}, "fullConnect": {"inputLayer": {"weight": [[0.16627055216135242, -0.016476751640276503, -0.1704883914716572, 0.06907451021401197, 0.25353893983981773, 0.15452764764807617, -0.1351577076114364, 0.10529327748381512, -0.0371408967648485, 0.17040872088088213, 0.12014652064928998, 0.06628913014386358, 0.1230191288093258, 0.22430097590361192, 0.04951420970531792, -0.10317086222876995, -0.0549945358900654, 0.15599686060468707, 0.19193008903001862, -0.03533817050235846, 0.21886695407727624, 0.1264914514482125, -0.06724112918703767, -0.13414892206979837, 0.13351945022134545, -0.08687609603529699, 0.14754485966758132, -0.05669297917502179, 0.1506796169213661, 0.09021774916955563, 0.009953155140784757, 0.06316048705816676, -0.14518613766021235, -0.0026161477060365835, 0.11715798524012352, -0.3026177183738237, -0.2952571731663382, 0.22161987863608065, -0.042820189863358823, -0.013700920257333852, 0.09832882138786816, 0.26977769789047007, 0.07494445740113863, 0.10604659664945347, 0.20216099267004678], [-0.023284929510024616, 0.10946404087315346, 0.06683940348098168, -0.069122899264618, -0.06531636076868984, -0.07000342573845668, -0.020667866152154137, -0.001991611062709557, -0.07641051544472209, -0.09948818065370675, -0.17719728585110844, 0.07970654135402348, -0.04428743525227813, 0.049444974961985126, 0.06449499977274337, -0.01169836942033976, 0.0805349364182461, -0.3068296066103337, 0.11979883400845388, -0.08092687556717527, 0.01961310568578551, 0.012342862096414694, 0.011402279204791574, -0.24316013021494323, -0.09975180217751756, -0.1018050070469568, 0.1318379984994776, -0.06417076253344646, 0.08697146520259601, -0.06367691181699409, 0.03971353845860918, 0.01706742265902149, -0.08267726864215483, -0.07368400996413291, 0.35171339307244204, 0.02684878603928584, -0.056317914785930595, 0.04150719197910287, 0.04708290649648761, -0.03599435545618932, 0.027831601081478186, -0.0409130230409424, -0.10840377855516543, -0.1835743702907402, -0.020193855354505696], [0.04824532954526111, 0.033390607155356675, -0.0917830423583339, 0.13562845234285711, -0.054038651687457494, 0.12336351946021558, 0.07289843417529676, 0.14163483924593007, -0.09496114756973661, -0.024474314799475382, -0.003531871697135092, -0.07598641125990652, -0.08555506852616158, 0.11008181753736021, 0.0524989711831872, 0.07251092126533573, 0.07287608812090404, -0.2345826669842013, -0.03697617960804309, 0.0767222549428965, 0.07443932663534916, -0.17897195503356192, -0.09074346860987804, -0.1807682815390332, -0.11010460769455001, 0.032068450373293235, 0.1281543159692103, -0.07065899998675056, 0.11219616191208115, -0.16529912628235052, 0.0017130450446307256, -0.025893639362461668, -0.019965775193703572, 0.04966698775575887, 0.19746527951370177, 0.22454253418546702, -0.028665112811431546, 0.14987919916926226, -0.022552611319438694, -0.0005926521638452071, 0.18170569501763525, 0.002176364110561117, -0.07006920206201943, 0.01395047566329785, -0.10844597028170108], [-0.14032541392802536, 0.01570134450093069, -0.06279333568637044, 0.02881793514933341, 0.062385705963178634, 0.057021953136124195, 0.10632318245888406, 0.012416523827126933, 0.028302990309277225, -0.08507483739155235, -0.09553734013515705, -0.0822584789499147, -0.029971404121866413, 0.17620719619958433, -0.034344173743049926, 0.1455910830735142, -0.1169950234506036, -0.24735766792397326, -0.004010237770054725, -0.01578911033964989, 0.043019853247945675, -0.04784804707468369, -0.023657682041705732, -0.04292158267496116, -0.12598851307074957, -0.06722109765994969, 0.03450811169857067, -0.014000555292825817, 0.07419688049505652, -0.1313315521615457, -0.030825381471335428, 0.2141261739894367, 0.07785840230934504, 0.09116300586834106, 0.14800742672434564, 0.12442393909412572, -0.01398066533251912, 0.07492528078341798, 0.10938006453311142, -0.1039618790758623, -0.05426122689320779, 0.16732503165598298, 0.007341794910555778, 0.10809454643944626, -0.15090831835522672], [-0.17425042513879696, 0.015764509082370197, 0.03419049735207098, -0.0442938726373359, 0.09040184159138288, 0.03310006649133608, 0.0288995150945705, -0.05720337370550088, -0.08016276228876104, 0.013439347989258884, 0.11669870241357855, -0.16730037577630458, 0.04557126715763808, 0.06497272574083127, -0.013053112344614749, 0.12279656981043884, -0.1101175445102228, -0.1389195297221662, 0.04630858796259079, -0.14580311775152033, -0.07030177935617861, 0.10842313008237048, 0.033066345741256074, -0.0492761111459561, 0.040162547024326874, -0.037290326364003916, -0.0036206651731280114, 0.017511630519076598, 0.09311673213204986, -0.12839569167301793, 0.04053348072039572, -0.04430821271545231, -0.09363627958823703, 0.08681699660692388, 0.12572104147592633, -0.021433771657247094, -0.04830916966387239, 0.059084371045838364, 0.10867444404759063, -0.12801324530182734, -0.0186111534437996, 3.850403818501198e-05, -0.08168309807852123, -0.15475139688102418, -0.0659102348412989], [0.1762702832557416, -0.17815536879796767, 0.05644351409739978, -0.0696371182050807, -0.06363708306367177, 0.12948901885281738, -0.1487060917417928, -0.22723903203699525, 0.006012043067124504, 0.08612198328593441, 0.215976808387492, 0.1735661290169134, 0.011118842173376262, 0.22198197189119873, 0.2603110701085222, -0.1251257365599513, 0.18391016816932312, -0.05758222044078575, -0.09779485569675064, 0.09391363876440093, -0.0788483403760438, -0.040581194217845236, -0.0938253676818837, -0.38487795367154554, 0.15819696716945647, -0.297452511292211, 0.22767663445670008, -0.09162438755745646, -0.11060286569292692, 0.060947652246265124, 0.0384927095293771, -0.21146062712689281, -0.008277491026640778, -0.09744061160036611, 0.2629953315276722, 0.013217208427430991, -0.12698163271370128, -0.15206684504855705, 0.13921664936259717, 0.06326349737379114, -0.1586406676031942, 0.1487816426657212, 0.026317305464525837, 0.13896624161506954, 0.18012531830596867], [-0.016298756631749303, 0.21098458676801646, 0.06527509515343723, -0.025348837592617426, -0.09138772872896504, -0.08525009866446133, 0.0031466099604210212, 0.028205440919632695, 0.031728035515848324, -0.03677681814667976, 0.025657871187526698, 0.08751579745782681, -0.013024388055226663, 0.07411022180665341, 0.006742209458194378, 0.22034149684791624, 0.053851244310935485, -0.3133828047452205, -0.05091360705649992, -0.003511465197917167, -0.06866380793982514, 0.011359590234382341, 0.020664014485542045, -0.14436827415473563, 0.10009408256945722, 0.0780756839033977, -0.03423464248232949, -0.018186444958936086, 0.1196707053318396, 0.09250149199960073, 0.1440316934614299, 0.14374292691295049, -0.0822703097727365, -0.12761407173947326, 0.08364560938105058, 0.2075166675470214, -0.10528507078949229, 0.030480033789343296, -0.13818032649843578, 0.015836150370151666, 0.10706681914012087, 0.015960518983426097, 0.16403553820975392, 0.09527315697516688, -0.2338317010093619], [-0.2084333072418955, 0.18938485462429638, 0.04907448376076491, 0.12534618819705887, 0.06440383540124484, -0.026003738827529342, -0.08762923084915963, -0.049277770179669486, -0.0326948657511145, -0.17680420836173624, -0.1543165218815482, 0.007691437862767847, 0.10868750425500895, 0.14033624123164748, -0.059543488341232916, 0.16317258424448788, -0.15550624875265726, -0.31436860581485404, -0.01055587064295384, -0.037483511648610905, 0.1355752773425188, 0.02586129955560508, -0.1633211944482999, -0.020698429527614685, -0.04097533900980467, 0.12843877355962, 0.06603819290994732, 0.01985084714000816, 0.04207647605447201, -0.15429126888788788, 0.15369589586387952, 0.1039206086444308, -0.11456494814999788, 0.056367299197255145, 0.1344846955130285, 0.18167278405418402, 0.10769837580455854, 0.14621053565751183, -0.054276770417653254, -0.14304799977496865, 0.1417113779179258, 0.18348249003472494, 0.1456372869582017, -0.06484561611637076, -0.06310751794001772], [-0.051062536177206366, 0.11137292609884482, -0.1163935029309591, -0.04727530430635356, -0.09504471512586941, -0.081830740709365, -0.06944100603098455, 0.03313184665383858, 0.16808285881328447, -0.1514402315187914, -0.061746669927283816, -0.05191386248948275, -0.05958751879392722, -0.05630633813469449, -0.0933926516097044, 0.1355325738987741, -0.06573074922648857, -0.0660754220420006, 0.14538181047455007, -0.017544365987294842, 0.08732952634916688, -0.041104181714890956, 0.03482431296119821, 0.01831065984478994, 0.06947599953506693, -0.08658794401697116, -0.07556426919811514, -0.18003531208061652, 0.04429175933007492, -0.06902096102202232, -0.09020871579914226, 0.15648712651475583, 0.06981545801294092, -0.13033820694700007, 0.3429687226123432, 0.09837822615635822, -0.03172545627979381, 0.13681874774944522, 0.10314181802739801, -0.08870162769925413, -0.01836501498376236, 0.2086162126161593, 0.16768333821095452, -0.11616091647087812, -0.1599790406491932], [0.10330918269081116, -0.12920281043702297, 0.12965725450000093, 0.14432630089223328, 0.0779388443531309, -0.028371119548580456, -0.030100278429021972, -0.37330811639803624, 0.17003773538212166, 0.015315909546869035, 0.15411241141119802, 0.007109331109422165, -0.07963983360309893, 0.042210528550981376, 0.4000515148506272, -0.25988735707670785, 0.05335403666864592, -0.013465829721957246, 0.08359155485554122, -0.030513950834597556, -0.21065473665646195, 0.10507653215349705, -0.08751519879192579, -0.29280902744390386, 0.20636332218619471, -0.12256745196335748, 0.11353777348995396, -0.10382788973242146, 0.15609537506246704, 0.1416951995082686, -0.0561934488266334, -0.11355995296270452, -0.13256134583259085, -0.15260461200941636, 0.027426048361631622, 0.08406914535995906, -0.028492205340043174, 0.028325921476158974, 0.051263440687190034, -0.0793736950438555, -0.20147862910308578, 0.0661419169541772, -0.034405598785391046, 0.21734275810647974, 0.21969626097532635], [-0.14824509265722924, 0.06237622200287983, -0.09723594397467601, -0.13418121856755863, -0.09701217816499416, -0.04035899143383575, 0.09955877524193747, 0.061914696974238584, 0.12541723941537894, -0.012507177950384437, -0.12067961047185344, -0.04428123701557585, 0.04440487905169911, -0.01848664228813122, 0.17004778447326624, 0.08311186668908231, -0.06083421415259261, -0.19830549720442422, 0.12155884835734136, -0.11060040352484876, 0.08375444704467437, 0.05543149689861664, -0.027308572185306586, -0.06389909279659575, 0.08917018755623521, 0.10284044848095414, -0.0157294203903776, -0.05989784475945142, -0.002566766978028976, 0.08288483576501923, 0.01735200593967719, -0.05797337281285243, 0.02125279470892577, -0.10297847198598031, 0.1879818401091616, 0.08344804239607122, 0.029078582184396993, -0.044932347086210335, -0.14650904626944403, 0.11911283136539405, 0.1282014089532924, -0.024897767595252758, 0.02042186784338212, -0.1900881752389796, -0.19418821922529034], [-0.02000348592926063, 0.5615127437914861, 0.2830151422475121, 0.2425969616924586, -0.2517184663985812, -0.3397454701113982, 0.06238192581168468, 0.018063846949411138, -0.08753071031358586, -0.10900061248822575, 0.12729633656953493, 0.13129650119757155, 0.08343929197404318, 0.0569479855994633, 0.06089425793355833, -0.4080413014311123, 0.12362695956844533, -0.8158380477709928, -0.03167672905923856, 0.052891844275498034, -0.19645061161976787, 0.13437632073085995, -0.1981407384793964, -0.02362689991857802, -0.16516266030449153, 0.1338348157457623, -0.4590385315511642, 0.06589707684754281, 0.10239592086411935, 0.10124978898085464, 0.05789250842971609, -0.3374849589051926, -0.12698678102731606, 0.23061347515972344, 0.39512259989166426, -0.14137287494812967, 0.4390621685031053, -0.11886036846822862, -0.006687180576810904, -0.0006449295153342958, 0.010217490373386205, -0.6964593834824405, -0.10532461904244292, -0.13721931181087377, 0.30809497793693896], [0.06237518935652487, -0.011843466067344044, 0.04677915656967484, 0.013702085487048562, 0.10170688721418712, 0.12672046974922294, -0.1904870666658508, -0.10913131540803364, 0.051323813480500066, -0.1444383215849552, 0.198311144011553, 0.2264740048098507, -0.08699072024644787, 0.01867631433746353, 0.4048057889896356, -0.12216868798076268, 0.15308215305320436, 0.0012174157588159054, -0.01832797179365895, -0.14812886839452338, 0.04886425190189836, 0.19141834553916234, -0.1786621308147753, -0.4429710809067655, 0.19090993287369573, -0.1443786989853189, 0.05456941226158843, 0.04919996380713784, 0.037558950782624764, -0.07140349174253048, -0.1461051429406066, 0.02246539737866096, 0.02013560145565397, -0.33216153459220893, 0.28468721462212093, 0.0688178171434556, -0.1588076350094237, 0.021153781304155017, -0.0652231517586367, 0.047676321418357884, -0.22890922722571816, 0.05229426077103236, 0.06790073758812228, -0.052873196937753095, 0.12107494653425925], [-0.08653875496333716, 0.1546024002450941, -0.15810057478617265, -0.010142227242956284, 0.11400644198260679, 0.07556258112654494, -0.035697796918197244, 0.010569295272345295, 0.03871569045564244, -0.12897633711793746, 0.12029877843836807, -0.14641714863350982, -0.03172315745816177, 0.07643871943185913, 0.05308473918330294, 0.06015211271109519, -0.17183203584864173, -0.2166148422656652, -0.016762048231819968, 0.05428481442049623, -0.03617174029368233, -0.0012581045014098712, -0.09263174468346685, -0.2403395142537919, 0.060614089848271005, 0.040557642901418445, 0.147627974618086, -0.1573485768475448, -0.047135555407458236, -0.14772068741969457, 0.10403889859410172, 0.06041803682074937, -0.08913365924079324, -0.022556875203424444, 0.07328052357326369, 0.18628790620239863, -0.08907518347610482, 0.07944417683845341, 0.04798232996250693, 0.0035952112649889475, 0.2104027872757529, -0.071411178696286, 0.024088249113476776, 0.024280021648838947, -0.07129439687956556], [0.18196280434431056, -0.139292404041157, -0.016755532347697187, -0.09517883275476895, -0.06286462168074981, 0.11178523649933648, -0.23780617843088, -0.2959190493406401, -0.1215010805421898, -0.1353616519610636, 0.1313626637456026, 0.02306416276896844, -0.06669799117837305, 0.08982846948803178, 0.5081682534559909, -0.3124222287504069, 0.10000554267758437, -0.12619422669564548, 0.025578710930970215, -0.06637030432973531, -0.01893429710053243, 0.13100369219529906, -0.2050723016193352, -0.48646006237838074, 0.17373392978576555, -0.2585693826098046, 0.2252517451318973, 0.14784050570781476, -0.0312746133422898, -0.14213784179116593, -0.041415972492328576, -0.1666063542111427, -0.019985941408495748, -0.23779387255383178, 0.23831963495804517, -0.10912281782345203, 0.008719937428348406, -0.14788849270760585, 0.06837219963054035, 0.010703209580645318, -0.07546153043136315, -0.02269470319076829, 0.07684752275356664, 0.12494092821997789, 0.2281229279758517], [0.20522406321311437, -0.16886510465008386, -0.05207517173998649, 0.059857642874449404, 0.09044418227276171, -0.12404448361869456, -0.29630616179001146, -0.31614409626698364, 0.12187834743364571, 0.05674770962703689, 0.15010723598712059, 0.014164650589821819, -0.14764111798712937, 0.07173738189761411, 0.535143113957852, -0.21383774670352154, 0.07201288107077415, -0.14823868662006692, 0.07432393277438928, 0.08755269511528435, -0.03245666226894489, 0.04743724955866248, -0.08455739430983089, -0.2459942701058825, 0.18632194184709525, -0.22051753730163137, 0.14568844690901123, 0.024032939841240285, 0.06960117629519282, 0.05168462886788177, -0.12013156217687868, -0.1372317138293423, -0.16094567866320122, -0.2530060755611664, 0.08831342828083681, -0.031970218354216734, -0.17941014500904512, -0.1770924901943649, 0.10198340767533903, -0.06543490241855432, -0.010349021424050364, 0.07428869871475549, 0.07573748607643556, 0.1952181499105378, 0.2672944982836894], [0.05360209900492282, 0.09710240336909921, -0.10795002594364854, 0.13395438087915176, 0.079954951780271, 0.037506100896960506, -0.14475910470733958, 0.12885849022406845, 0.1169122744175334, 0.12180099364656692, -0.230931663104726, -0.11731388580007163, -0.057578576040144915, 0.21835960162405607, -0.15997552752736197, -0.15571811027322927, 0.04649235199450753, -0.08805643322579067, 0.314372064295673, 0.0982365603125151, -0.00775443767708383, -0.05114671030934403, -0.3352230661821872, -0.30972476500149587, -0.06925459479856322, -0.2327462093614471, -0.09797338639177236, -0.10040280361026868, -0.0809548299983037, 0.03235536256654441, -0.1523436126262168, 0.07131632225168676, -0.1218518872178131, -0.18092620461848238, 0.23896173915416916, -0.18426807078987603, -0.06523133570976289, -0.020536341865475743, -0.08733236903756501, -0.13921325777608543, 0.04136104106408443, 0.10907962438059715, -0.022343521790704604, 0.11005472706691696, 0.4155991909785389], [0.26576952018438516, -0.10461678939544221, -0.12829990315846398, -0.04808408101018632, 0.0990795538015417, -0.07485975743000002, -0.11745661290024373, -0.20348842912523385, 0.3192160845500474, -0.13979374363845437, -0.005752875963464254, -0.018718381647770864, -0.07852400675362152, 0.16547294236542961, 0.06385931520022413, -0.03696585614741565, 0.05991581949581953, -0.03699744445533743, 0.5153126551684295, 0.021419123178293104, 0.15231866682705272, 0.022917661208160443, -0.5074783193504803, -0.10111415428312003, 0.16143526595716665, -0.2823430769150778, -0.06380912878506552, -0.03948606805142441, 0.1221968382396298, -0.055644431294443596, 0.09446358408876862, -0.22872253602189904, -0.05966075484070555, -0.11416810396171158, 0.1486196325005629, -0.12686421235742001, 0.14168171489325543, 0.10220853641041171, -0.14695426397954264, 0.044336552148483886, 0.01354096572486435, -0.2586113664425266, -0.0442700046863529, 0.0011338756139456353, 0.3285915598544358], [0.2606924800581033, -0.12531439331325717, 0.02950306074241485, -0.10673916529560545, 0.07701687105471797, -0.13724662732063952, -0.01749426201310421, -0.27805886349591424, 0.265545491928842, -0.009530004109269206, -0.22230012748826306, -0.04224443095632455, -0.07951543442563845, -0.0018525983553639514, 0.07790246378764837, 0.0069646167384533435, 0.08331184625149533, -0.0741330834984743, 0.46879342379803074, -0.05870839669897751, 0.11988219171473449, -0.08409616718438331, -0.384625224368393, -0.22765404071830994, 0.017012060590478682, -0.0779950404391026, -0.02996989972244278, -0.1850308221145823, 0.12484018067354416, 0.16095202645012796, -0.038095841461445026, -0.14961984561720615, 0.01982895753413275, -0.06839422604260086, 0.28544825004214264, -0.0009158791508322847, 0.13974150773742416, 0.15840241648383724, 0.10048997896277953, -0.13394263382303528, 0.11588682539847424, -0.299704308924679, -0.061413622885545194, 0.24084510073627818, 0.43207280940723086], [0.27117874868376435, -0.14477994635154148, -0.001361730231009089, 0.017436482427488763, 0.03914737278871413, 0.08489665202929862, 0.0033833874733172303, -0.16563636658682004, 0.40302538280246286, -0.08263927975241363, -0.033162043377847054, -0.1448703035535842, -0.07417153668273951, 0.3144445327617857, 0.07400181973101118, -0.1312031251975328, -0.13797768763483237, -0.2071242529261607, 0.3054394792644835, 0.23181844810778957, 0.04851508779614295, 0.046204756735927666, -0.4536021719563937, -0.044326733239517094, 0.16231550061369074, -0.26970951094160567, -0.07466357787907374, 0.027982207161853505, -0.1643354841956891, 0.0880393019728116, -0.1550212827657476, -0.041424546342482944, -0.08261872611892929, -0.2607919635858013, 0.3092809420763796, -0.3023457312772895, 0.18946135396480923, -0.007552105026562541, 0.05707874801016576, 0.1151497474598602, 0.13720894181907697, -0.1808804266716444, 0.12724404481251625, 0.1418763656080647, 0.44607039639369817], [0.09548927232530897, -0.15210999280975507, 0.05561039740376253, -0.0018697698850951917, 0.015200601634966832, -0.15061174996165622, 0.02317534359922638, -0.14247854837351728, 0.12360117884619352, -0.08115560301168522, 0.006981456885422185, -0.2155286188442484, -0.24123032270816713, 0.002476363391797632, -0.021277222188144894, -0.017932905203354714, 0.13993041498208436, 0.20515414324219686, 0.3703338485263324, 0.06412766617386025, 0.09125216707308732, -0.03044924050264197, -0.1545317035576641, -0.32419256771665317, 0.18011953309158082, -0.10669563528456154, -0.0012414266537188524, -0.04446273774962802, 0.0775281552458422, -0.1224305518283159, -0.10999049881071518, 0.2728011386656201, 0.07693077971299123, 0.12841306392162624, -0.07303074990953823, -0.05117789550654387, -0.11365657512585009, 0.027059352212296432, -0.04200641354141228, -0.050986835720742404, -0.06578698929173542, -0.08931474293779763, -0.058291384656167754, -0.09765715174723297, 0.3355096568950184], [-0.05965574441979682, 0.08980290316788614, -0.027660769475606247, 0.11735413507583158, 0.13338338497818353, 0.034159378747250266, -0.12137984787741607, 0.07877828510163828, 0.3148954877073226, -0.013489133733820699, -0.005991795282676913, 0.0970040842764219, -0.13642412026220624, 0.016858568487615706, 0.03225142008027464, -0.13883748965148937, -0.0023586622684761906, 0.017071842537188405, 0.2102728713136109, -0.054419707687107625, 0.16287734296076228, -0.09136268071279008, -0.3803257180227335, -0.23059735371023085, 0.029700670381030938, -0.025850187797789567, 0.09155776005920718, -0.19589795128393456, 0.0327456918244773, -0.14171061929841186, -0.12599889612820642, -0.04916814959938465, 0.011768433353338206, -0.18169404271904194, 0.33610635250056375, -0.09393321076604434, -0.015564169439152772, -0.1353730111056319, -0.02886990791442487, 0.05795603504794904, 0.149796599459534, 0.0021711090514565977, -0.12460530624548694, 0.12827810998240843, 0.2200366891711559], [0.014286275575546223, -0.023955564418950852, -0.14283720993459426, 0.11560663950466649, 0.33952941703053585, -0.061005209844147874, 0.02061071257932029, -0.07584002654275489, 0.07976915306470331, 0.1418291696769688, 0.144431098533272, 0.03319167272065788, -0.047416367123779155, 0.14557129406787697, 0.05423255495943625, -0.14599732281204797, -0.19497792816578802, 0.025899652450337096, 0.22026153874163032, 0.04486307862675031, 0.1713355923352102, -0.029399416938412044, -0.2340966967067832, -0.18155352720437748, 0.08302222047933715, -0.11269177495275053, -0.04064314140361273, 0.027849262353906865, 0.022601656844875608, 0.05203947756000597, 0.10629406944868626, 0.004132530571811011, 0.10280697645246802, -0.17433059476249946, 0.13168338618889283, -0.26647184197184565, 0.03755118876667651, 0.036330905954023406, -0.1468873574961225, 0.003468550357868413, -0.16668911354706098, 0.1447582217267915, -0.06250011098228068, 0.10217260761727438, 0.19143100921118772], [-0.06698690270869757, 0.03697682568869056, -0.17968806271730597, 0.14058666738383468, 0.11472353702981157, -0.04311746363324441, -0.1433336523252452, -0.09756068712999558, 0.15037422127892985, 0.07804254395753495, -0.12879561692329355, -0.12496684900342997, -0.08230568577436075, 0.16767960623812533, -0.034511221075748263, -0.0819962330223035, 0.11522302568918168, -0.14212506472788952, 0.1386302969908236, 0.05579074505113653, -0.0021523648929492514, 0.016702194886999335, -0.19161553124965594, 0.04880922534651128, 0.009992435867040345, -0.04884351400236812, -0.11412085644007033, -0.1293322753657777, 0.1335799083315527, 0.06225492212176958, 0.0803953369993739, -0.1397813425370302, -0.08189111126629457, -0.04580150086586823, 0.20859540560849366, -0.06441417175554726, -0.06854083127272383, 0.06273951438835348, 0.05525713964814318, -0.14814016427639573, 0.11073196037748484, -0.012825903288018185, -0.08746082616266271, 0.07729614683374592, 0.35425621408650926], [-0.18384995258968595, 0.009101431290534371, 0.02581326164205968, -0.0036118537168150244, -0.006140032971901094, -0.22289839408579823, -0.04857741098875474, -0.019783262995175112, 0.09968601666831599, -0.011174311287733902, -0.1701331130609524, -0.15654623733251521, -0.03253444363470154, -0.1949435798858712, -0.0790174579256901, -0.05549687373712502, 0.2588475545840505, -0.033946854464290334, 0.2259139948190361, -0.028157541367096903, -0.05544542438250907, -0.16528739422521582, -0.15182764275700067, 0.10375510154821843, -0.0770780596119648, 0.03550774781941413, -0.02892189332054353, -0.14543129902962507, 0.06828287606142258, 0.08785166547196624, -0.1112646956453637, 0.027273285005501333, -0.08167507326126415, 0.0954042039651803, -0.05528793378981901, -0.2009646032027842, -0.03778110387374717, -0.23654587350414696, -0.05794383311525531, -0.09261292585265146, -0.030142007377509595, -0.18506688411456193, -0.08200889668491786, -0.12291456323457543, 0.2806795774077343], [0.20160552589173766, -0.09760708468146555, 0.07428912024396225, -0.05944709088249456, 0.0014491412551250965, 0.00934925494527367, 0.023633600495452965, -0.0978045412242495, 0.2170195593489558, 0.08518197000146764, -0.15684071785681217, 0.08730848502665786, 0.0633801825940291, 0.06864386166144966, -0.08960728017148692, 0.05573366483661051, -0.09930917957257661, -0.07542771397654002, 0.4538591356096522, 0.22466397722354775, 0.08712253011956468, -0.14358109522689888, -0.2886903982357203, -0.24204421337623983, 0.1512221093923341, -0.10483214122168656, 0.03638814161769277, -0.24320709418637942, 0.018323230989024237, -0.027359044553979688, -0.15339788438880878, -0.2865011259241342, 0.09641864100423546, -0.11334774300724444, 0.22297984306318366, 0.08792597397463932, 0.1390578770789689, -0.0581302762787582, -0.023105109671551924, -0.02942661615716427, 0.08140354021092507, -0.2011875022567602, 0.11144293769017956, 0.1765578353632199, 0.30791279916835157], [-0.23879118615998257, -0.10691967091802462, -0.08294932820478147, -0.055535815701530974, -0.1063074810021195, 0.04450595161265473, -0.09780205358610881, 0.18080414189602814, 0.034135976114293864, -0.09902398995151818, -0.05084119811170009, 0.07870718081533848, 0.11168990700469018, 0.13385724856882136, -0.0053511587109189695, 0.25921342126695845, -0.06077007415451, 0.2065298020714576, 0.5238705211826769, -0.09187655560904605, -0.131846620743639, 0.025079188296182754, -0.2918613730992655, -0.12690653357531603, 0.025557698500586312, -0.00047420557105104646, -0.2941566322696227, 0.025711627453050695, -0.15225715981272028, 0.028443986936731818, 0.15474743496989968, 0.11350862507376563, 0.1447567528237025, -0.08098156445000239, 0.005690409702627703, 0.0015324143631781908, 0.010691190108670858, 0.10870182513602558, -0.07603954534557626, 0.06988881803888035, 0.1479277628301651, -0.1159018477028181, 0.12147052500245584, -0.02340572267066721, 0.12174099057430755], [-0.012549014664083327, 0.10965584892450372, 0.0789881810990465, 0.06223525785106959, -0.2500565178103408, -0.1783005470857629, -0.023706017907936888, 0.01749297559051609, 0.25464038600899963, -0.1061980000757947, -0.16265381609225374, -0.2889127456073009, -0.05541742704574832, -0.14665812504416537, 0.02000453392780565, -0.0014891580441950564, 0.218390301197231, 0.1251589894982722, 0.5450093587608088, 0.028204219886586748, -0.24287702249948845, -0.05989382342937479, -0.2667466805983983, -0.18185719836826417, -0.051880235637734244, -0.12661577711776645, -0.14983305235824249, -0.06163481580895737, -0.11444714677866408, 0.012225396101122018, -0.18747309680122803, 0.11495107937737664, 0.053484080740008225, 0.0994753139886112, 0.19998556810510837, -0.0523717538987295, -0.031654454565229, -0.17691086359194585, -0.2575142511473143, 0.021654883776545782, 0.025140910354762437, 0.0021004806483688595, -0.09944857523940329, -0.13501263083277765, 0.288480423936443], [0.14437274701356956, -0.20763116354917474, -0.024583467282785498, -0.09839297613441467, 0.012310929849151496, -0.007058410171311661, 0.043341937759766996, -0.3761189563367118, 0.21442913006177425, -0.09192062336673916, 0.19990718991613649, 0.0627199699191255, 0.23705168870336377, 0.08485249997860035, 0.24483442563036764, -0.0758883601974642, -0.028943942695719496, 0.012950613661351057, 0.23432040444415742, 0.13056072558415655, -0.009306724011366514, 0.0670651184093039, -0.24658039216626018, -0.271905711452429, 0.14632760526305827, -0.03508777987753701, -0.16427003601842252, -0.155776445993905, -0.00463688193004476, 0.014432458858774392, 0.07625164730519074, -0.38964658243224515, -0.0211502228057681, -0.3185726087342275, 0.153877182194014, -0.10370702111717398, 0.19887821771847983, 0.11362259156890658, -0.13567620676831071, -0.004517689992947848, 0.11903943633694884, -0.0648460038051529, -0.020061555970203416, 0.24849630053987967, 0.48123691582506073], [-0.14179303813811575, -0.028590912415936705, -0.041926852195919295, 0.10833701846803591, -0.11004799351510851, 0.061647978861318904, -0.12396994678514439, -0.02712224455010056, 0.21195100534935843, -0.06797661205766573, -0.05638759103431341, -0.13904906301429745, -0.1494760332191767, -0.1577792557932976, -0.07522925238823971, 0.04710353287343391, -0.09341586215561412, 0.239456103033444, 0.34023079682870244, 0.10651516688835572, 0.08664760541194376, -0.17239619024418645, 0.03811443455695202, -0.1900840142922425, -0.12987902968385617, 0.047951538799913214, 0.08194773768062258, -0.12912063646487543, 0.015032369779420842, -0.1172013312224672, -0.14100199687128265, 0.20526800377158183, 0.03960754068783639, 0.1024866701964836, 0.22509595831825413, -0.01136052777595696, -0.21920685383908384, -0.06657289195082883, 0.08846441887277909, 0.06183702582504899, 0.06429748960176196, -0.09504214127244182, 0.05733001253468435, -0.20613417238601356, 0.37069697578792554], [-0.21560627919226744, -0.18265337912649396, 0.1313088418967336, -0.005015526899965966, -0.07323638399718382, 0.14363137437939813, -0.1546405902109794, 0.07492598677614246, 0.22973654928877454, 0.07240410852250079, -0.01247553598124291, -0.1826047851998436, -0.025018358517802472, -0.0720236548854603, -0.11135393498435077, 0.17112595707705894, 0.04461137114748467, 0.06040045665024017, 0.24510731254641097, 0.0357274958314932, 0.014918482180735505, 0.09285257558074078, -0.0806190471071423, 0.09766282495150577, 0.034346355569143124, 0.1225535282777879, 0.12559754298731785, 0.08650683341562543, -0.03736251003462027, 0.05381315021210795, -0.11725307369371113, 0.28991691137849845, 0.06897843496735956, 0.209253077356522, 0.012605630909573352, 0.09868735522757208, -0.255196675538399, 0.004431845120683106, -0.10134731662950132, 0.0814573306566231, 0.10323938518450065, 0.14732701569568826, -0.12020210835115769, -0.34226124757870746, 0.3169507816941015], [-0.10941023342047908, 0.09351510519362888, -0.11267189394360334, -0.18090181809080683, 0.009006853406449, -0.005647635328619597, -0.15565041497211746, 0.06784636542836683, 0.1043963126118179, 0.11637958627391039, -0.0904930445122164, -0.025367314987617334, -0.09025074637515412, -0.02252049998923544, -0.04383289229615658, 0.10011367141915253, -0.05300540402280474, -0.026448122042929383, -0.015095311275005697, 0.028297639429412276, 0.11397072391627504, 0.056522873083935124, -0.027295261024469362, -0.12030032700436155, -0.034983966048787875, 0.09463709466208448, 0.011157444453763328, 0.07424007571717511, -0.02624964920489509, 0.042357943458101226, -0.0833193815839794, 0.06749055996820358, -0.037638686043989414, -0.01985499759156491, 0.14460360560035287, 0.07790303936469888, -0.019239116207668383, -0.0060361578586408575, -0.18952785934302585, -0.10693799177799855, 0.2122971834167704, -0.07259108733628629, -0.04729363048571436, -0.18855160715145294, -0.06521423322488112], [-0.1905802102702135, 0.14345351345014698, 0.08778269402439418, 0.017295613548792582, 0.10251013224794296, -0.008178228578958672, 0.01224776068415373, -0.040143242160195616, 0.14388667787959367, 0.0965577624202858, -0.06187227564819077, -0.09874544044428075, 0.08178082087547729, -0.0911598529200912, -0.09787096390571888, 0.052493605223089906, -0.1539174767461666, -0.005117518068056531, 0.11326049959443692, 0.12190328484770903, 0.004830590256903746, -0.18229509902337318, 0.11114136864876902, -0.16859735304821677, 0.02215651712844475, -0.1432905869369028, -0.1354797848339586, 0.027986805017949916, 0.08915839279248061, 0.00667017621304042, 0.012727411420949885, 0.12511294351912394, -0.043676006956917014, 0.08214319277471546, -0.011537523753799638, -0.11410660695203644, 0.12074241228470958, -0.052507218970602766, -0.051872303688432195, -0.023707321418241382, 0.12643152593240395, -0.014352491575881704, -0.09623757644780614, 0.10621555629421622, -0.08061107393713206], [-0.012066354698955645, 0.009791484589011919, -0.18327473155869412, 0.15820198979844333, 0.00794107762300319, 0.1608255498815739, 0.006029439043084942, 0.033763113539436965, -0.056595396579860284, 0.06576475698516308, -0.10892927371334603, -0.1318835607786262, -0.13206843574681043, -0.13143627835122582, -0.053189745188685626, -0.06704434559828504, -0.1601718651788912, -0.14007226857869076, 0.028787097950247288, 0.09144866959025164, 0.16593787920213604, 0.03937015464621884, 0.07926801882552766, 0.0020411987020354993, -0.07757027215201827, 0.0915551448573163, 0.12649284426559187, -0.12699990152520654, 0.09910050743718747, -0.18317332509896056, -0.1323688850213669, 0.1980696638198951, -0.028087349051989553, -0.05738828553918518, -0.03306515320190005, 0.09718773611270948, -0.04282777835812329, 0.07540613380081637, 0.03621898825481333, -0.13756273581306042, -0.00198260967449496, 0.12400071542704887, 0.14673429294303697, -0.17162715003901496, -0.009030854787144058], [0.03919973637393982, 0.07502117560745962, 0.01504302888387962, 0.11696997155736091, -0.08911924672031789, 0.0032519205704046403, 0.029484413209195145, 0.07846941525154373, 0.15110575595267262, -0.03145981470533336, -0.1515832577980723, -0.06782446244884985, 0.023699875112703304, -0.057669481173606645, 0.04956265846116613, -0.06452617235010337, 0.07532728683230981, -0.027465504325219228, 0.019271146761296154, -0.01430154007571203, 0.10297510413182552, -0.1360821547852367, -0.10492266781360163, -0.03316405347897923, 0.1261983151002187, -0.17006308697973246, -0.06971907639988972, 0.07432051879065314, -0.14103775864461252, 0.019799578562343424, -0.03782458587527572, 0.04237312801666765, -0.05918389498119522, 0.09892295487760791, 0.17534946474468935, 0.16469397992360477, -0.07493022307813187, 0.15005301912700725, 0.04981496870779841, 0.05071643896807631, 0.05912402566081911, -0.0070959518539775905, 0.01579176326296946, 0.12384543789274025, -0.03360963973387933], [-0.041604434084977736, 0.026126287312146515, -0.0546690692630435, 0.1114630727687966, -0.038900951861635474, 0.024500037222761714, -0.12413895307585404, -0.16799806058121428, 0.1658968941945967, 0.11490386425603145, 0.13263047306358525, 0.1528525415790685, 0.08327328214339708, 0.08337353861446617, 0.1421713738733779, -0.20421408544121702, -0.08380133651723679, 0.08424843028791354, -0.03287832634784755, 0.04150892020071794, -0.17723762711266955, -0.06976503836992905, 0.01426270198133749, -0.2625463076499481, 0.05808295321746297, -0.047621728057148795, 0.18391954599114502, 0.12445514947655664, -0.054274888300834934, -0.03722885870535789, 0.15699925632345615, -0.11632139354738724, -0.011227499639846867, -0.22074186714158503, 0.16299570491206636, -0.07806892613103543, -0.031375696859045225, 0.0016066178757009348, 0.03559904761690064, 0.004437412824143079, -0.11102038895973898, 0.04396864750694131, -0.007269640564626321, 0.1007225425883764, 0.18333661710975868], [-0.024460464407119315, 0.21770388371816746, 0.11493022561315012, 0.1344000433433015, 0.08173421864338115, 0.14296713722376403, 0.05038005281857158, -0.06614260707455738, -0.041597872593595674, 0.09664813068309049, -0.08208740348554185, 0.08895036457828655, 0.018466973663325975, -0.1604991528069678, 0.010624357082776044, -0.08959234896380583, 0.06653040865721403, -0.04474995092892565, -0.17520954639768957, 0.07561476162151723, -0.00784867968414474, -0.12469796932410795, 0.05646961823658683, -0.09086393110587464, -0.05630759430388477, -0.06656271754050073, -0.08024470066114411, -0.1322226637348729, -0.1290034191357442, -0.031581725828414196, 0.05426952154892982, -0.08526135546238307, -0.15069095308896768, -0.035066076069907075, 0.2138727528660237, -0.014458726567132303, -0.12511035596041495, -0.010473038948673975, -0.0364477712755017, -0.018921175003454804, 0.0707237407795733, 0.1896191546921232, -0.13721865613811612, -0.18646271114622218, -0.0002574035493698219], [0.0803645339767451, 0.10347413702956205, -0.09331505953580738, -0.08648463774712019, 0.08859855624738944, 0.07594831889994863, -0.06356337451148987, 0.09267202046083244, -0.017644906901050392, 0.04898350978104295, -0.10376399558494852, -0.217939723007756, -0.1580779817219821, -0.1660722353070431, -0.022349868081438677, 0.10889098242289386, 0.12861744314857987, -0.21522095995130722, -0.06732957539885755, 0.07026582780928223, -0.04327559936748559, -0.13075291545927972, 0.11574975156533972, -0.059224450194564016, 0.018646104434240522, 0.09525325901233636, -0.07125855774249021, 0.008933288752036302, 0.13497439310583811, -0.1635519400201993, -0.046441192098354914, 0.10835135631127786, 0.0240805888552543, 0.08578507801155354, -0.021192413955354168, 0.00494362033466685, 0.10631029517782913, -0.06889893227420656, -0.024100655571526488, -0.037906720485858705, -0.043801440743251326, 0.18613771558261472, -0.02060515319391964, -0.1862970999205357, 0.050751454274102575], [-0.015336469270981767, 0.15654155937375758, 0.004278835807271839, 0.03929921157592405, -0.054632942739700804, 0.07903051769035524, 0.07742290570070849, 0.16215168819032041, -0.04397120507494568, -0.04789622885330644, -0.033637954128921746, -0.15833114209847096, -0.021580008601029863, -0.1460161675804655, 0.08268051820046039, 0.1196200836964701, 0.013274211686641566, -0.09329054437041144, 0.14544441413048537, -0.044079392968005636, 0.11014622319214575, -0.0019488765437908704, 0.12762125594008347, -0.152165572763653, 0.07305474406338851, 0.08660239403514072, 0.016673001158002913, -0.023727953650999625, -0.0708263314582625, -0.1347224289063426, -0.16863770699617758, 0.1549224758392144, 0.10186681121963428, 0.12562753280127684, 0.21260598928943483, -0.13111275658791094, 0.12703589827219613, -0.17767563248006712, -0.12891232596761962, 0.03059130648156061, 0.13137917801548687, 0.0969251254892301, 0.003617648982596299, 0.059467310823065146, -0.17550319421147492], [0.05961391906449486, -0.03369909632937874, 0.09775906957075904, -0.1357305352358643, -0.13148776202703014, 0.06727390316623306, -0.12770668385271722, -0.11801030903916127, 0.08115099940865211, 0.015393614189931891, -0.12435697997610709, 0.02979487502057743, 0.03453979628681524, 0.0007900799016916944, 0.23078270040999885, 0.08867737949107335, 0.12034065176752026, -0.13148261228936772, 0.11526698386006616, 0.1127733097013689, -0.15074147701472795, 0.026814893491039195, -0.09249905231872403, -0.24157462008517988, 0.20015898623836845, -0.2657893882557781, -0.003830276313052518, -0.003228537139077411, -0.04355185463961194, 0.037657796065345854, -0.1303316962588069, 0.08638087022445397, 0.11111719441378551, -0.2271061727107864, 0.1947949692546917, 0.059658882515996894, -0.13677513085932333, -0.11797291476446276, -0.006549111249222469, -0.013958792839939988, -0.15127805829964167, 0.030041526523697022, -0.19224755930700912, 0.1462441177121354, 0.2083366055097123], [0.08095957039120738, 0.10821990227904045, 0.015071675451378561, 0.12978514212127973, 0.08128072050518485, -0.06115157868231952, -0.13036023632150348, 0.1452474879007363, 0.031122823437169087, -0.1400530885173895, -0.21522220879594964, -0.17439846227539055, -0.058854153522457625, -0.24729857933245514, -0.08685676230731236, 0.01686050015088362, 0.03432158544388958, -0.29015446389873734, -0.05177681127034136, -0.1348334426165705, 0.08158651229331058, 0.005885445106468918, 0.07162060604534454, 0.07205939401178271, 0.11220563733814773, -0.018815706266574122, 0.09005073352302492, -0.03244003254231038, 0.05026834816195215, 0.1071639992831226, 0.10644407858112269, 0.1494390243766241, -0.0180447596873581, -0.10087630173610701, 0.005892830890939453, 0.13051926659595767, -0.17144548751144348, -0.109211241054645, 0.06741589260502365, -0.032803948986065014, -0.071360201194778, -0.07801964251315732, -0.07859052863411592, -0.138399577659483, -0.12852515913280463], [0.0757567147953384, 0.3401833437337323, 0.043044748683467395, -0.005801760993674442, -0.013747666174867178, -0.22847447890953104, -0.06135495157345434, -0.007463267772666147, -0.0334286049526787, -0.15633774166156336, 0.028740674517533087, -0.007351453077347357, 0.17774275878172863, -0.07472206391970627, 0.03161588437259961, -0.10602845834834768, 0.08794617688563434, -0.5460184401588724, 0.030733795949832703, -0.10283344659784129, -0.2059496689467172, -0.03857872505804097, 0.0855111625257915, -0.0771418143622683, -0.1912627367658047, -0.09887880962580406, -0.3235715720929349, 0.13582579225583258, -0.11277047132976294, 0.015166151426109359, -0.10676020764590514, -0.09729470373717589, -0.02235787454901639, 0.0873313239299317, 0.22232714449360821, -0.05063320414236257, 0.1905937678290022, -0.1542250077424474, 0.02505990619888519, 0.052999365346478, -0.009987752904641326, -0.3981885926308637, -0.05699879427762437, 0.05617817008089101, -0.029225200428555753], [0.10931849980659296, 0.09033886277678774, 0.03397676955326122, 0.0403734781573227, -0.11793339285519859, 0.08341019333016861, -0.13835716035877227, -0.2667951478076022, 0.09412854058176992, 0.06748440739787269, -0.02339071262696064, 0.074672550727785, 0.09537502169284744, 0.1105185175697988, 0.32126233823135486, -0.18649642447087905, -0.02708794057320098, -0.025299792178513778, 0.15036314561686867, -0.1687335727492436, -0.1579848010957717, -0.06989742825928529, 0.010754334545591356, -0.2877008851339338, 0.09573312708004529, -0.16071570075066677, 0.15013328211687577, 0.01696836634942427, -0.07589211297540048, -0.05956683317095986, -0.024012030244605867, 0.012799893946970044, -0.010173072785508086, -0.04735184734207667, 0.13504488771325443, 0.09673936927279703, 0.08481185170680076, 0.04495368092595437, -0.07618775139738207, 0.1606336331353855, -0.04953328806096665, 0.19049226538438815, -0.1581166712826512, 0.05503484903739143, 0.16620520081366486], [-0.16180003099796483, 0.06648080560642576, -0.008499232734787176, -0.09763420128564358, -0.031824956823236696, 0.03795387175817042, 0.0775052710402168, -0.010465683599886193, 0.08642761631678106, 0.08116939019154698, -0.06432194414791097, -0.18690957183167112, 0.11986091470445977, -0.041770037936737, -0.07606425666067226, 0.09913630491750615, -0.017770364898354613, -0.034893881071498795, 0.021506490918312502, -0.011461409460839286, 0.1336560479555845, -0.13517315231744187, 0.15920310212678945, -0.12324512702812826, -0.0314730280610108, -0.13579896110338235, 0.05838506696911037, -0.07632136987900376, 0.102700685928482, -0.1290360607086282, 0.024073130025349488, 0.10888182849709119, 0.02975310975803637, 0.05025215224310898, 0.08646793678947415, 0.10508851138880398, -0.17292781691327952, -0.07293353927886753, -0.11338858403835732, 0.057708828170706314, -0.015864227595632142, -0.06660641712484987, 0.07143468127843586, 0.0791709990484375, -0.2007731559273029], [0.14249208503477243, -0.18429795664712192, 0.1399575883594594, 0.009179646797701693, 0.05904696486991501, -0.006980173055553214, -0.12138684829725323, -0.2849534087280423, -0.09910890949435656, -0.15300836100367204, 0.10802664283191343, -0.02923248732240876, 0.09742645185529608, 0.03173548616566975, 0.15141561042526072, -0.05431710250068361, -0.10951935474917686, -0.055819022834618724, -0.041398521886445876, -0.08767647771620797, -0.09123183403381879, -0.05904460626570503, 0.0568471233427841, -0.07636696512746302, 0.016023304436474137, 0.005316663904557938, -0.0006350241025211147, 0.09842336610798079, 0.07217874090974705, -0.08181690233178114, -0.1197839374423545, -0.12563144000844934, 0.1031750968575946, -0.12194035714762194, 0.18320165060279128, 0.012033629438351217, -0.022879277102097917, 0.07270470736308798, -0.13826446877616844, 0.04049295855853637, 0.025265544865294694, 0.22128886073664258, -0.1251187948602598, 0.02875413065727208, 0.11159603603087558], [0.13023920076302092, 0.007974717285875245, 0.14071653712183074, -0.11604176437043424, -0.01785287488303216, 0.0020917317195204435, -0.07273346920501224, -0.16453761789497362, 0.13659563531715083, 0.14197514211083617, 0.1379401974235469, -0.06511798400595864, 0.09463472627896435, 0.07744813979877191, 0.32048943181894196, -0.12378519792259869, -0.0815228970156228, -0.14551141333150477, 0.0901084309627845, 0.034449302517108454, -0.16581776728058256, 0.05576866766298646, -0.010992675237148974, -0.25740293721620294, 0.2630175300765705, -0.1497143846169034, -0.04411608050234995, -0.08576319306766174, 0.028972303060210737, -0.09732101597883609, 0.020476249068717752, -0.018039963513398257, -0.13056555303494471, -0.2080508545736528, 0.1803080209720738, 0.13555896728471484, -0.09974184047945156, -0.03185900446961038, -0.12232385403193462, 0.12303975986718743, 0.08813187307240705, 0.03494173494907475, -0.08182902698638991, 0.12952643225600005, 0.1568577160463949], [-0.1022901041396472, -0.17609857392545267, 0.08628475746836425, 0.23858698222568925, 0.16082094298995153, -0.06733935127587112, 0.029859111659102704, 0.09782371511848714, -0.3635249807383695, -0.12654288188817706, 0.361434439575657, -0.11432968996963556, 0.03463778005704955, -0.013193632821225963, 0.01375374515982543, -0.3074027609642615, -0.07248438999278087, 0.2553738462512437, -0.1022742053648552, 0.041646647217369936, -0.1294219942876809, 0.13667189278405495, 0.24810175742287757, 0.13896517481602028, -0.006256392367635722, 0.0638955092426518, 0.07888577409861552, 0.23092619288424107, 0.056920937731949096, 0.03597780350701261, -0.031328257387861054, 0.06583365457162474, -0.06185561981331984, 0.06678345628885546, -0.5497180806110076, -0.03277085997722952, -0.16160192558873554, 0.07661336881178789, 0.22227213978245453, -0.04583351531770718, 0.05973167424106103, -0.023814029879429023, 0.20250295696407355, -0.13379473511638834, -0.10797768890497277], [-0.26860719730976707, 0.3197483544719245, -0.02918504097887929, 0.14741064378259233, 0.23797784338524336, 0.05663254035040806, 0.1547397986925508, 0.03514875885685439, -0.21284216887498356, -0.04922534562465361, 0.10667047146998349, 0.05836913974026352, -0.057365974682609434, 0.16813561541430652, -0.3210086639455891, -0.00954330388655553, -0.13985768000133175, 0.2981165287656515, 0.03605906182787553, 0.03207625451229956, -0.02327766509470917, 0.05820290989789219, 0.21437067880103863, 0.08869033155802318, -0.16381772215260287, -0.00036927064587954873, 0.048678401561333656, 0.15841766667355514, -0.01562064941954782, 0.00416710598650848, 0.2503464326381998, 0.022275983113088087, 0.028281156706210352, 0.25310076943610726, -0.19196303287551755, -0.19114020350160854, -0.1793825331570063, 0.08246413925543783, 0.17372900893700227, 0.06320624382828054, 0.10615024205029924, 0.10040170596123332, 0.24821892174784313, -0.09178531559030968, 0.004829928181226443], [-0.08876166911082992, 0.1425796723566846, 0.04561602395675764, 0.07295664550027661, -0.08272748300477804, 0.036199279179469926, -0.031024270013269992, 0.05889273016875931, -0.09572783917336856, 0.03523812060826602, -0.05234600418368054, -0.1978565133563217, 0.06697689476092004, -0.02458721077115744, -0.20951800638837337, -0.01759660027167651, -0.04344237539354136, 0.008957381613882657, 0.024964004394206787, -0.20661139822571914, -0.2603910812863144, -0.022582399842129883, 0.18648118801806865, 0.002892035264035219, -0.06253024758632951, -0.08983797067405636, -0.12181082060011204, -0.1855984237615712, -0.06871945750869986, -0.006852529934312946, 0.21155699554032217, 0.02758840699164363, -0.08350994633771451, 0.08161998894640556, -0.08134032782028885, -0.08547061236886062, 0.10961015552200512, -0.04961776891557831, 0.003118975707242057, -0.2099417094672463, 0.02163286405095936, -0.03186995070614032, -0.10666357228472051, 0.01988091963494077, -0.05871288111945491], [-0.08953323809303163, -0.07157119176704725, -0.04087453950424307, 0.16318129026352585, 0.10917563501310806, 0.00523337420422862, -0.04074623643991232, 0.11475175610013863, -0.4359640097399491, -0.09312021848808323, 0.3109852567609925, -0.12522815895529602, 0.07023918033177282, 0.25199132018781323, -0.11345681432872112, -0.003381974417243621, -0.02894660038222606, 0.19993071659917214, -0.12009892667149821, -0.02544603903996363, -0.10676063885005774, 0.16450216421098593, 0.13203501579235352, 0.005209565666722239, -0.09540057846934404, -0.08103607262254177, 0.1278932924686902, 0.056773488633665305, -0.08660233058703859, 0.07304727379988707, 0.012822027398499948, 0.17223472277309476, -0.1055131958381713, 0.18409449060784533, -0.48488073731755804, 0.08857275616902517, -0.10203422884599994, 0.05541955682587457, 0.02399640194719678, -0.21674685595057136, -0.12087154965686277, 0.026447974955424548, -0.021089021874073532, -0.1876265617971251, 0.01219817092527094], [0.016849355789996023, 0.005473810722901491, 0.0022656385289061397, 0.08521857515128511, -0.09432222476722406, -0.09967596420301471, 0.01074425351009004, 0.140015956123069, -0.055057624969831, -0.09530846626298473, 0.10592749185348944, -0.12861407949175033, -0.16420330770680638, 0.3577367754158389, -0.07968384718870886, -0.36062198413171176, 0.009256324925024498, 0.0724218496080332, 0.0320987600194285, -0.1333060102841177, -0.2123852846175552, 0.15039634669395605, 0.06898491351342743, 0.08786576494410708, -0.09322355973830936, 0.04701587362649887, -0.07599965219890811, 0.08754269721827507, 0.1308539121340635, 0.11023041865871062, -0.07488272830471278, -0.0240353256219866, -0.09536300816819637, 0.004818931816076623, -0.44133274802570777, -0.1230707836437149, -0.08704001819958974, -0.08645829151256441, -0.07546439408396186, -0.0040565728071643, -0.06865680579099044, -0.18400418150632752, -0.05908138553404058, 0.007698854370554142, 0.059449128303829854], [-0.3761813261603191, 0.015150832331922956, 0.23220187157733393, -0.07403670107952266, 0.052298752465010125, -0.06253300760296532, -0.08446201060573644, -0.432090563909787, 0.12521255997535854, 0.03031403814577355, -0.18833693023599915, 0.2973964143236302, 0.05400909150950272, -0.34894362341708157, 0.32777990792420797, 0.4496255301361166, 0.08394380625724374, -0.17601164835028724, -0.18077271152375854, -0.08219730211626537, -0.009720569244609657, -0.01217417174665759, 0.17678062375285122, 0.9447482948372224, -0.1683266455496978, 0.36591312778635915, 0.16523729842458315, -0.05196885922276152, -0.10587059105671925, -0.08585591550356307, -0.02009134069123264, -0.2591659544875862, -0.0010810710854757526, -0.15888399179776974, 0.08857319406890013, 0.20328640203603499, 0.06941675776077205, -0.12560735152002273, 0.017807080922319595, 0.17790583673272967, -0.10832623849210064, 0.03194160430264514, -0.0401738780160797, 0.27870662823010717, -0.36106834517858033], [0.2336020306820089, -0.36198044545745256, -0.11937428345099431, 0.059084929926310925, 0.09813758227419431, 0.1501300051543666, -0.10416936109446599, 0.06643985061134625, 0.019883216724754946, 0.10911195205887286, -0.22838972561878182, 0.011464637140104606, -0.05222825696317258, -0.04615175650276333, 0.08297692732335527, -0.06664748822373086, -0.01758082588090971, 0.3087710018079898, 0.1210324066740888, 0.03759353561573426, 0.08700833148209484, -0.20278927493204285, -0.1530541406059742, -0.01944855248124895, 0.12448759536130664, 0.039037305891558155, 0.04234202781334611, 0.06425986559466479, 0.07018756410920528, 0.09916891176006286, 0.0515010582494691, 0.011787182602008409, -0.08886590611571323, -0.14224643279968288, -0.09395097265101128, -0.08935393009236531, -0.06718399066721903, -0.029064853102088846, -0.1625795909478366, -0.007790148623896544, 0.08783905497078126, 0.12329124676576356, 0.10810532110246666, 0.014888195778206147, -0.026661987840426976], [0.1183945031974932, -0.20624588972288113, -0.13906828698171209, -0.09973177554322754, -0.081346156311551, 0.13344616548512334, -0.15371032938770435, -0.06565579767030115, -0.161825832136786, 0.007657258404068313, -0.04682898782466173, 0.1072933462283935, -0.0617234894775801, -0.1433870521011781, -0.20962527041032375, 0.02834390843331129, -0.1760101653334607, 0.1851200796502596, -0.036604973209318416, -0.11741254968103396, 0.012982938498667135, -0.004421586472711694, 0.12047405205449102, 0.033189027863497915, 0.11865774244270409, 0.08155524490506864, 0.08230761851623931, 0.14604262467211965, 0.1641767113282189, -0.12231068457307594, 0.051096216095939166, 0.0624847728153023, 0.08748917792961904, -0.09407045393816102, -0.38012546673401715, 0.12393988573159047, 0.003635521824018475, 0.055042526697950164, -0.015437349593842757, -0.12004954956668974, 0.12753956469030153, 0.03813516585171948, -0.13606199372301692, -0.12587824899778813, 0.0019639193342000268], [-0.08704208781865184, -0.17524898352539497, 0.0009936024567722994, -0.12046803449064689, -0.09207148106056884, -0.0855020191855711, -0.011588942708410013, -0.10301426170376307, 0.2596550015200375, 0.04827665802771477, -0.28583952252822703, -0.15235120407871494, -0.0904804293857848, -0.06495958701191226, -0.0965475785702535, 0.08503944465888763, 0.080408666932925, 0.2873882510026009, -0.0395611914148281, 0.005183480494992577, 0.1355588845033782, 0.014469481072578793, 0.11148020588956732, 0.17560688207864092, 0.006376285563235188, -0.06696569615803445, -0.08490026009112238, 0.08799218738112598, 0.0367535468211218, -0.06752648471610553, -0.023368858078711648, 0.11511685712471394, 0.01821210075499017, -0.13550752317600182, -0.11455569310424153, -0.1110935900509803, -0.08341773007745255, -0.12538163102713124, -0.04905762416658895, 0.05813401513646072, 0.08377176182682022, -0.14150353725853898, -0.10199796055168632, 0.09847780366648484, 0.1927439318056146], [0.08993972043399, 0.14328847215838697, -6.72350535691757e-05, 0.07228653714814058, 0.15203392066425378, 0.038447375502501255, 0.11926486429804316, 0.25832098128231945, 0.08243631486286648, 0.10090524227929841, -0.22333463837676404, -0.03848424687739138, 0.09118738113241238, -0.1859899893419116, -0.29807450829410315, -0.05238545372063007, -0.20679740149377485, 0.21058127013284675, -0.039159898556880596, 0.0341020028253497, 0.1924242176865859, -0.16279831531963354, 0.24314818648905143, 0.0954527219005361, 0.015599014317442903, 0.14525793893521413, 0.16204068255148296, -0.11963389535366425, -0.08213766607960439, -0.15474490300931854, -0.07558603114335444, -0.08678534850405742, -0.021337339956590724, 0.20555968806417196, -0.04793343107700865, 0.14565105073917445, -0.0740300732268621, 0.10218543430980404, 0.08572490815208837, -0.03337004736053313, 0.07103309293666568, 0.29004578598762687, 0.1884128607212369, 0.16137632744921848, -0.20118652110131638], [0.1158530945024553, -0.2832041779093202, -0.06151333566221467, 0.020535124641801877, -0.050889173004890084, 0.029619630361164835, -0.05717613666160063, 0.11631199962609294, 0.18533341548013438, -0.04001952992403473, -0.1734578579637483, 0.15659634534405645, 0.0077785302204389775, 0.14745665558913937, -0.2493172878725401, -0.014849070596547118, -0.0042416649741865604, 0.34219541431375233, 0.09700306998852788, -0.06203371214597746, 0.2702710255333049, -0.1369851489433399, -0.13842467587137922, 0.10737362440512614, 0.1466907648479798, -0.09787322385306721, 0.05593828066057573, -0.09977986970405313, 0.11310794348599539, 0.044110900034670664, -0.02023268277595589, -0.19837401377014893, 0.028678396510181184, -0.20418451205733423, -0.12078156270209202, -0.013093085355408634, 0.04009795342040965, 0.013336873042157226, -0.06264423593466013, 0.14227744710872467, -0.06337283024762762, -0.00032204911851867256, 0.014385229801247658, 0.07743665483494344, 0.080149866062105], [0.06554078846704686, 0.11402271448642565, 0.039891251234233094, -0.01592528663183876, 0.009346970867241055, 0.11190942271873189, -0.009986752674468724, 0.007646075445227966, 0.2625312406232719, 0.09880635799625061, -0.0223646587473408, 0.07137510179959536, -0.03684011761557092, -0.17411195889988973, -0.338891344376683, -0.026040152588915406, 0.02605749483960167, 0.3137897290267948, -0.06976102136861029, 0.07348874355354114, 0.04424872919102651, 0.07724904529838829, -0.05511455298326436, 0.10155522231769094, -0.13327718101778815, -0.10608470674042372, -0.14898362169110066, 0.020189598152979403, 0.1506064627092121, -0.008592778929644388, -0.08165617707982518, 0.0630199303228658, -0.1351583708842313, 0.22565273959907392, -0.01899169231418607, 0.010575595352646128, -0.18455025164032157, 0.002694435161366496, -0.15930040738731915, 0.1427550427532053, -0.04043140416052382, 0.09858543168114167, -0.09585910666850062, 0.07166383760618997, -0.14197599800615276], [0.010248652173550877, -0.17456449665262352, -0.21433595934372734, -0.12864263895167202, 0.10444938397003797, 0.07505959865654792, 0.07944618940948771, 0.071522180824607, -0.1274087854328438, 0.14505034740076642, -0.22372792172990674, 0.05505491403025196, -0.02994723224151537, -0.09292517974685272, -0.28777884027989115, -0.019262786978517663, -0.1582666756590573, 0.3489650834396807, 0.09174015408596214, -0.014850674440960653, 0.20903128089874162, -0.15751774778516583, -0.10068510485725383, 0.11634389647804737, -0.009775172876728393, -0.06695320707820615, -0.11723139189177804, -0.12945377491204502, -0.11155722143774441, -0.1486424132493276, 0.031327868738060885, 0.0965413838267607, -0.10550650800685975, 0.08498274448902392, -0.10660504862376177, -0.09724319722598099, 0.00025300683072496664, 0.24440198386175643, -0.09039660738642823, 0.1484051790779225, 0.16170824613418797, 0.04856137263945451, 0.10342822431281541, 0.014460130906690806, 0.009941521638174867], [0.046498400836097846, -0.1620200432852692, 0.026125088928287413, 0.0217889500671467, 0.15849891915168765, -0.066156474846819, 0.15768268248983539, 0.07774152379560872, -0.09388323060262495, -0.07530534074281654, 0.1407538295084734, -0.1325460167963957, -0.14367051917211504, 0.12785756254230227, -0.06086181307031491, 0.03653582435452075, 0.0059303344259392776, 0.09352383996793769, -0.2436066976488871, -0.09652751826093212, 0.005176066103471241, 0.047332682179745185, 0.19085484525943291, -0.06920861282603645, -0.07264598359252983, -0.0825243890352188, -0.0855302765716269, 0.1642141469836468, 0.15041363375457548, 0.19818797161742993, -0.10257815316639823, -0.09643408233567419, 0.02417143952544661, 0.11003979313916384, -0.006363171555020744, -0.1533866762089702, -0.1708165334420294, 0.0063233939114042915, -0.10830843260433573, -0.044291657835306, 0.006615287678835217, 0.036844612121220234, 0.09464613799092585, -0.06569886476031546, 0.05495102698959467], [0.3123656661116221, -0.16443518206112454, 0.020996935102024175, -0.17748026836521735, 0.0641348515158628, 0.05040273564771812, -0.006153520830345267, -0.12210613853432425, 0.1549718299162078, -0.09773163247391062, 0.05733412047222178, -0.07601744626618503, 0.11912452696550806, 0.06765255355975351, -0.17460034351274603, -0.1465199541596697, 0.177552744287427, 0.3716867311072093, 0.0764182564511391, 0.157082669966939, -0.04980928274287631, -0.06968060672057469, -0.22689455507092687, -0.09573731584538302, 0.01738766455943125, 0.03306746248217047, 0.07047307881312823, 0.1366600867502234, -0.061443881661448804, -0.015937382516465978, -0.05429185831543215, -0.12084412748430912, 0.08931681689325989, -0.01199633680855318, 0.053072826434296526, -0.06674382546485369, 0.1316423585031901, -0.17425623565951445, -0.14329725429963835, 0.13606645442834803, 0.024100578704489284, 0.014633258117619848, -0.008698690796776022, 0.23332069309579387, 0.2923859836623545], [-0.09842123759720736, -0.03766946497904283, 0.16405274750895593, 0.20420505697915703, 0.027840964570774673, 0.09495265829831236, 0.03428010810050461, -0.008707356825668108, -0.26146779327895614, -0.12352247131190572, 0.1298285784458871, 0.06981574872667429, -0.06602669266031119, -0.030408731228116593, 0.06892688556677422, -0.23873038601960675, -0.12460543301811733, -0.001999428460776719, 0.06279313478111324, -0.006869378064203849, -0.12851418125073666, 0.14393723346303997, -0.017993631350319075, 0.08618630274788133, -0.11423837576478446, 0.02975382952670011, -0.08466157577072862, -0.07600449871898167, 0.07751471139234195, 0.13159642008894243, 0.05416101612298309, -0.057887385343169354, 0.1307440923903397, -0.09621175955039504, -0.31723116695055187, -0.020413649048565206, 0.06670083946195751, -0.15047637971875663, 0.09189065164119352, -0.142258864261185, -0.10512005980021195, -0.10327128510493255, 0.044052987578890375, 0.0028299881452814976, -0.061146855385419405], [0.18941588677616256, -0.06441213535879615, 0.14079281949909503, 0.10311555982736463, 0.15305159733323437, 0.006253665872365358, -0.14147275681073485, 0.019339925713245467, -0.039035525078175606, -0.10436124410559225, 0.22490709730518538, 0.02448815478784853, 0.1532436094455173, 0.10813659037117083, -0.11137016938338354, -0.26527392192999383, 0.005346148220583833, 0.12320374532283027, 0.09115384712912193, 0.05039872955476489, -0.12304331505613517, 0.11315104833135138, 0.06841295769285446, 0.04160603323301627, -0.025099380217264714, -0.0389875175770603, -0.11375476915908482, 0.16884419909527526, -0.10372719456916721, 0.14245703969489865, 0.09884561643483394, -0.08480303930734628, 0.049863989425498155, 0.08958705824339054, -0.1727317631746785, 0.024364441592897135, -0.006516073420141695, -0.035867695748950254, -0.10019229537566242, 0.06940731744590899, 0.05222551134260857, 0.10630713079210655, 0.014097213239628812, 0.17043166879508975, 0.13687219176175563], [0.14466829318710187, -0.030718526034496083, -0.010164348574483967, 0.17455182678908424, -0.09316618684948778, -0.04239165759979781, -0.0829995552424368, 0.007779066250257133, -0.19604525011188237, 0.06115945313959394, 0.10962384272456135, -0.08348206943261874, 0.14796308986018886, 0.03834815039897227, -0.06566585879896286, -0.1899748324742403, -0.07591525170541877, 0.14174176697640833, -0.03972763218843773, 0.07343273620562871, -0.2676096031944424, 0.004100034874069417, 0.05973359705690854, 0.04892606589558903, 0.10582031859907905, -0.1531073813728561, -0.1866119583927606, 0.03550621923979149, -0.07443654460994305, 0.05439671144659821, 0.169711833481324, 0.04744523607426412, 0.059779978081069184, 0.16531218162897796, -0.37367609436617255, 0.018942722937694445, -0.08476104956981775, 0.12824003202365414, 0.0701988866329867, 0.09385950357838292, 0.046030740716376105, -0.06572357245903787, 0.08530728241386262, 0.13391067070264848, -0.015257573202051702], [-0.06462467298537895, 0.0056201700449181775, 0.14787540403180033, 0.07787092738744306, -0.07421457680321399, 0.09954093136470586, -0.09230009928853511, -0.07441311491699734, -0.19283107110757639, -0.11478370444686507, 0.1451333795402418, -0.1319380390425871, 0.06488265638825792, 0.11366467378869435, -0.21385204688250967, -0.2322655776990626, -0.04436895421232838, 0.14372443123879905, 0.16422470721702284, -0.005766171412206965, -0.07882565698519463, 0.024962776374958938, 0.017750505318553753, -0.019073090022462415, 0.08970850618357015, -0.04008005971513591, -0.024873247837370653, -0.011547221168930364, -0.12080032089908997, -0.03123207612014412, 0.13003116996979283, 0.032236672410689386, -0.05943580268420857, 0.13915952248996885, -0.26230124044661274, 0.016344745666991747, 0.16098967806630157, -0.15437572866491994, 0.15822377860343892, 0.1187588140618025, -0.008906766155359805, -0.1400316329832506, 0.0517508729587469, -0.03301716787915773, 0.18036883039685472], [0.19878993155796895, 0.18089638919463674, -0.03152145722355016, 0.10223812309575786, -0.11885478184569073, -0.08525020602518454, -0.023006034072184295, 0.002583601519651236, -0.2292206481600471, 0.04405902872975003, 0.09013395932199944, 0.04426942328814081, 0.13581179839415516, 0.13196280273366048, -0.06756957722492582, -0.0707310739358002, 0.12977138805100347, 0.1108633763332846, 0.07146921209679366, 0.003466477562471876, -0.2749384631558639, 0.1548079490043067, 0.0434552129315055, 0.13127848348552856, -0.10648903265162322, 0.12042539196279593, -0.07318117257927986, 0.012502206842374452, -0.039919401448584295, 0.002144547604723941, -0.0056393326680469385, -0.23526458572154374, -0.06848353322620775, 0.11959426791806183, -0.22632174559130996, -0.11268621677019806, -0.03231299629937056, 0.041895827241640246, 0.12860889620339547, -0.02812268608018728, -0.1613397374407867, 0.08976653294775311, -0.1047951520808938, 0.03164797724225774, 0.06180626221473364], [-0.32966607280423177, 0.2969538375753409, 0.07832521073893677, 0.02346548589212045, -0.07435825522992674, 0.11224899774810689, 0.09225670292139598, -0.09012555306672881, 0.16245091585825053, -0.14330633787447142, -0.3004789545597041, 0.00920710185983437, -0.15365184852956562, -0.4287010469267369, 0.02932328520165423, 0.5977299927343722, 0.08491017153590116, 0.1615612444710733, -0.5501019809572657, -0.19560341501802245, -0.1107155633616639, -0.1468784715219699, 0.2042024066322252, 0.841044961390822, -0.012059483591529632, 0.3176502372072317, 0.07134900517912665, -0.0320377975080503, 0.04090826781888455, -0.14052713415603313, -0.1770684545902336, 0.10793770959337777, -0.009659061867907074, 0.1731240148021602, 0.26047420369576296, 0.3581167538865099, -0.12326558914742548, -0.22677957717361616, 0.04836118727819591, 0.15328251630585346, 0.02994020741197347, -0.0008666326924461733, -0.1631653257808488, -0.12326161458975009, -0.6338551318177236], [0.061235206512458076, -0.21819949875589995, -0.10757805612351957, -0.025314782888391524, 0.11447786176259363, -0.0378893119014752, 0.032706203077555916, -0.007595807704995707, 0.1860600174807015, 0.17328254710137225, -0.12418465930539564, 0.07588586295769788, -0.031217406965442698, -0.3336677019510668, -0.0249633520927079, 0.09487882056830432, 0.046076814502489225, 0.07555519294599176, 0.07323367828737891, -0.052540979294159504, -0.03299499246819943, -0.09552618776735776, -0.21179082918678285, -0.04981292787306314, -0.1147841402440264, -0.0026938140933823844, -0.13234779924788945, -0.05621241301894735, -0.13926114297390252, -0.061392068142610313, -0.18315217559087577, 0.03281059178276829, -0.14676729682924383, -0.04843480626186322, -0.0842187686428183, -0.13274674808666836, 0.0004796637238736644, 0.03821504626384256, -0.09571069261263919, -0.009595090852348184, 0.10561680001307806, -0.18004453330971457, -0.1893861271110797, 0.05650259211896773, 0.00028299147160027165], [-0.07703271602626756, -0.17520768170235868, 0.11494919820521335, -0.2288699530264624, -0.04966031462960311, -0.10263228550945008, -0.05646648314115426, 0.16326211392397222, 0.2461261749139976, 0.05764129311937215, -0.22693715371873432, 0.07474249054175226, -0.005118582278663349, -0.21176029698037815, -0.0007533022850596083, 0.07154620383608157, 0.1788599447478005, 0.16730972620993975, -0.19064271029282778, 0.04732953200904181, -0.004507787019081083, -0.002926157501838915, -0.08518725982724841, -0.07784063071522222, 0.1308063729056249, -0.15363136489140533, -0.1484080948732165, -0.0442825339951703, 0.08033646275953346, -0.005308822031815612, -0.2015148712215814, -0.02645009403034121, -0.06752424248054895, 0.026718032643208198, 0.05061271397591843, -0.13995033462199255, 0.24161537866215116, 0.059543486109664236, -0.1080376202149252, 0.14065961903273572, -0.10958341219543627, -0.30766223559730715, 0.008870108868124404, 0.021599238393853942, 0.010761556268578666], [0.10070855054994045, -0.22455634527122792, -0.04321291820878, -0.23374494904961643, -0.008156556846515374, -0.11008773836065902, 0.14225077190454863, 0.09348367672370944, 0.035706584262487365, 0.1608583755258583, -0.24573581348932666, 0.04172168208366977, -0.050878202017612006, -0.23780939514003227, -0.04038447122738518, 0.050989911310986825, 0.06331506199060111, 0.1260340039312234, -0.15953096084145427, -0.005267408910126188, -0.04099103853202929, 0.02025370618076263, -0.086460166170001, -0.07843394081047113, 0.1537487504217448, 0.05317947618352744, -0.1177661977844773, -0.08546538431931304, 0.13101599681410683, 0.15227276285474292, -0.05737431544806192, -0.0478074996355289, -0.12992143687321, -0.15477648033015798, 0.08012658793398802, -0.1620109320882009, 0.24845534898710137, -0.10175892023451892, -0.17493358580789534, -0.02559883793169823, -0.09269528989039971, -0.2877274132961487, -0.13277752487036967, 0.1362940626580996, 0.0847860704831541], [-0.004533617794615949, -0.059110542237331185, -0.04087413827769804, -0.11018279815620502, -0.10277618204436656, -0.1649631254055316, -0.0897190004789764, 0.12493925994154066, 0.22858545512772507, 0.10986445693967123, -0.10310371161218006, 0.06794937152671747, -0.09902746946950403, -0.23349400462813433, -0.18675491028547053, 0.0674627373471799, 0.19473995656021514, 0.22178663425511524, -0.10873906381917049, -0.042009680947610734, 0.10527819827846398, -0.20631331700649422, 0.08887672893964386, -0.08755396729271618, -0.13295007374587056, 0.012450318396928445, -0.2301608811441599, -0.09133305920865736, -0.09612139059100828, -0.082630565545367, -0.08396390922514589, 0.005907379233683787, -0.055264703901977005, 0.11186854976772806, -0.07035404370740922, -0.06315422251457446, 0.22077228181446173, -0.15846077769353747, -0.09184902014210779, 0.04468315152087506, 0.08597530142554724, -0.292287039805187, -0.04939101105327953, 0.004145346548773552, -0.025265069033050945], [0.12189618083456658, -0.0477789551266863, -0.004064572038545864, -0.037011909585242295, -0.035754677375289166, -0.14043238093370208, 0.13132008272175516, -0.06725986748784263, 0.027097640092250255, 0.060536025441667966, -0.20006728393946818, 0.031208568668453406, 0.056601290288903025, -0.33617911681288387, -0.17228037623951342, 0.1205780224918878, 0.15163600003015373, 0.20837789049174887, 0.012169229053709603, 0.061938428246242044, 0.2252722478169924, -0.07387511520698219, 0.012901391846184114, -0.09658035091070663, -0.1207715688680047, 0.04151090505645075, -0.20529898677298952, -0.13302699886457375, 0.14119356116665524, 0.11020774074241381, -0.11226368755341463, -0.0006265067503926761, 0.035128214263586456, -0.16357774784340814, -0.011239366708160059, 0.017233035739091244, 0.1746167761370961, -0.08065213013151443, -0.23331926124673824, 0.0565455478737729, -0.0035379830997084114, -0.04434840347359567, -0.20795677103610713, -0.0418666989812093, 0.08101749023108773], [0.1926682179479924, -0.028397266317833007, 0.09832657198890928, -0.1418785453723214, -0.11746118741512078, -0.13739911836111762, 0.1486500585629948, -0.08806691538761945, 0.15807319082812654, 0.002320409790976136, -0.31365252537210175, -0.02788367395915418, -0.016147345092152265, -0.2941810669140247, 0.03671317932073594, 0.06383562470246854, 0.11947452001745384, 0.09858275876713199, -0.009447593552586868, -0.05266014435390811, 0.04444954047229233, -0.07031762358565133, -0.21201081484248652, -0.07689126428702683, 0.09280889638737524, 0.029645324666497514, -0.13066833022683608, -0.12743654844651514, -0.09031302852836488, 0.0360042963222766, -0.1684633149241359, -0.13533707198108352, -0.1197570103350862, -0.08323320116893156, 0.09696083241247701, 0.06766655077796221, 0.1540439906179534, -0.18292312709169642, -0.08918770792095652, 0.060838946426681424, 0.1215429801244353, -0.28980146996957096, -0.1544118218036956, -0.0594757919857301, 0.043413594758329496], [0.14252378082758577, 0.029751761510175303, 0.10221560653067732, -0.25982727007672796, -0.15977702696915966, -0.13577012630634344, 0.08036768427892561, 0.16498553915409372, 0.2132988464339672, -0.07580590585004969, -0.20664032599992266, -0.15493792216992355, 0.09826066771051715, -0.20592127560206364, -0.15131951968946264, 0.07014022736551812, 0.1121239368619438, 0.26854240671098856, 0.04816771149858183, 0.12435503282552586, 0.1613611225071888, -0.1856808218810135, 0.07100624009310363, 0.11186678993217715, 0.10455572444518602, -0.013704342828844474, -0.02731545110229106, -0.15900783716436093, 0.08948409631137795, 0.12817505395832057, -0.03953919373940679, -0.09515217603897143, 0.1341583363515111, -0.055887379404215655, -0.13258419191947865, -0.047358259299896295, 0.0710935083386867, 0.09272317644179867, -0.09512447947577521, 0.09856557404911238, 0.10871459580787454, -0.22200581233557554, -0.14030717874606313, 0.012902122642680872, -0.09255781993176773], [-0.04206265219681502, -0.1654178889597508, -0.056921065287746084, -0.06265074776040107, 0.017956525109099095, -0.19846101105792774, -0.12948810626302498, 0.09032237774875629, 0.0909533962864746, 0.09643272442133866, -0.25220753390892264, -0.10159102508647301, 0.1334034089236758, -0.3422068916090016, -0.05031097908039369, -0.0544835290438304, 0.18433102742611604, 0.0996742613788967, 0.02535636780430779, 0.056969737083968464, 0.18218578765605392, -0.22324953126352085, -0.08825420937013116, 0.13665613570666152, -0.1270063947526839, -0.16684000005071412, -0.06643014322903082, -0.14661310573753583, 0.11949554104804654, -0.11135106356617876, -0.018348912683110445, -0.06553014348924104, -0.05075985525541654, -0.09136357987011602, -0.002078236588085791, 0.08198564390443111, 0.1362732931414379, -0.024678185119916766, 0.03999518419774158, 0.15809800053043024, 0.012935932690500052, -0.016953526860551647, 0.06880559832546497, -0.07304703704353387, -0.09662626706138869], [0.034298226903253834, -0.006788504835289667, -0.06855337820873483, -0.07951865432563301, -0.14615592635022517, -0.010221818076388625, 0.09703061525063515, 0.15384581009537246, 0.2603663485677114, -0.11718887694715217, -0.18012734379004414, -0.033414933862967844, 0.023819673671461605, -0.11622259148822436, -0.23139852399393293, -0.06799221068712788, 0.08311639996836462, 0.2020126645497872, -0.03814540959217688, -0.08014042133822859, 0.15410739231397955, -0.23731718509526295, -0.04704364776466097, -0.03545770027736436, 0.0025329214234861438, 0.026302510890838113, -0.10869488527558933, -0.02260996708053203, 0.0684186930890624, -0.09793835097274155, -0.24968467802780323, 0.07895079584810442, -0.08205119440816391, -0.07789954633235954, -0.072476519592823, 0.015054831759076046, 0.09557608780115459, -0.01304155853793082, -0.23054214083326072, 0.03874310163640156, -0.06761082212632616, -0.13304939068064275, 0.022438604920128464, 0.1518160086810763, -0.03420831410934611], [-0.046284762230815, -0.12895872139755893, -0.03393293108836301, 0.043407863707030564, -0.08892235166085677, -0.13716511869255513, -0.014795835153449748, 0.07300773617784993, -0.4308451886422222, 0.1398417577434828, 0.3737130349762732, 0.05027672547330323, 0.07079865312356448, 0.05735272453832284, 0.04155050300035055, -0.053228639975044366, 0.0903080329189049, 0.016866099182341544, -0.12236867678080465, 0.1494820608600221, -0.12331616946096181, 0.15481136602183623, -0.09991665179281445, -0.008706621570159782, -0.12776245239438047, -0.17578263880976228, -0.09015069635319485, 0.01522102138991662, -0.05291833519559875, 0.028297637233904313, 0.07586316443989885, -0.012180693714035417, -0.039815292240018375, 0.063545633162681, -0.22719617456497646, -0.04841292842612672, -0.022502484172498484, -0.09482197019502417, 0.0060523942367477716, -0.05919885581858424, 0.15642670876245132, 0.07466776354636404, -0.07586700393785699, -0.008835053215313911, 0.054776509060314206], [-0.04352817822979605, -0.07508200472462598, -0.09319414227056344, 0.07418397459948815, 0.05367842841862041, 0.018457981181929862, -0.08252746765343429, 0.014605813080466452, -0.07193163967361978, 0.16788214324461026, 0.12552582320405356, -0.09498704078983869, 0.03658405145117277, 0.5122023562501898, 0.019721537467575285, 0.04828177597941238, 0.0703766899833346, 0.11583986392754109, 0.03592940914798056, 0.10856129019358217, -0.05906490583753487, 0.010251962491818624, 0.31952217094088436, 0.08737100811002603, -0.00595489965813913, 0.08459655497865079, 0.11057829723353238, 0.10032201170350209, 0.04259840026114662, 0.15163955027466985, 0.020227987992107895, -0.06472213098567103, 0.0003681739738994928, 0.12246739721075388, 0.1548308126374017, -0.09037412598782392, -0.18287712917215743, 0.08658528011049306, 0.09477962589102407, -0.16602904192122767, 0.1050149068471523, 0.0632315291035736, 0.1501861590876359, 0.1316551952684175, 0.009762453118272426], [0.05943378427314445, 0.1388084265057373, -0.00032578223194514743, 0.0561646986056397, -0.07642565492944856, 0.14132218845940064, 0.08992739061938568, 0.2386860923779226, 0.06890087603215993, 0.0433124402082932, -0.09444518537707128, -0.10300382506495528, -0.05722808424914191, -0.0701082278410899, -0.12383696274378708, 0.024186725843893322, 0.02260827653145309, 0.013380895021438122, 0.26953763261035696, 0.06730287167880226, 0.09395473171125077, -0.013282679614352979, -0.11215954340688619, 0.046775901602863254, 0.13387502031457008, 0.10997213250696194, -0.009536691793543287, -0.1820925594794913, -0.1324186991256767, -0.13302726128868056, -0.05283263578006391, -0.004354949539129292, 0.024216568013366756, -0.04819974112031812, -0.06903882818469954, -0.03162923530546766, -0.110291393894415, 0.02802941247758385, -0.0921922923160972, -0.19710475971660316, 0.034674565144160896, 0.29405383991567696, 0.0709440951196168, 0.12849265109317015, 0.05005835938921045], [-0.17557890553795766, -0.13225238478060658, -0.1067448403974874, 0.2139252288781724, -0.027137428509580314, -0.07270425905606981, -0.07725423028135016, 0.07983424891729907, -0.3922637349812578, -0.1405214031044572, 0.24456750597852062, -0.08568369727766606, -0.12817157771698576, 0.29232174176690295, -0.035449926359250254, 0.055607117813314635, -0.01856958789253698, 0.1687166875072264, 0.12129311126106933, 0.031022536531717083, -0.08276830557357177, 0.13242894990719017, -0.006288305134893535, -0.051933816639009915, 0.03328340127810231, 0.031285436917788255, 0.0901317994307127, 0.14834997171530248, 0.02760964822059547, 0.02043798757729171, -0.08617591618330922, 0.2868546821978321, -0.13989925794785457, -0.0946170162478951, -0.20754744735359026, -0.10348347512939783, -0.27964807736867625, 0.09923120156344802, 0.0909700034734341, -0.005039928581044635, 0.061381102567416516, 0.0043759929149782065, -0.06156270821567752, -0.3245952148956295, 0.020689549381102613], [0.07735357037791674, 0.0678807240521595, 0.036103721784749264, 0.13775504168881977, -0.14752704137284023, -0.04165677689195833, -0.03678527492650299, -0.1562025003444468, 0.15549449249358516, -0.017866542889732807, 0.12231124936993915, 0.02311776214166379, 0.020780080354460922, 0.30090503783919037, 0.13164427736334985, -0.05701254906699033, 0.1442482783143432, 0.16557823406335034, 0.16278877895671742, 0.03460081830744861, -0.22188824845596458, 0.13189448531401163, -0.10488016132233302, -0.02227092849953995, -0.022875083625640738, 0.16161055773790783, -0.2944607967673884, 0.19545691727849662, 0.027094265747742933, -0.051880888146521066, -0.07670926924746904, 0.009298355984378635, -0.0982963721133032, 0.025107788269072197, -0.007459882577782706, -0.2777677848346014, 0.11013372074399255, -0.22939391270405712, 0.045218051884545606, 0.052259033653275014, -0.05439037477143443, -0.2946544334749099, -0.160019466605097, -0.03852922805365701, 0.41660003248981936], [-0.03705901245339622, -0.031561941679390124, 0.062189790540777966, -0.1271670288963577, -0.11419911943332604, -0.11716609953900892, 0.02945181623470793, -0.31326992719296387, 0.1643732045556752, 0.0860463117055093, -0.016004268018829256, 0.11582337854897497, 0.15502774822153514, 0.05511703447019052, 0.18366675868690333, 0.25873744990998665, -0.03360133921220222, -0.2913878879416104, 0.06610702954550225, 0.06149947399851606, -0.1351319911939281, -0.09370601840895225, -0.15619315409500592, 0.30746118802077116, 0.0945243158289094, 0.007764576586793155, 0.08952594441208964, 0.02409731863597439, -0.005255441357565695, -0.047927235708923085, -0.12121326846534827, -0.09991990227495508, -0.11156314146240176, -0.27298257775996604, 0.1227698004065419, 0.13936815017165272, 0.19507701031915864, -0.1339134931124947, 0.15476071690442708, -0.1716894077753466, 0.009104942629824586, -0.16228814551291695, -0.004070879263115665, -0.02800789999813432, 0.13008595664698402], [0.04673086261459436, -0.21478979763462872, 0.16548303491500432, -0.16263579386857713, -0.03320055454973433, -0.05488398295765801, 0.10390173156381327, -0.04336367880731076, 0.24938262312955994, -0.050633003363622975, -0.1734105464079084, 0.15347968125580563, -0.008490044842078031, -0.058726520490486184, 0.05505837456508529, -0.04682011399228523, -0.08990666029152405, -0.02238201906317378, 0.15769442034159875, -0.0684509413251101, -0.11262415933117016, -0.07231140115624292, -0.1855227096316601, -0.04656763097962871, 0.10553919692536051, -0.18779694761149604, -0.040935428976695484, -0.14748337761432678, 0.03994957807096438, 0.011669573259235417, 0.06956181075796722, -0.17177813493605473, 0.10038800742866172, 0.025802217743498945, 0.15059848400013776, 0.3094516059517498, -0.03316524528844228, -0.1648531907372454, -0.043717377025869766, -0.05164009158903554, 0.04365614565421256, -0.009439578232430142, 0.012682601123976333, 0.031499306579127695, 0.15024316471207455], [-0.10022016167236314, -0.1526361381567611, 0.25534911514288405, -0.10870349975802836, -0.2144770286796507, -0.033001727375306246, 0.10200684873502354, 0.08176782568101455, -0.13848767647762292, -0.1410423457714215, 0.010270363634589285, 0.21564414484033462, -0.11905093818089729, -0.33020525987560295, -0.05419504490054213, 0.22340111397999896, 0.012398038665840239, 0.03848869290929169, 0.1547314032705883, -0.16668841573335527, -0.10762292830790149, -0.010739232762180872, -0.09479100396989214, 0.11152165507450593, -0.09353518647300631, -0.08503985694025838, 0.09392996736030017, -0.026070249895606717, 0.050002917808104376, -0.14748089259625138, 0.13313939970661262, 0.10509562886852504, -0.07446325407375363, 0.1109748255144602, 0.07226814342125543, 0.3321747337934083, 0.005650782296156683, -0.06194506191831025, 0.14920659072871434, -0.08049895828739842, 0.03925846841857874, 0.06760741464428799, -0.05423263186352667, -0.1932233593817529, -0.09140724035370303], [0.09334991575763937, -0.1089152730031733, 0.04038979882678919, 0.05149180760431843, 0.034340255904783, 0.0908476402052434, 0.09122766084695189, -0.10379097021680012, 0.3334308799683406, 0.1394552737898852, -0.10840283191395703, -0.0737545254948599, -0.27428890588273286, -0.11869985185667589, 0.1368638557554817, 0.0476678889833321, 0.10895060202604953, 0.1853522111633192, 0.1869646875119452, -0.13457397204578153, -0.2023659507307581, -0.21045085787862047, -0.02932917600741618, 0.2326836746693522, -0.03669408386955331, -0.010269598486489461, -0.19498593373541162, -0.09561873753702219, -0.059460498330209645, 0.025419775438034857, 0.0730574658359169, 0.278943803449039, 0.13179459713872835, -0.004093346681246437, -0.08283518759379152, -0.022283180013479627, 0.010504788553311885, -0.060994952444350214, 0.07425936189988887, -0.07517562297818577, -0.13033296692471164, -0.023177289469185753, -0.04444783441487598, -0.048599631903712026, 0.2286155045868162], [-0.13408069587716695, 0.17584812112139928, -0.12620601304809972, -0.1363619237046026, -0.04967465890757778, 0.017999940481778134, 0.023629385182867817, 0.025395987856853288, -0.1881604869749296, -0.13068353523845921, 0.09855825909367993, -0.1455992703809923, -0.05361711001530174, 0.23158399201929714, 0.06918473485956554, 0.040827753116102004, 0.0557194576803936, -0.1854229022598045, -0.23203161420293103, -0.035292409369831905, 0.08485188885071542, 0.029478289514931054, 0.11377462981923077, 0.19823375971674187, 0.058992829921239914, 0.10704514667002067, 0.023174810192131138, -0.07532130274798428, 0.03761917035063063, 0.009494209786418526, -0.07850045540717791, 0.05338477449388564, -0.13442086945105414, -0.0027437374941848376, 0.14430076383311344, -0.06449117405310209, -0.13962680430000632, 0.15520889686418546, -0.052758573936006144, -0.22032675127367302, 0.0070691920696007195, 0.07422160163640486, -0.050246195109698744, -0.14120938464802735, -0.04827735884748841], [0.0738354662199523, -0.16156191514126675, -0.003631975071115385, -0.13926398039726587, 0.08407382246675943, -0.09670138881785821, -0.008602098749477075, 0.20312672652018723, -0.018156613049551823, 0.047403501301982, 0.09133184717244591, -0.014891561681235888, 0.0734410560631709, 0.35925497496047115, -0.19956697593880374, 0.2278788695666231, -0.18715135549971018, 0.13104678559831553, 0.2793397642285853, -0.02887962641705924, -0.14316228926969096, 0.009185810393878592, -0.2927711897152267, -0.10914877592147217, 0.0731757126060651, 0.057147138968242986, -0.17360022609811798, -0.07300320004540646, -0.015865667974619562, 0.045100529450811305, 0.04637902796811498, -0.040751676038423966, 0.033110854197522736, -0.07109980463166164, 0.04078214618222317, 0.02106488802257448, -0.11279641440720077, 0.11371636094810723, -0.007564286989558699, -0.1426628241665625, 0.005204366495286637, -0.30277552112887557, -0.0754001148527552, 0.18247577469596457, -0.04708018783994227], [-0.1409269465759092, 0.0886851160811688, -0.12326507307337672, 0.22438276612990762, 0.18368045543314032, 0.04326093697378672, 0.09746979627038017, -0.12306984964640531, 0.1061763488701344, 0.040813849526919875, 0.1335671733955428, -0.15217007292912957, -0.013096249257592804, 0.2442911739992897, 0.20521246960631268, 0.12540058135107776, -0.05897083570401586, 0.05473800183647635, -0.021400755731612407, 0.18726024041913528, 0.16049093086826902, 0.19546653509079487, 0.29295227811871055, 0.00518666987631026, -0.16006156275568187, -0.04160083467046845, 0.05671833439239758, 0.1797694662929267, -0.07944771009062071, 0.23139571945107643, -0.04481671267661207, 0.22031375969560504, -0.011295374836655629, 0.02087384524414935, 0.06265101680166484, -0.2733507909618905, -0.16629171519333313, 0.07439226149561456, -0.02959757872216677, 0.11065520663897216, -0.15059716278750657, 0.08320460177692006, 0.023647091402939094, -0.22175816135387288, 0.23127445194158777], [-0.15924026123507665, 0.019393207415004898, -0.10960453238442561, 0.11421119228719948, 0.06094838221490822, -0.05611995278099655, -0.11811600692193869, 0.031546216370372304, -0.12335484200827658, -0.171011966806085, 0.12364310343069526, 0.06510429562666165, -0.1304060115326679, 0.10435073031904973, -0.028439384170355676, 0.043901666197818316, -0.08132009214865034, -0.08163087662766558, -0.04004071261503574, -0.02520704888550794, -0.0028043150206781718, 0.14511281714446153, 0.12998444388860145, -0.07998925942856723, -0.001419822131404819, -0.060805925902206175, -0.16653018977297143, -0.016496327680081087, -0.0648288727557035, -0.12272338246014389, 0.17839785076768916, 0.2892955775097828, -0.007720113317614511, 0.1757350167754078, -0.1554733449437878, 0.1889691068223626, 0.08210672081980186, 0.19582392286611036, 0.021173275801397138, -0.20593755295884378, 0.007322715477837333, 0.08446963934652527, 0.09150372162639576, -0.3453147980478648, -0.036119507702805004], [-0.12869149456556003, -0.11252436509023475, -0.007934796463974854, 0.2631954934717043, 0.19042419626488175, -0.037907138116572515, 0.1174673773061225, -0.13680785644500898, -0.20623464105037279, 0.12010333947126274, 0.17632931620119538, -0.022721303933989734, -0.12335446606327609, 0.13810009785087124, 0.18009411486597224, -0.059310581541142895, -0.05704484107534749, 0.26656853030744204, -0.01854774236180264, 0.1639100293099687, 0.19475424178833167, 0.012305860440565794, 0.09154552187425902, -0.1634789003959152, -0.16162261955927884, 0.09750438597045309, 0.037673343438323396, 0.26220115556463947, -0.0065127519501857025, 0.1956067128712902, -0.0265534843703674, 0.17059432375004846, 0.045578707210115844, 0.14123168612436682, -0.05895257630653514, -0.16227685069417788, -0.1734113869354545, 0.11872747323449061, 0.06587053697979922, -0.02896234571630004, -0.0997213698020501, 0.162733775911346, 0.16517079430947068, -0.27332634430124336, 0.308987229013538], [0.3190381432869035, 0.10134708948983655, 0.0905658605745345, -0.14327963868352425, -0.17467098756059352, 0.09552839288883978, 0.029075105657409582, -0.2176729247330745, 0.19496226014043574, 0.0015626501185871172, 0.3851589219073263, 0.044994674563041896, 0.007690378955208415, 0.3558883814389005, 0.00896652837758205, 0.011113142801701982, -0.1650417107925877, 0.18126840913288883, 0.45914809282986985, 0.11326727467969269, 0.1181887491209973, 0.07687684027460365, -0.3696874811686002, 0.05338487684467071, -0.03040661765549888, -0.03723517355768387, -0.10186397082340842, -0.027467265347878085, -0.006176464606206437, 0.21153297699083654, -0.18950991439800235, -0.03635702037338256, 0.049201242116334025, -0.02461294007409311, 0.21338596110593128, -0.21482251466898755, 0.05192927986799307, -0.053239005115782084, -0.10308761688675587, -0.09634585704444097, -0.2717762108361814, -0.16331999484962723, -0.12513417521736114, 0.05938868232062601, 0.4636746337382821]], "inputDataShape": [10, 90]}, "midLayer": {"yclassNum": 3, "midInputDataShape": [10, 46], "weight": [[0.2189561456001215, -0.04168388370377146, -0.35468852008202356], [0.16414709320673962, 0.5788230526475169, -0.7193771242797251], [-0.7173596112523444, 0.07842129723559622, 0.5062852667555686], [-0.6360716534606491, 0.31622529901507146, 0.3339308952983647], [0.3990522069391994, -0.37459116154684413, 0.1530383055188005], [0.6693932871364393, -0.2607479307635883, -0.29621158630394223], [0.2991560960778167, -0.43487393110320915, -0.2400463883252881], [-0.011080668085509773, -0.5926224380073942, -0.06952236370400879], [-0.748420202761341, -0.5366770392442292, 0.7627124075730705], [-0.5113216176927877, 0.9099436241134375, -0.4083911451698088], [0.47774457387614006, -0.15502445976103257, -0.17312771915546038], [0.4577084720531487, -0.6401113666561828, -0.31328617934741076], [0.42785487819497153, 0.5583024284631898, -0.6489511428765311], [-0.06880097151490241, 0.3891795085826462, -0.7186981826615181], [0.9687599224725765, -0.046542564931183736, -1.0099366038446989], [0.9733136959611599, -0.7999426460307045, -0.5043751983829167], [-0.679368188359563, -0.14025478891158216, 0.594405630457825], [-0.6993676044916655, 0.28406403824439114, 0.126016265471691], [1.4675921830526315, -1.3499382079694182, -0.5266975025724552], [-0.5532712686076107, 1.4243657057526937, -0.8372532444447105], [0.3969325076643492, 0.19491438737014097, -0.4142959464084969], [0.7687912357671438, -0.48984647392999503, -0.6737000206525362], [0.4420162885147075, -0.1178435531946808, 0.06492503788362863], [0.5284787566330963, -1.1312323601834493, 0.8456405136698911], [-1.3583336226138643, 0.3517821696392204, 0.861697781207489], [-0.23238023882083125, 0.5310502351399481, -0.4346189552899872], [-0.19195855191841119, -0.4326883141230713, 0.5881504174123666], [0.6497309099173914, -0.4612176334668258, -0.35859091349817135], [0.11546544297122133, -0.4865956116469773, -0.2658385858681078], [-0.16899756098042937, -0.13674778640891824, -0.14961438962653417], [0.4625153507987372, -0.05350053131677109, -0.2503146150623841], [0.3803703443104588, -0.5346704850411627, 0.15646543798332016], [-0.13698907867974525, -0.7805225716463123, 0.900964337807632], [-0.058589030582024665, -0.13779531766608427, 0.10417262732619216], [0.009058445474455227, -0.7270262966281452, 0.6250506626769174], [-1.3438196877842032, 0.43808228205676514, 0.6729157412469294], [-1.0910270597437148, 0.07770499253216087, 0.6551519182468328], [-0.459129634951064, 0.8955639346974719, -0.5370708522394105], [0.6808615436848893, -0.3992679896042697, -0.06734523958891733], [0.3741659750387601, -0.3831263340734706, 0.08361995149645852], [0.5374876957198098, 0.18757004690034293, -0.28217524510545344], [-0.5335842721138806, -0.10529749422345941, 0.0237332346082222], [0.8806009807609161, -0.8765056795586362, 0.2729151072348826], [0.31173595146594046, -0.5137353883696546, -0.1394826015861356], [0.12741353733013877, 0.6427539865896451, -0.679654909214327], [0.3572033205749143, 1.1101591331621925, -1.402909604432566]]}}, "convLayer": {"convCore": {"Num": 6, "weight": [[[-0.0020238709771575407], [2.2469235147648434]], [[-1.1596419461411753], [-4.450830224885661]], [[-0.6000081805820315], [1.3873268613937446]], [[2.1622989130998262], [-0.8622048364577257]], [[2.089933171445672], [-0.0006488876960190257]], [[1.8753940043533932], [-1.8757636753132916]]]}, "combConv": {"all": 4, "take": 2}}}