{"fullConnect": {"midLayer": {"weight": [[-0.17897686644440516, -0.9889095042850746, -0.3673057673942201], [-1.2592723186518555, 3.246484642337539, -2.779366785757207], [-1.2658334448923834, -2.4042731006231115, 2.7078325096504874], [0.5361604567113574, -0.4547496892723812, -0.8159883051246882], [0.3347529745597213, -0.4071422004259847, -0.4250211337876026], [0.19972333688983412, -0.2638284023000394, -0.4159776740380628]], "yclassNum": 3, "midInputDataShape": [10, 6]}, "inputLayer": {"weight": [[-0.3777824051679138, -0.024999745235524774, -0.004772536375485092, -0.32529441513561774, -0.4347675373568651], [-1.6727724313614598, 1.3323487343995182, -0.08542224782204402, -0.4238780940691878, -0.13447202858232574], [-1.6325658808239232, 1.341891718945645, -0.1438790602653535, 0.003394427270006531, -0.22131011407442425], [1.4685292414370938, -1.5142549020260025, 0.5129894411063611, -0.5138840776248581, -0.3209179767968674], [1.5481020414503381, -1.5489606655236894, 0.06711268247324526, 0.3093199977717493, -0.0897787394640254]], "inputDataShape": [10, 5]}}}