{"fullConnect": {"midLayer": {"yclassNum": 3, "weight": [[-1.7664202355898007, -0.4625974778538507, -0.22780864860382957], [1.8517458875404897, -1.7573749696888583, 0.39741327267187365], [0.31007719638974857, -2.0054609663885756, 1.8782121723152403], [-2.548438740487975, 0.4133255157157538, -0.4916433032922351], [1.3721638129436895, 1.8417856150488516, -2.0898235247078856], [0.2227920776280968, -1.0008810360442413, 1.353336781429564], [0.7450929270807958, 1.2031456431114265, -1.5241312660086868], [0.8551934582447679, 0.2646073091297057, -0.18625099808285234]], "midInputDataShape": [10, 8]}, "inputLayer": {"inputDataShape": [10, 5], "weight": [[0.4927760524601756, -0.5508112926232394, -0.22636003135786376, 0.48977461079968876, -0.5320894108117615, 0.7856318177990051, 0.0100869164665118], [1.128630306500086, 1.3171068808557507, 0.3068466156322631, -1.0876251546894928, 0.2010116024758376, -0.7510900915571898, 0.006965460173679432], [1.7448252392168169, 0.4327124603200551, 0.3820785278240598, -1.11907808810466, 1.4222278096582155, -0.9034980330719927, -0.5152767341649774], [-1.4007189546622492, -0.5771948594938178, 0.8179625545651418, 1.7395159473006085, -0.6137917612574765, 1.189471482872108, -0.17811720459839586], [-0.7603339961761155, -0.6395922626449737, -0.23500369397939408, 1.3801669028000834, -0.43682499752422443, 0.7757075054792382, -0.1975042295187157]]}}}