{"poolingLayer": {"combPooling": {"all": 6, "take": 4}}, "fullConnect": {"midLayer": {"weight": [[0.21948511477215785, -0.36929168449259525, -0.16512034354897967], [0.4709743390700779, -0.010317429577335002, -0.5389973366038846], [-1.2697116276917735, -0.5560397451573498, 0.6965122757846148], [0.45818679107518756, -0.2256772722350213, -0.46955713228036017], [-1.2049377142018631, 0.8298804526194201, -0.46105535066293685], [0.6533461807800183, -0.15087839016197965, -0.47153342522683084], [-0.23571517997858318, 0.08390126994202746, -0.23575246116875134], [0.12883837582497953, -0.24867549962884156, 0.2557538231187941], [-0.7108861551596024, -0.06221022402508041, 0.5049866667869352], [-0.644679953077769, -0.1314456131388677, -0.03136368975044681], [0.17806333943506836, -0.644168725662191, 0.05240074956996876], [0.7159240828920481, -0.765380586987931, -0.015372883779108695], [0.1077622779016789, -0.42545086133516713, 0.14922552698867067], [-0.39926512985437856, -0.08126464065410491, 0.30949090785733624], [-0.688783146742595, -0.342459528846677, 0.5983055467932553], [-0.3813570934860166, 0.5582526649529569, -0.46006693014441674], [-0.7641584414668392, 0.8577114150562161, -0.9858933026308379], [0.10093159201386079, -0.3482706263864548, -0.22811511394350695], [0.4241398054649782, -0.2630316842236493, -0.5539757356174222], [0.3180455977316348, -0.5437760735865991, 0.21747405382333146], [0.8733794461215567, -0.8804249556936813, 0.45080642693302997], [0.2586556462694828, -0.5718378842621995, 0.3789589462022875], [0.31268572439976766, 0.28091504085242486, -0.23023122036429533], [-0.003714425685966303, 0.1569345583428349, -0.5451592408615689], [-0.07751737499718862, -0.4965283966291656, 0.6435883613531616], [0.10710316196743683, 0.39291536475344163, -0.8562903413902307], [-0.5062249488862531, 0.5528827972278999, -0.10988270332558374], [0.21986686120301221, 0.14176619251594635, -0.8209500900022156], [-0.12687336742788943, 0.43603589855077557, -0.21484033538100528], [0.02226787385740226, -0.3750625741431169, -0.11673687060172253], [-1.1825313526256926, -0.5496183341873523, 0.854704885562919], [0.45787133622601117, -0.04091537452522353, -0.37262351928209736], [-0.14541773691388596, 0.28268337415953804, -0.426598630156357], [-0.5749565638035575, -0.4722500367842072, 0.6656153002918089], [-0.36637930458311446, -0.3371884115111209, 0.5999102026852217], [-0.35635286800843036, 0.534724997239002, -0.326420522160657], [-1.1151028118390434, 0.9704792117968972, -0.6536488297868696], [-0.004689523833237037, -0.32278927210288216, -0.22223314689551477], [0.5720904134044701, -0.021876064649350074, -0.2310317324990006]], "yclassNum": 3, "midInputDataShape": [10, 39]}, "inputLayer": {"weight": [[0.06159002777597986, -0.13602033221949006, 0.10663052701618493, -0.12508953667845252, 0.1806781855458341, -0.07414504797200237, -0.13108814109012182, -0.10846910814334498, -0.022546855543056493, -0.035969309036967344, 0.16581769529474397, -0.05981719956661814, -0.21010274293239767, -0.2374830797606108, -0.060246370467192036, -0.06284198771705714, 0.12521945036032864, 0.10736765435188882, -0.09265757778484636, 0.1717406878425806, 0.016235448997290302, -0.09621481436171063, 0.11409388970775078, 0.016322477306194787, 0.00857786091572563, -0.25119119343402635, -0.06830309269051979, 0.10640271570872906, -0.05814309283603694, -0.2706220166162067, 0.14083711255692716, 0.07535002734954024, -0.12303371230195742, 0.07664275067909632, -0.04511461437190944, -0.2596402643478942, 0.07102665173259264, 0.04222478504070101], [0.09549800054368567, -0.3126022344042714, -0.20236342428682366, 0.2466763871724464, -0.0060940615697298904, 0.024580661043085067, -0.1304826928817159, -0.11210894464486364, -0.033879765966785776, -0.2971562343463864, -0.2832915434799908, -0.1235014715401677, 0.017676083010123196, -0.29403884399384955, 0.25601455493595104, 0.4542727346551481, 0.01872836917738748, -0.09138919167554921, -0.2251107657529905, -0.30733108640037843, -0.2509295605360197, -0.09313287696603369, 0.24914845889336248, -0.08413767662370387, 0.2567031984247745, 0.3639301090374353, 0.18620390176332685, 0.20762371227929385, 0.018146955602195317, -0.3090821546448404, 0.007777847187517223, 0.11314692623033056, -0.11636269510820817, -0.13460663823990432, 0.13985964420841804, 0.49126726509784857, -0.1195765689404763, -0.018608859028097398], [0.027212563131050943, -0.05121859672568625, -0.107106251293358, 0.23735893455671322, 0.06647125022300594, 0.17342200184544893, -0.14843671756213236, -0.12000844215688626, 0.04222473362223157, -0.2623965832323183, -0.08354053695399648, -0.09856120882408666, -0.24512001066035025, -0.22150305066122072, 0.11839829078244658, 0.2097474169674904, -0.06094122489805489, 0.05284152031843016, -0.24146111109889298, -0.10185829006150832, -0.29213100287000066, 0.2363564600618816, -0.02786921060974797, -0.12595730008402145, 0.1444061903060673, 0.1570330010250546, 0.06979932929725509, 0.05586017054942896, -0.06427383369004659, -0.35127033191181734, 0.06105630970835681, 0.10184172048667194, -0.1638192311088995, -0.20552405110369343, 0.1560066112572318, 0.21778372971017484, -0.06281130598103542, 0.15230941885992152], [0.15613820613160348, -0.2607794679460501, 0.1963810306353372, 0.2247679115754503, 0.34738389790275787, 0.16740668730787894, -0.10887527356055175, -0.13581794211637652, 0.048437805930368, 0.03445316955816231, -0.009207264516598701, -0.06717569543313756, -0.26634754377521974, -0.23550363227456275, 0.14026049501340446, 0.1441540488666549, 0.06043372285756691, -0.03012526408434904, -0.23078994924887425, -0.047284979211261506, -0.04072898264616033, -0.006364307898291508, 0.007455112980126854, -0.08463394950637074, 0.2588079427220509, 0.194241489457827, 0.26238819860314844, 0.042382859305921124, 0.06391860112693476, -0.1846141437189675, 0.04269051200541465, 0.054371224687240684, -0.3727215312225483, -0.3059365170795292, 0.007810461685396661, 0.18475746061430506, 0.14579667078122044, 0.23900925143670684], [0.2484036018849446, -0.4489397763089227, 0.22903320068837757, 0.025040724737921932, 0.33676131650764396, -0.06947839325664787, -0.03169845606986703, -0.30471920428429206, -0.13453932728203605, -0.08206772664976995, 0.03928487956693286, -0.018425479753076335, -0.2888299621428326, -0.1383294754084216, 0.16078766868078384, 0.2419985328954047, 0.10667062603037121, 0.16443002069286283, -0.18954121673913515, -0.036125980400137994, 0.04616389251143513, -0.003254831787742968, 0.10958439376568122, -0.12556365380407083, 0.10144875197083607, -0.11056091261330754, 0.21974182508099113, 0.15985475214619208, -0.20944920648633647, -0.48573281678697267, 0.022892393359217538, 0.13996875753557422, -0.14789848538523326, -0.03533645274974328, 0.06299386485985038, 0.13631566289077182, 0.022088741936520526, 0.16007463722790788], [0.37490063211458075, -0.7267632759118932, 0.3247058099289813, 0.44915852383319055, 0.3467450909841538, 0.24400186600469723, -0.2057539142069529, -0.3924408512594199, 0.0008391014450156411, 0.004146085314564627, -0.21241564461283965, -0.016582462282827986, -0.15920311083131436, -0.5006677757644078, 0.2999980221267862, 0.5197084788155687, 0.039280778599171756, 0.14678316356882082, -0.04852261859897124, -0.24153837392668734, 0.029077367073457476, 0.10573400168949601, 0.19146082473064485, -0.12454068913749018, 0.32142732756430836, 0.21095621280296817, 0.1763675882649726, 0.1975672414016611, 0.007964169534155598, -0.5712881678777121, 0.12234051692531552, 0.15285273056598336, -0.39151446655955924, -0.3818403968379753, 0.26769277016954535, 0.5422211419708064, -0.11471695163847176, 0.18007908532370567], [-0.2140154039444131, 0.12310983484360996, -0.13428637669068336, -0.37713389332592867, 0.0900703570795397, 0.050135238338976956, 0.08977515460959781, 0.20570357308433704, 0.21733504422107533, 0.10340300353926248, 0.18106091080114656, 0.1342648964539407, 0.16446622954920204, 0.26683949782783783, -0.09778936846697091, -0.26526383659870134, -0.1157515862934937, -0.1453783012179411, 0.0028127542028138974, 0.31125049938552385, 0.13164149252407126, -0.0942316183905559, 0.009091698194630786, 0.04588768806934295, -0.3373819952414917, 0.051317506168329655, -0.25430239358718293, 0.14385415360363998, -0.06228505341360688, 0.16612164495634635, -0.05282776638428706, -0.039465890943803136, 0.14203373396811395, 0.21585277159854976, -0.1516455321073355, -0.13548814758343425, -0.06667181761252768, -0.040905229445979144], [0.05817110221735841, 0.1231225998692257, -0.17385856198041313, 0.13338435046588126, 0.08631977918473306, -0.02729403885492785, 0.16606106729022904, -0.12609193282806774, 0.04553883789911275, -0.11627214726002352, -0.0014798307055193434, -0.006917098385698309, -0.1394119635642974, 0.08154498778425634, -0.09684492405824505, -0.06835640624618748, -0.2091727256386285, -0.11876679833253138, 0.06106373957785585, -0.20001269118522003, -0.1027872772265627, -0.18139723465888233, -0.0069223601469179915, -0.020654521177605925, -0.02677152943618557, 0.007879279102109959, 0.06981191535678487, 0.09491567067896758, -0.11918387135526148, 0.20464222260055487, -0.07319888049545947, 0.0013245048388337924, -0.2194189273146415, 0.10009999196327052, 0.06304803637548831, -0.0573367520239098, 0.032340481587246145, -0.1786235179811626], [0.12070274922076422, -0.03645794183098452, -0.04064705609130591, -0.03957706862056175, -0.09439557703409332, 0.01340695457833773, 0.14238427769413234, 0.027150387741441104, -0.03267820800867972, 0.004323349283820446, 0.06478563647966051, -0.1342186805488352, -0.10011274399668176, -0.11133213584569282, 0.04796898071671473, -0.13114211779167387, -0.09393592936023734, -0.10702213302776359, -0.04277300563678858, 0.06460996759767952, -0.014915381074677514, -0.0626575202883077, 0.01616336845865505, 0.2001198479255092, 0.042127984188408525, 0.012432393817091044, -0.142233453405556, 0.01905651530957861, -0.03270193849069766, -0.11468745588928596, 0.006274731412805956, -0.19711205903470283, 0.02275048497567266, 0.0737223813709992, 0.09421530115309885, -0.1933913483782025, 0.10451712131811709, 0.16154647696485167], [-0.022235260763567775, -0.29647025561889295, -0.05702710569694672, 0.2779755384286304, -0.022953478251508532, -0.013926165279737456, 0.03858074922903593, -0.27375751212908966, 0.12089541070748042, 0.06682754022507947, -0.2127491981209218, -0.04984544607393546, -0.10778977127308786, -0.03913517477423457, -0.03237452107382207, 0.16600769132352733, 0.00725243108354004, 0.20877575495403433, 0.058468639420615705, -0.20851298689594572, 0.1289800269472889, -0.012010726973099094, -0.05792150995198912, -0.10141345814230743, 0.11851922750723087, -0.03753622013945414, 0.03816562951128886, 0.16744815941739627, -0.11055474451463432, -0.24288820518371446, 0.05040475764981303, -0.0590863123813345, -0.30109460972560387, -0.014658172318780749, 0.20098877506570906, 0.08722449821418547, 0.04725652579422808, -0.10747337199261008], [0.014270364259792341, 0.06552110492614227, -0.20718478332909313, 0.2045975670533726, -0.16108935117037831, 0.09736046328873318, -0.04335932528469644, 0.0829367888093869, 0.07739620495264626, -0.06328962172146771, -0.10476474712579456, -0.1458759417998237, -0.09688111333447874, 0.023073747026375966, -0.026091547249478736, 0.0389860719884022, 0.10531144588040718, 0.017453278767721063, 0.08591876397713924, -0.23705441341424396, -0.020077898551765175, -0.0012629484626259422, -0.13317927021204937, 0.017912666137337323, 0.08756943459017123, 0.03829112571255371, -0.17193697238685518, 0.07108247907786511, -0.16306120883706554, 0.2722817900132564, -0.09594708821588703, -0.13585300442062848, 0.06888437421464005, 0.07140530304696872, 0.08697922345072125, 0.11607030025855694, 0.10641391919639229, -0.1871423653194199], [-0.1744123756144397, 0.09928941582007689, -0.04981154691375699, -0.03253070708163384, -0.26271631616781477, -0.06108500316481384, -0.1171932472348335, -0.02846438263815127, -0.029823135956474022, 0.09946357632873083, -0.1127257800405331, -0.1035937446202194, -0.00345498600462852, 0.2040298925255255, 0.06904273781545177, -0.08104995068001729, 0.028636624258655475, -0.1461529320989626, -0.09162991681130744, 0.053213649539656224, 0.06094333910567031, -0.10675231815215709, -0.07037717957195616, 0.17029173595495634, -0.1683442469831871, 0.11416412616279571, -0.06881297926070404, -0.00836922303970679, 0.15030354218832662, 0.3492361688177239, -0.11840864261625571, -0.11833438601691128, 0.17442902327868393, 0.09764296435769557, -0.1250736814039648, -0.09671881151970749, 0.13075441640245933, -0.10404271661517976], [-0.02001130066338344, 0.0015163135572369485, -0.1266965615585971, 0.2603103698874872, 0.0920435455960141, -0.04602475366228092, 0.005398614259818283, -0.10909843596980281, 0.13090913002740745, -0.06920591670314775, -0.2557823180182484, 0.03520706566475074, 0.032435388895424196, -0.13726770820629317, 0.054313284420723106, 0.1536286644847307, -0.14764247175861736, -0.09575982853560301, 0.05940303117131236, -0.22663352918760094, 0.0029888798612725015, 0.013198475969455984, -0.10158828608506575, -0.017600471155463607, 0.020084647279937633, -0.07842599418687506, 0.2325766603545363, 0.13727371746254674, 0.10257397110587656, -0.1159291480006555, -0.040484924086699514, 0.1804133185691237, -0.22740294703529762, -0.12147718087739212, 0.22012178578576325, 0.07000689868680947, 0.08545412786936683, 0.11391978677150216], [0.11944340906372133, -0.10932394240297529, -0.07011981032479064, 0.13277129192087897, -0.03833672732181031, 0.12942440500137986, 0.1482674256263855, -0.08772563044964345, 0.08851959474588438, 0.05635452085554222, 0.09069079548649495, -0.12551014976028507, -0.1719640980036565, 0.008704681949464813, -0.08007404614524226, -0.05451242189782382, -0.17791546093571128, 0.12092415443475776, 0.1898157627840658, -0.09715083440480544, 0.158896554910655, 0.04576988171172703, -0.055777373807388814, -0.0016949166304566763, 0.014699477760794982, -0.12460620733055745, -0.05700996109591681, 0.15279782893425997, 0.12563279502235838, -0.14737950024281976, -0.09864465021608222, 0.07753346196362254, 0.07414277539232846, 0.07766865873367254, -0.09632499168548764, 0.08191546227600856, -0.14308873031078395, 0.06492664611689773], [-0.03145209117128906, -0.10590279832271864, 0.07180204038824299, 0.16736595915683639, 0.2767868540072842, 0.20108708824898588, -0.12004150538254753, -0.2738484193934308, 0.052405023607791014, -0.11762989735805524, -0.23469195339291116, -0.07656695921330348, 0.08100746847929403, -0.14180312448497243, -0.09862901459766268, 0.18093961531208125, -0.06674621066978395, -0.020573556456071604, -0.08735419106741751, -0.23151315481871806, -0.1384868847972546, 0.010757837027223513, 0.10352806110328121, -0.05936321205295253, -0.09655443207565302, -0.1139647028009574, -0.0124749628364966, 0.116381942792477, 0.009556866160299975, -0.28170047821721256, 0.021950206500080952, 0.02244221991070439, -0.29617970889926126, -0.1641945855764054, 0.03002414833141042, 0.27976013913959163, 0.01644656558728811, 0.14080859570522522], [0.15081976735173522, -0.30626966114275433, 0.09950483350500025, 0.3049274587762808, -0.12386162600152863, 0.05756718709613857, 0.12018998708797513, -0.05011864698211794, 0.00025370872832438556, -0.05595966979268176, -0.2791540787403685, -0.14828070871328916, -0.1273551809657641, -0.19205979675315943, 0.2018077984671883, 0.13529005571531055, -0.1578317517146689, -0.027276794464547338, 0.016841857217037744, -0.31145799572792887, -0.07972880913024152, 0.008746918723744761, 0.16339166638214228, 0.057225652288572, 0.08143154599372217, 0.08771475880136077, 0.23871942020320208, 0.1561717421191881, -0.21045014764675174, -0.17767775506298059, 0.00784989557903231, 0.13853645594370392, -0.21669950673147248, -0.06240860434143242, 0.24999810821589769, 0.17480372470819114, -0.0888990268136513, -0.2138174440218542], [-0.16017885726607883, 0.12728642072434623, -0.029634815065426267, -0.06276849011275759, -0.11980994752100636, 0.056089475977552095, -0.06172794172187166, 0.010643062189495078, 0.080012610769971, -0.024127515794393494, -0.05047014356451013, 0.15583551341040192, 0.07896433854218346, 0.17648375444537737, -0.15295294009308463, 0.09889945933141195, 0.08094420190914227, -0.16226038813963634, -0.15079146042442818, -0.022463940325148035, 0.1343850578010669, -0.05973089814341809, 0.04528934212528652, 0.05497424524305149, -0.006794764867293037, -0.1014656488578483, 0.06298339824980091, 0.15147297113962555, 0.10189921551723911, 0.050969504494696095, -0.15795527424205608, -0.1080178457987281, 0.2138514973435601, -0.015894010728523398, 0.034421492549707194, -0.06712549676473623, -0.046134396251768205, 0.02149747184038934], [-0.15611690806553366, 0.2009167533578577, -0.021419048337194088, -0.004661842493129432, -0.17949881216886948, -0.09586610859098883, 0.12967560131213712, 0.12483499138462076, 0.09502378238921813, 0.11939697865138989, -0.0555838315500066, 0.0043579700719562214, -0.06014539255543933, 0.14399842643093577, -0.08905755827690061, -0.20587984163826925, -0.11764339429682447, -0.029234921907979796, -0.04099876355552482, 0.1663488002463388, -0.11152601457520551, -0.07586661344465033, 0.06138239570026857, -0.10864300719642397, 0.03519424310769792, -0.13372959848104946, -0.04762860671211182, 0.12619267333933226, 0.06927244019114905, -0.019690856009701017, -0.15190281749284376, -0.0541194249822262, -0.10284360775285564, -0.036515434433448374, 0.06064521580653875, -0.2017092166325158, -0.03319675491813099, 0.06985752012535575], [0.1077743901003206, 0.18929910104091655, -0.00910997446667818, -0.06355451931621828, -0.15702747193456465, -0.08348250861595051, 0.05883086220633812, 0.14533572389904548, 0.14856210024901137, -0.014361535373039821, 0.07023352254040764, -0.06471728604208656, 0.11245473064269194, -0.09533123242275267, -0.1942953779604973, 0.03682449489025759, -0.07518559134597746, 0.08274059736051351, 0.023572781903318022, 0.03945329898121218, -0.12062481559948539, -0.0210687450956512, 0.12050866075789984, -0.018586117640823747, 0.13108922650909066, 0.12108748132459698, 0.0967498393406875, 0.07698332040193515, 0.04315837714928576, 0.013766706760789026, 0.031632723728706236, 0.0641901017384091, 0.0865071499857951, 0.03286345310065795, 0.060036428716599186, -0.05294384965462835, -0.012290783741578848, 0.023336186549626447], [0.06996727529047739, -0.05211558898909165, 0.1743140022038153, -0.18440882453731322, 0.009023892367613254, -0.1311663679592853, -0.06796011733854984, 0.09330645597821195, 0.13863870996752015, 0.03880114003660981, 0.0705068031100307, 0.1312160798281991, 0.10490827110570553, 0.14807992280690002, -0.07174709319543275, -0.03622410135248043, -0.0692638597038827, 0.05977314556083493, 0.06779265028042708, -0.003923075953068872, 0.10701239710418342, -0.15027443812067998, 0.07793454159441714, -0.04258021811752782, -0.014401847193658307, 0.09597258837191866, -0.06700864375100547, 0.1355197259152581, -0.08481798510852148, 0.20268121851745102, 0.13800175461567377, 0.07141659072494479, -0.08922007667376446, -0.03803222570170297, 0.07150145268473532, -0.08408348275355752, 0.10257461408056365, 0.10219476874136646], [-0.13518940450032027, -0.002156299419827728, 0.023955168639690272, -0.15693422616155306, 0.12017973364717777, 0.035785234427489064, 0.030070314857775896, -0.013178870157443595, -0.1367729483580168, 0.019306284618675205, 0.10998041326171278, -0.08745219991588042, 0.02094320649941152, 0.04519373751206279, 0.014868753853089896, -0.2445620903275542, 0.16432709891884723, 0.09467177486984688, 0.10549588882507899, 0.20994787173525792, 0.09996598792320494, -0.05918007535213089, -0.1454394219642131, 0.1100868037709638, -0.03729307775507819, -0.1744713414541889, 0.07270025920994688, -0.11728894505960685, -0.1285912240902396, 0.12283933902306542, -0.11338845630531529, 0.033525663837071146, -0.0025485479509217497, 0.021760946950388115, -0.19622747326053727, -0.22362516591436296, -0.02530641278970123, -0.12299122850315083], [0.1794536890253841, -0.18716038495575052, 0.02744325194666459, -0.04400605427392893, 0.01038162676121195, -0.08349293818047611, 0.07657498457272481, 0.043091098408045904, 0.052399930749013834, 0.002513047644908925, -0.115131318220664, -0.07454371259676575, -0.07365775447455898, -0.1743738601194622, 0.1754237760907637, 0.16399094786206478, -0.12837201539873228, -0.0522934365629176, 0.06382128154433629, -0.19845108588388458, -0.06507734879866253, 0.08909963294225642, 0.024241461860328696, 0.04211476585103708, -0.07055600706825389, 0.10676264963175855, 0.08784941275642902, -0.028764652014423506, -0.012130784357878347, -0.0006300457935327665, 0.03017747412823155, -0.08944748335218462, -0.18931718138958667, -0.061445661134828224, 0.050935704582990245, -0.1061205963361367, -0.03213780903454741, 0.05174474280486573], [-0.0030204375354256335, -0.07370707283505529, -0.03216360736427325, -0.1463904637492371, 0.14665964885933175, 0.026626655978788907, 0.15486267278766852, 0.08031155140373358, -0.06758510504138412, 0.004232016147082044, 0.14631886342471936, 0.038760808636926394, 0.0743618342937752, 0.13080784098939163, -0.10398905793484495, 0.13831443613880628, 0.06902234687137138, 0.1540934151404438, -0.020804436426474525, -0.11687012298160472, -0.0794069936832322, 0.04443907818224602, 0.15450209474757795, -0.13316554664678532, 0.17630739959541275, -0.1415753233537885, -0.09698078538904924, -0.12205598634661025, -0.137987778410527, 0.02423582904858914, -0.027358655087899142, -0.059139325381627285, -0.1850835362638154, 0.12605261905647241, -0.06686308054914707, -0.043568599770304924, -0.10653436762255422, 0.10816652657915429], [-0.12163782519292565, 0.039351334103801136, -0.09523953500103877, -0.045114836996702795, -0.0662597249132218, -0.14866758879787778, 0.008777465759338958, 0.11929094815724632, 0.13081978964591465, 0.020280484085867963, -0.08921711639650433, -0.14182485084154559, -0.04126392709607784, -0.12126021467408507, 0.12047497077105827, 0.11786178173855998, -0.010377881852928105, 0.025867301173307287, -0.045812963385479945, 0.07234395653750389, 0.05384675993874603, -0.14153981750469205, 0.011295966114912773, -0.0059767642217938306, -0.12646279944158637, 0.012184754646563661, -0.11777488530967814, -0.12986916189928407, -0.11818569190116253, -0.010713243533227008, 0.025090774007051137, 0.10261287269670936, -0.14235594776454027, -0.014979056007938278, -0.03231548195167823, -0.14311313215503263, 0.11595241091321637, -0.14081811514859396], [0.05820921879568337, -0.01411254171947189, 0.1545915131192461, 0.04993270999135887, -0.056148992334305335, -0.14750721898853777, 0.16046096093010767, 0.13048382004853204, 0.1620021547109625, 0.036170238986852773, -0.03725910792186817, -0.016868341563338465, 0.1713758018748347, -0.12053042490269877, -0.16126760673408141, -0.04436033525142674, 0.10296408733204873, 0.16695009199816307, -0.03891404783681271, -0.03516824579603853, 0.025245843847298572, 0.15135092925974486, 0.0919382250389814, -0.06456711604653811, -0.03341801360180113, -0.0643806008521325, 0.09467188186076267, 0.06811025758725991, -0.13506229083346638, -0.10617379930955335, -0.09639366506686414, -0.15644116450797854, 0.13422558189909453, -0.049741538236594496, 0.020731732281113385, -0.23690467461707485, 0.016544152739815066, 0.07929948431245278], [0.07480588193367216, -0.02545805826317976, -0.10255635014631595, 0.0467685363754579, -0.061881520447371094, 0.05261793009736627, -0.06533377247044597, -0.0751030055955883, 0.1858239722886335, -0.19105270492070425, -0.16999665104265155, 0.021294448834949534, 0.018884977911062716, -0.1316576540761419, 0.10163614495555891, 0.0034486413330604986, -0.10943431247387088, -0.04065780421390601, -0.1439225676281376, -0.20561160521019653, 0.07081265468420447, 0.09033162815584057, -0.12405860114525974, 0.07155030676483198, -0.019127945540579627, 0.18560509041499665, -0.0014753141798608859, -0.009559825684289239, -0.11181618651246228, 0.14052355584681386, 0.11712212127654728, 0.08796687056080696, 0.027731839103509903, 0.1344674877588394, 0.08433598708991787, 0.14211053628216827, 0.044508013926038786, -0.04696661267462683], [-0.1005164167999543, -0.13868384633720632, -0.172115521688768, -0.09632070343403559, 0.1319486314396274, 0.03301734147426364, -0.09760711649682578, 0.14521482275990216, 0.1074814366472632, -0.05731349919355611, -0.17755473169423935, -0.1302690946388559, 0.03505447608870236, 0.10006551656799613, -0.07931998047872327, 0.1051662157168635, 0.11727790860385849, 0.07754265929096553, 0.03453324391753782, 0.0633322058129, 0.05351478219770989, -0.034809232144005255, -0.0394970569373961, 0.06420518581303233, 0.06503809022125566, 0.14877110672973556, -0.06252818378465579, -0.09085578653420084, -0.09320213805161265, 0.02778562015600761, 0.039868753451945245, 0.02890087897607316, -0.11967772986061936, -0.1639599947236468, 0.08240527816568506, -0.0439356740534969, 0.08386391324828962, 0.04654531429099581], [-0.14532484966021122, -0.03557302882576305, 0.1008781925167632, -0.03437520548105113, -0.030564173375219397, -0.12479366201415877, 0.07576448297881255, -0.044231641154102545, 0.08765506062188748, 0.043285031736141504, 0.1500160144627277, -0.10232810280521891, 0.1835071771413861, -0.12128340547546156, -0.13049079899693952, 0.09412373842610149, 0.11224210127187541, -0.05945514497330452, -0.02290724097127874, 0.17573015960471147, -0.12208273506344118, -0.0967177460057869, 0.013411191980558377, -0.09710503499159034, -0.030419813285894437, 0.04554631603413028, -0.14180578914382277, 0.14792360782791858, -0.11081195998419584, -0.06693242775513382, -0.13612346563826372, -0.09932021915935019, 0.13510452687539637, 0.167399822287429, -0.15027778977322526, 0.0008664793086987664, -0.05251810675967478, -0.15828154143585424], [0.0942976073155959, 0.01341090075915619, 0.07760925030024393, -0.10295538407056123, -0.05583479922698467, 0.1206915612688418, 0.14454129366785437, 0.11616448766649722, -0.008186464407407596, -0.17769843441948835, 0.14181649977352645, 0.047466733795712736, -0.1120551944844957, -0.03170169172795064, -0.053240045414210506, 0.09377132446682522, 0.12149890226593014, 0.10412635439447628, 0.0583584828418103, 0.016735156680123802, 0.08897727237401085, 0.011245388645008769, 0.05195389827651432, 0.10590222040533134, -0.08786637624241635, 0.1376892397517876, 0.060133548768930706, -0.09168003455916415, 0.14005424149452414, -0.08010210448655872, -0.09758994952115291, 0.0722149976993166, 0.030891362124182312, 0.029777923145074603, 0.0844976978586178, 0.032796634976394234, -0.1398716516514176, 0.09187249645726697], [0.15012717551197075, 0.1614821622922134, -0.024468623492779916, -0.04428750026074313, 0.016384703054858566, -0.15251929114586724, -0.14799472118786752, 0.07482920653232221, 0.02254626534042429, 0.1473053921419098, 0.17956935310251984, 0.0819617283428327, 0.022814810922395862, 0.07629079819294868, 0.01191651478280259, 0.010715060019007308, 0.17039493567619884, -0.14599863064697619, 0.19508836648186398, 0.08346103215471601, 0.05199292221269163, -0.1412037361858108, -0.046006941638223615, -0.12333960386141295, 0.10712812782914705, -0.1017559167481131, -0.018117715991691426, -0.0816463495918051, 0.09376006461974017, 0.10626048643551152, 0.09189993451562621, -0.15109288579096383, 0.027184076460081346, -0.12596296580799532, -0.09952792349495415, -0.15045649647694218, 0.005047392642808999, 0.15679911543141775], [0.05109002929643709, 0.04543034951979632, -0.016015447979767228, -0.09138233221728168, -0.09100189467929044, -0.13216792094881685, 0.14428124362927874, 0.11551555973195757, 0.13207659927614357, 0.018130559959136417, 0.04871204239869869, 0.04439669428772908, 0.062228024804861656, -0.05662882528479409, 0.11909630816014061, -0.16149555718748956, -0.13284531976074068, 0.09047913008723908, 0.05683207879208403, 0.06693206880127917, 0.1625291931215447, 0.1073207967546085, -0.03945602997694838, -0.00026844237035485147, -0.0968008840885709, 0.10334913140857574, -0.11351007966006053, -0.0022159420223591447, 0.17503991629108245, 0.10742497283542408, -0.16515565549861128, 0.00773747277154654, 0.18806960695747674, 0.204879464467135, -0.14388049642118989, 0.13038070499790982, 0.07140957940778393, -0.13621106034436636], [-0.008099048511253974, 0.10340000459515057, 0.14499239191592772, 0.11842918189472895, 0.10420452097320637, 0.060798040784551685, -0.12448768278856097, 0.05990148186540261, -0.019388972853931753, -0.08042241124796397, 0.1446026690591654, 0.08642148793269244, 0.03745548075777958, -0.022467323574446512, -0.06445122699090079, 0.04792186707920999, -0.17277068547998112, -0.03486792945965158, -0.16990054927937323, 0.11157740370497592, 0.06417070053193862, -0.14308558438246902, -0.000764598582259482, 0.010987951911462034, -0.08774551724864332, 0.17061034966954253, -0.03918283735184596, -0.1534205578289396, 0.07904002165703175, -0.05994879162705221, 0.1524473794046969, 0.12058895306869852, -0.05789517933898206, 0.05571417168794718, -0.14729934205047146, -0.1028747100507369, -0.11112993442903413, 0.12513056215657276], [0.04242838292880843, -0.12078168243501376, -0.012595215064365074, 0.04731221282745304, 0.15938109434476985, -0.07670452903598203, -0.14810324893455132, -0.11255517699258141, -0.1392229473629243, -0.013091377228611268, 0.12123017463015895, -0.1079538121734413, -0.012930030110708833, 0.018763409656454656, 0.038682616242948095, -0.09602603850147522, 0.14545628998967478, 0.1384978310055458, 0.09732725954878169, 0.06676903719355404, 0.027979189691775572, -0.04504058182034767, -0.02290081564550264, 0.06736925338033065, -0.08105881588421182, -0.13835078521369562, 0.18307032389383074, -0.12273991716492261, -0.029148425294404062, -0.07567147291114794, 0.0851087528014005, -0.01572865471119225, 0.001822433699611196, -0.05740562162238098, 0.09111575583761675, -0.02580349737720456, 0.0809010166344505, 0.16183343283194981], [-0.09498613909079301, 0.07636494003399205, 0.04779023045421659, 0.162656382264012, 0.0024959160272431196, 0.09576402163288564, -0.09756823105710678, 0.14194389337316773, -0.06511484991016807, 0.05105938992401524, -0.14136052271983046, -0.09536186566834709, 0.10617817028274266, -0.009030116466966774, 0.06846301973713907, -0.13057186635441034, -0.029610711950223696, 0.04902719210882639, 0.09580566558213635, -0.03275108284228868, -0.10396261594994193, 0.119689229526632, -0.044092717358165986, 0.1381661270199714, 0.008320775880826737, 0.16074335844370083, 0.15355821585219603, 0.04352442235865164, 0.08660327051512332, -0.05292458614398586, 0.1576224539341591, 0.09869199703296569, 0.051555570467110644, -0.12568181492792196, 0.052564667284535294, 0.09987949216156868, 0.11077187263902474, -0.13669975554782193], [-0.022580217641031863, -0.001579202803125031, 0.09949668962142329, -0.05377794361802704, -0.1151506542177876, -0.06310497126926523, -0.1019084459329498, -0.011167648518311707, -0.11305691777234535, 0.030731445456265976, -0.015845018333676457, -0.0034122140371914585, -0.007761265440297588, -0.14815463304586593, -0.01565488473117075, 0.08847547566428912, 0.11955770043416405, -0.05237872340697031, 0.08816905611805755, 0.1145218901769826, -0.034243442988829635, 0.014884142382868166, 0.11180474605036812, 0.09859722118506609, 0.01863278600887947, 0.08305655295064036, -0.02293096683357971, 0.1170018732893383, -0.04229363095008861, -0.14669920093997177, -0.042327720555123634, 0.17380506804794701, 0.07680146083301617, -0.10431033757641339, 0.07899481114278312, 0.11869172668899533, -0.1531964776228561, -0.11952169245935595], [0.01100224484766644, -0.07412018365335123, -0.0615795089821758, 0.05245657501628087, -0.016268254126594887, 0.09720611085633686, -0.032532630573880596, 0.14051777503815968, -0.03639186681549785, -0.032719778110871324, 0.029654110301107286, 0.09392737312741943, -0.07125584133319851, 0.1421240073055618, 0.04925734365310735, 0.1792349850398532, 0.005749094947472862, -0.08771334069675848, 0.1500767916006201, -0.002674736960073648, -0.12713011441579147, 0.05567987217378719, 0.11418317486194343, -0.04093604263153348, -0.056031999224196403, -0.03279984562940232, 0.14021313379465025, -0.059277551392069645, -0.11334759826352499, -0.12115507448366125, 0.13564798723148863, -0.024395606936336453, -0.05346794778088888, 0.00043786350179094623, -0.03561172203633334, 0.021094979604913234, 0.13702861673448782, -0.03619177502976938], [-0.09052271136789769, 0.04489344900812924, -0.11900069338554776, -0.06976917741464457, 0.14917180676352101, -0.0027130373320153776, 0.03311122691155708, -0.03838898033794786, 0.07004538675989358, 0.15754417155230951, 0.0726618482698024, 0.09682001630004841, -0.09843239258220923, 0.10890215400183265, -0.11603337047823291, -0.08901028150082158, -0.15335151392263047, -0.029458807342929147, 0.04786219579331764, -0.1562059666590631, -0.16229975767776395, 0.09343421959680097, -0.06583547878258399, 0.17499116680163548, -0.14426061385573555, 0.043092271126598275, -0.08736246864918272, -0.02291324971739519, -0.026515700700448057, 0.07716172797097261, -0.1398874427831499, -0.057021528665392375, 0.07341630699135093, -0.01018437883868847, -0.09069361790208297, -0.025257423609913447, -0.03981031637460493, -0.03745925645727184], [0.12822541089050202, 0.05690879055274706, -0.07371646272343892, -0.010877321777148695, 0.11070268165659655, 0.14169243947564777, 0.11922903459425012, -0.09316150305947885, 0.14451948440357865, -0.12647691220716276, -0.05996384730910856, 0.05108290362080167, 0.013758110030271033, -0.0413394935957874, 0.14772271145922475, 0.08987964177164885, -0.005191804312556976, 0.028058862116842786, 0.057947933044772755, 0.039860714896979066, 0.07401783630016526, 0.12891812522770527, -0.0042105669140452984, -0.14585695019960837, 0.10364158702861877, 0.1227996209769731, -0.04203872563587093, -0.15606023866672605, -0.029059939771282416, 0.1254580974272043, 0.03464020134540977, -0.03354228261436088, -0.07437471523587619, -0.1566896258484146, 0.13448071665770936, -0.09070717253720904, -0.06266009565845326, 0.0861275829687602], [0.11231286479535466, 0.11113980365091228, 0.05461938874631176, -0.13328052510492086, -0.03558360278767035, -0.14598891033911396, -0.01816266940073712, -0.05878114844101006, -0.16549540374892224, -0.10153757230315916, 0.08242073028563456, -0.06929487390983698, 0.14542978536280018, 0.026202475410550936, -0.12154641863311516, 0.05077395267958307, 0.08401718300877271, 0.14087475665207133, 0.13592295647477073, 0.09357778231385812, 0.0511818023074348, -0.10770483397161362, 0.06958416829802533, -0.017243334344788447, -0.03455138988900911, 0.04117532394694195, 0.07345972732631305, -0.06980453746555237, -0.030046062008494155, 0.150161916638577, 0.15583969046831345, 0.08232296912595558, -0.027019566440347042, -0.08770043258170827, 0.07538361995917373, 0.14701191496348592, -0.13326277182446686, -0.025515114893548862], [-0.018960836216670496, 0.07792013681764251, -0.08283548770926946, 0.030540891421030746, -0.09936241848096354, -0.10921447817121044, 0.13096233103204685, 0.09857608403625179, -0.12176159086052538, -0.01765622619653296, 0.04790368662366534, -0.13238315992333782, -0.11812745504693341, 0.10962761436785468, -0.05514163300987539, -0.04839897112667209, -0.0920940927299646, 0.09333674402496615, -0.13812140804391915, -0.023593954218671838, -0.043005079701343416, 0.10349501612327812, -0.06546192673704573, -0.05657344994629072, -0.15504823469985776, -0.12850424441129926, -0.09086290004445083, 0.07044209349537511, -0.12319703827833642, -0.08201862518899955, 0.05521286774526551, -0.13064984373651284, -0.13778220626351723, -0.01049896819445376, -0.06408601733529404, -0.025969277302329133, -0.09531872925557555, -0.02158664088368022], [0.15942025907939458, -0.08149161179923296, 0.07652612079460387, 0.1577092065115158, 0.015230259957647235, -0.0029625736478564083, -0.016541527613325262, -0.05317846035852443, -0.05803131982620377, 0.12281442363834062, -0.020871931333414806, 0.013241964710769855, 0.16256670596988262, -0.12093996674214429, -0.02544936597347391, -0.0014175302150156738, -0.10219661207188253, 0.15784626749814365, -0.14379163193069772, -0.07162140584818033, -0.08449835235359894, 0.13925717029379553, 0.012974922970491163, 0.09399565639033712, -0.005191974937623373, 0.0992306766857177, 0.10369348070460531, -0.12797574311000914, 0.13850981611930235, -0.05619241135465483, -0.1620876375516494, 0.16657266864625425, -0.08090236904188745, -0.09764866818215248, 0.0690708180754937, -0.08782327899306965, 0.10609247143614514, -0.08847964561074136], [0.03945822380997318, 0.08165548206397619, -0.002082454365095867, -0.038080812969050484, 6.336563388913353e-05, 0.12995738801108148, -0.05424903656668961, -0.10936111800790223, -0.14822379926400583, -0.10245636446495779, -0.16587938578183659, 0.08585069877137377, -0.14925208024817527, -0.11050804233947253, 0.00782363610573837, -0.06876586197268483, 0.03829920904178574, -0.0024320270648527063, 0.07302750447844826, -0.09628996541588464, -0.11548360940701456, 0.09996229198176224, -0.1371737263272418, 0.05365360190933212, -0.1210715403860742, 0.017081331595668364, 0.016781217899453076, -0.051062729836251444, -0.02823931536157744, 0.002362420931549092, 0.0033408145749772365, 0.07267737263186447, 0.005877883866498042, 0.08108979804016062, 0.15354851045840065, 0.041472317305041, 0.10742915887741827, -0.003895164281464226], [-0.012817630678025783, 0.030003354203175722, -0.025704754504080194, 0.14052275108057027, 0.09571018387442275, 0.0320287708173905, 0.13642068335288943, -0.1601283583661063, 0.027138280738638564, -0.03379029412849148, 0.04458991351771316, 0.05646419702393408, 0.07532550267903589, 0.12020733171975936, -0.1040901545734982, 0.001926770440821831, -0.011593745886741339, 0.08541273763253773, 0.09637525076690141, 0.09765028552808318, -0.017901229029481488, 0.15859719238200165, -0.11305395462835224, -0.07079675809178096, 0.09299978733888575, 0.10019041304315612, -0.10754789341017955, -0.07552351035829302, 0.05979529349392026, 0.0674609125730223, -0.0852627903856221, 0.08275973283838593, 0.16087930302666684, -0.11521419478974984, 0.10393851409675957, 0.15109414334187005, -0.11802660217032705, 0.12535535373873058], [0.1355141192965932, -0.09661313363132489, 0.02012189342548608, -0.07861926437879314, -0.07495600089016927, 0.007564959876804315, 0.02142318172196067, 0.04646782882866183, 0.07038794507155255, -0.12909230152934242, -0.17871992878624143, 0.07618064383669675, -0.11310526982811014, 0.1475242214522604, 0.14099329756656476, -0.03438760848726, 0.0865088967937953, -0.08563212895560474, -0.05843845681918961, 0.12263937585525374, 0.09131081198023865, 0.05891841618337083, -0.11082678874076164, -0.005760174031797586, -0.07094107816933348, 0.15296668281113066, 0.03964031396859151, -0.0683271286672475, 0.03318842961169227, -0.041804967901033684, 0.10531401663004922, -0.09282666372139434, 0.021315811805123135, -0.07471167529810514, 0.025398060392231792, 0.16657955411436487, 0.05883857312566874, 0.16245791784365723], [0.05660737875094449, 0.09397760903559976, -0.05446787345440765, 0.011722894859056851, -0.12597260780447206, 0.01370181789356211, 0.07429482760349071, -0.129640577733663, 0.10552493257562323, 0.10802376975459049, -0.08390727218199226, 0.012803192631094, -0.03497395901837728, -0.03850410444896966, -0.14248245746649593, 0.16515516241372072, 0.013813690828448258, 0.13032651556478322, -0.09253367450470401, 0.021871816802463386, -0.15741402244192265, -0.04571845660473574, 0.059085374944439994, -0.05740368238961788, 0.03715844850464418, 0.11989890976845609, -0.10971108314560037, 0.13207925700651219, -0.12541544510264582, 0.1262570375027177, -0.12873691895072734, 0.01214029858679431, 0.015398276277130777, -0.03143800498380455, -0.1168609886920561, -0.12075104792203045, -0.03728201689694303, 0.05905298012563274], [0.133685643873599, 0.053019594561627185, 0.14949701019119016, -0.0073705599613871214, -0.0007308374321983223, -0.09677563580775221, -0.12834295334741097, 0.12260902401367607, 0.13681475943593766, 0.040531528717410094, -0.14178929179179806, 0.07814841246440661, 0.047512782725802845, 0.16682382074923116, -0.009393432504409481, 0.03321176134684275, 0.10017438723094335, -0.06336686158535838, 0.034944209092260384, -0.004964426570411503, -0.10359259344899753, -0.059634729466083294, 0.004358111153190028, -0.15485864420356377, -0.06872159996587783, 0.05051454404605802, -0.06564570242347309, -0.03896215434099283, 0.037922237927251926, -0.022119614868672224, -0.10428783580616222, -0.1536135424703059, -0.019868262404865604, -0.05167760844191637, 0.12167583624008999, -0.1197982028664326, 0.142731202176214, 0.028166791840712774], [-0.2102968160247097, 0.21778147700810013, 0.03440402092015487, -0.10907308320783508, -0.05781416040132488, -0.12743457618761436, -0.14986494035161546, 0.18624324650252358, -0.09108023336490538, -0.020282096501836128, -0.0900705185304973, 0.01007115250457116, 0.08034781720539902, 0.013190771076499712, 0.03838918095104546, -0.07208741015056137, -0.08959815698378897, 0.06337010365120062, 0.0969832928047872, 0.12392149644504799, -0.08722858870481788, 0.1486412999731256, 0.10847405374239628, 0.11176910354507986, 0.015962971209990587, 0.04923893583484987, 0.019430267483242156, 0.10800167982346501, -0.027467455945196013, 0.11080077047264637, 0.11912101796991678, -0.04347336242477843, -0.060953841549362744, -0.024371383113701756, 0.06671199546594285, 0.12307552552581492, 0.06306779313120496, -0.0967069572338456], [0.051848340095648315, 0.2300181118510163, -0.04275809822989442, -0.0022929906380676855, -0.16916432449423624, -0.042031792502699936, 0.10447443198923174, -0.05543599381170046, 0.0969419084326239, -0.14880250877861667, -0.07063097000575232, -0.1323465392358649, 0.021031321340127813, -0.020530283252817597, 0.12289969888985253, 0.1428544102462781, -0.005310406674310395, 0.12532842359246624, 0.06703123845444232, 0.11973472979286155, 0.011291275301442881, 0.06319730654344782, 0.017176451091060908, -0.052398968564686954, -0.08242148674378072, -0.052118902110881306, 0.049160136639062046, -0.02339040663209973, -0.06396733783955416, 0.08986294872251731, -0.10661200101685354, -0.12655557748897214, 0.2050449559144336, 0.12348647910761328, -0.09412230247525932, 0.05469395409249555, 0.05043015212275648, -0.08439394603606433], [0.03261905827236516, 0.21018766519214416, 0.11235695300344321, 0.10384327050201389, -0.1003243257052961, 0.017642405994546206, 0.030111610637508023, 0.21415448580329025, 0.0737272221530427, -0.05720075021521338, 0.05417984549118756, -0.10669183250588811, 0.1632065560381062, 0.008969347816033625, -0.027587058804849896, -0.03264755677220796, -0.14378368116003235, -0.00041198619735369007, -0.01475588595519479, -0.0005933357738035755, 0.11777707432151387, -0.029696831160127814, -0.024279031294572796, 0.10266756918457905, -0.03405282013174807, -0.13569512334186837, -0.13001688460866664, 0.10231500104990239, 0.08377305852948012, 0.20415314894649558, -0.02497006643474542, -0.04776229036541835, 0.017091712639619085, 0.05481082902264617, 0.07057713018304167, -0.008594987215270595, 0.09554446903174339, 0.05294882258337489], [-0.18431966303898548, 0.17819464965568382, -0.03136908073200306, 0.07926323750940951, -0.10057081188469633, -0.14213208590208654, -0.16297439073123732, 0.19403095283004357, 0.0382472646247647, -0.022394034393754196, -0.07547646017476822, -0.1492532778805712, -0.11595610669170169, 0.1642400312152552, 0.13151429575771903, -0.1818747434383632, -0.05802605132672735, 0.011916518597195806, 0.01833283966370218, -0.1292971737251157, -0.15469513143122465, -0.016530030560438027, -0.15089510217983154, 0.07328689553032364, -0.027153174374439808, -0.0021200286669878273, -0.19857608624871526, 0.1070951281258533, 0.10194194242929248, 0.12724200829330523, -0.04956439719116518, 0.09337568145295279, 0.03690530730440519, 0.1990108978024471, -0.030632559646238303, -0.07472981974296386, 0.03473725612083094, -0.11262485814210471], [-0.12109536248383984, -0.007507908167403383, 0.04502261046912643, -0.19394688807411564, 0.030237237987777395, 0.01413549681537284, -0.0942687216191188, 0.036776111625657505, -0.17824546539134564, 0.19660479805358522, 0.24431903627427862, 0.09644411382339566, -0.08944870815564805, 0.21203762365865161, -0.2549085148947303, -0.303717341789897, -0.06945889877812111, -0.04201179871730633, 0.0006021840957340659, 0.31471066472848824, 0.22950430764036583, -0.0013857703370743007, -0.26981077849734136, 0.1796877553974805, -0.02888874316917505, -0.23276500284733484, -0.09479988948124926, -0.11183958481250486, 0.1728843107885964, 0.19901594723278146, 0.20418311957358867, -0.020961061641544473, 0.2137126865218432, 0.050692124684199064, -0.006740007006104219, -0.3796650047820969, -0.16824685991511718, 0.12549180226389905], [-0.023236180182716348, 0.04268085050304721, 0.07856438350328093, 0.03396613073907669, -0.2163470197710408, -0.11807629250746833, 0.018196985809732547, 0.08541707135056431, -0.009829176842464099, 0.04449546028029809, -0.09413819110109897, -0.02736189242567857, -0.03605449714170447, -0.055939265543830365, -0.019333191853393283, 0.07477773917791088, -0.09984304831471674, -0.04081796060642713, -0.1483747986747332, -0.07667198620036896, -0.08684045148035904, -0.13637333873081928, 0.11096155949142143, 0.16301370128726053, -0.0022911432986874552, 0.13814606100995844, 0.11524606662863265, -0.005268066301826864, -0.02650561882336932, 0.035707424477402785, 0.05206116991222551, 0.03216305603725236, 0.015056056094311735, 0.028788790433068923, -0.0607191895309371, -0.0009450743862865034, 0.050059052924804684, -0.18155008465782232], [0.030031354113764067, 0.17869512082641176, -0.15120697340489314, -0.03128828451787828, -0.0011909746390978842, -0.11134590815991435, -0.15805763892900154, 0.059211432015188775, 0.13112985082362982, 0.06121831200440898, 0.12423565620639819, -0.012011398008044107, 0.08133388743409217, 0.09934756560684993, -0.08476977793491568, 0.0516487886829314, 0.04408107672030195, 0.11310250171525132, -0.15179688687416698, -0.12898693341530967, -0.14056011364947077, 0.10659990849613943, 0.12299973292041741, 0.05571433640243132, -0.07199432240866031, 0.09637902581798415, -0.021502282636774235, 0.020606997684393287, 0.03374480221521778, 0.14286394447677436, 0.09614337133957102, 0.040258452852275556, -0.09653271627130658, -0.016259441868145357, 0.03569563623859493, -0.0911559814390636, 0.04426004048783583, -0.019664223532089853], [-0.09465275148600633, -0.017646267957864385, 0.07561887218565515, -0.05900497179759175, -0.12622451510879779, 0.10966456161512836, 0.06744509458599474, -0.04453000682352291, -0.014476892395873645, -0.1747976798532078, 0.05894558289132826, 0.152738337155876, 0.05250119760681847, 0.05990259121763242, 0.028913338781595386, 0.01691194365896307, 0.1334614765721897, -0.024447910870168274, -0.04553724191144567, 0.03872788524199119, 0.11431068781243692, 0.060484677586100856, 0.09414513709861601, 0.16051992272903684, -0.10166609006114236, -0.07132651896731082, -0.018325455347804862, -0.07868419454271172, 0.11207918220148663, 0.14139714402358158, -0.1663194576952533, 0.03442664076195865, 0.10316640601612385, -0.09065357511850403, 0.0806795965010908, 0.13552855307899514, -0.17133906832596504, -0.18142359283746778], [-0.046384020770927334, 0.12092833821552822, -0.06577881346056448, -0.285845251777786, 0.0873297189757751, -0.04078894170123981, 0.17463277337817587, 0.1756563692794344, -0.1725426870578049, 0.1742954549036891, 0.19030290583287351, 0.04468061765194843, 0.1485692010042286, 0.26982588244524125, -0.21499001071116244, -0.045780938726940515, 0.15298217153372543, 0.13686555414542265, 0.2473308233600217, 0.19735140468594708, 0.15097057314658852, 0.06905164967085228, 0.007457980311211613, 0.24661216114753173, -0.10947265533589441, -0.07661623532448335, -0.1356603473388807, -0.01009573429746617, -0.1229507336673348, 0.09302241462428994, 0.024228534290824322, 0.07142652094060681, 0.0595028059580142, 0.1300265167849746, -0.12342144031520196, -0.24325085545778563, -0.1180412110121337, 0.2098026177798997], [-0.02489052232352843, 0.11174790732725541, 0.02126693917621539, 0.09495057710185431, -0.03403805996189142, 0.07363464873542461, 0.11345692810578038, 0.13464586907096587, 0.10302607401881725, -0.13398867999665237, -0.12524984952152574, 0.11726847310260255, 0.16035647819586463, 0.0437703293185035, 0.11995007591269978, -0.006344524514190494, -0.005726936074421516, -0.1483941224504581, -0.12023592700908443, 0.07685597437566004, -0.1136335544410153, -0.02539176096899223, 0.03614135732544336, 0.1022102898300147, 0.10644838065471098, 0.004292041753430024, 0.10062411344672814, 0.03815446441122101, 0.12996291758762546, 0.15295320322314412, 0.050215529380724475, -0.16735481825737472, 0.10217469598952345, 0.14387514080659142, 0.10343460279353053, -0.06926505581602774, -0.01926795870054977, -0.09516766002502673], [-0.0757484871577928, 0.0008677893112737294, 0.0664902334160493, 0.03943962998400585, -0.016280641787273585, -0.037985508598084305, 0.13309638426448445, 0.09449808335643033, -0.07244358690600934, 0.013660982767079851, -0.12886409993391565, -0.05269957261945998, 0.08211893091191952, -0.0388593754050556, 0.1931855496554301, 0.29693863802347614, -0.07514362551804998, -0.13578678242783568, 0.043889441639096145, -0.05033436458109867, -0.05258251645902941, -0.02807212943699455, -0.020249434243096606, -0.05931880915404595, -0.09258734336976035, 0.11743415234924508, -0.04744212423040653, -0.03392052151510674, 0.11217388503127126, 0.009788744347554381, 0.035908584690646145, -0.12007280381544608, -0.14197061036457317, 0.11355200119299141, -0.019132795901326997, 0.11239268836734562, 0.06625354515920111, -0.09895546015560767], [-0.108954615783617, 0.23188934378176093, 0.11141424968141596, -0.13502505453731406, 0.07174229314347125, -0.123943281478772, 0.035094957076854026, 0.1879977064353908, 0.03058224712180717, 0.22630401299956834, 0.1783395709741319, 0.11617246147636598, 0.20276766973585938, -0.02058323383096293, -0.17179231256886857, -0.2941959265810372, 0.10913041304842065, -0.02906091148578528, 0.10033899307371776, 0.06556121951040998, 0.0179684473054897, -0.10945549609745592, -0.23098218965842265, 0.09669423038238503, -0.24732740905426312, -0.13665625308697224, -0.0596851688541955, 0.07280299457730696, 0.018066068764430072, 0.299392571330312, -0.10408364953445387, -0.0958113873062945, 0.15306163363196948, 0.23058410372988522, -0.2732791741939059, -0.2550768362898899, 0.06144349168037069, -0.06991710179294924], [-0.15991352004824747, 0.03005721422531956, 0.07570119192995542, -0.11897790847733236, -0.06547057035073686, 0.05613337547710214, -0.10234397931218525, 0.12695453440854348, -0.01534760897863778, -0.07440120512769521, 0.13270285399133508, -0.16795039774114642, 0.1752259473719285, 0.10719918229099391, 0.020051759447154007, -0.052387819546674055, 0.07567252568120791, -0.06344445650514818, 0.16119127706553854, 0.09155550715504068, 0.11562185319124596, 0.0389773081195857, 0.06774734978459625, 0.13658004110417693, -0.07327586498954287, -0.10530222765226954, -0.13717653684102532, 0.02507661734321764, 0.09942567543688319, 0.17647800609972747, 0.1310767505331948, 0.08533753810668254, 0.14570383167574788, 0.06701835448093824, 0.035061439999799986, 0.026753803295802587, 0.030920986924278037, 0.003970845114307709], [-0.11927622030551306, 0.26205659585930446, 0.051741902957635505, -0.10127318175319536, -0.09005185532871905, 0.05379839041180854, -0.03819356193348666, 0.016111492714326, -0.005414550025025278, 0.09776725384145533, 0.15558242429429414, 0.07267163995320466, -0.06052882914753925, 0.15288463001301658, -0.09241885392505465, -0.19958434686156779, 0.18558773423608055, 0.050128622000132565, 0.09031259925640737, 0.178610268780806, 0.12019129457653077, -0.04244932514975721, -0.14863794882913983, 0.24767573775624435, -0.0033677886876616373, -0.1638378189814253, -0.04399808495471064, -0.1545141697466438, -0.08996326463898417, 0.06395338901608724, 0.03501521193824629, -0.07012280747222402, 0.13706892795708495, 0.06953530456478554, -0.26075138264473946, -0.08703716493643344, -0.03286120325789883, 0.05263036861298538], [0.0826334384430413, 0.23707828935629208, 0.06286639940739738, -0.3729567236323405, -0.13672224081347992, 0.08213198608594906, 0.11055542475821603, 0.1488908517722351, -0.031072004881341472, 0.17500894654426194, 0.09753232632228082, 0.17487935648822606, 0.14134610732412584, 0.26889583302712455, -0.2233889681641044, -0.24172403513041316, -0.019717599659960207, 0.009989264422351032, 0.021918429301010813, -0.016262899800661836, 0.15768871506771487, 0.07918583160271257, -0.13223106419571043, 0.16265727698915278, 0.054678184995825004, -0.04787425645022896, -0.18328028295350893, -0.054125785107951435, 0.04024165510601446, 0.08742562808482261, -0.07107717859256246, -0.18936770383302393, 0.2157944012285827, -0.05163872057647789, -0.15848162130436683, -0.2170776357114378, 0.02856802711194553, 0.1315737060882371], [-0.28063195067364927, 0.3248748469789536, -0.11117406759188883, -0.06836789196263546, -0.2737111887522729, -0.14046556664903392, 0.09693865788981189, 0.2798497593707583, 0.022910869831021426, -0.061322909764114954, 0.05689583459018759, 0.05905416257357819, 0.19504198755021732, 0.20078524816141263, -0.0009185481191991632, -0.14255250765729774, 0.01901087585930795, -0.21772927843086318, -0.003050900005360041, 0.14750832690315277, -0.0715064945638039, 0.0015575966907457937, -0.12173327406768203, 0.05310771605289534, -0.12084133089919512, 0.20037963265945585, -0.23406087619784077, 0.12380140335767308, -0.04972438939697934, 0.402777628443596, -0.06370105934791494, 0.10576901221188538, 0.10811936020145518, 0.21294253733822316, -0.1867922738426583, 0.028866393267524586, 0.15018473556768816, 0.022355534318266652], [0.023618849856064068, 0.25176358626156353, 0.0030835408315960672, -0.14713449131646486, -0.18199517659644274, -0.009489707270488706, 0.12808684762486247, 0.1131247687662146, 0.005141001611020573, 0.10445764600843724, 0.017500931214578554, 0.08432290212683846, -0.03603652974900986, 0.13518047993835686, -0.11114873081272882, -0.3220798311989302, 0.060169500183327985, -0.2149622085436304, 0.00576650839389447, 0.11607780379428079, 0.19404722160907875, 0.042837453699820616, 0.0520719813660025, 0.03105600455137679, -0.16689586288637984, 0.018318562592685834, -0.07230094779632672, -0.02039699899148365, -0.12926690067299612, 0.14390616857790986, -0.20072857115944973, 0.07762681700798421, -0.04565784765954405, 0.06664566771632491, -0.07886098220854322, -0.25838736493427966, 0.13957221717234217, -0.10273487864185459], [-0.17441093544525832, 0.129423445148068, 0.0009536879629412579, -0.3763636241712861, -0.01172791222087099, -0.16021775499700336, -0.0008701405157463064, 0.1882406435816659, 0.1427644415805274, 0.10430124793179729, 0.1779081058276049, -0.07135728892957699, -0.004529711131654752, 0.0037897547156871656, -0.2747965476175697, -0.2571661785544147, 0.013641420707305627, 0.1785603981600604, 0.20104242866995514, 0.3524688408885591, 0.2083636634553691, -0.013665528895252582, 0.048902963766194914, 0.12158351265937707, -0.13533517564244155, -0.1709190499721028, -0.14740395363164654, 0.15949333085816425, 0.1442371520924056, 0.233544418672434, -0.03728197933362345, -0.19067648325351513, 0.2281485566627054, 0.14286063509116317, -0.2879091505013269, -0.22367649971129905, -0.07953900819503003, -0.10239934465288815], [-0.14692185889494622, 0.3011459062832083, 0.16910816527683495, -0.21439010929995952, -0.05051705986640083, -0.1587880472941846, -0.14237509200353662, 0.2707997332783542, -0.10760568512780183, 0.11805377150281388, 0.09602855439711745, 0.11438524674217315, 0.018509804081364243, 0.10290543627901824, -0.06100734286645848, -0.173357317768749, 0.07074300211702146, 0.02653194064085238, 0.051204218417706775, 0.15082235388418577, -0.028179796099400474, 0.02540113596486581, -0.1705484729157213, 0.13222562695391712, 0.03304272975008273, 0.04095559802442006, 0.05075408930634461, -0.009239235848953085, 0.0657123492214932, 0.32027676013120676, 0.14123868119565494, -0.016993170481751228, -0.05777257335315636, 0.028283742973152223, -0.08798564413550419, -0.20965761504545696, -0.02995379072843868, 0.03269608342865747], [-0.12386467312270773, 0.49434663334616474, 0.026119698490118453, -0.5953177652132592, -0.10135487639179899, -0.23496487712300682, -0.02518195757002146, 0.2750043598763117, -0.039664870518897215, 0.1040875951850051, 0.4952765268767212, 0.13841064625895197, -0.05605888191824105, 0.11821559765453023, -0.2718355199339031, -0.461946469362298, 0.028903729037253044, 0.08060993558863397, 0.3379884414606389, 0.5551259940503962, 0.23449111976631407, 0.00028357561373204386, -0.07627433837622799, 0.33056030445697704, -0.2637464508113442, -0.3779249047275002, -0.09870672420554708, -0.005123343146004793, 0.04175677318869944, 0.2728032369619336, -0.02950453294919281, -0.2584671851955697, 0.1375017057158378, 0.06979880182250917, -0.3508384517003959, -0.6758490230826734, 0.03345438533969606, 0.03809097363275696], [-0.0591263041477704, -0.23047362720477677, 0.16687310047515294, 0.14057199521603628, -0.05826082076939458, -0.12407636900552742, -0.09397232952550871, -0.20086999617082632, -0.10661492299904975, 0.030586501108155133, -0.0788017855038784, -0.2269113431189984, -0.10739730325549364, -0.06584150616406242, -0.016930230132277336, -0.0032397379271626933, 0.07563472073644571, 0.005506892035027436, 0.03138385121369407, -0.11676724963669807, -0.0016575739635805431, 0.09118615610294667, 0.20910789839346944, -0.12984476064513262, 0.20594802119715927, 0.0123781962302317, 0.0945821055019135, 0.22619787345495462, -0.18468120199273547, -0.01802568712519673, -0.11503915839936994, 0.18424488374905582, -0.2045121585560896, -0.0829443230398099, 0.21070240822559846, 0.3015724521440963, -0.023036081956717445, -0.08065511967031917], [-0.07564116080380304, -0.13728369834367013, 0.027488577716374238, -0.14938252695960957, 0.027069343987765112, -0.182433510785667, -0.08242967668893571, 0.11627334343889684, 0.12643719487808144, 0.05609037296730361, -0.08107527527343653, -0.16880485904270856, 0.12964351558390466, 0.028018655982315337, 0.15478477140635621, -0.029107835924562047, -0.003667041231546869, -0.08562822317438043, -0.06818163403224477, 0.061388166661239474, -0.08032557373849634, 0.17353824147799066, -0.12383693046226943, -0.12182076709872569, 0.19058250169596094, -0.11903098849514432, -0.018185428881601774, 0.04931431532958032, 0.10308034696669252, 0.08071821435922444, -0.09085857371750186, -0.006707316150397955, -0.19892201127723927, -0.03445335593608536, -0.11485066406707893, -0.15588563285084797, -0.021432327730265, -0.1534606380858664], [-0.037519786476597816, -0.16466785263616185, 0.18496347291077136, 0.09802818576142816, -0.11844871365092509, 0.05860502948003993, -0.046336066944096185, -0.02488640586856357, -0.1522746471160757, -0.08590772513670865, 0.02069634510141397, 0.0753860382408327, 0.09478944601765868, 0.06805031066802511, 0.18465965605769272, -0.06974273916176987, 0.05112355628452562, 0.035385644459382005, -0.03397265452490311, -0.1653237680099014, -0.18087503154851373, 0.11139176523058748, 0.035490363779142164, 0.06278186819656137, 0.11725667506899125, -0.07893889397908636, 0.23251466270174972, 0.004008578072264506, 0.1147510132455909, -0.24877268861914337, -0.004511205824884925, 0.004615186804037998, 0.062083863267923055, -0.04067716061126426, -0.043372966450318504, 0.03767826950725234, -0.025735126180084743, -0.13431107952016105], [0.11899376719644489, 0.2505170457343678, 0.19643373099770553, -0.3800741923756919, -0.04961081204502229, -0.17346877813828757, 0.02674719559690357, -0.15765081640229317, 0.13915325575037535, 0.20239736278810236, 0.15969527896571264, -0.1281614996998398, 0.079861880104764, -0.02742503340337893, -0.07740957757934844, -0.11329767743233055, 0.21351215858378253, 0.04046215945530285, 0.22000878778474062, 0.3082083688044716, 0.0943212097388745, 0.01177936133545968, -0.12314959174957417, 0.1208475678825205, -0.20234905910948986, 0.004311608881409509, -0.10970743921664625, -0.12180178752708522, 0.2020460083610117, 0.03800504691499139, 0.1702356541560799, -0.21293898597538752, -0.032826123686854114, 0.18921053629409534, -0.013473865493099165, -0.4600429779637996, 0.028529386408196366, 0.10486774026302577], [-0.20069934305516124, -6.302500183305107e-05, -0.15233168553318555, 0.27954770126644335, 0.01719057635191226, -0.016579066519955544, -0.04398764144679122, 0.18269432126740073, 0.20253147046385273, -0.12257295190338795, -0.14952662336616818, -0.003802171705232302, 0.15798913587275024, 0.16670848685792247, -0.0017790335593828028, 0.03860838688962189, -0.08124574936838144, -0.2391224956496261, -0.1779307143695533, -0.038590671927960514, -0.11705228030669489, -0.05576224140066361, 0.15293092902330466, 0.06984997718570037, 0.0786552034442571, 0.2632923617834493, 0.007420669152670062, 0.13414932996114604, 0.04855065605158715, 0.1099358218700684, 0.03574608557625362, 0.20671408001242136, 0.08550134155308442, -0.1009471563909711, 0.050643442681489605, 0.09899248271606746, -0.13758747366721186, -0.1705415152793801], [0.05060475883194199, -0.017591374033270952, 0.11207342624380189, 0.20628405076131082, 0.05574800846644795, -0.08734815852838707, -0.13883874356321632, -0.023993618348280028, 0.1521658895968274, -0.038075711064463356, -0.04148165988251815, -0.029415630934951805, -0.05744834912275789, -0.03429888871163495, 0.10883106080569516, 0.306294318950095, 0.011318181191725422, 0.09680837202019324, -0.14187727670339384, -0.22834443726707984, -0.21336782407748367, 0.08155190939009314, -0.039471424772916736, -0.2530167129870877, 0.029425658556651184, 0.02325095205360142, 0.20197120368773652, 0.13125127654334212, -0.120998686238291, -0.20610801818226615, 0.07918163705942066, -0.05268787256658539, 0.016058062431191542, -0.1901692255375724, -0.011163776750706794, 0.2506762984829462, -0.15587025251777673, 0.06989998022787583], [-0.020068990760210795, 0.16116094198092648, -0.16559175440804041, -0.23879006825089233, -0.05450991313547841, -0.014961345339349718, -0.07921736729306272, 0.17799812796361827, 0.06680235951890472, 0.09141274570252861, 0.18340381260558658, 0.08233044948746077, 0.2013220683643902, 0.031220439215901452, 0.014433944750369077, -0.19169936022295533, -0.016043267707971442, 0.03292815957680556, -0.0094983663990781, 0.20971355177300205, 0.02223340031143604, -0.19190145129086408, -0.1488892947039009, 0.26762695333876396, -0.2078956276456913, -0.13914017971043066, -0.20870137192609944, -0.067031525305848, -0.03469649220781995, 0.14664696485807666, 0.08148892481552442, -0.13130578364010206, 0.2538922241670261, 0.26738299752732975, 0.0063134996640720415, -0.18489347778581405, -0.13363520832917375, -0.0323320670719134], [0.040215927226441246, 0.15193258884845726, -0.11536004609830476, -0.028916811578930446, -0.05351161845307183, 0.13154998726807524, -0.02413729085367528, -0.08998963157592549, -0.08940661184504103, 0.07434284880392014, 0.01911635647327728, -0.02710396689337055, 0.047438715746406984, 0.0430486776538743, -0.02095044623303043, -0.06254302694272545, 0.07985401047272885, -0.1529077460240594, -0.016300233801324705, -0.097287634445372, 0.02639056119170661, 0.04277890517546761, -0.05613241288955242, -0.07716789055776009, 0.07992032242157322, 0.03229142110343139, -0.004041153536143112, -0.0520841168729001, -0.05456266089534772, 0.1140143614128433, -0.17357273113455468, 0.023140420470286513, 0.06892436859647195, -0.03652019842494825, -0.10418097220747546, 0.2475449845094605, 0.015242753249581117, 0.00011468043509306327], [0.07375017872000686, 0.14618527704377396, 0.0030392012582515977, -0.4440962528263422, 0.13866624712006656, 0.06947844725788051, 0.14175131832734114, -0.08968533400551101, 0.12619307991685474, 0.01963484248834998, 0.2820965025650834, -0.025091528082634894, 0.0438841976164894, 0.2261635351911379, -0.3277014031398824, -0.16978930467227688, 0.03078862817768516, 0.16379979465089803, 0.26608237391915973, 0.3447447564964309, 0.03540903007799323, -0.10805297168014451, -0.02301333346900733, 0.10563133063553612, -0.23894224700861869, -0.28531182647575143, -0.21204915582942427, 0.1400181753773014, 0.20692504029452707, 0.020287938571088987, 0.038540748736927505, -0.22429557871044145, 0.12248551773202324, -0.03725815297129962, -0.05683828887412306, -0.19090312187354647, 0.08808430107805816, -0.07296250893470087], [-0.2220637235138526, 0.3561612371327841, -0.0014218165899240504, 0.010034140564254843, -0.14063179352097452, 0.09469680598968089, -0.0485119234915409, 0.23961034237483528, 0.1397498302675482, 0.0869927589871877, 0.06424519891295773, 0.06283761878015708, 0.13603727233072177, 0.38448732328757645, -0.07534817404405014, -0.28070458676621585, -0.08964257784283253, -0.23288614952954842, -0.06853488306101538, 0.1837479232746752, 0.11689846080700986, -0.16415745504700827, -0.15478534928043472, 0.16492579372307553, -0.28202208589504196, -0.0642281049621931, -0.11522381551441815, 0.16330025951294794, -0.10102991972144866, 0.48019136951486885, -0.04388188629277412, 0.06938051279264391, 0.24363703671806616, 0.2507844013632889, -0.1718219783412929, -0.26037714748354585, -0.16335188168898762, -0.17112162339535283]], "inputDataShape": [10, 75]}}, "convLayer": {"combConv": {"all": 4, "take": 2}, "convCore": {"Num": 5, "weight": [[[-3.759874808278642], [2.3802498363941456]], [[0.6284264250344495], [-0.6284559296690212]], [[-0.4196318592657073], [-0.02039510118772778]], [[0.00046234017863181273], [-2.478333877167565]], [[2.095463195896893], [-2.1399830934660167]]]}}}