{"poolingLayer": {"combPooling": {"all": 6, "take": 4}}, "convLayer": {"combConv": {"all": 4, "take": 2}, "convCore": {"weight": [[[-2.2405870315777032], [1.8266238991999224]], [[-0.22383478562765863], [-1.7798477999455031]], [[-6.5648318327584665], [-2.917585799784988]], [[-0.00010000972784923474], [-2.5915860202553014]], [[-2.1198709812008083], [-6.310489185304395]]], "Num": 5}}, "fullConnect": {"inputLayer": {"inputDataShape": [10, 75], "weight": [[0.040745786565591885, 0.11526419689050019, -0.004807749244434741, 0.05585665292849431, 0.1941406927356772, -0.023224124102133783, 0.12415917318700863, -0.09865489466691113, -0.029026596180837274, 0.0662899866244327, -0.15355310810045447, -0.11858185920691604, -0.15732134694310848, -0.10761943076867875, -0.14106636160486005, 0.07046311832000011, -0.23202293795999693, -0.055696689385506655, 0.14295546343212634, 0.16933441415765052, -0.12723788265701794, 0.03801462518749236, 0.059758843118033284, 0.06054540453246438, 0.08590086751015531, 0.07170745849129087, -0.19014742853885608, -0.19638455007371447, -0.02301920608595528, -0.026113904469864706, -0.1708780489644111, -0.15797421705270243, 0.162531573364909, 0.07857714461302208, 0.11673951231656406, 0.0372777242955607, 0.16753421731267507, -0.014951043715115058], [0.07808378279677419, -0.18407593540744294, -0.19116690234467879, -0.11020000997399547, -0.1505398909737159, 0.2375545996040156, -0.14779893202711059, -0.09222111763728563, -0.10470941603151385, -0.2283575143787343, -0.20380098212568337, 0.002256864517925175, 0.030880182950102652, -0.05515608139066068, 0.31813290145977535, -0.23048568077209558, -0.2381108591039282, -0.05169879995716869, 0.02570013981795083, -0.22845943884132025, -0.046332162206386085, 0.09261049619252218, -0.19449203168693904, 0.38964100432313603, -0.2205964904767698, -0.12063676163947284, -0.08642707500051203, 0.050450525221228566, -0.18692646481623312, -0.35789727035948854, 0.08681880044930078, 0.06727567794636412, 0.18433548983196338, -0.06605276186509215, 0.01711502791972772, 0.3045709490221944, -0.06598192081160267, -0.1125203044096347], [0.13890492832724213, -0.08790057939598636, -0.08179505966345892, 0.13104594006799408, 0.18168706806259152, 0.08726031416853754, -0.14153066852763527, -0.0718416588392572, 0.015963687564735315, 0.1482247884529289, -0.06394453410191497, 0.13562741186001437, -0.15585772562347766, -0.040285272717973684, 0.11578873820281951, -0.09422433375585662, 0.10771086639798948, -0.05146169249585562, -0.05804780445355375, -0.1274051427010935, 0.2542676804363966, 0.09337454546926283, -0.03573983859462938, -0.012851697125677474, -0.1737654868567189, -0.3167716623301218, -0.2632858180903605, -0.05616756332323536, -0.011085050748589306, -0.0852116577318321, 0.13311403078151182, 0.24785371696254477, 0.11620230281340897, -0.27104436964734324, 0.1590624158661538, -0.03361250031810904, -0.15260545613152338, -0.1583427296517276], [-0.13024552644751297, -0.25743278899663685, 0.02469472914132488, 0.25040070874081344, 0.04982927587848477, 0.10855524102478328, 0.08452863058680761, -0.20535718126051405, 0.016854790520833263, -0.23488321710291438, -0.3793485712478238, 0.2182528390406789, 0.08628343046970485, -0.13525929604739356, 0.19540928813498148, 0.060330730352960146, -0.16204161981210669, -0.023855144138777058, 0.2638765298492522, -0.05369929095264896, 0.29873206940035557, -0.2854585219156292, -0.17663524536227335, -0.04601366861927672, 0.06386766257406268, 0.03434108911470529, 0.1793043481131784, 0.06900784323447347, 0.15237792494606686, -0.037114157762409304, 0.1962752242791686, 0.2938485819028308, 0.11904365898234252, 0.23723428837707938, -0.04126615032959727, 0.21227599760839427, -0.05729928943285193, -0.24613523190459635], [0.07730965003451726, -0.33775683642109483, -0.1558451099306112, 0.26881913514321587, 0.10761986610769275, 0.15056718044777728, 0.03375771173406284, -0.027012373076530767, 0.1894954312481572, -0.2195574039913526, -0.20041704526517215, 0.23168343978025357, -0.010476557540230849, -0.09248810711792904, 0.13968727271461842, 0.06464382040046762, -0.09009085330409512, 0.06785149896704282, 0.09377399584522719, -0.026580328321067232, 0.014921619894878196, -0.2640630789877266, -0.03393432265119446, -0.11537159604573978, -0.5393887647983296, 0.039147495434174846, -0.07629875757255196, 0.1572391932910083, 0.03792433278915199, -0.061705666488261625, -0.1814005014918025, 0.22488838731042624, -0.14280826809825947, -0.04873220231552264, -0.10907529474014306, 0.18009837483341473, 0.07000765485571998, -0.06379109376717046], [-0.11511807369038905, 0.13766817765105255, -0.030041184535484024, 0.013296450747371017, 0.08383597769862654, 0.21995639236204825, 0.10236720770354, 0.2712661179458413, -0.12155536029369496, 0.08929619101319113, 0.035351835603290666, -0.06257951853301592, 0.24057949583598406, 0.3260715757811485, -0.2137350271648894, 0.28552282526568157, 0.09455327556469525, -0.038589444874908715, 0.01837472265337899, -0.01823980886532528, 0.13637900175980996, -0.01868255559946824, -0.04718180920214117, 0.08675296304176175, -0.21943221720734984, -0.13447909948241332, -0.21123414806374827, -0.10475726283976455, -0.2545717654268308, 0.21373615413468375, 0.11023115934683238, 0.4087719583825981, -0.04526689524359202, 0.36849203952964604, -0.060387716561473646, 0.1610672468464213, 0.182374502317411, -0.16964076993837524], [0.08866444159444865, -0.2783787536483334, 0.009029851908026139, 0.20045816941243583, 0.12338733445048797, -0.049300015738801696, -0.05673875941607589, -0.0864236899432758, -0.09338410851426751, 0.12108875011211066, 0.04725934709928486, 0.06764325755703816, 0.18396190833644857, -0.0726917970934102, 0.301843412591835, -0.18251677834765737, 0.16871960755601317, 0.11530612651303092, -0.12084682029386988, -0.03781587513313853, 0.013518298297250918, -0.04068125986662681, -0.18876686473640467, -0.16489960805630108, -0.20572193577984332, -0.2570624651404421, 0.07325374385240503, -0.02104594208043822, 0.07565422834223264, -0.26962884493728695, 0.09425373185015876, 0.1034523424334295, 0.17198007399487225, -0.1733217790125173, 0.07442016359886755, 0.20796514692083723, -0.07400983599961079, -0.10786950518537956], [-0.008333312042991167, -0.20064765713625402, 0.15932939424042872, -0.13897090613718735, 0.022738243824579087, 0.08768490680911672, 0.012585347036566184, -0.20334032853203574, -0.2622785628515289, 0.05747149553224795, -0.124941648791665, 0.03401254199420839, 0.12664987051185042, -0.04657919628730131, -0.11632901750899294, 0.05742999620926895, -0.2960411973921979, 0.07074121539391598, -0.06002864372911305, 0.13397485792589178, 0.08103986622673598, 0.004348241796843448, -0.2868867070199049, 0.05529309430078243, 0.2638454197321389, 0.17386186768863632, -0.07988217864512251, -0.16485847166186698, -0.11910788462833924, 0.10919176262210167, 0.040056117982476554, -0.1465897517104931, 0.03469898329003202, 0.26789874162755156, -0.09460874119881311, -0.18686046784823884, -0.10846055478989335, -0.17916524119195493], [-0.061374297348828, -0.400327284869147, 0.019082690405460033, -0.02866371646300134, -0.13840743494106625, 0.14326580650123297, 0.15256343818328835, 0.05481042330887106, -0.16138294949590584, -0.1936359523399106, -0.19746171812907184, 0.3088162095341514, -0.17924049490269206, -0.22206638285244407, 0.27444421657206863, 0.13310577503521875, 0.14128805696738175, 0.0204651804768246, -0.11824508631386799, -0.02091280376720079, 0.10950298867464114, 0.04364842237667342, -0.16837290227210408, -0.23311069265063028, -0.18065347554604255, 0.06852160632401641, -0.04746254592870402, 0.02663322481914576, -0.07078730454311173, -0.04086470127196575, 0.04499258294453214, -0.07372742775424683, -0.21373668672489082, -0.20633351566383779, -0.07589389677693183, 0.2812692650674953, 0.10030558973827079, 0.08800859954642545], [-0.1476898430002373, 0.31323903762544436, -0.04747513971629904, -0.07575321785299535, 0.07733509506863975, 0.32281645285181154, -0.07087861164817619, 0.1789027368050867, -0.21891841286650407, 0.1149526818719175, 0.04651322580855017, -0.21434947866767615, 0.25312700612174754, -0.037702709012106324, 0.0417005790522766, 0.07020320049024524, 0.19909153098228613, 0.15082863862133175, 0.07700157093384401, 0.014993786767059569, -0.09063265088942019, -0.06728000562714997, -0.05479201900607747, -0.29872986540760244, 0.2477021639246539, -0.2790929190159414, -0.18748274948981247, -0.15646089841717983, -0.3507800819948578, 0.08621168550990717, 0.19662267845907452, 0.30637953347023444, 0.0474581362287771, 0.1536528520768266, -0.13861656849978526, 0.18954124831243738, 0.05610098013624422, -0.19597605408316085], [0.014889858789919656, -0.054298404811376835, 0.011242892429235617, -0.09794153568454317, -0.1820113926554748, -0.1840340678745373, -0.07171057281048084, -0.2228928737834727, -0.1221434319117292, 0.03521612171679646, -0.25857252728096936, 0.10016086875495124, 0.07614039328321287, 0.23874249610307435, -0.005969962974129594, 0.09058036412515777, -0.07618891806401971, 0.05221692971454723, -0.1604850297755479, -0.003413607578534165, 0.2746854736039557, 0.16790018418123337, -0.2095575742070538, 0.10730936289151667, 0.28853233768386427, -0.07959200265421228, -0.2090092105037258, -0.10623298723673114, 0.16435368075162923, -0.1447598173234555, -0.017888429724820826, 0.05996907784884304, 0.12690079142547608, -0.023234095723663542, 0.032944435058419486, -0.07761842333205894, 0.027133320914743877, 0.04024698677547261], [0.09926135256744262, 0.2528726505162382, -0.018369515944569016, -0.443899174361338, 0.09296743197724391, -0.23322266988671075, -0.0396492410601753, -0.05484645500264797, 0.21683708024154943, 0.0417804678893096, 0.24474140089241772, 0.06445460091516718, 0.2794327919798413, 0.1175523185041919, 0.1761278293422329, 0.023197041853794877, -0.2374887071256752, 0.1415026611426369, -0.5187834599055784, 0.33374229383214643, 0.11813934581509061, 0.25747738700251366, -0.1734886698335646, -0.060246378240165425, 0.6862202477672972, 0.10467814131055327, -0.012774395422375883, -0.185496722422837, -0.2122670810534486, 0.05582778890589061, -0.26729837519679994, 0.0667683540309331, -0.18353484719645566, -0.04004298326220202, 0.0020326225134286277, 0.3184244253609474, -0.02453533456773833, -0.05508068863801164], [0.19636860613959153, 0.35634140393708363, 0.01618440886970645, 0.10589197139022002, 0.13891814825257617, -0.02386031228450453, -0.018692239104703964, 0.18291913142177663, -0.2107901873974907, -0.02567850729344249, 0.07967735988989236, -0.17774175170670678, 0.15716361904201956, -0.16222691810762896, 0.05810055407582841, 0.07322771232152438, -0.04308285086238692, -0.10609384720816911, -0.12703635247423592, -0.037079542631841246, 0.13460770391510804, -0.04159963591425502, 0.03530901113491062, 0.022778083959852067, 0.047613278415779996, -0.4670515267368772, -0.20661310207072742, -0.05225539522157883, -0.002519859319717016, 0.15514572157473794, 0.038872562927682826, 0.3199950590770691, -0.08634407732106579, -0.11903498713362591, -0.2770617387482633, -0.1413137442084746, -0.038879167493142686, -0.07372806803304857], [-0.10473337341860725, -0.171608411101801, -0.012881086297661028, -0.03283224953780656, 0.011951473174714225, -0.08766591631542019, 0.007129458418022468, -0.17512160277986577, -0.0030418341790647927, -0.21048217286767396, -0.3495054967006573, 0.2657175040700927, -0.006058659391154919, 0.21103680090609453, 0.05814189653082551, -0.15016927572017505, 0.1435230119648129, -0.12039646585703309, -0.06441723045068157, 0.033148210144189304, 0.12490772624104296, -0.19249203915584262, -0.14289503718115584, 0.1778353245326586, 0.12883129184949965, 0.2455712534124082, 0.24686391340914435, 0.052707023440675, 0.07727359970271803, -0.009408374634602507, -0.15746281006317922, -0.2557093850513881, -0.11412295180571722, 0.13417412052280644, 0.14395938774360048, 0.1053958116030965, 0.0569453571269905, 0.10471300503146849], [-0.11162377617700932, 0.12845197947746886, 0.06433497062067862, -0.001980607881610249, 0.08254817165260699, 0.1889620328740004, 0.04162124860899678, 0.11256174116834322, -0.22881680869127935, 0.21681544226387045, -0.17049595771380707, -0.06707228020639948, 0.21156978644989183, 0.23751784367696144, -0.044544738193770785, 0.20660073581553196, 0.027569686034930176, -0.02622310248198373, 0.04818022918230884, 0.008472211050444317, 0.063495505427068, -0.30199002284256854, -0.047346559349621176, -0.14577520916399658, 0.3515392658453302, -0.06715379696622235, 0.07567529623698817, -0.21608951709566646, 0.0032396928650150762, 0.2941641943845387, -0.1370665922231879, 0.2803122228358582, -0.036200274619385776, 0.20712313024888326, -0.20102106320212543, -0.03500539418761426, 0.027673112332925263, -0.2540790515092768], [0.1412484271273638, 0.17456638917521727, 0.044931385663020504, 0.053441634980829135, -0.06727585545074896, 0.1809361257096513, 0.03815810391483732, 0.15518294931616708, -0.14537065956465, -0.24344155339479645, -0.09342651064301363, -0.2192468407862109, -0.25617061228805116, -0.1593841780166386, -0.13187927410750772, 0.14057660902283975, -0.035054045439216766, -0.00139117123749005, -0.24059652821867603, -0.03829482122920363, 0.15608061451701427, -0.06997243527839396, 0.2745716890668348, -0.07231585149071199, 0.12989343966019112, -0.3805944472143135, -0.09914213123813206, -0.23409068854867562, -0.011437959276960069, 0.05943593059238153, 0.12029280364687923, 0.22062357235386426, 0.03820860047950765, 0.07682942505818191, -0.2242505586835489, 0.12413229343585196, 0.004040205399034918, -0.2699069681936727], [-0.030074959078399976, 0.06967384707997601, -0.002512433319881683, 0.11896373777863446, -0.22355566499314172, -0.024813341770672674, 0.12267699627710832, -0.09368124783245069, -0.06156689448435284, 0.12738189915095688, 0.084349670606277, -0.04700795180266784, -0.01375222721619668, -0.013919250423117169, -0.03524933768983745, 0.13826352535744485, 0.05985656321871302, 0.15049548839112303, -0.06347413546922105, 0.021965378790641345, 0.006769960312042834, -0.09528406868596916, 0.09108143018208291, -0.17409243663369417, 0.10527300214176423, 0.18234009607578533, -0.0940583842654625, 0.2069089406791118, -0.005002962768710884, -0.023949167109084884, -0.013214509232598167, -0.004244700712254234, 0.08783021510698051, 0.05407118094639376, -0.027016004451983433, -0.1310307750816296, -0.13257455203031185, 0.0017685537974222651], [-0.032672939466330736, 0.14352060226375518, 0.0629038938270843, 0.0014319449336971887, 0.03619680511219309, -0.18884239116527263, 0.06165007340302552, 0.13082167562201394, 0.14592387644124374, -0.09669473999467901, 0.034233360614482636, -0.0298992480142362, -0.02301147176712804, 0.17502288684322082, 0.05403582009223931, -0.16036233404344058, -0.02303984825380172, 0.05174079697006653, -0.23288495270445883, 0.0035619906387914764, -0.04945006757743372, 0.17769086783152918, 0.12163626961066189, 0.04217701974887094, -0.019597191831817427, 0.1697756683641189, -0.0726051877472487, -0.043545756258661084, -0.035135009969062166, -0.1731698686658659, 0.08833933023884091, -0.01864382156426209, -0.03375561535119622, 0.12988503577034602, 0.05802025166191623, -0.1387252769368535, -0.13265578455884358, -0.13892140476516818], [0.1359659665573723, -0.1002261455086512, -0.037662765072427225, -0.15606225403914822, 0.09272400990040218, -0.17480403249330836, -0.03873568132427039, -0.10410293254821251, -0.07190010641597523, 0.046564996843567845, 0.011187059768346818, 0.059469671721375586, -0.08833906435554581, 0.0702267724021207, 0.09396124536726692, -0.09916975143026698, 0.06507283324008878, -0.08650714034628491, -0.0601204606470438, -0.04450065805492368, -0.04846891715602238, 0.17704548707817352, 0.11076063034565163, -0.016594419460795217, 0.10133649542103323, -0.11679593569496685, -0.12104273380932787, 0.02362822711392999, 0.10962267720940715, -0.02916236094097184, -0.06095970057339785, 0.10967919952324658, -0.008690186352145657, 0.03554641225522184, 0.0597704657418945, 0.09370010907196784, -0.07250380459983306, -0.1288490428926828], [-0.10864987737531306, -0.14888659133706417, 0.02052977327176484, -0.11194514206311774, -0.10121070120052904, -0.014222167742979592, 0.005651617802113998, 0.08891309818422154, -0.03825329641064715, -0.13101546197813377, 0.10654357527666355, 0.0677228844175877, 0.20559921892419813, -0.02349235912127916, -0.13664090543915663, -0.10597907875828211, -0.10731659635281483, 0.005049405443304533, 0.1047130128481953, 0.03543369001573712, -0.07767256293457343, 0.1924606546634427, -0.12930883254083775, 0.13026287739160822, -0.10253835772784517, -0.08938699238023734, 0.10517836748928319, -0.06929001339220879, 0.061561815208151564, 0.011158585449013313, -0.24433534870980098, 0.04038786921919321, -0.10291004891239844, 0.032748844738723276, 0.019070519521996367, -0.15056472522663372, -0.11104268057156118, 0.17357836506500554], [-0.009178024970481964, 0.11429040558912464, 0.06948505847450243, 0.1303004899996212, 0.2818974153293457, 0.11207964541875073, 0.014181152652830488, 0.04938157115634278, -0.17629693209474998, 0.14704422555112764, -0.09751396275507428, -0.12354902236096495, 0.021577918540426858, -0.15456814178743652, 0.08341860852336519, -0.08845597296117945, -0.09417737652344274, -0.08793425018783904, 0.1674776385114114, 0.08246117256362315, 0.20790176444083402, 0.07787318052176623, 0.1350541199911251, 0.12651265500327943, -0.11173540159683541, -0.07964144602858848, -0.016825112140200507, 0.08223605679316354, 0.11323661738840345, 0.08990293845134978, -0.060793388335301145, -0.16723859347627745, 0.025913270486217412, 0.2773350654927866, -0.05797677662873197, 0.02033651912703263, 0.030392466192519507, 0.13095029216277618], [0.15302895926720075, 0.10492603026141153, 0.07034642135204176, -0.12178459719891355, 0.04261893349358031, 0.09393438441851934, -0.10324134209965076, -0.022948152799854123, 0.07557676800227672, 0.006316488028828611, 0.10712129016025539, 0.05579135355638311, -0.05910539931677304, 0.16448817122818452, 0.009434236573855477, 0.15824588759676952, -0.09496382422717466, -0.11751498385560659, -0.0274226802235498, -0.07516582651231862, 0.12125141395136568, 0.20639714113944305, -0.17576363526247457, -0.14748645198964705, 0.2533916419650536, -0.010052140949141319, 0.08455331365313357, 0.01684089699919578, -0.029497061814929105, -0.13322384665228854, -0.1135866534364524, 0.08408390980386916, 0.14560000531159767, -0.015700315645526732, -0.01040296535397168, -0.007043757760474808, 0.01441792568063477, 0.0799124500871528], [-0.0629655465800537, -0.11194979583025993, 0.009946009123122655, -0.14229072698895273, 0.1332050601785381, -0.014953634621375347, 0.10791858720129775, 0.11668098727085799, -0.16462361281205654, -0.16136399755409467, -0.161016150207388, 0.00973048007798831, -0.04693403146192538, -0.1440830843032571, -0.13972982665389416, -0.05767904047295598, 0.16416178464267167, -0.051352790658682146, 0.0035336560087644896, -0.04844902116716808, -0.0064174686536702325, -0.11687559381097211, 0.10624312401936131, -0.09881819608056427, 0.10711790362968485, 0.05393335860384076, 0.017370555967792863, -0.14139293930279023, -0.08620258764098655, -0.010612780379811582, -0.11294444009002241, -0.07397452965558982, -0.13278087147897394, 0.024073217096418298, 0.04494738999965073, -0.15360660544471164, -0.014537609066378219, 0.03737957829917646], [0.09197061533883273, 0.03156923955606144, 0.09428843139818335, 0.01279941068714231, 0.0865474790173272, 0.030243700139565274, 0.05350165664427531, 0.01944327435090322, 0.029566561691643393, -0.18800988878450478, 0.13040295205984054, -0.14948198088940515, -0.0677386441217375, -0.10253691192115079, 0.13860210408834253, 0.02115389589561999, 0.07687986724945554, -0.0362513043076116, -0.10988172061121237, 0.07612207571930701, 0.0574298471881476, -0.10114386366681559, -0.08379631163088605, 0.15163632956624878, -0.08431625531596067, -0.11796134575108766, 0.027416815411668675, 0.1150678140842826, 0.08318197711924956, 0.11956994331618208, 0.019992441123952202, -0.13955626801859478, -0.029849382041576868, 0.0830003668678422, -0.0014229301717792148, 0.023505061443787764, -0.13633547233568927, 0.005364039900714497], [0.14316266612531506, -0.0321192839320742, -0.11883632618150736, -0.18065669028807654, 0.22865550244459884, 0.12067857064795343, -0.012109015947844276, 0.018918742712397518, -0.1644211881532588, -0.02906351836249126, 0.08310394209697064, 0.1385005660488697, -0.15668489339654657, -0.02293727263031691, 0.0016349182003103143, -0.13689635537949293, -0.12463640947881294, 0.15395972178010298, 0.02764886613788326, 0.008401646893816176, -0.09022540314831257, 0.14457975131256814, -0.1298391083465156, 0.09319567502310042, -0.22432247135059283, -0.11947159990278255, -0.08949308547728223, -0.0055396971628722666, -0.04145610573411517, 0.12881158672866344, -0.13715095452088522, -0.14779548659663316, -0.029570505367470013, 0.21397737664512706, 0.04897460866561871, -0.12838360414971936, -0.07196311227725749, 0.0011377728125407658], [-0.040513070160124905, -0.06016334930118788, -0.010611610856527811, 0.12767465310807086, -0.06943219745458129, -0.09852272328297675, -0.032856348641131954, -0.1507829869281733, -0.08503200289790142, 0.038061433566604665, 0.03522644219906203, 0.07715116301844335, -0.14066515989496597, 0.262052898735008, 0.14898254709535055, 0.14590983300849297, -0.057963982349212025, 0.010168487062872702, 0.001442634478606569, -0.041839594804956214, 0.11675711032988666, 0.13525852154088627, -0.007369013202983411, 0.16598326266719046, 0.15253855723955223, 0.15000686407128083, -0.12289520641148477, 0.09923788056829806, 0.05852532434758107, -0.07119272504243541, 0.033000161248763024, 0.19417688736511915, 0.06837126361932479, 0.07873488841607111, -0.1081421886779045, 0.03923060652060666, -0.04653388170742078, 0.15492418294193303], [-0.03130403537197983, -0.2023322987956959, -0.08667967280499078, 0.05393920723724406, -0.2775778535944502, 0.0318841145187147, -0.21269630763526198, 0.12734862570695615, 0.019956945785267587, -0.12766933656382493, -0.06985265126282923, 0.15158791263846208, 0.01650600178333345, 0.15901116859641262, 0.0537888982169094, -0.17140370688664325, 0.12968212744111277, -0.1510745792179108, -0.1992320249690023, 0.12621110089227572, 0.015564144493947243, -0.0484162117703657, -0.06060785113072648, -0.013332555343256666, -0.09704292655098784, 0.045259253280538383, 0.03419585667107361, 0.06243121675644539, -0.1426284119530544, -0.21992445015276008, 0.09692951987443155, -0.018427952217445906, 0.12310996387205157, -0.09859461999391643, 0.009001460899352935, 0.23020202583809243, -0.10990138955369548, 0.13051681580415173], [0.006830619231521339, 0.23909595249326224, 0.04591467001768681, 0.044048124089257096, -0.09321806977890995, 0.0554172212064353, 0.07348094915603318, -0.030924363272923163, -0.24958154159955423, 0.02746486446445481, 0.08182050985111691, -0.03039219034605366, 0.052815951108988485, 0.17398012260075835, -0.006826342213794579, -0.13874709117164666, 0.1701520823655711, 0.045847985219557526, -0.010393795545041985, 0.2767562415434302, 0.21360647986642772, 0.06039483955482987, -0.17775200364420352, -0.08602206076541696, -0.11376200431972157, -0.04059009101294374, -0.16372447572066126, -0.1542930371667618, 0.14091869779144392, -0.2115961070995274, -0.07531761748974894, -0.09771108713649772, 0.24814619135444826, 0.21604182438877295, 0.12149954987254435, -0.03035840166311771, -0.06712131177249585, 0.07968365959940217], [0.023055321159650293, -0.0944238813864419, -0.03788817103727594, -0.272995319780346, -0.09366409045761316, 0.00715714925265214, -0.08323399047305433, -0.12254182117573714, -0.23567280587911285, 0.11935189966084528, 0.12100876002771956, -0.047664403825814654, -0.013078730933999392, -0.028602032335856606, 0.10835044120153182, 0.09276735966536191, -0.08599445853805335, 0.04004912456146342, 0.016452592219609086, 0.08635003882408691, -0.04746571593164762, 0.0866798100410526, 0.011173721851395016, 0.050846855904562324, -0.1618235590406025, -0.11704715906351602, 0.13108202467332308, -0.1877519936153875, 0.008382466621246377, 0.10303039337882867, -0.08508204452426155, -0.0242896925202351, 0.11176636722574117, 0.19959115402103855, -0.15738310609044756, 0.032316885096046286, 0.13061805044090724, 0.031170029070408795], [0.06249842443417474, -0.09587383036798068, -0.08884580777002057, 0.05046063608865536, 0.19013144798385345, -0.05695684073826104, 0.1551235125279918, -0.12810705473051562, -0.2321893825962963, -0.11834084096291396, 0.08251698809910023, 0.087364300478042, -0.08511861768460911, 0.02016662319158907, -0.04812147447072589, -0.058463122016962396, -0.06246296010385073, -0.16513936788772793, -0.11575746532859854, 0.22576197942213863, 0.00959984421122403, -0.03628048096489909, -0.0159031731966782, -0.10980517656002609, -0.12729608089147856, -0.11015370728322434, 0.04171973660871135, -0.11150128203621931, -0.12515305225764942, 0.08384224050511287, -0.1344517793899041, -0.13922257456224232, 0.041054640746588905, 0.11190579224689323, -0.16898513017527103, 0.09768683732355854, 0.1466145648700323, 0.15825374193516648], [-0.08384600866178518, -0.00632825702558427, 0.12744471951249056, -0.18292482170289817, 0.018637444316260604, 0.10354969374975566, 0.13279487209282642, -0.005900728356306354, -0.18438557739620645, -0.09552705355660995, -0.10652619867851577, 0.0481420251443477, -0.16669484264495923, -0.15929213923155994, -0.13708873052032872, -0.0028497258374204307, 0.1110131238118145, 0.05178904793160756, -0.04046032154134791, 0.19147680224856373, -0.09899090883317842, 0.04171397308795658, -0.18980697638718363, -0.11232551877755306, 0.0016600546426712086, 0.07691324243740036, 0.16966964421748698, -0.16589313782492865, -0.11624542903622118, 0.04765831782680118, -0.2542926462662259, -0.12050166801632411, -0.07141507628115869, 0.30047794122880356, -0.06210804583636764, -0.11475721146501192, 0.12994683271972016, -0.013458369637674177], [0.06065958076065201, -0.27498286934556, 0.11432557480403635, 0.31615850434327614, 0.22995746701653638, -0.06936399610513068, 0.01737036567617808, -0.020618939842196416, 0.394085200642458, 0.3045459851703662, -0.15637890419137224, -0.015250465830663768, 0.3382597896501647, 0.35797345070410214, 0.09875409346485889, 0.35986028595254715, 0.2040952206741476, -0.046322489784356984, 0.38563414576212857, -0.2694463986413356, 0.0665023968061309, -0.30938163077410213, -0.12788705909395173, -0.13776699669938042, -0.3510982166968692, -0.4001601931985614, 0.1825080498685992, 0.22361825064049592, -0.1299473024643059, 0.9156445956353196, 0.4462269137274504, 0.26379600182344143, -0.46432674589666956, -0.7384455451409112, -0.3946984967375617, 0.3408170370583478, -0.026763501815662647, -0.031670145842115006], [0.08436637658689568, -0.09326422541166582, 0.06094239821285617, 0.2204962045918831, -0.1675059984663258, 0.10620715937190117, 0.23547568024595245, 0.2569389638982493, 0.5297556252700553, 0.24923670294949815, -0.25644680967866873, -0.04567676252510646, 0.11291532561587544, 0.35853440672764864, 0.04282863389839698, 0.3167533190993996, -0.06643765130046848, -0.17282250819133746, 0.10473846277482128, -0.2981953999435061, 0.005675278010357855, -0.29371222065181846, -0.10787899729337695, -0.09647479603005064, -0.04335110282263423, -0.21351643966274694, 0.024561362891110328, 0.012691844121829539, -0.03271070610512759, 0.06529910672427845, 0.04077040718789005, 0.24531079698538805, -0.07319224377774855, -0.617754641548299, -0.24837239348597995, 0.26218034732305384, 0.15560688911410478, -0.046258031235077934], [0.050674983741309625, -0.05518817312701542, 0.07041505799499456, 0.4402710197910323, 0.3155743189625033, -0.1341122579455578, -0.029634895600317093, 0.013666108242445092, 0.16855518363779698, 0.269851528147941, -0.03760590366129472, -0.2782078041020498, -0.1326325571708643, 0.3302369524923672, -0.167429703983002, 0.0966679707790716, -0.3319800959310012, 0.020815381380744458, 0.39068236633868425, -0.0503844193184663, 0.024627908508711556, -0.3333941150227048, 0.050331181307683624, -0.19657388182680124, 0.0011944177717471932, -0.21404165988919716, 0.0888897671076849, -0.12712709251611914, -0.1536451356709996, 0.16453865477259552, 0.188423895587121, 0.23157337732764446, -0.050184159378873626, -0.17487885972982778, -0.24520741170977564, 0.30991525453158925, 0.20514441186378377, -0.08817424137437517], [-0.08186686688551285, -0.3076407381823777, 0.04186034399724394, 0.32074059462075066, 0.014041877308650828, -0.057772814054499244, 0.06856847153931774, 0.15763765868549579, 0.42608388823974913, 0.12011357504142171, 0.0471594827407673, 0.39260870646766055, 0.2643890786967865, 0.08282607064587763, 0.06634866011118612, 0.21119227062168416, -0.327932083582516, -0.06996371400407238, 0.13733107983060064, -0.47617202519517243, -0.14159104385613847, -0.26174641539390864, -0.11645493570048875, -0.41151441445761117, -0.5333477265271168, -0.09169446859062225, 0.339024294290849, 0.14140847888836552, -0.23809314890601463, 0.38186247177101124, -0.0042798876902310524, 0.1627201363133786, -0.21514875095764097, -0.11267704012583307, -0.2279202334684688, 0.3138397109908491, 0.05471353040570401, 0.10910382768188465], [0.08896947669842728, -0.24223057408476162, 0.1575844078116166, 0.5436640725140097, 0.7092400482194895, 0.07682181430125186, 0.03281985748704123, -0.0003228664080358368, 0.1679000288574455, 0.17884315759380653, -0.031270349525903574, -0.03727613427865484, 0.12215280556883214, 0.0717500580946473, 0.006676634441869009, 0.41799442155493877, -0.06398533946017688, 0.13240826983395768, 0.39806830542883515, -0.1976899125231057, -0.09568435309453376, -0.35578182692186233, -0.03634753297775759, -0.30998350659098933, -0.5274842416438948, 0.14754472023507773, 0.39063599882747013, 0.16854813976278718, -0.2993805906543015, 0.49950489393463904, 0.11383366322282154, -0.08977498166321843, -0.07811218986942728, 0.3798718869288451, -0.30072238454538325, 0.22896078785025265, 0.06931574774518542, 0.2554200941528747], [0.21472496234826327, 0.20697826448072798, 0.029283777213475148, -0.2711096475179652, -0.17615575933342204, 0.23311843136180702, -0.04971428797737922, 0.15270501681455212, -0.11548338027652699, 0.00683970155123862, -0.24525295624517107, 0.0874973749688791, 0.08927747665955083, -0.3441972290847492, 0.16430634967102242, -0.08967447503646589, -0.26621396399603436, -0.13716014489795283, 0.2317085258830353, -0.21251928612215745, 0.13867940911699322, 0.11416562427883184, -0.2258615759518362, 0.20484828505537525, 0.11245719877117781, -0.5911939533141531, -0.11463172076434269, -0.27858658393165725, -0.1799598811745902, -0.0025331675028066746, -0.09941031516200148, 0.3026310500155597, -0.12246658766947012, -0.43319839487027495, 0.26680286102564843, 0.05149765419337055, 0.05539770241689614, -0.09687994400200392], [-0.018901370199528734, 0.030375757241030272, 0.11495202906645496, 0.34526104114767714, -0.21861308439109828, 0.02052082202796704, 0.09943113057493966, -0.17850846310247495, 0.4708076642403584, -0.10486532004218661, -0.016269350244811912, 0.265350884133638, 0.05531975767988082, -0.2530305724845454, 0.1833759758385409, -0.1940582392278601, 0.18385607510817512, -0.12543223885273475, 0.054000629502448105, -0.49107803913172104, 0.2713473980162319, -0.277168875114711, -0.041727855330378594, -0.26460148760181346, 0.009959083085665907, -0.21511645686020264, -0.16005246101034568, 0.22283075990854473, -0.15328624751498418, 0.4326176435640864, 0.15451617475205723, -0.13243686977711186, -0.26499124367287485, -0.8273623996267533, 0.15377415912231582, 0.2745528542056834, -0.02073641269581241, -0.18095913933397031], [-0.0012606490032231747, -0.03233299736785317, -0.023722921228500986, 0.08094628810609626, -0.17259952351101354, -0.01733260955194382, -0.18542980822232968, -0.2397218194210068, 0.283478172726552, -0.20600415605151762, 0.10615207030894078, 0.022115249820801267, 0.48763136969694687, -0.46028728473713637, 0.3493221470696928, -0.17868254739807574, 0.044933219827088436, -0.10519284800397988, -0.3296997744053013, -0.1268871774544708, 0.006764873445998802, -0.43814385529074074, -0.35703761726619365, -0.1676160035293555, -0.0015345003963924595, -0.3999277505088798, -0.4128984242052359, 0.2519453649837217, -0.24477023862741787, 0.6446250846978838, 0.5291575880018636, 0.1973908928529564, -0.23153498928480307, -0.7429442382069068, 0.005938319069322227, 0.41001648851075817, -0.19379766303195078, 0.03932006320686653], [0.12776937190731633, 0.14860469951066627, 0.19471723791490111, 0.05798257687875448, 0.3745130398916234, 0.0830616219096107, -0.13375413454356472, -0.2098056389822853, 0.39359763138477466, 0.00028054185408999245, -0.11855664787716613, 0.03744880147670189, 0.27698224191487636, -0.33551724366936897, 0.21860332922218378, -0.021469982155671127, -0.007849178621035813, 0.16025532191525715, 0.19304942803092154, 0.004678967209917828, 0.048338055599585164, -0.2373346179256904, -0.022025785155626892, -0.12693968132480862, -0.16359086017893554, -0.3091040518182626, -0.3071267921924108, 0.13745959296689603, -0.02548096196692404, 0.3548390837686319, 0.13466576565267305, 0.1903960577257529, -0.20498171414244923, 0.21469179815495437, 0.2503464919954589, -0.07899492221420348, -0.07841990239789506, -0.03446636569667556], [-0.06518069814175663, -0.1509878220791966, 0.18466450398156672, -0.03144561450884399, -0.6224012747344398, 0.07625651446168114, -0.002996446731761808, -0.04146837309983461, 0.2881814083308155, 0.09910790888947663, -0.3112467224458194, 0.12385029900159761, -0.14480246182662448, -0.37830448439910824, 0.2169184975795365, -0.2542895463386944, -0.20649115740739138, -0.0803470135301015, 0.09629173198883922, -0.45455102843661527, -0.042697374423018956, 0.035767776178984946, -0.0033876932817933085, 0.012820298282331376, 0.5085072379060209, -0.1616128675670417, 0.08750049692712322, -0.27397000407150524, 0.10366999183331041, 0.1325195602697263, 0.23134711177602268, -0.17275831048463997, -0.43007479016956845, -0.5711618116605485, 0.08609817771269791, 0.3413702735708907, 0.11155565129899765, 0.06495444265544753], [0.06396577439743374, 0.02159084138095421, -0.007725850660917773, -0.12628102956467643, -0.5691202047127962, 0.07673102307970185, -0.0637953622598825, -0.092303843748569, 0.40191852636607894, -0.08912821677815509, -0.13882585871638556, 0.40732712325549864, 0.21930833609942005, -0.11937405238186838, 0.1699040161974191, -0.14794745258426972, -0.15778554292002311, -0.07279932312137707, -0.353698645030446, -0.3713877882641021, 0.05620368698888241, -0.3045367682173192, -0.15207080148661523, -0.3116733574497303, 0.2983616877888716, -0.2899774427598148, -0.06252210402177957, -0.054988634269571485, -0.22619285472699702, 0.4862872355503804, 0.05022963017951714, 0.28449332161700464, -0.3042630473240098, -0.4854301643673918, 0.3180822045801536, 0.49376237391101097, -0.10844440441450424, -0.2580715971603398], [0.09842474554071308, 0.20648940250797282, -0.09433794168095211, 0.44933559521908345, -0.5102694734186682, 0.12487788572369046, -0.00121845381398435, 0.17671175975956432, 0.10040928553101046, 0.1860260124211789, -0.2872510288094356, 0.11677209048767934, 0.2716447604251778, -0.21961573519428632, 0.18922736021043984, -0.1940117257421724, -0.2375276576333655, -0.07469432963208009, -0.12833386250220824, -0.015803795559389867, 0.054816336841208554, -0.030880000139982294, -0.0014832890731258232, -0.21001087743081076, 0.6639667431642902, -0.05703951495944877, -0.27367033866944496, -0.3426128483158518, -0.09775639088621348, -0.03194437455476622, 0.216998510819312, 0.17254392384386022, -0.2492253556199054, -0.38880643810376403, 0.37321692854176014, 0.20907183930711007, -0.09141765144037459, -0.1394962788138926], [-0.04395751650351092, -0.014620437177172423, 0.048902872173857664, -0.24731392862920604, 0.4088175967731477, 0.02746470182343128, 0.028935947923024417, -0.17158976765644304, -0.17357670952912446, -0.116052680012669, 0.3106711531772355, 0.16393841501805856, -0.2720423919532118, -0.737154063277484, 0.007350534764123366, -0.13886314888507076, -0.3758141562876207, -0.1270469805471848, 0.4197845647043846, -0.33649965188314657, 0.3258099709816484, -0.016993394899609434, -0.011856026078721696, 0.12107014042582492, 0.07173489756002262, -0.08720991099306488, -0.2708417995712368, -0.41837953007888024, -0.13117424076174708, -0.4855260862426085, -0.15310265098015308, 0.10134114592208819, 0.048529545069403275, 0.038078586139839124, 0.29912884522084815, 0.07688545185433225, -0.051852081690047166, -0.10286870401733134], [-0.11548935697030355, -0.38475714459377164, 0.11933115968947945, 0.5803430084465023, -0.20242107900255468, -0.1272422521478592, 0.2014345334267059, -0.1453015935075959, 0.49737099786517674, -0.1746344341124064, -0.3748571369216591, 0.2393895001114945, -0.08591262862937575, -0.2086163576642039, 0.1491088057340866, -0.27161528615898817, 0.37821750802442805, -0.10366153999942682, -0.3972606157457068, -0.20405619108551282, -0.020668164752367477, -0.23988140940162014, -0.1482827141359399, -0.57147490387406, -0.08297157969614045, -0.17864901587803, 0.1921353657996164, 0.2748003203485427, -0.2116373315553313, -0.13912121155857005, 0.4902378568433875, -0.11221461268718609, -0.30841713653954944, -0.3337362644274167, 0.03263328041563145, 0.5308682175283786, 0.14954357332935334, 0.05318067373347467], [0.04659524117986372, -0.04316689133631452, -0.08925279155074999, 0.5343180664641691, -0.2405824765051623, 0.08182076846490018, 0.023831172697544964, -0.14246911539881998, 0.24013881827758576, -0.06764591750321647, -0.3489323982005172, 0.19392283641111735, 0.2946418288086479, -0.11137816830721577, -0.03155136455262009, -0.1295383031900127, -0.09269347784796994, -0.015262572362899005, 0.20389865125750128, 0.21764299852965938, 0.20784907842747666, -0.6508121734615322, -0.28041337007119577, -0.1518601946876884, 0.2519890817344796, 0.14438108502296398, -0.0904714519427318, 0.2523609589690716, 0.05041675793638374, 0.11889024955277615, 0.45036642899972185, 0.03326828596694642, 0.014242842867406687, 0.32618600829318034, 0.27909048693062144, 0.1297096928926643, 0.10482813659530961, -0.1879015790839042], [0.010933100561166182, 0.03640556263338087, -0.1391850063874354, 0.18978978446814632, -0.08184097744281736, -0.15928164720040577, 0.08468555916574536, 0.1164399710058155, 0.011897903607781903, -0.13969338464239162, 0.0031828244315368764, 0.24220074141018083, 0.04479165507169228, 0.11702120492529472, -0.03226493964571038, 0.16620535942789808, -0.012160208925745824, 0.10344258045716229, -0.31419733796536536, 0.2078879026782243, -0.10533144547807598, -0.2052707551654218, -0.09576723523250805, -0.11515661088958136, 0.2876212332810729, 0.21032065343746412, 0.13099557941947598, 0.11485152299260641, 0.05808868487361922, 0.1387632036253889, -0.02900193889102271, 0.07927923703216522, 0.09433263335352882, -0.011211949434070223, -0.10810410143481751, 0.11523045922015561, 0.05822211270796274, 0.1672591989501944], [-0.05057227355920784, -0.031989593426175265, -0.058172980461231955, -0.03777251302482098, -0.1413910008263185, -0.051838860176754306, 0.0439515025575161, 0.01590051140270097, 0.127773048658761, -0.0629876387126402, -0.010968462145136599, 0.09388632455036156, 0.17544774612425648, 0.11208891010751566, 0.029846001356233578, -0.05456330659182968, -0.10546220943876106, -0.10749803592833912, -0.20871836050370618, 0.12498858752776874, -0.024139869166089015, -0.18405466953459287, 0.014721940330924825, 0.0979222798114367, 0.07964177056524566, 0.09491168179290113, 0.010898991409679122, 0.20026015227845276, -0.11202437359675754, 0.2011551563870056, 0.01900946464490179, -0.040184620458522426, -0.05804718512334636, -0.051531062548756106, -0.220452510515176, 0.1650239438403402, 0.015757342813937255, 0.020610393504339103], [-0.08091179646571812, 0.04623385220360148, 0.08530155192504163, 0.0062975358604326764, -0.093746519511792, -0.07996805213285627, -0.14247690742567604, -0.1095953504653848, 0.003017189754961439, 0.037241693829059605, -0.06141213524919027, 0.11107625678052571, 0.04258402415698748, 0.1677455653352982, -0.051502993465263214, 0.09418779672401953, 0.11187121988585895, 0.07378923671810785, -0.20347186809027873, 0.22670744226256037, -0.08975519220072246, -0.17220371500391007, 0.03257249509596701, -0.08693347114731928, 0.157040889167276, 0.04796358852782993, 0.052305951230219, 0.16600119261651441, -0.008505038629800194, -0.03178756021324117, 0.18549129903055636, 0.12959531267268856, -0.04482987725990842, -0.09308891507448759, -0.02030406134135178, -0.01477669170868619, -0.07246498517977751, 0.10934810996513988], [-0.01388617211023191, -0.10430778248413176, -0.006060392727179515, 0.14169669227897744, -0.12490334715480558, -0.13434073279260225, 0.017585768659774115, -0.12521576850901872, -0.007772253102654206, -0.14428729709936242, 0.07015026882740584, -0.06895641050699042, 0.1270579306669827, 0.16543458223367127, -0.11189664670677121, 0.09110875637810666, -0.10115915312541392, -0.020603569394363322, -0.2242031352629992, 0.10525684015228144, 0.02959909739223948, -0.04744336731816863, 0.08262133142169349, -0.05530750608985819, 0.2328935158816729, 0.04533314186030041, -0.12317691249155117, 0.1493070187393088, -0.04765622185408927, -0.001646164894161996, -0.08173169018688403, 0.036303088138345034, -0.06703123390374867, 0.13084585851712346, -0.13872044041441495, -0.13931804351480176, 0.15982436782635792, 0.17327288840141802], [-0.0873453627518062, 0.011182301901777292, 0.20120421240270478, 0.13333335181371314, 0.31898056396938834, 0.08944817104525885, 0.207248336053531, 0.0030293054830994545, -0.06526369448011408, -0.07840936248667449, -0.0546648799947771, -0.10985950740429168, -0.01848606909099417, -0.028101292244012296, -0.0757583477296119, -0.020327453828071367, 0.04099211947644033, 0.13945220978126513, -0.05486966417964424, 0.15292131289606778, 0.01058359391642106, -0.031246073815681306, -0.03291209987256732, 0.11970257487557945, -0.22454495285291456, -0.022595010235755074, 0.09032609087721083, -0.09933576682234135, 0.08311473613907094, -0.07888375931578186, 0.011334499590962985, -0.002205308187165087, 0.12209759889302997, 0.32299678020081674, -0.026141817959905576, -0.16112605211357708, -0.09252333539391176, 0.17130412680923268], [0.16433859786032814, 0.07249773337650402, 0.039058663495193345, 0.011938460202252607, -0.20108258173924426, -0.008953813341652147, -0.09007238065935946, 0.1216891996751571, 0.012633578838063157, 0.040918501988445405, -0.03663046912511391, 0.21697237668865108, -0.04542636880445735, 0.13936206051233888, -0.12984177356601012, 0.01863671347008793, 0.06958866321395984, 0.040270344376301496, -0.3287611837382544, 0.16004941337290185, 0.035048473716067376, -0.009493495038075407, -0.1385844704506724, -0.1475157793063509, 0.1350225342361943, 0.14609838595209937, 0.1773110222294363, 0.04393618166568764, 0.09210257918687961, 0.009612418282288458, -0.04725203297637586, -0.03395985167451084, 0.0376574988247158, -0.13102215826675823, 0.10151134021943715, 0.13645816463036367, -0.025693821098460596, 0.07540470224838285], [-0.14751841685099826, -0.08069103448906101, 0.030993250648907542, 0.1949961400013451, -0.20601362948087149, -0.12203923376394726, -0.05215203730588206, 0.14833137294324816, 0.14371398643191954, -0.11893692170037105, 0.08231925279591133, 0.20138571894870325, 0.039560576460206255, -0.006136906428986778, -0.10121796654117057, 0.09751796125194466, 0.2010692768945668, 0.01149886883391626, -0.18052285839718227, -0.02561927848006812, -0.04891267707093822, 0.0932921749804234, 0.07384217982088413, -0.04806792196399123, 0.33920734840372085, 0.0711546064319306, 0.08587331200098323, -0.009488808974495168, -0.12239276545483736, 0.12842339649468215, 0.1774325467159846, 0.0051495925008595116, -0.12865783385881394, -0.019214468128268488, 0.09422913749501752, -0.12155812758344169, 0.1599141945635047, -0.13866081638857358], [0.10819020851861248, -0.07323453712909168, -0.027477024513113967, 0.006400226251836286, 0.005318335984915384, 0.028993501052993705, -0.06965301444646245, -0.047161410013194245, -0.01725442580283039, -0.1595791778122796, 0.1324676416683216, 0.23817480820479991, -0.08619369529109032, -0.015305441651443381, 0.0008232816842603397, -0.015020361454022817, 0.11221672202468112, -0.10749532358279025, -0.18152810855973733, 0.11237317657227144, -0.03679066095934257, 0.02931980291769665, 0.12246678061347885, -0.06309614191356452, 0.11394339572198714, -0.011274654261729338, 0.1697747440842247, 0.0370831151936878, -0.09226911934872253, -0.03036468880991798, 0.12795872063497243, 0.038506528760408935, 0.002185634312976937, 0.1022567150837313, 0.00244161079653977, -0.0984844773422615, 0.0256206457197528, 0.06407126135993205], [0.15113098143581147, 0.18616783238141815, -0.004657519917846075, 0.04467787135009157, 0.16211492048218254, -0.10686585664629163, 0.018698141239424603, -0.12704274960046405, -0.15182609800014607, 0.06866555710215769, 0.05979967750930388, -0.05091120562488305, -0.01967249731690884, 0.025360342436584585, -0.06731099166330196, -0.1184181844070672, 0.03881733529243052, 0.01887573623390644, -0.03986516593253933, 0.03059229016577891, 0.2459109597738856, -0.1383379752924402, 0.04980114025773031, 0.11606058619565073, -0.052541092566272804, -0.1376763772149157, 0.10819887128128393, 0.1525347467742314, 0.21256495122464808, -0.01217227200901197, -0.14464514466761566, -0.10429235187222595, -0.08836336464663012, 0.2232488841650603, -0.13825348567468684, -0.05651154646229603, 0.11556884964679348, -0.06889719013797053], [-0.04322273377523396, 0.06541427694458662, 0.08712090585524412, 0.14229306017592988, -0.10312000052108837, 0.025554500663498417, -0.04535365064230068, 0.12522459815281078, 0.18822367721684485, 0.115839598271597, 0.024246405512929548, 0.1455524091437376, -0.03140701915703225, 0.05964579534721985, 0.0322140552199391, 0.11252067912370237, -0.07192095086412362, 0.16107185312553846, -0.326027910979649, 0.1930933514535446, 0.04616082191498711, -0.06319474373968152, 0.10073462414337064, -0.16618306662724924, 0.26291532037263365, -0.07747108454448169, 0.14197450632287206, 0.12216142969767557, 0.0369006804719182, 0.00927576757257438, 0.1345852358215503, 0.012837009852055147, -0.13894078214009803, -0.09534769569969223, 0.0512943153709493, -0.15898066371685438, 0.05737171139379676, 0.022043415674302434], [-0.06638096629330809, -0.1710724718350533, -0.03934394745014369, 0.25562463928389656, -0.3661562604123327, -0.07791301105797485, -0.009301030071028091, -0.162050289194413, -0.016647020726918833, -0.14544761496692804, 0.1131406620422224, -0.0038864557718753336, 0.18214715647413793, 0.3598537630788107, 0.0419152318823293, 0.09229230565464804, 0.108615606143021, -0.031151977343705648, -0.3066720519343686, -0.08590640412286253, -0.019065101801956464, 0.15784551743226546, 0.012363443678273517, -0.11110538587727153, 0.13622233876915174, 0.08575741582479293, -0.17848243295486363, -0.20536214372678527, 0.10436868020616448, -0.19637972374266444, 0.17749729887928814, 0.4889120187945616, -0.0014334699970778015, -0.06412416258005454, 0.1590006883435934, 0.14122547799394572, -0.1652235855106228, -0.027323105510290796], [-0.12012747174785122, -0.03719091937130079, -0.017656172315169163, -0.1657829317229415, 0.3145951276864836, 0.07261182593675072, 0.14427357624562992, -0.1330255637596448, -0.3224103294687988, -0.07788100289042672, -0.08604652404881542, 0.04017509471994617, -0.1084494485740567, -0.11438084322267748, -0.057008244404197564, -0.10384028153019607, 0.10221827643252306, 0.14312484425403704, 0.07823619745654799, 0.036495955345266125, -0.03628691121287304, -0.03225326992188997, -0.04484598371839453, -0.1178919488175196, -0.145950647437251, -0.02491878319735163, 0.2725140090301747, -0.02304450795750245, 0.10133637046274441, 0.0270800623312407, -0.0464494839560637, -0.1815747498742058, 0.1609532884780206, 0.2856856529456916, 0.075883030481941, -0.12322424257577727, -0.02716300687193866, 0.08404677511190546], [-0.10740736348840117, 0.03063271081447811, -0.11850971228621597, -0.04609767516429485, 0.06422216211194827, 0.059569322456701386, 0.1296310070508239, 0.08575347061651246, -0.10474480800539006, 0.1324631160951376, -0.07118879691872661, 0.14847145913083887, 0.11436206819722552, 0.1521684183066598, -0.09132275920797488, 0.037436962200423245, -0.023103143141075397, -0.029552776508702992, -0.21890442771070645, 0.21251164328855077, -0.14265695997938543, 0.009949697969878362, 0.014783413203645256, -0.10411314950368297, 0.10570178299043988, 0.08141385449555881, 0.09231451937209728, 0.04402441669665146, 0.12545382442534997, 0.10019040075995587, -0.10879632743904691, 0.011386368543633103, -0.14287404732496628, 0.040567303972421004, -0.14301326550488389, 0.010227447110100667, -0.07243274784748066, -0.13333529250729248], [0.042110118289288005, -0.004510109052571372, 0.06828682964273833, -0.0790943963819822, 0.11764119428590786, 0.030029849385453493, 0.10236708028770988, 0.15890095379376093, -0.11667717775629756, -0.07306026239386101, 0.11739261211059394, 0.0676461324311076, -0.07492549264849688, 0.024899680777889278, -0.11442544616522968, -0.022847516679979592, -0.033908391787982974, 0.130556312262766, 0.08937830481112109, 0.21827816148564003, 0.18612847721194087, 0.028733621587564345, -0.1224094453358566, -0.0974796434730957, -0.013439634444819229, 0.0799367981117095, 0.2425100192113081, -0.07797968451999504, -0.10556361775897949, 0.12388398644542696, 0.07348573913453006, -0.19378172603342883, 0.09644455783730306, 0.2366973737880483, -0.16811996999111667, 0.06155785622350907, 0.15356955196247543, 0.13354553013940823], [-0.12609688287046467, 0.07877543015960992, 0.02931013935787041, -0.027961625083862542, 0.09614716113916633, -0.01461328923069826, -0.004695204523170891, 0.06955719108380723, -0.16212188969148988, 0.03647181096265747, 0.04014375974269391, -0.0976436616048993, -0.11140777119965538, -0.03374260137909198, -0.14242611418587384, 0.049561016420942954, -0.0351588100717151, 0.1315969990955166, -0.1140299608144479, 0.2391397434623877, -0.010765768373522928, 0.009377899239946207, -0.14533687340331045, -0.04961585420141039, -0.23131519100893852, 0.07841746201974983, 0.057963870679711774, -0.08617647384986664, 0.17695984311527288, -0.12848760790281324, -0.08538181154577863, -0.08339657182659883, 0.17961333302852847, 0.18879546774210976, -0.16179324456955035, 0.017439283398222007, 0.09998701574964458, 0.04910181527645686], [-0.16499491472284022, -0.16695191593308298, 0.06950825674307612, -0.08480470371597644, -0.151969879570978, -0.2561599709145598, -0.021402079251862792, -0.04147564306898723, -0.278768597468229, 0.261320427766569, 0.33093822739696066, 0.11967340616668867, 0.29162719811279914, 0.38854217616849174, 0.16058464980967074, 0.08630740717996593, 0.17660660335706896, -0.07885081807606516, 0.02971571359869231, -0.07288635642539709, 0.07936215640955412, 0.07898196813786898, -0.08397537170097562, 0.03808930938567141, 0.3779101418723453, 0.09591767460778751, 0.06746036363746856, -0.07800943360977809, -0.20279148049355578, -0.2898859759017816, 0.1849214914621481, 0.2076134389348502, -0.07739029625063311, 0.2649723340451887, -0.19231883330485858, -0.2665646670633703, 0.005157608292020115, 0.04148077568778392], [-0.019525361520479224, -0.03150615002809819, -0.08403318774802049, -0.3158895165194932, -0.06514098476585913, -0.1054122560572802, -0.1559680826852677, 0.20894553568065227, -0.08259214712942024, -0.016789070059006903, -0.004896250903188555, -0.4586671456669547, 0.12175753143599866, 0.5298160390755895, 0.058816417609422064, 0.14163963417288805, 0.11413551246365053, -0.03773691594159917, 0.0707189248920089, 0.45866641206659725, 0.21802555590770384, 0.13931915149976865, 0.02560191874775459, 0.47263660196357554, 0.07069529113802606, 0.20001316036612216, -0.2211512845530117, 0.19792505570180133, -0.06275806932367077, -0.20194460074272377, -0.07293607068338184, -0.43816840437138227, 0.31216525559406505, 0.24743656068109174, -0.098628164666281, -0.09196458466211656, -0.0820137648865737, -0.14754524932915544], [-0.09352912172022307, 0.2593908771271386, 0.14731761617558817, -0.23289692913204393, -0.03066385194431258, -0.029499126941725018, 0.2708624014237023, -0.09055682698759811, -0.09898695516329373, 0.2610344814809717, 0.014253453516052877, -0.4090803562603533, -0.18520148308535866, 0.21281805768224757, -0.0982631558211881, -0.023582264544538312, 0.03333824524155852, -0.07836142765181593, -0.21113552871750862, 0.2522916895049315, 0.18302270890678649, 0.4878238014934972, 0.09326298478368575, 0.3322226279942569, 0.6133662750990866, -0.0025176475166471127, 0.15914561799113916, -0.22871638530252417, 0.09127740175207871, -0.3294851031842345, -0.14156251755425395, -0.009136359122982949, 0.7996683878990926, -0.06312018739408472, -0.09253903664813232, 0.08017580955372966, 0.028623931566569363, 0.05275581206507372], [-0.15329594828313897, -0.1259216919938256, -0.07105139940085721, -0.5675686324413853, 0.11214454725845376, 0.04593188590018284, -0.11346012512486271, -0.06495196362752381, -0.30695901934838726, -0.32192373646093736, 0.5255004514986428, 0.10457038278545729, 0.3377100077866644, 0.2044166206013949, 0.017502809891367554, -0.011161160165743299, -0.007142154776636916, -0.1480902104753843, -0.3104969397978139, 0.31921353562568466, -0.12193295076440523, 0.43952534160508094, -0.16440453147962417, 0.14904835550640713, -0.3341620121848527, 0.178577954919133, 0.31041030350706356, 0.08440198105336578, -0.14805844592610415, 0.07625689229508244, -0.40765650368636464, -0.2239211057102533, 0.05311460014262735, 0.014397038405101942, 0.053309753541652974, -0.3733706891898729, 0.046179810669747134, 0.2589451375724169], [-0.1341957420161689, 0.0980960208963665, 0.25822539251982374, -0.10775811779652958, 0.6601153481638253, 0.09911325906008804, 0.37475992675179554, 0.005897591980052529, -0.5751665124902638, 0.14812808612493783, 0.060590753018945724, -0.1251300849484044, -0.06638467544362392, -0.148982829688085, -0.26398496448381414, 0.19005484311918355, -0.0665258446396415, -0.021237684698345402, 0.036874719356149, 0.46751084301012574, 0.35116196031921126, 0.10475884082615367, -0.1676017029351262, -0.05677776024958949, -0.4120650167819735, 0.004634300651911854, 0.32734002275805707, 0.11334669801845536, 0.2422413964421106, -0.037629699191828125, -0.3683954534925915, -0.24796017324304737, 0.286002543166327, 0.8476076915574918, -0.13585388368922896, -0.4325607395624935, 0.30471368989942893, 0.04427533792430386], [0.15484380887580246, 0.030496130018106374, -0.14664859607168176, -0.3103056631174523, -0.36721570444973584, 0.061064938942595307, -0.17651253541379397, -0.0662553532440978, -0.1228685732036305, -0.010276156319287806, -0.0065517341588662015, -0.5529796384579992, 0.17586731594060817, 0.20353564449063302, 0.05602335276470227, 0.036858975631809704, 0.06496729661235653, 0.031288939978786096, 0.077814248458719, 0.37822429653437667, 0.1350598324475952, 0.28017531163231396, -0.14594808304417914, 0.39994582478722235, 0.11664220701510811, 0.20309382171255935, -0.3076362439388612, -0.06165146992218391, -0.09190238056737553, -0.45924955237645126, -0.14632113820956066, -0.22050749959908886, 0.359061821646914, 0.27979472642574293, 0.09385567900991532, -0.252462235126889, -0.12155717112123794, -0.1808991963776952], [-0.1163499077990338, -0.12625362931030046, 0.12548625463431715, 0.007068676905094492, 0.16450674642824945, -0.07025695458629022, 0.03553519070006086, 0.04425049322448888, -0.34010275810939217, 0.18843138109124838, -0.44387244802557085, 0.21162040216909306, -0.15918444471378304, -0.1130867948660007, 0.06036377557312225, 0.09231737497214212, 0.219702578782308, 0.026752296967444793, 0.025412655853366026, 0.14489258821030662, 0.08624774128695328, -0.0016144313860377132, -0.20168562309468197, 0.2813084194519058, -0.1750291414080281, 0.2022221603017509, 0.19178662086945827, 0.048125059679414155, 0.13877263653805136, -0.06336937509853598, -0.16160036730829974, -0.33316350393975774, -0.18366180720168424, 0.11648470675912592, -0.13159433850017963, -0.1836545740078012, 0.11464752372814468, 0.0011489442022056735], [0.06017499222165016, 0.005209450672776051, -0.06891787654155378, -0.5634192514893203, -0.12560260132391438, 0.16726823418120862, -0.12122019179502258, -0.15710150959498562, -0.08786017850803977, 0.07678358985465682, 0.3744066779896081, -0.1693370279314524, 0.4001235655363549, 0.27783355517959063, -0.04560380873003156, -0.1898289404930224, -0.1492598948756847, 0.06763238185268364, -0.2534934325737425, 0.40529876254948344, -0.14700810710006207, 0.6615887202764124, -0.2812844785035876, 0.005743283883897754, 0.216456592149698, 0.03836905287311147, -0.30103559518981254, -0.3403649980792595, -0.026888129021744006, -0.4197064515858391, -0.3603828435903474, 0.4498503696231334, 0.3444411754713395, 0.1614154460034607, 0.10590777335592176, -0.1479272367895086, 0.037429241767027506, -0.10064553724130733], [0.05822786405496934, 0.350386176182989, 0.06432846175579618, -0.0753966031425396, 0.6326776061507503, 0.03167111201190039, 0.013221957331103337, 0.08673726499241284, -0.428084872510725, -0.030843472644030204, 0.0636793850020997, -0.3393507900315787, -0.16639661518791557, -0.29837181486132247, -0.11557696568277513, 0.08431002287420597, 0.2384862385776924, 0.06971318461769349, 0.09075909594582966, 0.37155275806970445, 0.34179233635500683, 0.10621493174488439, -0.050698973430580996, -0.09336923454357518, -0.3468716687860455, -0.1100627397941958, 0.018631514610674287, 0.0805437627679814, -0.01481223451614728, -0.36231966083977074, -0.005858023183117924, -0.004061297786500119, 0.3111168926772785, 0.5605374043772777, -0.15322281772364965, -0.23259301815971456, 0.193017137683994, 0.16592505429995374], [-0.1310371956661426, 0.1049261458586481, -0.2052523493819647, -0.05853162007530143, -0.191860881407576, 0.00648250852007165, 0.10896416032930865, 0.0878124800283351, -0.18500545770709845, -0.06514171229671913, -0.3019259705268826, -0.5222795323478113, -0.11503545874012412, 0.10557336818904055, -0.052906710373375986, -0.1298252262502035, 0.020711180324930398, 0.011093618020614331, 0.04099191095968099, 0.0934329198976146, 0.04276694491725234, 0.18040398071958427, -0.14801432272989867, 0.41502440080532305, 0.11629881704545825, 0.00461144234932482, -0.10246111820860218, 0.027334100985325138, -0.025744884900845314, -0.5825806090954985, -0.1484223948730509, -0.25752054822034515, 0.44238778345766927, 0.07573787953765451, 0.0728175592660843, 0.019135768816121314, 0.10280590213231251, -0.16036307054632845], [-0.12640114907567299, -0.40465562029829083, -0.3758804490334144, -0.1365633926090967, -0.5230245197651213, 0.01597266543421861, -0.17060838562353653, -0.17636248904838112, 0.23976033183443246, -0.5282528463134061, -0.136440456520076, 0.37901602326648376, 0.3073725822023715, -0.05527338320555418, 0.445592587908792, -0.3725267051529632, 0.1413027874956463, -0.11742950754204154, -0.27734380811085263, -0.031192282207476465, 0.18417767525416623, -0.2863907688251295, -0.341607859565516, 0.1194426218801399, -0.3683938366965164, 0.0240104983915734, -0.422237574493657, 0.10935934590436527, 0.014644493007466182, 0.05022120378320998, 0.062482647636179674, -0.24119680271948146, -0.2791002333759372, -0.08055082192290683, 0.08390754713416411, 0.2769905496864627, -0.22939582786133117, -0.08081715906948651], [0.003995622469785401, 0.36348908891424886, 0.04923559045991877, -0.20877352255648265, 0.30518270439589273, 0.08935394408869404, -0.009178180633525612, 0.0069298619474792685, -0.49033310908948397, -0.058524698212224675, -0.16795599197263253, -0.5230436622082265, 0.001523698231197435, -0.04547113274995872, -0.0956896101848822, -0.01908363050035079, 0.048630045391017195, -0.10121162975142514, 0.049486050651997474, 0.36277281463826866, 0.009192334788015045, 0.29783643676122196, -0.1471520265835294, 0.3184126387238337, -0.014676624382046033, 0.297356895076416, -0.08350548632874584, -0.06130096044849106, 0.29072052206001703, -0.7753827965485376, -0.24250917899886515, -0.309985017593434, 0.3997294515346536, 0.4889804511780877, 0.17211045740111264, -0.16630790295671274, -0.08324539738590257, -0.05942464146811449], [0.07749232309301804, -0.018360274285494374, -0.038713523900211884, -0.5841644230519493, 0.06764268986134567, 0.004494823633253018, -0.14317798033789178, -0.030741986318135833, -0.2475058221929851, -0.21457457604750665, 0.06782168101643894, 0.1255522528967176, -0.06524747223416415, -0.37432072962622104, -0.007859777997785056, -0.07038760477159066, -0.22387237889428072, -0.08674977204244608, -0.012050374533471209, 0.24850548485274235, 0.2444178031005409, 0.6061802698674996, -0.3103802109645002, 0.15670525171759558, -0.3151837820702081, -0.14039070321906658, 0.15443603863597105, -0.22004099149993214, -0.10395571378834255, -0.10321955940260902, -0.40714269532242325, 0.16748222889837242, 0.3128518212430092, 0.06951192761619496, 0.17466822910251947, -0.0615089990507798, -0.030502366381503332, -0.08519449421431192], [-0.053838997835046205, 0.005158621779795263, 0.21088254105734391, 0.04747583785162625, 0.29981363948364526, -0.20121511069989845, 0.2922984245931872, -0.04888932112506536, -0.4139181404707219, -0.08392177402518164, -0.184057369566804, -0.04971780097229139, -0.3945473398466019, -0.027153947198943876, 0.03619251528490086, -0.06181422535548447, 0.17564993116573066, 0.03506334548811934, 0.11201424930701824, 0.19020677057245264, 0.2472583102224803, 0.177778647362371, 0.08125993058443881, 0.1364777294744302, -0.16707944042944806, -0.10107050356930104, 0.32703867778214346, -0.1423756170083432, -0.008767239183389421, -0.21110002304699757, -0.2016145129349402, -0.39524379964603285, 0.29440974548229054, 0.5533985497693374, -0.004178228134037724, -0.08778869229827413, 0.19663765093653782, 0.10920630411249731], [-0.029331742720439865, 0.3246636324178345, -0.06088543167386767, -0.0993679748013698, 0.12852717063922478, 0.09451175664117571, 0.1570230008149936, -0.10719696177273345, -0.5594055347534714, -0.07972888422004194, 0.2688773018494676, -0.02401857339627257, -0.14492345940663726, 0.24201839208134893, -0.3889889966229195, -0.15684825769355248, 0.09608976364569381, -0.04219984311169839, -0.3340435264806657, 0.32669954790413047, 0.05835926919097732, 0.45877705211308817, -0.1306685741814812, -0.033937368568573115, 0.13534724667630776, 0.059223678010858594, -0.13824856133509425, -0.07500959225998231, 0.23488669932092057, -0.643219716498313, -0.34553298407201916, 0.22958237018063402, 0.5444997669320724, 0.570866059433989, 0.04266275313403893, -0.4566870319480349, -0.0639622906442223, 0.053161715785174715]]}, "midLayer": {"midInputDataShape": [10, 39], "weight": [[-0.04048284806996807, -0.030191657617962973, 0.04406733479554747], [-0.33937414143873523, 0.018495664891238172, -0.2859056488208507], [-0.8514331995745656, -0.4941249991041991, 0.9245903265055831], [0.5578384684023061, -0.5343624515797604, -0.27717703143345396], [-0.9868902729437341, 0.8549517493807136, -0.3127742369993253], [0.8899039805342845, -0.9916315850987626, -0.26981929453935366], [0.08519727464867163, -1.0885308456234348, 0.1826222173677147], [0.5104470938566257, -0.6331927801706955, 0.07362715861460524], [-0.20407743568894285, 0.44791897094676886, -0.7467639299732994], [-1.1398324991374136, 1.2331915352288163, -0.7097836290447016], [-0.27534976655163557, -0.2143210082369786, 1.129200966706068], [-0.30409543433196434, -1.023762315279713, 1.0583153105936338], [0.4859715636295771, 0.6002768683861567, -0.9755908899824658], [-1.0559910074446446, 0.9939831808472949, -0.44755300415580374], [-1.4353860743975622, 1.1835036946983388, 0.7278929691050502], [0.667987013563828, -0.1003815540598251, -0.6327637172180559], [0.44583951863287924, 0.28533907411337545, -0.8979812128899833], [-0.27678189697799316, 0.8917663066000701, -0.8785644908157489], [-0.24238857548987608, -0.20062561859847053, 0.09399629051207904], [0.6654947376210426, -1.1053354467135217, 0.5589578706271464], [-1.0574993382825348, -0.07699836352918007, 0.8379316081606544], [0.6139531890473521, -0.8811806868550651, 0.26328425249579096], [-1.2390055849067518, -0.2409384050339805, 0.8362423168528058], [0.650050746305097, -0.866990425472543, -0.39487211573588193], [0.7497659573907177, -0.8351549942231412, 0.19330875255925212], [-1.0576087971332, 0.36635436591102344, 0.7538286137237803], [-1.3682227085583734, 0.4780289248357566, 0.5348043662122047], [0.6568243150190226, 0.05359640037999951, -1.190130448060731], [0.05516967816492752, 0.9249765031623289, -1.0826346487820047], [0.5839871928911289, -0.3635511301069677, 0.6293552978056925], [1.1880538576751285, -0.4435396513427195, -0.9528204475356141], [-0.17061786462111955, 0.8580305621078449, -0.6066580356722747], [-1.2445396429608497, -0.31080076610345597, 1.4236679538942376], [-0.8501887395264626, -0.5326005655247372, 1.1968360276622563], [1.8822873096882218, -1.3760886482808925, -0.472997287471852], [-0.6893894049531119, -0.5064386181629094, 0.7952538616540599], [-0.16956713005220939, 0.786709714801644, -1.1771095517595735], [0.7032323393912594, -0.23760571441240372, 0.08929164945198263], [0.3993905559897157, 0.6482585586423816, -0.44831730297266553]], "yclassNum": 3}}}