{"poolingLayer": {"combPooling": {"all": 6, "take": 4}}, "convLayer": {"convCore": {"weight": [[[-2.6164841689269354], [-2.922119583356618]], [[-0.6895910032552269], [1.6638012297190676]], [[0.6544045677659639], [-0.6784972840982076]], [[1.0903721187764652], [-1.13055379488604]], [[-0.12908265171316616], [0.557409513567485]]], "Num": 5}, "combConv": {"all": 4, "take": 2}}, "fullConnect": {"inputLayer": {"inputDataShape": [10, 75], "weight": [[0.21259694501321244, -0.07685745904628181, 0.2205378247611308, 0.07811082112389506, -0.1699719850823007, 0.15574943218824447, -0.1436197851508011, 0.09436740049569313, 0.008265492254876942, 0.01830713787599376, 0.10115677860571169, 0.3931057232532998, -0.006906244764502518, -0.19616698674785774, -0.3274989677973088, -0.12428010212065572, 0.16324224992101052, -0.26665370114957404, -0.04316421488977451, -0.19886172793197196, -0.12229286877841314, 0.017836418355759297, 0.26637437305565526, 0.09872415322799313, -0.03557957896474158, 0.13405576671375435, 0.04343392551792276, -0.1067207449262748, -0.013617366621108592, -0.0586463871557469, 0.16476274830419838, 0.14074496297143751, 0.14571452001421598, 0.2002312554048129, -0.21149532279132602, -0.05664796220323212, 0.02970976871965275, 0.2973753148426873], [-0.00548424878592214, 0.11152445677961687, 0.11592606385381987, -0.10424337556678322, 0.044920356528569474, -0.010841831920484234, -0.08264689225249466, 0.015048345085430584, -0.027174858681292317, -0.12585312598407228, -0.034200634187076126, 0.15440555050061666, -0.008595785276744098, 0.06952359564267689, 0.06557097830356998, 0.10619177016998509, -0.04905205359979558, -0.014907890820937214, -0.23394010879501018, -0.1526174990884452, -0.07967098218521128, -0.05659844489202998, 0.100476129061395, -0.08370937775909353, 0.08907272427855738, -0.004371734391213293, -0.11456169574079907, 0.05830622861861108, -0.15385720696932334, 0.12041470622430889, 0.25291894463845804, 0.05213506124822824, 0.1267271081577079, -0.11181699902391098, 0.08983003663114032, -0.10057126863916296, 0.07595951944666111, 0.14467815108825255], [0.16885445397357235, -0.18593398127202404, 0.1322784409799917, -0.00046739664365209464, -0.3553148258383577, 0.30847449668801924, 0.09137555339681247, -0.20243519075975086, -0.3112943847116376, 0.13906484560282903, 0.2547043361236127, 0.40054186366063205, -0.16695965326856294, -0.14310215705180035, -0.21119614754147456, -0.05835776236359871, 0.28021044530763733, -0.1427488225416793, -0.31125245639145155, -0.2874437300289641, -0.049894809813051944, -0.002904343738054405, 0.37852034842970605, 0.015555506772357544, 0.0829822340956506, 0.15674706774366587, -0.0119541165012341, 0.08419763268862235, 0.11936617364278836, 0.30993103271063027, 0.29698944896476825, 0.22643713011217145, 0.16348403050422605, 0.15381929726854215, -0.08612224555407536, -0.099294785465045, -0.045249727322951815, 0.3781317157577872], [-0.030725807923755163, -0.13535833074289796, 0.051823054481197145, -0.0022575221381032186, 0.1741945515185067, 0.12095036458538187, 0.12159221947463897, -0.007268128329801995, -0.04701576084383483, 0.09463010641410272, 0.045137621115764526, 0.004149379254566698, 0.07880785857518202, 0.05513744692940018, -0.05577226787028673, -0.14498785451974727, -0.3170103634710966, 0.10109652132244755, -0.0010283587497588922, -0.14628177462520153, -0.1062813576099039, 0.15981686941575998, -0.06287684646533584, 0.16485252801173775, -0.14333264536392032, 0.12934745470049222, 0.022477899732818753, 0.16910576131111668, -0.023644767181551857, 0.18032432788891514, 0.08873552579437095, -0.1720908831129515, 0.11530974315204968, -0.17184174247202072, 0.03549221840930089, -0.10870530022512769, 0.08683040264345371, -0.020534599608260932], [0.02532573840460482, -0.11636903993589508, 0.1668425256054784, -0.021666979765311137, -0.06689317450074471, 0.0391947572471026, 0.021952672173533694, -0.07427253164747527, -0.0211872181570485, -0.14219951028365577, 0.05945937291207786, 0.08720197417810896, -0.18012991094033892, -0.12545330229422524, -0.07085721485859575, -0.212875958666613, 0.18728075930128044, -0.030125048528257172, -0.007530127753122657, -0.15610553489698603, -0.1706293782335722, -0.07385635542212685, 0.04990847704707503, 0.12149164008788652, 0.06876866866102556, -0.046847159539231985, 0.0024818950569042075, -0.01976864771427985, -0.01955243011564308, 0.13708913859835836, 0.08454838877260795, 0.04683002116851278, 0.25266416248445844, 0.10226484351518889, 0.08370648951215362, 0.09780636426070805, -0.16437834621254427, 0.10238584918330976], [0.13454139108718652, -0.19216968279440053, -0.019113479877628257, 0.051486106467907876, -0.2462654820678903, 0.02426714677720849, -0.1432654343761461, 0.046323849181961405, -0.12907563163391192, -0.0428302898130662, 0.13821089122846988, 0.3297567987434431, 0.0450326159759928, -0.08990996780413217, -0.22731113410823944, -0.07247917655803107, -0.003970329512874932, 0.03380397466079641, -0.1664765485110097, -0.2723772304116259, 0.028345312665864233, 0.17301615564113296, -0.021022950305194677, 0.03577979181901829, 0.16660704093999518, -0.07484602571902926, -0.12124945384259668, -0.0495324971734076, -0.10432656933227476, -0.012675377105971494, 0.17770975790140767, 0.18865309414544176, 0.09960420065384008, 0.10978853863858343, 0.12272068339230718, 0.03150436567746254, -0.011057978077508508, 0.031141436019210423], [0.15296670439086874, 0.11776793050770097, -0.04481813404592615, -0.060788853444959344, -0.3838392597316326, 0.24603648991198243, 0.010370842195215774, -0.15881118294241794, 0.031801455107545694, 0.13967847022902014, 0.06288105388662737, 0.3399298155653301, 0.11223456917608873, -0.3286222229653732, -0.3402823970648883, -0.19510286913974756, 0.16699066316429878, -0.30077825666760066, 0.013996956029368887, -0.29855044824334787, -0.03997285540713999, 0.09937657896008704, 0.23660703670690114, 0.17304811674647946, -0.12727572264575146, -0.018091440538226547, 0.22218946044295998, 0.01917267886926243, 0.09577117305008108, 0.11288751385643919, 0.327332230730142, 0.22668354339077493, 0.27993970332503487, 0.033756997392158206, -0.10759651171097066, 0.019608923951038214, 0.07010339358506251, 0.2634695601127941], [0.08269242248784324, -0.09920324869574365, 0.1822763621563014, 0.0206378771719233, -0.21304591607354395, 0.14118608080763898, 0.05257836423247452, -0.1313752530310913, -0.07786392860831674, -0.030584484114465262, 0.015861121778131083, 0.07214737748669327, -0.08148869008694579, -0.016990474447902793, 0.07522225629785889, -0.11893749022149246, 0.004730414618276906, -0.18475148427223034, 0.021957494643717282, -0.014086909643754102, 0.1846306561944507, -0.011913813740314416, -0.013261549752699381, 0.20035064056043864, 0.03557807363198797, 0.18186828466110114, 0.05079182838397452, -0.08669997083326775, -0.08399258630790903, 0.20755056406915165, 0.12805346036683915, 0.18889784359590772, 0.059446544865916794, 0.02711645766685973, 0.16084717969864815, 0.054592141081581766, 0.07059113288247588, -0.002308522112001444], [0.03556890874785223, -0.1697803036158962, 0.1885199998035145, -0.1578724777602043, -0.2980803489058966, 0.2502176820128268, -0.09774792078583343, 0.04402849671084129, -0.0739387471716123, 0.14674570016479022, 0.14869916513312917, 0.4058396702130953, -0.14645874738442086, -0.07118986983779642, -0.26588634392938265, -0.13003858459881826, 0.42757091733343544, -0.22936887154699756, -0.23236173588168432, -0.25424334409220267, -0.039002190146604, 0.1125032514383774, 0.19969906148424443, 0.02267001539714081, -0.0010774736686403788, -0.046071434853721505, 0.1827323693014162, 0.024971628692680603, -0.06714411195172462, 0.13462096996713005, 0.32818922267053835, 0.18400336568989842, 0.4590485461106117, -0.09179196395026785, -0.07456993027526945, -0.11327110219997814, 0.05405385856594393, 0.4044545021014118], [0.22262305924987752, 0.0011759568655833014, 0.07245893933865422, -0.1579281216156502, -0.4114365139117189, 0.21244666343807347, -0.1904095065117, -0.11197766989380808, -0.08411213844488749, 0.1573931168992593, 0.29113499949588556, 0.306874506538577, 0.0829331362354736, -0.23348588913394452, -0.2917010037557269, -0.021575500670151643, 0.445565842626347, -0.13224196833499302, -0.06227653516847876, -0.27061489571917463, 0.013241079828255647, 0.16725048557061836, 0.1941646216496148, 0.22690365324612938, -0.012290302469117272, 0.017399268186001668, 0.17482801695500857, 0.07592121375325249, 0.24258827652865764, 0.010483144048772234, 0.3046719737162975, 0.06310729511309145, 0.3033755507842471, 0.04003113878406289, -0.13305596345489729, -0.13663951540584465, -0.15588877563434048, 0.3775567000985493], [-0.050791452567765474, -0.07750718708352997, 0.06155172466493232, 0.04763586324164602, -0.04423172053602433, 0.04588245019625901, -0.06904061746234906, -0.1443687111362879, -0.2149378584529894, 0.22603950452432273, -0.020211521860980602, 0.18190211855816077, -0.211071882447957, -0.09681328835988935, 0.06471501717999285, -0.01320159455047977, -0.19769632563179845, 0.04793716199122163, 0.05784173795286596, -0.14188203629949417, 0.027358095505535092, -0.10188864968303954, 0.20929002078441838, -0.03500766819097681, -0.04205895081188233, 0.2512102034751032, -0.08031883812341098, 0.032893416812201634, 0.1341659362185393, 0.22699189347114704, 0.010411894506900532, -0.10833710491847177, 0.08412623964044327, 0.08811935427552994, 0.16828142995284825, -0.12755963045206892, -0.11678882076250825, 0.007286914016835336], [0.015395876606735795, 0.03329753056937944, -0.040762452491607114, -0.20381907755619727, -0.2325881433036704, 0.06145963391134499, 0.10642042876276997, -0.04731457247701201, -0.16498104517135723, -0.09842009677256588, 0.07458887736069657, 0.26197843874133453, 0.016431878062376327, -0.12778190185957503, -0.29460349410769665, -0.26173369619000886, 0.17429575833111768, -0.08646333263868991, -0.1392124099330345, -0.024290522451568184, -0.12657140996201166, -0.06506477376449293, 0.13850980490867915, 0.13447345148012388, 0.12632851450512134, -0.008377456524930327, -0.05577660013032368, 0.18376501246108382, -0.05113180401396466, 0.26840668500338777, 0.22153044350580692, 0.19503259432790696, 0.37077312708786125, -0.10905662254911078, 0.13980365262555838, 0.16318371605973417, 0.05331266403972415, 0.1297733834203895], [-0.04455990166991611, -0.18930580392884966, 0.10979287292029144, 0.026936214982098177, -0.25110346334767564, 0.2707212868518337, -0.11766618463737946, 0.06916777305135582, -0.06982634061287449, -0.08717742096681276, 0.08371344406216495, 0.4097671053126263, 0.0010288258635411803, -0.16153124096587598, -0.2421670605175315, -0.11129414213669053, 0.11293731771750042, -0.24924511569982524, -0.2630718771508134, -0.290476480004576, -0.0491213852076646, 0.050250147798688485, 0.07078639520089645, 0.01589953144046576, 0.1143735306628672, 0.11193246884885924, -0.0671162176710475, 0.0535425158006976, 0.15352377160364886, -0.004488658752388977, 0.2598038763476884, 0.1705791311801099, 0.20973124986306776, 0.14471435346458514, 0.06045263719981804, -0.007839609254311621, -0.08125607432977819, 0.1680536107335945], [0.032734586244898466, -0.12208323971511414, -0.0945291261327018, 0.03967433890561713, 0.0668950997019472, 0.024563160486557396, -0.16575210837922838, -0.11560029445172436, -0.1134437410829558, 0.12841044373211638, -0.04551771633787044, -0.054253698471095825, -0.16522156037531724, 0.06223297119526287, 0.0688437501965432, -0.015606267695766141, -0.25591084045985757, -0.09961410941207305, 0.20744346005610248, 0.12839039130692345, -0.10291244863963003, -0.08624580706209399, 0.2761864894425397, -0.06221607391803691, -0.00048484063111689437, 0.16012488833413074, -0.15427522738159838, 0.09895539495643324, 0.14784564092792823, 0.16217764487457662, -0.125162036785034, 0.019707365770510025, 0.023174313919084925, -0.18375468324148747, 0.01014094805474132, 0.09791024533843613, 0.0494052339993635, 0.012477372513867156], [-0.17308619237693051, 0.1361172427481744, 0.07254569047587207, -0.06838655141414153, -0.058966347036526236, -0.032404065198454, -0.00047199767212333945, 0.12207047862349957, -0.10996753993786418, -0.03922352882348935, 0.2723716044930911, 0.10563613385898174, -0.19777622513080548, -0.04830113501846003, 0.1441855486266718, -0.061717506054863806, 0.04418936778199207, 0.145784296220292, -0.07052370667104794, 0.03306396775875584, -0.003969187305308414, 0.13956636577018877, 0.07014385669103725, -0.0072409754042932414, -0.035762930161241366, 0.11144914367902752, -0.14716971149574304, -0.09805225500325475, 0.02017770864645187, 0.14097978423746438, 0.06023076861681918, 0.15273440353457435, -0.07227501303482678, -0.07712748643807969, -0.013397650045043254, -0.010056858019636954, 0.056492857519922626, -0.05851207789356787], [0.02816806552607099, 0.11093466260666679, 0.24686966868110288, -0.18544360486793532, -0.11356255771305912, 0.0609106922233314, 0.054786536749918735, 0.002749359808658334, -0.2970227037873146, 0.12476976623281955, 0.2243819560141132, 0.4387783775367522, -0.0797705219264222, -0.17554138166316832, -0.286480244867977, -0.14456696177244474, 0.24690470099171405, -0.17212306991091209, -0.028930218074499355, -0.3055113612646439, 0.11189563534086046, 0.2087110792645497, 0.00575396209705118, 0.2816279447074951, -0.13231279760072334, 0.27011930110058824, -0.06614522122387817, 0.1975395737147437, -0.043366437834402256, 0.14112743029966088, 0.3820416598087631, 0.07507780249046225, 0.34610017573204344, 0.1388109264404441, -0.15406456530007293, -0.059956852476678604, -0.18098845027454646, 0.27923188997405735], [0.17579550348596165, 0.047828220785902244, 0.22526137149180755, 0.08048738316212523, -0.24410697483883467, 0.11289791212610355, -0.13828149993646885, -0.017815344108711332, -0.020883602913263733, 0.16326308340079151, 0.11756567323743303, 0.2584711383786043, -0.015643492342823927, -0.13810655489447515, 0.013452926483614175, -0.1427973821093361, 0.2558047029202448, -0.08899516624081441, 0.017389973448819603, -0.07420244810028023, 0.042335793561414974, -0.007213185504299514, 0.10940417973511664, 0.07771971839026864, 0.07814440934724673, 0.028944841293321703, 0.19534123295408318, 0.04544882140554149, -0.08614563390822032, -0.013331694901963754, 0.2751687173264757, -0.00419506104563333, 0.251725740461592, -0.015097468254466898, -0.07720028290527615, -0.09627060177163835, -0.187522857787433, 0.20193143397963903], [0.07017425735969106, -0.10403016195267636, 0.24310508505484782, 0.06478459158854334, 0.033709613755141636, 0.07153680459470782, 0.05360575169372642, 0.0707747286392862, -0.2297040684342911, 0.03225270052790276, -0.05502908843221355, 0.25077032135113625, -0.02071278982564012, -0.24514488614723975, -0.12792274218324529, -0.21264689360089079, 0.059790699059896646, -0.1447336979166419, -0.16501485516099057, 0.07342815981198623, 0.15547870157460936, 0.0212665621247934, -0.0375108006301712, -0.007401271058486655, 0.14218357143657318, 0.2051770533778575, -0.15546899150009091, 0.07557732328268243, 0.05361917941114692, 0.23220053208589803, -0.03800774429670037, 0.08414107304487758, 0.09903383087434195, -0.17486536666508604, 0.05331402626630488, -0.14054394612820523, -0.10281721268902855, 0.13386876103629702], [0.06052760326861217, -0.056368357335260764, 0.16817780431396392, -0.1977563133464461, -0.2795048526828139, 0.2186283890698266, -0.1781557361623971, 0.030385074082073277, 0.008586582868303995, 0.1281203997748544, 0.14893026034160553, 0.060242860584805734, 0.10279967625048377, 0.011029098506280952, -0.0690862950463948, -0.18994084137268077, 0.15300429975052973, -0.14214358283371836, 0.05615629609238315, -0.1264244770261084, 0.05800042770762726, -0.05950872458698363, 0.17674283801029483, 0.20625815228097746, -0.021831557074795584, -0.03848979232944549, 0.18556074267357364, 0.2652873570580941, 0.16349605836066955, 0.005778140025981854, 0.07335695245288668, 0.05481371122676133, 0.0526675012628216, -0.06384429833750951, -0.007664899549779843, -0.08025486844926975, 0.04632931948542584, 0.25224172346516166], [-0.15491073599962454, 0.08291033217235305, 0.19380195043194012, -0.07368264782491314, -0.12407357760526447, 0.10120333574027301, 0.03961648539355382, 0.09346758842066649, -0.14400949892788778, 0.149751893215495, 0.05968912301590876, 0.12466667723256196, -0.13033650374540373, 0.04173427490466773, 0.06212258897640327, -0.2559869285200619, 0.019393738351626225, 0.10158092049241108, -0.018152938894524434, -0.09610446825125439, -0.06319800481154485, -0.024525035675043137, 0.09638154838560188, 0.08179209166197067, 0.05193919195145097, 0.08449897584148909, -0.16843015643317102, -0.03494124767866658, -0.005169253788808551, 0.20510995717474761, 0.06364682418984423, 0.19855820416462974, 0.009872338398246038, 0.007807087577715639, -0.03176136295502474, -0.054417112213365725, 0.043981179609690134, -0.07009231753187113], [-0.030044316236478404, -0.027499750862357977, -0.0679430088786353, 0.024508484952590805, 0.0093430596839996, -0.17682236342433766, -0.018154678950909123, -0.07741377471036802, 0.13291342620720542, -0.2090323122995833, -0.13675191378458773, 0.11322170783893047, 0.10102064201888068, -0.04918526428282981, -0.15848514333698335, -0.004169906350440887, 0.024129866016279904, -0.06582665212262331, -0.1531222772930946, 0.1423367130170586, 0.030462143902246823, 0.013865951397949503, -0.037216449141942394, -0.05810626773659298, -0.05110311722291981, -0.11155925755005089, 0.07605723054794525, -0.09680285408841129, -0.12198546222016388, -0.1195233246355041, -0.03844872543668763, 0.04518633035610543, 0.09213100641883684, 0.20115123832693171, -0.12008239762627838, 0.17330594728686474, 0.17978888379256683, 0.07644857900328039], [-0.14355703956223778, 0.17901650174568967, -0.07550509597621302, 0.03682150741762382, 0.09070348806872017, -0.05465373857941366, 0.10295415743778855, 0.074766766783289, 0.16176373677051162, -0.02506278895366249, 0.046535790827090986, -0.14016652737651544, -0.13340373295105332, 0.06774266987710849, 0.16986831461513902, 0.04657478266869042, -0.011753717617649772, 0.14967160123304568, 0.171505913504801, 0.05186360711037296, -0.0763551320351788, 0.08757742866780066, -0.05194285998574695, -0.07552810950644333, 0.0762116001012157, 0.04766948247527722, 0.07615680215149495, -0.06486297612597522, 0.04752248561624564, -0.001499281756390459, -0.05053450191570384, 0.09874077186037022, -0.24008637910157857, -0.025712014677984313, 0.149736764498875, -0.01746794697031494, 0.08502626081553148, -0.08585133380139005], [0.13047059845482833, 0.04554680883952327, 0.13282743810475636, -0.09468611654982592, -0.08694772266489362, 0.15483086525075987, 0.0391973792915177, -0.06803826285739856, -0.16741605219812083, 0.09453878513379273, 0.09878614053007065, 0.019143181772350887, 0.07929515784289673, -0.0878579219737818, -0.013027883323675056, 0.12338668906820013, -0.21935547007944955, 0.11497284474293497, -0.13967361424657573, -0.16458632995022376, 0.004284651882687027, -0.11702687367660597, 0.005535409736866963, 0.05069055513560606, -0.11989368506865627, 0.1465906847236571, -0.06089356464665551, 0.049006337733788326, 0.08884055095607228, -0.09224859678418858, 0.10978636820888875, -0.01819965723652337, 0.040445927502458984, 0.00448158423544802, 0.11225427021378599, 0.0742814430981697, 0.03164294237780858, 0.072612439343066], [-0.22033205809152218, 0.22605045226064496, -0.027554531641896904, 0.000504636726958977, 0.12566501162828284, 0.03703877338487393, -0.04184467919563693, 0.1575725647702143, -0.09821222706881659, 0.018338490908936394, 0.05944974898785968, -0.2540403921817451, -0.030158011623140076, 0.11102748584470026, 0.2638145367055612, -0.05150336463404497, -0.36960324290690977, 0.11972176992734798, 0.17372938691494383, -0.0540246889078151, -0.07581984038490959, 0.05425766873405117, -0.025841953732146403, 0.06321910885025198, -0.036679779992676735, 0.09232191061373583, -0.21964233055097415, -0.06174587026035241, -0.13158560187181245, 0.11577066693010307, -0.1563544935794323, -0.04435096077127186, -0.29918668933244086, -0.03265921554847337, 0.19342547815615901, -0.07228224714771038, -0.04939249542308946, -0.14370115549458146], [-0.1473743264403528, 0.005879560904203959, -0.08565039278034439, 0.21802911442348819, 0.1724414993764646, -0.2618918876599389, 0.09755991379066604, -0.14317443406613628, 0.2730325646254366, -0.14636866811013216, -0.19225504130078003, -0.06029459499248203, 0.20262930583817432, 0.23393855002538708, -0.20110719289166953, 0.13853514654803573, 0.07195169324680417, -0.13743843374593276, -0.09000243183648568, -0.05935141980190669, 0.06209651208768624, -0.026865548541200573, -0.31901238442533003, -0.36460526121525166, -0.08271469938016339, -0.35052098074938903, 0.027906195305445563, -0.08757232135288033, 0.0022850718631829466, -0.28891630663906837, -0.07504214005649193, -0.0021916807170153743, 0.1595379162154276, 0.06659808135200668, -0.05193926622347549, 0.08812846031805058, 0.09802026122407682, -0.00630521526207677], [0.07087612205463571, -0.06224847944017389, 0.14285785598327916, -0.1545497132045714, 0.14223288462516936, -0.0424200370977762, -0.1075912033089636, 0.15989875412553997, 0.07206882078979902, 0.0985367392705776, 0.12700678053527556, -0.18787456106505043, 0.07619079126326254, -0.05408964284043835, 0.1556070470271475, 0.11218658851818081, -0.06764520441589769, 0.19602105276988568, 0.1021926006004689, 0.14803275229255947, -0.058487214663962825, 0.02707141256339796, 0.13230361047912645, 0.06652241278961638, 0.08148892760711705, 0.11338171579988301, -0.09520459958578843, -0.10743324637811263, 0.08547345594180468, 0.14328757580636503, 0.03704788530301888, 0.10210222089706436, -0.19884298226412164, 0.0681538339862703, 0.2130295331820848, -0.15410956135756332, -0.0424374780207338, -0.1786976848423494], [0.032754925199620484, -0.06428024957249087, 0.1280523456136763, -0.03882019039591393, -0.4053423324203782, 0.019956848418943768, 0.08241740956359396, -0.07117398994254925, -0.2521397643639394, -0.0060915855039933835, 0.23967560063652293, 0.58915289442103, 0.128278797524722, -0.04951498560036942, -0.3462957252021779, -0.03296026403217655, 0.3135339588973335, -0.08821452200506151, -0.14266031303939355, -0.14910396149304567, -0.0009102535421716717, 0.17917095616010445, 0.15735182428747888, 0.14942097123309028, 0.10009417776764606, 0.15921648228681595, -0.06435504570999698, -0.07700530017981487, 0.0817412167687724, 0.11716399109588245, 0.20114197781545295, 0.12344693662434637, 0.3181536675115644, 0.02967866808320546, 0.028165282035299347, 0.08912739431042235, 0.028098699006369035, 0.24003315178415532], [0.03100647526821389, 0.08528280859426488, -0.16547787175739714, 0.14737867482747233, 0.11145200657544548, -0.3131160768453976, 0.10785203972491143, 0.08203064463247683, 0.24033741532140832, 0.03505099159546964, -0.37320740142444436, -0.2300978429067906, 0.13881717198671462, 0.09545455907851023, 0.19019607737440294, 0.3869173294964057, -0.13112094187824017, 0.09608287765850856, -0.1356834595789851, -0.018215888472486945, -0.16176165025949854, 0.01959667565249799, -0.3831284031063404, -0.2853112302121587, 0.0244682642598775, -0.32311600266175644, 0.01901890493074178, -0.10630020703042878, -0.2590563844998414, -0.20154875595512003, -0.24408336001805042, -0.26445354133526616, -0.07880501748515051, 0.09141978936839062, 0.008475748045349367, -0.06933824704073646, 0.18492802098969505, -0.022826519600293783], [-0.01642300555173861, -0.062114091396447774, 0.11326095195537043, 0.08406562267212028, 0.18969354289939946, -0.03175705835261473, -0.14386931984561957, 0.040923382704311825, 0.06289721749100131, 0.1028896853580141, -0.10244209211766862, -0.23351584698829203, 0.11145573697680922, -0.07542128218174085, 0.1706025429118665, 0.036129274207708104, -0.3820753838458372, 0.27163123304961917, 0.08281151071513611, -0.03036661705399302, 0.02007260722439524, 0.08171645515275643, 0.2240881856376122, 0.16088675742385172, -0.04428244856334195, 0.14024344610183692, -0.21755469759145213, 0.12423620037937894, 0.1770603754804705, 0.12536076520875952, 0.0012127488064505752, 0.08635018016703552, -0.25280117676432, -0.23457958265310871, 0.09729429405719424, 0.00682673154123431, -0.1264597617136974, -0.11383646625034108], [-0.06814480481325982, -0.0373054013882154, -0.26938061614338576, 0.17629386241389963, 0.16194517932934857, -0.2888971430388119, 0.1566612431834457, -0.21211228645623437, 0.22668224327417508, -0.168682067281255, -0.2236189977785562, -0.005243376475659818, 0.1795844379937974, -0.0409070251369442, 0.07853910352311683, 0.19007047401422372, -0.008766990383441926, 0.08268557621914713, -0.1514546492611342, -0.01084656146928698, -0.19589194237291888, -0.13576821311842643, -0.3914269473647409, -0.20853253801341456, -0.07508441414273977, -0.12021974989393004, 0.036026750336303676, -0.15241208066934597, -0.16509177507793657, -0.20295688295446626, 0.008109590891769238, -0.17301261203174242, 0.1756737259340677, -0.090649209675177, -0.16608904719604134, 0.01697578724989523, 0.08847072631934098, -0.029464632523894595], [-0.27412591174046563, -0.00430263243034376, -0.2284908181910643, -0.07289912222601291, 0.20158485321725214, -0.12532845086381963, 0.16209230837524297, -0.0706917988962908, 0.3314885111822896, -0.025799207759655954, -0.22649285740447506, -0.4265485041693604, -0.05183312249116093, 0.04793322213993646, 0.25010355909270543, 0.2967418787583458, -0.35781619165408657, 0.07056104950900559, 0.20363160263057692, 0.11723587273265067, -0.04808967993924253, -0.09445835075418381, -0.20845021297110672, -0.16235317552344697, -0.16550535762635643, -0.2573455753371573, -0.1574740014560338, -0.24410661977301212, -0.1841906313851372, -0.25532285189069054, -0.36794457006983733, -0.19960582878630304, -0.1682875848226439, 0.07561210754183484, -0.04203623395075672, 0.050002453723462036, 0.1643898097828342, -0.10389574049622441], [0.08047147812499739, -0.13935614146858055, 0.056217544095052446, -0.059103442196750275, -0.1176665189336774, 0.1363716595574814, -0.1098722851387062, 0.15701245734983674, -0.07215362104952919, -0.08980920778755089, -0.023464025404571338, -0.0892475395151031, -0.04969763449236713, -0.0008714186266800094, 0.1363833188669979, -0.10118211330522434, 0.08244723951869774, -0.03338041533007601, 0.10727881963209863, 0.14942003574407023, -0.008991529746669806, 0.010004956360580153, -0.1269267673864521, 0.13644444741704218, 0.13687519560260267, 0.025794338597784967, 0.12549990437795652, 0.08371951944752908, -0.09437452033338097, 0.16040630801338507, -0.026992934454221792, -0.016997561922102538, 0.012617485099689303, 0.10243609068679974, 0.04446484335838697, -0.12520012001654304, 0.04266937841141503, -0.08623370713207609], [0.0155929950678431, 0.08833245312314104, -0.003043084441693958, 0.00607441888025532, 0.06738545537364544, 0.12772815189825643, 0.12480731983196099, 0.10205383462600096, 0.1346031061105643, -0.1818940921700689, -0.09502232878507444, 0.04937708984748509, -0.14353283486208668, -0.0750359059432177, -0.14505769723821993, -0.01075905115164368, 0.1969968676949309, 0.11024689243107309, -0.05683303595308183, 0.05788576555686244, 0.11584344116935094, 0.11337811004108334, -0.10089683927192572, 0.08011262952607692, 0.05605307085645695, 0.1390535513606467, 0.017791195797936945, 0.1298437303011815, -0.10919104610636379, -0.024383244160973223, -0.023992152928234884, 0.13741665681042547, 0.11606297811309836, 0.11459644765334194, 0.08225324837975012, 0.10539764462780858, 0.156855592353232, 0.15730028179754035], [-0.1284470354713494, 0.004076295499318989, -0.1448165710454938, 0.06366676427919331, -0.055297748766397856, -0.1096544586966458, -0.03826171447608252, -0.09280985608220005, 0.09592257212791601, 0.11568941297945513, 0.011903604788078838, 0.17384214942503529, -0.0005209900198397643, 0.0705236350196838, -0.03568723610488848, 0.11887955696152556, 0.02808550578887523, -0.040579243476300354, -0.17601341702854043, -0.15168597664653277, 0.15306799228134094, -0.12618966777923907, 0.00022114458919685553, 0.13163302392833595, 0.06659138237719073, 0.02456038314155531, -0.03752765248014611, -0.07403464219077623, 0.0012177460268252684, 0.05319867098610928, 0.16338584089138042, -0.12896841108295842, 0.04095198695285642, 0.027698979241899888, -0.061459114396815985, 0.018682190975523347, 0.0017323876930820205, 0.08151810493506749], [0.22480135914731483, 0.11441227728937697, 0.042577008228402206, 0.10363908329346207, -0.2619960158898215, 0.025684722374994504, 0.13012479086467763, -0.07325627381943049, -0.11515585865351051, 0.10931106301443232, 0.09142395000160766, 0.11055305753367989, 0.027712677446232428, -0.17237341226038427, -0.24042627532511676, -0.05319169630991244, 0.29049643788048024, -0.15533876023811208, -0.19848293083343116, -0.12848857361435911, 0.04291089372061691, 0.20716903012410892, -0.04490913176853347, 0.06280833982012513, -0.10519907067193646, 0.06807048961688408, 0.05629725492042349, 0.05879744449995451, 0.1541588715331151, 0.03816297569244113, 0.14730407296495712, 0.03556709722679118, 0.24533385422955267, 0.049341727560579335, 0.03531579223818281, 0.0927313780658916, -0.06478027659939109, 0.2682613461216816], [0.06302402420100027, -0.07514174880899414, 0.1154559236165876, -0.058767403501905166, -0.18741151815569548, -0.07160848993360683, -0.1196325091899217, -0.1404084344996984, 0.1561559750659366, 0.09883509108637072, 0.1420689900836643, 0.007845984739087262, -0.15852484023464106, -0.08157921089735684, 0.11858544195439015, -0.06621081144530702, 0.18475315337160628, -0.11368387301328146, -0.11224102744690156, 0.08720762980425266, 0.035311129865654434, -0.030664180514296733, -0.13210142663859686, -0.07948096786298336, 0.08277471014676155, 0.0581950712706979, 0.10411852263062005, 0.11802550860941757, 0.059085481134115415, 0.12344107383940421, 0.0567180888867773, 0.08478325377048293, -0.007150391132725095, 0.11677665812465776, -0.04992187846402393, 0.009017695582079235, 0.10824246048141264, 0.044266965436673536], [-0.05109012158260014, -0.14027230508264496, -0.08360259970417618, 0.12715867444271547, -0.04192473491735809, 0.0921258490465089, -0.07604496613030853, 0.09821115876325612, 0.13588669038822707, -0.12751869996942578, -0.025102419473842428, 0.12322271852949812, -0.09877257399811447, -0.030862581559153748, -0.08042124325840444, 0.1139272242732943, 0.032722471324591496, 0.12407995756397099, 0.16563910266207352, -0.002194726802352715, -0.047777587157707094, 0.01161380803219921, -0.08241149914806849, -0.06682846409421332, 0.0962825870476548, 0.1048561352069152, -0.09534654355326018, 0.042248111553118764, -0.08341988377112339, -0.025865320946855296, -0.08889373243308062, -0.11390269268357278, 0.055425360812643334, 0.10842072609067634, 0.12842701509248755, 0.060198826471224494, 0.08442460244947789, 0.1401134571864915], [-0.18416384473161274, 0.10495074502887075, -0.13188098897076037, 0.07620103746447532, -0.035164174919431246, 0.044239515366783076, 0.041665269239463065, 0.13073315033484148, -0.09340551342337174, 0.011183258499411224, -0.060165836796495925, 0.02142214271381846, 0.05120157578845374, 0.056110302997187805, 0.025861569791169915, 0.01750182995207521, -0.13212572052375543, -0.11784266394405077, -0.013136486850234469, -0.09530569605028015, 0.1493796127018947, -0.18451527058753978, -0.16994764220085143, -0.11641302352923967, -0.14057929827581833, -0.01633515024410402, -0.20344957322116725, -0.008360405931599325, -0.00928523431373957, -0.17797357994953433, 0.04967146432158635, -0.045974496268085745, 0.09996322985757713, 0.09559947170350536, 0.12835855825275408, 0.10019597422008897, 0.10952400176282473, -0.21272947200887854], [0.06370750210213466, -0.18746983683688423, 0.046651574842122324, 0.033276474403461584, -0.14085268747627386, 0.16430249372241898, 0.056217864172018316, 0.07241575931528305, -0.08821086428455374, 0.16951092477243102, 0.22201671870684814, 0.028193826159062314, 0.09353191851357463, -0.15656025739905552, -0.05969408202269336, 0.01502147017701101, 0.02895154503783776, -0.2364078223432971, -0.10231390635856073, -0.011349178572398765, -0.06335630795675891, -0.009473052246395233, 0.17371851302214716, 0.07834713359530285, -0.11166524827479736, 0.056929706864832334, 0.12165907783637209, 0.11130534161216993, -0.04005265921912791, 0.02548392003267658, 0.1580880305866955, -0.01137090457310459, 0.2403268497392487, -0.15324182910558523, 0.11186420675295929, -0.0790722051565557, 0.08320200150490338, 0.016419639594722337], [0.13141474036942796, -0.05655642136947713, 0.11466349334267442, 0.15170398473562383, 0.14375176983948437, -0.03172970208906187, 0.021447888001100188, 0.07593845600051434, 0.10360503482857213, -0.17566420926832418, 0.08187312387530336, 0.07557235791909313, -0.10603723137366665, -0.009579312936292836, 0.03603763570760543, -0.0026470554020021774, 0.15340144489640242, 0.03541567200410505, 0.008450290010410148, 0.14784315703464548, -0.0018304505995182443, -0.10689683957548238, 0.009856773311080655, -0.060486407472796426, -0.11633909844698664, -0.13145337809112018, 0.08964892823269316, 0.09979148042219647, -0.12847103090181156, 0.11474884419864147, 0.13913357486895764, 0.0521955249133851, 0.1363918908954451, 0.09084683906317097, 0.1362562060983789, 0.01406690705248397, 0.16573078470654956, 0.1291457059192286], [0.06271814798836414, 0.07102927808916674, -0.09288266290513796, -0.12365832512899982, 0.19612856038386778, -0.19415604548564402, 0.0005639729192872655, 0.17007441205973511, 0.01794092221154359, -0.167490976385671, 0.09766891396356162, -0.007958143572722771, -0.02295768885923675, -0.07439956648133572, 0.03625257567546151, 0.10910306227241942, -0.17913383887846338, 0.10928540052580415, 0.12638532735726024, 0.09350814318391822, -0.04613205858247068, -0.05989043899680202, 0.015231715954863067, -0.027198649156863704, 0.09196650337288315, -0.14485012039214953, -0.12975613232921493, -0.18483643406910272, -0.12009452435298092, -0.07410637268918405, 0.04058402766256039, -0.043161039921624206, -0.04325174282426363, -0.20727601045661687, 0.16270945820785618, -0.07030859757381477, -0.10358988034439819, 0.024601267122536456], [-0.008553975351978948, -0.056306694236574466, -0.11517922670631951, 0.05442615795844315, -0.05843070002801576, 0.08457906466872125, -0.0913513150744698, -0.05152563975986571, -0.13122559019939245, 0.08229090912495363, 0.12157744939459264, 0.04922334968270825, 0.08670887893893481, 0.020242083022723286, -0.24568083548354444, -0.17974247951698202, 0.17099619522885173, -0.05030994491556835, 0.1310008977424295, -0.20080425435490515, 0.0003989559038175847, 0.20114277694564073, 0.1749177759628601, 0.1584597555582148, 0.07262281710712043, -0.03265335263050689, 0.08975901991554734, 0.037245675989240015, -0.03482871921715697, 0.0979672025729387, 0.2401833958700941, -0.001971596270103811, 0.05986869158576473, -0.09921262316833446, -0.02232889298046203, 0.031115563630461182, -0.15840287601364464, 0.1177013702310684], [-0.1328180149879939, 0.13249521895238406, 0.04640385316447155, -0.12298136805421382, -0.06874430872701487, -0.05037379126706126, 0.09277538703107183, -0.1178937357868336, 0.1432490754905821, 0.058996309426838776, 0.0859785398184488, -0.12976641005488457, -0.11026089169680983, -0.05831315378822818, -0.16829726912701223, 0.0534059283738985, 0.1684964474564855, 0.13936681362647738, 0.13144237209080686, -0.1469182646967554, 0.019117240583039943, 0.08573391663488299, 0.1285325637703218, -0.10895570952399995, 0.03906990451871777, -0.04649170116093526, -0.08620499246436661, -0.10830575542260892, -0.10936249657627227, 0.13600523504487352, 0.01579637746282292, 0.02904472340112694, 0.004724882444825962, 0.10103734159346363, 0.09789817409977768, -0.058978184181062966, -0.046151385885555, 0.11786792387989453], [0.1320306984847725, 0.09007433267753608, 0.0954538235700305, 0.13214566683123144, 0.08196166521850938, 0.1530643487315363, -0.10837285141929408, -0.05326126882168658, 0.03239224363019782, -0.02476278169564344, -0.05561521522251066, 0.11495547464972002, -0.05367575281621567, 0.11761565447401665, 0.04769277990709256, 0.0925276346621555, -0.03281160686283139, -0.033782545550805336, 0.141427744478319, -0.028677864074051776, -0.0915624714932484, 0.12942341139606356, 0.011222328966734063, 0.003315374700149869, -0.016124087848035484, 0.06970533793876146, -0.18340315038171331, 0.09174123053848952, -0.02644497916150049, 0.15211751994745562, -0.1066091662126117, 0.10028406273814953, 0.05683812108985169, 0.0701610173847753, 0.04607297715855585, -0.023608296050775707, -0.03880283695150347, -0.05809515100323975], [-0.21522035049362076, 0.08267015744502143, -0.0869426574333085, -0.11268594935899127, 0.22434621842864647, -0.0777212478871795, 0.03894159333734987, -0.025342483887444006, 0.0336439996818468, -0.06739652556200078, -0.1873159559891788, -0.016915385736278377, 0.09535403339646235, 0.05047354495636992, 0.11292157517104195, -0.08609092397170215, -0.017428640859019497, 0.009221455590095922, -0.04317824219620586, 0.08906852990894992, 0.06937755266529405, -0.09368689261930566, -0.13645744296886583, -0.14694379024054616, -0.1717455791319133, -0.1438394345433565, -0.07945899470042833, 0.01964447986533581, -0.1476563519086953, -0.16678954673975174, -0.00044379499607660137, -0.003254820113737036, 0.0008038825284762262, 0.10079698335617418, -0.05939983514063772, -0.17191288576380037, -0.11236317792841971, -0.020295244970047546], [0.07256468373023671, 0.04686107942786639, -0.019955407069366302, 0.04230457917139055, -0.2314777575749122, 0.18310399927617627, -0.17575352798400448, -0.0783388956241584, 0.021009973767946933, 0.02135477596735579, 0.08603816091202621, 0.15359605379723376, 0.052520459738251264, -0.19531429459908806, -0.07022439623176452, -0.04627025073767018, 0.04233845888682223, 0.04585839687854541, 0.08544346354431835, 0.014976053398782321, 0.031064491479131994, 0.00035534993172159737, 0.025033078468377986, 0.08222077150180024, 0.05735377039813398, -0.032359133669786266, 0.038732994380204354, 0.14442392869794665, 0.2194708567553245, 0.07489992981080104, -0.06552535149445578, -0.07228993692583618, 0.23668630180602626, -0.0715434168467917, -0.13874993744151304, 0.024514055886910503, -0.10964833548699211, 0.09970626347396096], [-0.10150868589244988, 0.07816927302455429, 0.10691821159294408, 0.11264245764594864, 0.07561692292342104, 0.018731473535282706, 0.13100536635396584, 0.04577409000843417, -0.19661992682355198, -0.08765700492218065, -0.01043705265591455, -0.12728216328583203, -0.08263398757015718, 0.1973486523035033, 0.06528991200929352, -0.19006400485042907, -0.07500434949905316, 0.12180239310907315, -0.07792794627713452, -0.029795696117919324, -0.0782691078833002, -0.02462221457121473, 0.024423317339640538, -0.07029796865608458, -0.10149455663817922, -0.10274130318026756, 0.07911330498757488, -0.07141420992862228, -0.05914897773159568, 0.03196009616050458, -0.11879162608941489, 0.17426781936754535, -0.0008041818341554606, -0.1468834183104326, 0.05719200229381486, -0.13457304157048838, 0.017166186753844036, -0.0010219366190856623], [-0.0091573098599228, -0.0008099137226488349, -0.08996088128436198, -0.029357734631147128, -0.07933662348042436, 0.11964726697479151, 0.08710148175765252, -0.15731766746800954, -0.03355828351937386, 0.11491753792788176, 0.18514593602592802, 0.10475243171429044, -0.005763270978471, -0.10036148868049229, -0.0119286491649556, 0.12181612941284041, 0.198117058729888, -0.024209584897568637, -0.2281484003871414, -0.2484478037288089, 0.13600016413928506, 0.10105398912917567, -0.013491542921294017, -0.12627602325752446, 0.10889326828633529, -0.01494125348143428, 0.13863982732370603, 0.08677023386338498, 0.20802211795482556, 0.11870596777976736, 0.18882455050500824, 0.041482429450729164, 0.03700113628986994, 0.12169185629301675, -0.054552431776778466, 0.0379677830637496, 0.10936410197081646, 0.07642187076542828], [0.09998070288314675, -0.07175560613697265, -0.0020151538906859204, 0.054382140848064836, -0.18188899843846495, 0.06455042382588443, 0.02076174569647544, -0.05881944604683203, 0.033567103023040556, -0.05056189345995907, -0.0766735454357665, 0.0634052591301154, -0.03096756666240304, -0.10532372035744121, -0.05623439356625707, -0.06733265252228753, 0.10575428139881833, -0.10329013266535697, 0.005722242843241895, -0.061148996662725004, -0.06279141489055376, 0.06253902247421717, 0.1095884490494512, -0.15661532814890483, -0.13500482297118632, 0.07959194256561843, 0.14914171776644347, 0.06987718850646427, -0.01883420718273886, -0.03831321275118945, 0.14496448524269231, -0.11086795765322567, -0.00460927071503317, 0.053261693508371635, -0.17723472816576905, -0.1381863007070628, -0.09634567619589912, 0.1200639968479161], [0.12371042076585752, -0.13183733743417894, 0.22997412271873996, 0.036532782949419154, -0.11821145525008346, 0.23048664714206415, -0.11672912105446251, -0.0741081743107114, -0.24455403777211543, 0.03551505656170454, 0.17370480115944256, 0.4342712939469682, 0.07401311146245536, -0.2365262785310475, -0.22264045295028284, -0.15177845404551504, 0.2772430098657229, -0.18161499861127955, -0.2842694260756299, -0.13479639415007302, -0.03491226829084124, 0.1499052755584711, 0.3573733327898706, 0.19891611307005422, -0.0026539540774336338, 0.009117462863503059, 0.24682454148238836, -0.00607395128419168, 0.09222349558861767, 0.0824895962553201, 0.1929557129856038, 0.2342818537622512, 0.275406334710285, 0.11360800762446711, 0.027847188070724217, 0.012528210514236433, -0.20938913717343272, 0.2911096649249343], [0.1884935137300453, 0.06336486726954971, -0.026568217858044738, -0.15220366660616197, 0.0014454534694924282, -0.10782956516866209, 0.08413827109275887, -0.11253885999034488, -0.04116038500761803, -0.11185895837843028, -0.06065756850641, 0.20364579104463543, -0.00323496223748247, -0.12691189650408782, -0.03916150642727102, 0.008237649350475803, 0.11840089738773517, -0.1455116694327538, -0.04212787841483112, 0.035536653885060554, 0.06598252962323024, -0.041068094775145496, 0.026776408105535228, 0.1367934855772305, -0.0530415142913052, 0.1730023335889377, 0.03079451828000411, -0.054411317813090936, -0.04508885514544849, 0.030525252477314524, -0.037875969448836845, -0.09538291506087698, -0.029198274134879288, -0.05985289606631942, 0.03789670029724139, -0.09057425166469547, -0.154414566882924, 0.12823404820655304], [0.0940321467310709, 0.0004017201432682442, 0.07529141225855891, -0.032664577634529325, -0.13955050420931203, -0.02600780220643067, -0.005761557620713351, 0.04080058660166393, 0.09168522061507371, 0.0646441997231832, 0.040071374801972266, 0.010936937971592375, 0.005723328324699067, -0.04189136289125963, -0.18885300749165124, 0.13991685838315368, 0.07122565232354452, -0.2159734977760402, -0.06868502819885344, -0.17827478401333696, 0.13131148924256253, -0.06681610833372693, -0.13611089345769187, 0.06921981995458946, 0.005789857945485248, 0.009915767839849541, -0.06940717095625329, -0.0025695386233814165, 0.0987111931971429, 0.06618228626194234, 0.09756355209833124, 0.05608400424768687, -0.10188658323423432, -0.13871032856243815, -0.06723098466041107, -0.0521735765301228, 0.16799139313720027, 0.10768993311237277], [-0.10388388796272097, 0.026169952423816208, 0.060754497487781216, 0.04277350772073959, -0.060941805620711005, -0.002096230157672544, -0.057123308400148995, 0.07368326674745872, 0.17649291507191472, -0.20464563089244, -0.17807859945361335, -0.1892029563667348, 0.07272223132956784, 0.13928905851009615, 0.05532149537754666, -0.07946157974979338, -0.032034097794733055, 0.08849933274726923, -0.07745599853163129, 0.1911059142945881, -0.0404262635460911, -0.10657929845686652, -0.04235352799511335, -0.08888533517823244, -0.14942548284228382, -0.04880512783723592, -0.2215294908569388, 0.03391294655287938, -0.17842968452992394, -0.15647068127629965, -0.23959855855829829, -0.06242913497396227, 0.0677089574758676, -0.19566963193632742, 0.05598225839720952, 0.052890075438332455, -0.013940437827336309, -0.1648727132112273], [0.2945531612035984, -0.05709562349498824, -0.030434207115929722, 0.06057128628950105, -0.3387670828292508, 0.07598303960258293, -0.19666272575012778, -0.1327902501852322, -0.16782385581248166, 0.16821213043963146, 0.1895334629182002, 0.4259350298922579, -0.05748795644363496, 0.047264934659570185, -0.22472222935663647, 0.0317579286983388, 0.2124806373210701, -0.24664342343770976, 0.05163486857730082, -0.026873770351217192, 0.1019116586958631, 0.09554350261348804, 0.08428104273323385, 0.007966043470491959, -0.052494954749755865, -0.012535844367186855, -0.02922798918674875, 0.17502499332815707, -0.04819438365816707, -0.04970322721039202, 0.2748407452921181, -0.014157662326823323, 0.23055642963483783, 0.016988710839937193, -0.08729614593211855, -0.030420196021444, -0.0755254271442557, 0.278161834418089], [0.05703532407895973, -0.15340155797690302, -0.07632553516372106, 0.008127514731495119, -0.05199297655354447, -0.1913270107102882, -0.03884852735462747, 0.1726446800411735, 0.06665091618755437, -0.007509562624768254, -0.08499268294748587, 0.24003417332825697, 0.03896503095161415, -0.0452358722152835, -0.1404304458281111, -0.1209165731077709, -0.01026530689246959, 0.10780361847635689, 0.030651403588316993, -0.05485223564166281, -0.1119239257980764, -0.12087074439323185, 0.09898185474001267, 0.10276837277984341, -0.015497381399487255, -0.05010274894659139, 0.07318304911687251, 0.020925800641993335, 0.09510789264981835, -0.04696238846074215, 0.07248140030064004, -0.1056872924328672, 0.10961549900590993, 0.1453052755415109, -0.036009135812037615, 0.059309081587925826, -0.10055362380666596, -0.17660955752447244], [-0.09098313138465018, -0.09129528769095001, 0.018313992978601125, -0.019118033652305237, 0.1427523440857697, -0.194270206081363, -0.06802205742042337, -0.10829538326022177, 0.1601622848290123, -0.18328607354527482, -0.08904207993573734, -0.09186919436050972, -0.09778977992786712, -0.017532107927832018, 0.20850896435410043, -0.015497461808074719, -0.28492764282338917, 0.11395925527085474, -0.04977243448456361, -0.015431736895793708, 0.04138067757787539, 0.09894950056837018, -0.09623561908719758, -0.1865748376508802, 0.1264514071584492, -0.07135874299396258, -0.1506600534203852, 0.028148250463747405, -0.052112838484004165, -0.09040065501786905, -0.03351620012518767, -0.16520525477888034, 0.052648364742309786, -0.12953009421221015, 0.14072213957533697, -0.12547687983507932, -0.011458496269879137, -0.05241569783990995], [0.06083252503854308, -0.049256107377125095, -0.031395785568216664, -0.10446166900311658, -0.25747092106445835, 0.17642070452672473, -0.03607037391934593, -0.1485946782478527, -0.30354489761783043, 0.13396290807921932, 0.005079203508942471, 0.14916024391479518, 0.09177673865525131, -0.2471129594248161, -0.2890004595208073, -0.057560914567709585, 0.0968856503178269, -0.25144303058201195, 0.09382295468469942, -0.06946721091632042, 0.008930316860360657, 0.002688872371813305, 0.04632848437978146, 0.15237425290499282, 0.11572984880467785, 0.10455050793221646, -0.03770460989701359, -0.011845603969229533, 0.16916568225369147, 0.11144265811320646, 0.2829127877860588, 0.22294993235139282, 0.1229249381509178, -0.01224331584953028, -0.10092084676083289, 0.12061584310627683, -0.12733475183777496, 0.06909908672217341], [0.07034979631046734, -0.062462197948430435, 0.14196546338686397, -0.04989592944812976, -0.03273070433659005, -0.08877248514982596, 0.08979792330784746, 0.09873350013548013, -0.11240225308630405, -0.15846538894923373, -0.12958940729616736, 0.18448619755885015, -0.13483086127682808, -0.048925045781866044, -0.18827138482192762, -0.036842724687964554, 0.002805217101908483, -0.0692142544136763, 0.12663827491828442, -0.180720092447323, -0.10275442977159556, 0.06615776441354428, 0.032471804133319356, 0.11277198939727061, -0.014524158095225266, -0.03990429543212346, 0.008132995247154424, -0.05023199345613705, -0.07242813939885893, 0.049392644696503375, -0.07028094165196822, -0.027738224331392565, -0.06283694164644865, 0.005525036398541277, -0.07727856212703053, -0.11769992902726589, 0.15508849385528292, 0.08153248062643124], [-0.14826840413022493, 0.13134332481451547, 0.010116001907736597, 0.1003116185271308, -0.008130810203153135, -0.0034753240046309576, -0.025241113126157597, -0.09583609938772501, 0.007676383301705489, 0.071794268775395, 0.22341084196345254, 0.007745858630550331, 0.0003575753710155846, 0.07039539607264798, 0.1826086619653857, -0.0975719185353536, -0.20877281935185396, -0.03164455988821365, 0.1699428482787672, 0.11727037008696721, -0.030702162458987194, 0.002496888861053697, 0.3095279047372332, 0.2061031956818194, 0.023210286674584475, 0.1850433617849318, 0.07898378090165695, -0.057531162955179516, 0.07063045837330882, 0.14472924608368776, 0.14899372034227884, -0.08025565214669628, 0.07311457893239116, -0.21279239575564432, 0.08549628922004271, -0.10051857501596448, 0.08069708466355201, -0.033029374297744676], [-0.0426301566255835, -0.009234447639900667, -0.18395999783769698, -0.08784304161621188, 0.13360737500861938, 0.05049796292332293, 0.10406421903040938, -0.001365064865095289, 0.025540538454375566, 0.0737314777784324, -0.05636901109694965, -0.33167411135922664, 0.16708749279583074, 0.29445855391302955, 0.24301530728539802, 0.059456961145354564, -0.23684418636389282, 0.11846674154717228, 0.14553243050240292, 0.21112103421558565, 0.22684889391925134, -0.1341519341260352, -0.18837026321646866, -0.16663741552983494, -0.013056650603025239, -0.17211531843776262, -0.091020575444883, -0.18478358993433597, 0.09355067827819567, 0.03821216779436851, -0.1665839705969259, 0.054916167492343196, -0.24114002559937162, -0.21755683546191243, -0.0765756375206529, 0.1431669131435464, 0.11410170272534623, -0.19860678428765222], [0.16969945357712454, -0.13955700656066533, 0.13932211761104707, -0.06252782737954998, -0.05472140927612036, 0.20807390851316318, -0.07060374771878887, 0.022796884320974986, -0.20209742907067102, 0.17901284401328266, 0.1015665465067508, 0.27266285465144136, -0.08817890344849033, -0.1821366999396217, -0.23745550231439919, 0.06506639264672684, 0.20619837144122863, -0.2230988548692455, -0.09481795158380492, -0.24026510228724623, 0.021497192416795232, -0.007357351715259459, 0.130873729031765, 0.14675834414104513, -0.11450901254881993, 0.12375383703406236, 0.15825190638629152, 0.21087879315205413, -0.04397124623711728, -0.06567791542285958, 0.28076859678432187, 0.22563475076221945, 0.04646133503661852, 0.08750176224189253, -0.018875664664537835, 0.08506623292337709, -0.1118640955503162, 0.29479992202259464], [0.09064743055220162, 0.10246154286234228, -0.08563888801196412, 0.12685965099097188, -0.1544004917785413, -0.06669561482349634, 0.008849429573064407, 0.09898407686353122, -0.1341405252797122, 0.08344870682177889, -0.00863361068626303, -0.01508603543438399, -0.04252621674088071, 0.14502661011107404, -0.20029506333288677, -0.036772996204114644, 0.15332418760038588, 0.0639736081039078, -0.1162961995370665, 0.05909760707380213, -0.08113270305362655, -0.12501041464772583, -0.07029375625992308, -0.08467782014025428, 0.09950568872120742, -0.07187862787076031, -0.025947096947317446, 0.12164462186157908, 0.18104110869932702, -0.14183186222713473, 0.029632493433618578, 0.0709348341057847, -0.048717907138760494, 0.10279855531434282, -0.16101125991066922, -0.0567642387663391, 0.07202598502671666, -0.1618221886598786], [-0.1051485759651892, -0.0041667010694331, -0.025938932665433265, -0.025316425250059664, -0.04673113445210669, -0.03770058772823297, -0.09053968400408292, 0.16313579049794333, -0.03823106441479849, 0.03219769275648657, -0.04892603730496628, 0.13664721254926357, -0.03401670221970459, 0.12876339037917542, 0.09280716277861793, 0.0866271602055138, 0.08758731048364947, -0.07699910951538981, 0.01477187384767787, -0.1221463118513836, 0.1455120818207332, -0.047416535254360334, 0.048733039313356506, -0.07652673047644425, -0.03437990633087646, -0.014259480979742462, 0.07084803445510104, -0.00805617709848215, 0.040583389435032986, -0.16705029208135236, 0.09547491237540709, -0.017391805663767038, 0.11241478931881864, 0.05215082583493555, -0.003478944805689721, 0.02777789026702998, -0.03580566194315212, -0.02297085970155161], [0.09321438433551849, 0.08047609338782458, -0.059669478593443175, 0.052012146758425755, -0.13390811211217027, 0.01514898095965719, 0.13099262743425652, -0.15528568690688027, -0.11274493797744807, 0.019241170508565192, -0.04464057411768246, 0.06034075605618038, 0.14738636319283732, 0.04598619453996705, 0.06539025930215552, -0.024765334137804223, 0.0955655716439666, 0.013929276741172258, -0.05755937036124857, -0.06433998317571503, -0.08248843016049538, -0.09021011991620209, -0.02595956294622344, -0.029720905976833675, -0.14988159274843058, 0.03598807752022349, -0.12192603621993485, -0.14274375001647768, 0.11119974541823147, 0.060200802264138174, 0.15367873440557495, 0.1593472954975043, -0.0655286995370776, 0.09209133647463531, -0.15804124471595918, 0.1422802386106529, 0.09222337926908017, -0.12708898871861152], [0.07669641102212052, 0.07357519692024257, 0.10878862570731167, 0.07541575516243217, 0.04025983763530772, -0.04791176460306174, 0.050983712589503204, -0.044994950163198266, 0.10464797285499311, -0.0927305373682335, -0.1344329120078238, -0.039339790583517574, 0.12099005548910963, -0.13348181909736395, -0.05074218763697951, 0.10254598597964053, -0.005304972919928471, 0.007797373659669895, 0.0755654510025964, -0.03386610641247876, 0.07036267868794296, 0.11743276400364369, -0.10771085362229722, -0.04391475306599599, 0.16186606661300593, 0.07210570679697038, 0.10917549887029111, 0.1211531973739212, 0.02412071154517461, -0.22910295000777045, 0.09898643058086717, -0.13031313052171772, -0.057575959286648964, 0.010190778514150733, 0.13954787510919084, -0.13228574161742596, 0.11282759767271024, -0.15614495073058232], [0.016546743512498904, -0.04130294985513287, -0.12821815590780147, 0.16137204701882704, -0.009584159351032512, -0.08461957599463972, -0.07318432181792453, 0.14253781482824585, 0.19978884194939558, -0.005635023008193548, -0.05788663677422096, 0.07975439260198867, -0.14020240020126, -0.030992984419830946, -0.02116667808244434, 0.14229693438916088, 0.19570756916279006, -0.09340465678727984, 0.05681844545225201, -0.08025826943166388, 0.09697705160218638, -0.02631582139776993, 0.0282155412708578, -0.25755247056072433, -0.012489122263963533, -0.13373392308227158, 0.09537558716271347, -0.18225158390347043, -0.02134180802954757, 0.03108652003260121, 0.09516147367518961, 0.0037643336215994992, 0.05219492624861999, 0.06959396185613201, 0.0833988225340085, 0.17175310657837917, 0.21782272239274555, -0.11610544987153383], [-0.0796083339576365, 0.09012673963681896, -0.16885630715653252, 0.05252678085650173, 0.12305117651106418, 0.12326620930343059, -0.029013979706891235, -0.10867570352642861, -0.03306923499401824, -0.0589720706864863, 0.115315397600154, 0.14826947345614977, -0.14263701228092604, 0.020983712033795225, 0.10167844527732635, 0.045439639524429594, -0.1394522673994917, 0.08584721113799595, 0.027543337294217367, -0.12174373497466197, 0.13212744176127436, 0.05768961631815907, 0.1439811413230009, -0.09894812419500264, -0.06602159547796294, 0.1531189791926636, -0.07311450623135962, -0.011991635681986834, 0.06405801425320895, 0.08508228783237756, -0.11029030718897502, 0.05935178764006703, 0.0053829983166448405, -0.11809105105815726, 0.162790561869579, -0.1448705796208694, 0.1743384140772892, 0.023650926354999633], [0.13150089150560104, -0.06532648653797388, -0.0657577878237846, 0.06602283993455399, -0.06327315154292053, -0.06489772565264974, -0.11392389113916837, 0.14469350867491557, -0.13100863569974575, -0.06083836946556801, 0.06662907045784049, 0.06622748686856923, 0.10885269359144956, 0.0903819811648957, -0.0036453960635911614, 0.1111736207505816, -0.004980137327975866, -0.016320302625630844, 0.012207134787224318, 0.06039931167156863, 0.1455697579646561, 0.035029918191328, -0.11121799218173571, 0.034849959896285775, 0.0784385166694481, 0.022185795216987006, 0.0846248628040487, -0.009496178255113114, 0.05450903795990114, 0.006238429469363659, 0.17070452955715235, 0.16986023460113178, -0.09309790367632564, -0.16438554175909778, -0.057550755414836334, -0.011609475418646865, -0.02565451872971903, 0.014805889410120721], [-0.13471460376872638, 0.16595838879038305, -0.049247549474865086, -0.04352722239459557, -0.08953797999483, -0.2156768766121533, 0.040162849491322504, -0.12899807555260367, 0.0646994181419859, -0.14782780645114946, -0.14409473780687085, -0.02208909351886725, 0.09922539625744264, 0.008944010918496512, -0.14945271586834716, -0.006743427191347881, 0.0805706806373658, -0.0032371130856443516, 0.10106380245200358, -0.023696420400321196, -0.14513367279067557, 0.09214154798005916, -0.0114587350555058, -0.15490684636000795, -0.1094350299393831, -0.03474350331053403, 0.0990111771154613, 0.006500356699832224, -0.039515959954605336, 0.05622703493913765, -0.011006805269402889, -0.12509181146245263, -0.13028237668059245, 0.05630912675976224, -0.07517220271978071, -0.0701220517071214, 0.049223667837052856, -0.028573748204193384], [-0.1455744899899487, -0.16538018239166136, -0.23798192138071445, -0.0999881410585425, -0.0490787920556843, -0.23516987178239743, 0.13795764616235326, -0.0035336554662743196, 0.04822061426342607, 0.07169420748101879, -0.26727371939990213, -0.08434964812228354, -0.08910443789894502, 0.014687341942038057, 0.05825523066421019, 0.2173764339262251, -0.03043303779648373, -0.061817517356540605, 0.09946999714879859, 0.16735599807597515, 0.053995973952313016, 0.07958066329975899, -0.2390575903652087, -0.022649671616594747, -0.021665343971862067, -0.2818308106002014, -0.07037677193140628, -0.1541793551896848, -0.045327700192534896, -0.008108399323037675, -0.13779392860330278, 0.017464354307867767, 0.1570970760249778, 0.03640370082065107, -0.0598815881138201, -0.14664353443724354, -0.018086985160676004, 0.044554697292850956], [-0.10730907670399176, -0.004077733424235759, 0.013413787177685117, -0.01668456882055282, 0.12303867516798188, -0.13580817384856317, 0.10625847460390056, 0.0852261586502783, 0.02709748990842853, 0.051065859342347183, -0.06126879043145837, -0.015048729284795196, 0.02340259664103676, 0.18060895232586402, -0.025793195115124783, 0.053547257497741155, 0.10930585854849513, 0.0034940476763093316, -0.07102435505077458, 0.04136031235657356, 0.15645450333637642, 0.08790475799277972, -0.1154483799106567, -0.09772197300850566, 0.017791845535499777, -0.10915579223693636, 0.02741722988509569, 0.13049615232519032, -0.11290381277898297, 0.12968029296610054, 0.040927007351481165, -0.12414364391921881, -0.11537143688354534, 0.07949879635652357, 0.09078012911889728, 0.029807970690684454, -0.12041250219702852, -0.2495792910930296], [0.05290804140756601, 0.09273856121427071, -0.0555402798354859, 0.10371141072728271, -0.06281748312717396, 0.014001930534343256, 0.11083687099902553, 0.037233908185827086, -0.18632005194395504, -0.0020609794622403377, 0.06429311930431619, 0.2576299350180361, 0.051386419005756724, -0.01098155097376704, -0.020975232311961252, -0.00400715180999905, 0.08389708142695279, -0.026019301208094946, 0.07386964297118162, -0.08068100519499494, -0.02253349514758013, 0.060981924688216116, 0.20574714702113017, -0.15035153975558227, 0.0673318116355305, 0.08602909929976245, 0.16114871003525794, 0.07727253514724176, 0.09622284273606753, -0.08747156358525672, 0.20802499818959566, 0.19070771736484646, 0.25136720445385685, 0.031279700590241044, 0.10908839370049674, -0.14172620804449537, 0.037353548323322036, 0.05346458265123631], [-0.08563717900907496, -0.13229080418470412, -0.10657496253639416, 0.13055173936636247, 0.0638743227664324, -0.09046377780321178, -0.10852793338573986, -0.07345289337285027, 0.28716289269096695, 0.017375675677834223, -0.04218961589445933, -0.17817426588857652, 0.06572216620574789, 0.2643324790485811, 0.002722637446413702, 0.16545084432926724, -0.14573593211825858, -0.12256342053728417, -0.044453866699955165, 0.15218036471881516, 0.07119672182266491, 0.09717397062425691, 0.033904014065646484, -0.26306202291989683, 0.08421477881181537, -0.20705546774480352, -0.1579174146041109, -0.2159933937783919, -0.18620965605715495, -0.027694353859774236, -0.2200310909096002, -0.004182606793941774, -0.10962500086017862, -0.11407653640694543, -0.1161281824195023, -0.12010873590184788, 0.0802553793081638, -0.19135787623414116], [-0.08876139049377936, 0.06900511913547923, 0.07226022028926052, -0.056117568806467316, -0.009266582092829413, 0.04996888007129444, -0.01627760681776892, 0.16340803628949446, 0.13553800904798696, -0.19229922138886346, -0.15976848080628864, 0.10289946767044185, 0.03656831546946481, -0.12161372926975271, 0.15289968235478466, 0.04377676907638424, 0.11872303091384112, -0.01869941024496065, -0.09619079198789418, 0.1203426156117105, 0.0012062838179688871, -0.16670671196926926, 0.06332081409565667, -0.01345111054987537, -0.050472249352090034, 0.04472934032468582, 0.06543793467878252, -0.13513650566691657, 0.17697038145538757, -0.08860457193872683, -0.07934897083856728, 0.14041486740473447, -0.046926507871320314, 0.024634120593645305, -0.0471154363989894, 0.029342207914893878, -0.14129297835140248, -0.22574299255264524], [0.14418604089069725, -0.027792086807580524, -0.14043670609380438, 0.1673059100273226, -0.09927433874362274, -0.07066863916600305, 0.10073573944363437, 0.05162840936037703, 0.10860339537969461, -0.08521638507018851, -0.0949132155061685, -0.025768581845854427, -0.09310605258133688, -0.0440775054238268, -0.15203207660844612, 0.1252499110142362, 0.1965066344600421, -0.00215846816141237, 0.12020773929809112, 0.16224290774346975, -0.02961657161999687, 0.08216180987739234, -0.1442450982573387, -0.09478511298745355, -0.06506436895651448, -0.143162327911635, 0.06915520603091029, -0.056497213791410664, 0.004642415859731863, -0.1059586026013584, -0.10679935281815663, -0.02828874119638638, -0.05348759342722591, 0.013601000215825863, 0.09952081432310461, 0.09297228344148757, 0.1271556051983894, 0.09395964000884685], [-0.024377688095453348, -0.011237035150541886, -0.003474297162821531, 0.04409989177372216, 0.1101393469189467, -0.02507742734700622, 0.149062341777549, 0.03363709500925798, 0.30564545299332985, -0.0953689801611691, -0.3426991856611114, -0.21346773100010613, 0.10886688920094402, 0.24659192155126375, 0.13175484184553735, 0.11098864572524923, 0.17112757057819217, 0.06098701639418213, -0.12754261069451384, 0.18487475523777266, 0.09701258780466096, 0.05493234410856954, -0.2589356122530133, -0.17028642040275394, -0.047541681413226594, -0.2846848554055782, 0.0969942137443159, -0.037969465223356924, 0.03706823507878655, -0.3258925846620139, -0.0736027157632495, -0.02689340636973583, -0.15221473395282586, -0.060811420188888195, -0.03772193004678813, 0.03576196328302899, 0.2291281535100606, -0.18769137996205862]]}, "midLayer": {"yclassNum": 3, "midInputDataShape": [10, 39], "weight": [[-0.10468480859278581, -0.08569963238595134, -0.3263030301849377], [0.11123528057012932, 0.25813133276218797, -0.6134852047797017], [-0.20700343212774222, -0.3331455238120809, 0.1739698466759504], [0.5293902788608437, -0.16689209520416473, -0.7250073923868992], [-0.49497012082552416, 0.23322229373652745, -0.17464498829077668], [-0.6284288129831385, -0.5967057415328658, 0.6849196073458373], [0.6180583391128589, -0.7411349762443983, -0.43786622720505747], [-0.5110675932024987, -0.11678086036673371, 0.14285758850951155], [-0.4720109216530935, -0.43711158862113214, -0.020325936902651182], [-0.9321917738679566, 0.8861558841615708, 0.3435135964912003], [0.13851502926670348, -0.3745584841850647, -0.35146395171344363], [0.6336121076134986, -0.8485246451264531, -0.6229208113606074], [0.5728151045874427, 0.7988046067194194, -0.9567517524231791], [-0.24644003373522091, 0.2993540999645146, 0.13963391496457678], [-0.6243386881458103, -0.3102137174848174, 0.4567348834947821], [-0.12662876252223818, -0.6856183467872041, 0.6454800759427898], [-0.764049271792232, 0.6235903348013866, -0.20880673719972512], [-0.06471204980267428, 0.7840224153218611, -0.8581825484666538], [0.014916068075301249, -0.44546140202297646, 0.5823178925496931], [-0.39283890413289624, -0.6827271274310576, 0.49519163644355907], [-0.3696140067085806, -0.3298571599051362, 0.7005499343663106], [-0.20018984026321462, -0.444327334536445, 0.1324674582170616], [0.051414881919439104, -0.12131551491666516, -0.5885968876601271], [0.8155894039509415, -0.9846109860859888, -0.7624354338035384], [0.5925506390819616, -0.6383385530417829, -0.31091519354033376], [0.19117408022788324, 0.129729970620019, -0.15858607606701824], [0.5917638905659507, -0.7946878285855231, -0.4095950844238613], [0.2411725802822677, 0.5499497234692349, -0.2596283767096936], [0.18173772345627798, -0.17337323026185367, -0.6351974153994305], [0.008208220206941659, -0.32066185996585805, -0.683199135526953], [0.38397831872308846, -0.8547010993094704, -0.35084623956545863], [0.4208129372899282, 0.584678087923304, -0.7689100633036194], [0.23688532374940152, -0.13483121296127756, -0.7624395508755673], [0.1878368712927386, 0.738674277812967, -0.5995942932464549], [0.2256223662979858, 0.5488771584025772, -0.12417596536987716], [-0.4339830415079992, -0.6872205486786158, -0.038911684080113876], [0.0919593100053568, 0.21789911839069773, -0.014174506505912511], [-0.4928120808180498, 0.20303222420088382, 0.0856837811045796], [0.16380379656262786, 0.5786507135404212, -0.67856466465005]]}}}