{"fullConnect": {"inputLayer": {"weight": [[0.1953543198787195, 0.20235066610695296, -1.1148802145134746, -0.4293586636596306, -0.4788960760234688, 0.014420169169117496], [0.31554152221995346, 0.10662359698740588, -1.4156249426689202, -0.24503864057724584, -0.18338870779541902, 0.5655130818240606], [0.47718505551460205, 1.3952534137334114, -0.8876818737104744, -0.21215897611231543, -0.6604512609306337, 1.1151200327557016], [-0.8275897794757735, -1.8116376269463368, 1.932552260841876, 0.0333555792223774, 1.4151817972371792, -1.1991915369946455], [-0.48612202891759765, -0.7002631187292955, 1.9323411662412984, -0.06737182110444384, 0.4138671604458122, -0.8529010951656479]], "inputDataShape": [10, 5]}, "midLayer": {"yclassNum": 3, "weight": [[-0.809613937004976, 0.15988214911389712, -0.1955013450277767], [0.36310261137208805, -0.41741437150719557, -1.3896845281004437], [2.247903259897992, -2.0222330532996913, -1.7936507718711234], [-1.9617977785034733, -2.389513229856865, 2.44960814601165], [0.30652460242075946, 0.4643624855043877, 0.016963934047065886], [-1.9348134312174254, 0.9632280491212301, 0.11265409313448987], [1.2132230655850593, 0.16384195551248568, -2.0540351629170877]], "midInputDataShape": [10, 7]}}}