{"fullConnect": {"inputLayer": {"inputDataShape": [10, 5], "weight": [[-0.14729944147901497, -0.29140085664306464, 0.027719191407562134, -0.476612623972252, -0.4465948053656058, 0.19406841689992155], [0.08236031041165014, -0.5474476015728499, 0.20575724151021388, -0.2478667295576924, 0.20415800125896882, -0.18384990050575195], [0.23445194309016995, -0.4421710880864264, -0.004663407349279494, 0.12385606299676276, -1.6172622374992618, 1.9565912246290722], [-0.30200191187596453, 0.6911380679574423, 0.13101346867389552, -0.4874255112314035, 0.9139228526000683, -1.317210899893444], [-0.28146280698729625, 1.009921689825952, 0.1911928382883008, -0.19166269542830794, 1.239687984231795, -1.7124789515594874]]}, "midLayer": {"yclassNum": 3, "midInputDataShape": [10, 7], "weight": [[0.059928894771033976, -0.3692542701656758, -1.3317556205371381], [0.45311267116735776, -0.02367398713500462, -0.5162521159029462], [-1.2407587404662637, -0.803385007554266, 0.9245601266615605], [-0.029454690178583796, 0.24955841759359318, 0.07784556117407077], [-0.07020429070039631, 0.08062261286271234, -0.3382440112516626], [-2.7841366441569995, 0.48673705734458117, 1.3091798233971053], [2.797258467990125, -1.9344228920453883, -1.941156265631328]]}}}