{"fullConnect": {"inputLayer": {"inputDataShape": [10, 75], "weight": [[-0.13179766039475416, -0.060435027558436216, 0.10757730315529722, 0.011127794954254484, 0.10915508663759654, 0.13526897738130716, -0.1857243693915104, -0.08781242063916697, 0.02343368282418683, 0.09176074149107753, 0.029202356767196166, 0.026049019664633934, 0.012553111543134505, -0.03778695874393908, -0.16779740610219088, -0.04148333549123772, -0.03704160894447446, 0.06763604076344401, -0.17184468521524995, 0.09274265860041407, 0.0036089021889146684, -0.05719145910917216, -0.07350888417015267, -0.12980014663785974, -0.09331184625108337, 0.13477067021152575, 0.05468268191998972, 0.07082631659441598, 0.045226579112922605, 0.19860106886637824, 0.11300038661774439, -0.0073229689512885115, -0.09323282406653703, -0.0947996039156614, -0.08020791458866859, -0.14946324838005384, 0.12228112091480928, -0.13338782735119492], [0.22684194821266562, -0.0990247684621723, 0.07328853834086546, -0.10448245059582735, 0.13305344747017941, -0.12856633568865497, 0.03915071061914587, 0.03833358643526149, -0.0804896010830275, -0.1876090174382141, 0.12758833940698563, 0.016719556993641433, 0.21566117129676288, 0.09404174776632314, 0.09603099284027482, -0.049509853868498196, 0.04628078891477114, -0.07857831970437752, -0.13055964101748135, 0.1448510028563862, -0.17041151147364933, 0.04418493937115604, 0.015323630552857284, -0.14473252861046187, -0.1045805567501565, 0.062396778377382514, 0.12873370180641291, 0.08026153892765536, -0.21968591837596102, 0.03383016854481622, -0.0063614669762392375, -0.18745381812458475, -0.03446229016576109, 0.08731000681993038, -0.052005360391697106, 0.06649651027494113, 0.11382223456799831, -0.11126891959711058], [0.24257561716044646, 0.023960556235140346, 0.04865808840611155, -0.15550462957301386, 0.0670339220876978, -0.15099443373020946, -0.07879187043373438, -0.1750512521500114, -0.014453377163781238, -0.030815210268683908, -0.03977894066612753, -0.03307367710624968, 0.19931664285987127, -0.07047766629748602, 0.0713475489102105, -0.08993488169946956, -0.16172900979936813, 0.0727367615530247, -0.14727764402602406, 0.09495055117406873, -0.1540514454108952, 0.027764089837900317, 0.06289470123100595, -0.06090005603022332, 0.02481106242393224, -0.10407863129970128, 0.08353520883986591, -0.04105072905637182, 0.10381943396349277, 0.09612741138679029, -0.07704545064224488, -0.1557089582257146, 0.057266765249322685, -0.04684948788370533, -0.05209712234463254, -0.1723902979448268, 0.012209951031908379, 0.0034394606551470266], [0.24983080744312464, -0.1657201141363911, 0.0848106422598377, -0.13093328936912502, 0.09185303710847072, 0.05884872080024226, -0.13917986826708653, -0.16009721578411795, 0.11487669077098864, -0.20774932270130939, -0.05854369379105434, -0.08269846287818591, -0.06500413865931566, 0.16218003807948012, 0.17978253623044307, -0.12126028143100054, 0.010103913945959362, -0.11081910341757392, -0.15666382366183654, -0.014078478789227132, -0.056546899092723216, 0.06741740728936689, 0.01370745577789636, 0.06421524699955253, -0.09760761139788987, 0.11975268528843719, 0.18145392834372373, 0.05467179932991604, 0.03527489041323472, 0.18102847725573784, -0.10901722503722402, -0.15270293755890965, -0.12189508528385254, 0.13114966477552817, -0.04317803667986688, -0.05622736910574469, 0.023436907881513844, -0.010316425009333217], [0.032545611194534585, 0.12526440160154184, -0.03521591771649673, 0.005557836032695846, 0.17631294231395062, -0.1398659386716661, -0.19293931933970335, -0.02207807835885024, 0.13627538361027988, -0.03599675653628666, -0.0664096642908609, 0.11238587496103716, 0.05116279590033509, 0.16413037071046033, 0.08938652638269226, 0.12890052560236065, -0.017974447796904082, 0.12564967881301722, 0.04622990449267416, -0.05886926764151601, 0.02121205312499157, 0.08901083884824257, 0.06383043502896096, 0.004754690424975885, -0.024956132552164854, -0.1707232145541631, 0.1425357662592381, 0.012767110078886718, 0.044503809855245866, 0.11168299773110198, 0.05821359707804196, -0.1679275677724187, 0.05926734691763242, 0.014828040590554292, 0.027179423351899035, 0.03380569671716991, -0.11642760933610777, 0.1478350150166643], [0.03567628181681847, 0.012642509130805842, 0.19370691365261528, -0.12890796564515897, 0.024529153858075, 0.054130998087553825, 0.062401464144796664, -0.0457459821743483, 0.07053484940900222, 0.027310387473264083, 0.1358366203715189, 0.0829359607836816, -0.022282309129433527, -0.10291671184966474, 0.010283413232001638, 0.12047105979514354, 0.019727520939836447, -0.04440838534737103, -0.1845196875468719, -0.06975820688316599, -0.17575017491814943, 0.03254181673554502, 0.08793539811933526, -0.15778063537627476, -0.04317556348710555, 0.02245051835260938, 0.08124829166410492, -0.061316923633220444, -0.114855021597324, -0.05723095392285421, 0.09841927192290131, -0.08171282985726613, 0.1262914866919565, 0.03056708479371957, 0.13604379691528512, -0.10280368542995029, 0.14499012478804055, 0.0721999655586118], [-0.07514743575378498, 0.11752432675370875, -0.08533662523687878, 0.04876133033733925, 0.04537028074815611, -0.040188725866543255, -0.04113465623041656, 0.1802422936099423, -0.040923947978607454, 0.10162800920215706, -0.03712013297676989, 0.07019896881481506, 0.13785325723853467, 0.10547765527629173, -0.12079684791939126, 0.04092821538394663, 0.09415605870409317, -0.12985714156798106, -0.06389042395114841, 0.12279941308516294, 0.087581041122672, 0.03298931766717276, 0.0673125929998269, 0.12016656355616041, -0.12038795406523092, 0.0973585408113118, 0.026830022593533995, 0.11064423659746155, 0.19553973434563912, -0.07127180161199452, -0.1087348869037936, -0.14569429215824298, 0.09381671289492263, -0.18762032748929527, 0.1197729061832852, 0.13798653260983285, -0.0320448725855476, 0.09283984311894568], [-0.08430450607974087, -0.09219407447495694, 0.04376982691620562, 0.004221580069844172, -0.16675792906049647, -0.1288525192499505, 0.161393893022909, -0.07142971502148684, 0.14552733131266624, 0.07193195491482858, -0.016331766789337978, -0.07682047502043654, -0.0918550933475095, -0.06697564291154207, -0.00181378471493939, 0.06177302082566222, -0.15558597557934414, 0.07937603630289737, -0.008578457740804193, -0.09463460079093687, -0.08618203812710327, 0.13249233869107074, -0.031798682748477705, 0.010735503503370707, -0.13147894198369836, 0.09704536864611842, -0.020046075283466615, 0.08667988215412535, 0.11135498600124065, -0.019021812032703485, -0.0815800649447808, -0.08627263846066208, 0.11842408444968831, 0.0754218332550662, 0.13583787341483386, 0.14667541957673247, -0.12895585456194644, -0.0998494440743406], [-0.0017199749019632562, 0.06473222443092465, -0.10892608393013493, -0.07714096384786559, -0.11918455265961875, 0.007051940327072118, 0.13543471548440375, -0.12266906085869794, -0.021492073148867384, 0.0559191742876798, 0.11211944247518463, 0.05649946700548775, 0.17867669795168795, -0.05240610327611697, 0.03296991231745404, -0.14869608689826244, -0.0934085578345599, -0.049397622653551375, 0.13783849416436597, -0.08116247174703456, -0.12679886015699462, -0.031664979100205146, -0.0613948005412847, 0.007795391236032401, -0.03326787418047265, 0.04293604834972229, -0.17665439045365391, -0.06122002078071858, 0.1313487160639005, -0.16097607579950754, 0.008265056219486389, -0.05950554777204082, 0.13100304308721872, 0.008324359352123497, -0.1574531339346453, -0.03681004695009633, -0.0657534359149553, 0.13132707225274215], [0.05389911686648689, 0.12967268669869556, 0.13757682085180914, -0.0373204613361088, -0.13763983387260384, 0.0023828748577983004, 0.0922367406182809, 0.14448751850300923, 0.10957724729927619, -0.12308613605277956, -0.03096417554145006, 0.20092400117407225, 0.01063367244082939, 0.16905694829164972, 0.16215143160198273, 0.08106310322582642, -0.04710025247935161, -0.07834433934772608, -0.13131943646006294, 0.0830403854317547, -0.1740942332024203, -0.05457145942728703, 0.04424062710775271, -0.14168408230520385, -0.06945056708090695, 0.0631267704926227, 0.0070323805298156085, 0.1410646187608084, 0.07971087199840653, -0.11594269323938279, 0.08805266121164078, -0.010069115596676973, 0.12067565719756033, -0.06341263767025214, -0.15811457386350108, 0.13591621619022232, 0.08650200895698035, 0.08327780899678658], [0.03689953118404266, 0.13905529274871498, 0.07504142086379219, 0.09994006701197687, -0.158697267790224, -0.06548801542541069, 0.03400514034325642, 0.11530850809410892, -0.005593752944627671, 0.0027053759204720643, 0.039769807667110184, 0.04639934323056892, 0.17366522428749842, -0.06870355576095315, 0.016463714573466043, -0.003421475711716607, -0.05410752009328848, 0.025246035366829837, -0.12607277746097345, 0.154116965937683, -0.060380710483451616, -0.012563814955172134, -0.06558718349016435, 0.100553943271936, 0.05597052934718292, -0.05682567856118413, -0.16922265815979734, 0.07727645726549827, -0.051638798126935836, 0.03492671366211201, -0.152147909427847, 0.01254612704620689, -0.04156595548973173, 0.07160245812407351, 0.06077618010631307, 0.017792148086237795, 0.1220566193544916, 0.007662909528194775], [-0.02005767419022643, 0.09208294320583127, -0.02019797782805709, 0.19146809691695732, 0.016814109434978484, -0.14461613096586295, -0.08677075355222452, -0.1158241368626722, -0.03832813611302958, -0.12065648924747203, -0.0524506503543179, -0.10413207363285092, 0.08948787598247453, -0.15263997346348826, 0.16942593939006959, -0.0847757883482106, -0.0770534097744939, -0.12242388309336913, -0.023413773496138126, -0.04922933510401277, -0.05688372137329605, -0.0935694347163587, -0.06236450772177248, -0.12852925219577446, -0.10556332798652303, 0.13869549042283386, 0.023088864815077773, 0.10456479354371377, -0.09030996186564341, -0.16755918034532064, 0.04086833341912344, 0.046300539373136995, -0.06751593403360286, 0.001691013691360096, -0.09313692318419772, 0.1172605721344626, 0.06037137097064689, -0.10892263054260129], [0.204164011812502, -0.11725877803384775, 0.08897176579631944, -0.10851129380229976, -0.1439858275340492, -0.10185180909721482, -0.1432228531115635, 0.14261126901332072, 0.15880777696610665, 0.1511752832393909, -0.036714553680693894, -0.037275182965408465, 0.009419728234715846, 0.17928611634250913, 0.004453436805454745, 0.012112003256349976, 0.10586106123253816, -0.0728896626054124, 0.017666071460277117, 0.09152599241319882, 0.12472370843546399, 0.07754634562515764, -0.10296325571458864, 0.005248663561049212, -0.111900710457278, 0.0852099183155776, -0.0015633231819595348, 0.0009283236049255109, -0.04752372544577576, 0.10745287544553936, 0.030924385174761378, -0.1552343443157424, 0.03644579072726954, -0.12573568781447164, -0.12140059721241182, 0.06397338304606251, -0.007444233686871856, -0.08842375163268514], [-0.11800436511264081, -0.0790981775673859, -0.1400332427611589, -0.06798458826068846, 0.11165123084695779, -0.04653533271427436, -0.05047701908621212, -0.002608600847988203, -0.08237386638610965, -0.14717538539364022, -0.10450725390630146, -0.06993975536469027, -0.0642942312353286, -0.12439457362265578, 0.08682066839629309, -0.169663971817558, -0.04211203643449097, 0.12015792362697632, -0.04599585946320188, 0.14718657060014204, 0.12540494515787, 0.17044904223744972, -0.024351717864418705, 0.08757281811185151, -0.1470296978285527, 0.11605720810769331, 0.13154142020957083, -0.14216516444179292, 0.049734501479560454, 0.11183087065437117, -0.09651239336571646, 0.09994109394401349, -0.0458707044721809, 0.09802982103063239, -0.07399693337218273, 0.032093059920231516, -0.09640584250594145, 0.15505678332153727], [-0.03206737658042933, -0.07301553575875064, -0.0007691425438962873, 0.08498115308931031, -0.04836289188991178, -0.04380878480883867, 0.08551500268101477, -0.12782693277324236, 0.1320540090976056, -0.00039075264961258417, 0.03523398101436714, 0.06429577571161327, -0.02576099038440985, 0.16387662908152972, 0.1798479804911712, -0.09572807054620901, 0.018085924902964057, 0.14686209613390558, 0.025424175029704826, -0.09288693860352805, -0.053586397426632564, 0.04360124668899003, -0.02871604792939785, -0.046999132212850674, -0.08497430124463566, -0.004547024693220267, -0.044776643667445465, 0.14777069415732574, -0.03485308180317598, -0.15748025674525612, 0.1337945522323872, 0.029629500880619455, -0.08319613389933278, 0.07809856856214381, -0.14363573960775788, 0.009650951584369289, -0.13263259957719264, 0.05874265020126696], [-0.07416891814579593, 0.02230076941808065, -0.013268744600330232, -0.047593473070657095, -0.038722776571641374, 0.02064580884749837, 0.13735577472799126, 0.08969107289410072, -0.07567112251515724, 0.13066955830383892, 0.10578444462139872, 0.190254531189154, 0.171717962262627, -0.12746032496124537, 0.07290482265438245, 0.048070373801921244, 0.0762644143005416, 0.13763370497563415, -0.0353619007644575, 0.11825479653073195, 0.026865423270505003, 0.1251709099288036, 0.06751471171594242, -0.15907218528058606, 0.16860152558480038, 0.14499058069280277, 0.01710161500660072, -0.1341002893404612, -0.07784387249243349, 0.12814108209350938, -0.13857055587130726, 0.04586099471337485, 0.015393894532239296, -0.15806561169184496, -0.13374888574186664, -0.0930779550705908, -0.10384764618809879, 0.04375960694396503], [-0.08306234528646848, 0.20961686708897465, -0.007302581484325313, 0.10522716713759055, -0.04047785556481339, 0.06282452442361747, 0.042659175542085204, -0.02689546662454122, -0.17800767082905272, 0.07758883182748755, 0.07155052293439043, 0.08097390113893409, -0.17450432808323268, -0.15528980379367674, -0.20325908258454017, 0.18558435108674187, 0.08111286182776554, -0.1736715103214239, -0.02414500809045619, -0.14975414471104787, 0.12970307241669157, -0.018792336188294678, 0.19590783413202478, 0.08315501429880844, -0.05353067738188605, 0.08655303642494919, -0.2152267189557345, 0.11770278339802033, 0.02240980439638541, -0.20760183053108072, -0.0953683042066613, 0.15730249974550153, 0.012438523791100506, -0.050577172932142395, 0.09055597018133821, -0.04637302196608455, -0.005377123887112217, -0.141914383691767], [-0.09506563797325827, 0.052945338400084606, -0.09546285382629141, 0.18190719732473684, -0.12835621594024738, -0.03216458206185524, 0.07143894764262369, -0.029656715989522617, 0.040607578775109676, 0.09591611605393757, -0.13919996642318305, 0.08421007342821452, -0.04179799794710915, -0.10828084971054906, -0.051355356495435794, -0.0019546800937917165, 0.06952439241152696, -0.21386458606460967, 0.18273152213125307, 0.08744108703360459, -0.005250757791852491, -0.007298613219888323, 0.13481115633771307, 0.11015968090556956, 0.07554979348597944, -0.0469504135872485, -0.25181453857515534, -0.024596706643098955, 0.041839897330479194, -0.1090488983674345, 0.0020796208135929325, 0.07457434090014056, -0.17755091678526586, -0.09799717757743161, -0.06778358995737697, 0.002860102117993166, 0.12732663479252262, -0.037927160008944624], [-0.08355311575167841, 0.08974242063306653, -0.007518410671831362, 0.09380738109741356, -0.21071188022728551, 0.16039430945148897, 0.2137585992731714, 0.2562467399238211, 0.08032799931785914, 0.22277758486531596, 0.002535571250420465, -0.14573387524609493, -0.25825940618334237, -0.17325980123091897, -0.18079750928167432, -0.03572748115024355, -0.05146225672493657, -0.24107706917590932, -0.0044394271477871125, 0.05663625374874241, 0.1917476913876503, -0.17757142419767644, 0.08525897283842704, 0.18339383209001278, 0.1411406256295381, 0.1487285685787676, -0.1605523944993074, 0.006554248288891977, 0.19475787696735344, -0.030344428557668557, 0.1865326401953892, 0.20150173606512245, -0.03654354506627603, -0.20529416220165242, 0.16819111874323817, -0.06207341795578308, -0.01408308958932119, -0.1344561927654161], [-0.13585322013784856, -0.00023081971557458456, -0.1922440615743315, 0.13341271405236832, -0.20889589379161902, 0.07218126676149272, -0.020662811692248366, 0.1046783112039517, 0.09590033575765565, 0.0289893198113885, -0.20301187545322974, -0.19989914191423694, -0.10938081893531167, 0.08001819199494199, -0.2089564866250377, -0.059725923988129086, 0.07166482069829676, 0.014955803507718801, 0.1307742680260585, -0.008718788933452945, -0.011675330302616251, -0.17597650552940022, 0.15081282931897838, 0.15111231602131014, 0.05056696821771702, -0.09949028702542065, -0.00646193414397619, 0.00562074864267513, 0.11907579671648327, -0.10187194173177479, 0.04678967019222703, 0.1378677243771976, 0.13308509609594293, 0.09343131418623159, 0.10908412953068436, -0.1047332102011704, 0.019740891690946387, -0.16934903188286943], [-0.47687213071561174, 0.0067370213787089055, -0.3014595821549539, 0.4843868234601452, -0.27584018931662413, 0.05283507710577606, 0.1383666002177109, 0.14799087229944438, 0.01676665873496475, 0.3046567104871321, -0.2537829434535155, -0.3334362394588287, -0.1869306891194538, -0.021561613390267454, -0.3112968263924433, 0.11085846556892838, 0.19820209958920218, -0.00883238926240383, 0.03193971019389919, -0.005100107248761508, 0.23701906261156938, -0.3032933247139844, 0.2657974821430726, 0.32851493574089724, -0.14596985381452152, 0.2654983588971108, -0.32307549952527914, -0.2433143595027652, 0.2772563628728249, -0.29803113677137366, 0.24289237581947196, 0.43454430599355526, 0.10439216396629757, -0.1288667038008896, 0.013546052693281524, -0.09975128237923941, -0.09491479903852529, -0.09985364899264962], [0.02117594547975625, -0.09949312766505379, 0.12324262702926898, -0.09304935474015681, 0.15854523638708926, -0.16147826376453592, -0.05532590628943826, -0.11312411313830023, -0.06952970462374619, -0.024537457200351262, -0.10914427289072338, 0.12567866884640377, 0.08406070265320055, 0.11825256722126608, 0.1785667507477232, -0.06686302655540884, -0.002278110349352217, -0.02278507057511519, -0.11002862165177399, 0.08336151344987769, -0.10183745924208588, -0.00829043341708133, -0.12881496509748894, -0.040361026068292116, 0.17740722663811112, 0.08172900774441853, -0.04723558745020689, -0.08548150065166535, 0.043186916113952256, 0.05601454651825146, -0.042914632225488324, -0.18734249350311244, -0.025730055830220287, -0.11143029062450309, 0.07287419155150199, 0.12140759459412992, -0.09118342967469598, 0.18082439054997884], [-0.07134448331394391, 0.1411050070197727, -0.02518230416717544, -0.13502176688753564, -0.10898276786914088, -0.14231632145698048, 0.15025891962182777, 0.11882668482184353, 0.0321119394131213, 0.07383041747315423, 0.06895715346877108, 0.09277457984073105, 0.013203288922699011, -0.0976271816044676, 0.0072062419302450454, 0.05039116520811615, 0.09211845894857289, -0.05695570640219854, -0.109439340928593, 0.1203224571780705, 0.08303536878723572, -0.05401726053630593, 0.1350542498603694, -0.07238282500939724, -0.1383571839489249, -0.13620061216461177, 0.007969182577370604, -0.08228767113292108, -0.03105711629197518, -0.14649944997961722, -0.10807132587657939, 0.09995583488888517, -0.1296654520801765, -0.02113687289585997, 0.1574177519954253, 0.10734560767002646, -0.14704556679210323, 0.09949053128488858], [0.1256795489133904, -0.004470031746788329, -0.08528500383561392, 0.006488029457763493, 0.21472902993224197, 0.07445121144388767, -0.05369140227492341, 0.013381131015476527, 0.1774372654821971, -0.13743593265712695, 0.08178702025925975, 0.16138381363401857, 0.05608807103772744, 0.019627350357174184, -0.0662509667146165, 0.0992994409436204, 0.005063096298800057, 0.004603044335719931, -0.0914067275667578, 0.024431740018585064, 0.08762098392254083, -0.06320508304842645, 0.1408681080869986, 0.04526619559335582, 0.18963974787496496, -0.06559314047973697, -0.0890124641715943, -0.05986942889617596, -0.12069485056527741, 0.03602709510004378, 0.11533688009327661, -0.13570297180683666, 0.01610192523537276, 0.08361078184824959, 0.03861243248225213, 0.05812494715214599, -0.029500470164159975, 0.10985683091511696], [-0.2670226111587889, 0.14851381539538674, -0.15948524374386613, 0.038088186471182915, -0.18032599040319966, -0.025817137306847548, 0.07532191959818822, 0.10413901499474786, -0.04560462716947086, 0.11309150808540884, 0.0401056258910232, -0.16187659429131684, -0.17544877429530228, -0.1571109700976535, -0.0736882299586335, 0.07571118089740464, 0.02013772156213315, -0.009834030165286868, 0.06282383477187668, 0.13389277053920834, -0.01034866985739806, -0.15742385115873372, 0.06937994347165789, 0.19522275270828782, 0.006346394296737444, -0.017914932999914635, -0.06116684213977694, -0.09838877271152316, 0.1676446520340354, 0.027420798233062402, -0.12107799070555125, 0.18816803433105683, -0.11408815393821946, -0.028490874686512395, -0.07322443393321183, 0.04294702033041249, 0.03569382451768446, 0.04759107490387233], [-0.03006151521831564, -0.05639020119390895, 0.022734016614295825, -0.05346212140334429, -0.020781276227168726, -0.026361268956268058, -0.1301388292594561, -0.003944086782991124, -0.12063024935350745, -0.05764883311016842, 0.09048097560717988, 0.05353623368744079, -0.08886835501920023, -0.005235771156352445, 0.18604848779931488, 0.06551402442818079, -0.11884835032819617, -0.19453774951192984, 0.0594197385285889, 0.22083949605303838, 0.10838668865062062, 0.09373939887060939, 0.0650774297012049, 0.048168581703072734, 0.07811990276554244, 0.08189908275941213, -0.011595919654346315, 0.1672292696208663, 0.11171798068013174, -0.13825036323370188, -0.15013674745408784, -0.19216338381440146, 0.0007846984655885372, -0.044265327814471137, -0.09353642569527205, 0.19704120172897163, 0.10827499807145313, -0.11073704442782585], [0.06127447979356936, 0.0382222511874455, 0.2461272515263969, -0.152525775722386, 0.19596372137358037, -0.04906787549802672, -0.029207712344643574, -0.2012604318312418, 0.08146098217160258, -0.19083234093648788, -0.04490864583677719, 0.15228089304557949, 0.23396382828369705, 0.17750798144008972, 0.05065225317027793, -0.14494491361405662, -0.045106709922179695, 0.14570445634339288, -0.13456371277579787, -0.04273807391530106, -0.020206684082393973, 0.28024829001881996, -0.05512701004711455, -0.17057155241212738, 0.17406384930518823, 0.006859196557914482, -0.046850512729615025, -0.04978571354047074, -0.10631713777353434, -0.00257058620945691, -0.055218027982957024, -0.1968386570467882, 0.010361827817313363, 0.13358042647100948, 0.06626173602812929, 0.1745521374854039, 0.024197973877321963, 0.08511755425076643], [-0.00987598504782417, -0.0006152533242296561, -0.1852731752055511, 0.20009060060456188, -0.16395885216841985, -0.13681661077753143, 0.2655913765700394, 0.29442530163454944, -0.03123152742263204, 0.22810492871905813, -0.13933570362069048, -0.12055993391394806, -0.16774157838798484, -0.12303409105253746, -0.17004205823809646, 0.09500040159006508, 0.21585282175758613, -0.2638957446746239, -0.050783467802717454, 0.05950879963211114, 0.09333684689115394, -0.23025231591370093, 0.10495165522983765, 0.03233476917924066, 0.10764836738198574, 0.02907819259295728, -0.14428403547408894, 0.01620396679738991, 0.0674859980000365, -0.13253559106268878, 0.03959334324239538, 0.15395675317507354, -0.05750253113935022, -0.037738056732253986, -0.05482268665482395, 0.1273053916087734, -0.053301875338054736, 0.10193648336562994], [0.16735519714010044, -0.08604820893596031, 0.1373270950586589, -0.008950505410389399, 0.16638143757259027, 0.008517922207569402, -0.06106258489892659, 0.09033725354189888, 0.04428831936082229, -0.01756516299862764, 0.040695678216856414, -0.05528018624722335, 0.09366845506548872, -0.11029585091523245, -0.0992198700845417, 0.12850878070856733, 0.11311344429395094, 0.055482849960804395, -0.11901516551198907, -0.04432067334119723, -0.0628127098943799, 0.13559360157867792, -0.020944727278838237, -0.07983842864162671, 0.16676673084816965, 0.13815184891645368, -0.021709820514647985, 0.08853692042144558, -0.09155419955387317, 0.03548594650969189, 0.06562413562190962, 0.10653344627670519, -0.09522916846667774, -0.043177872008825786, 0.07148950442529212, -0.06475131928879875, -0.15496243929652875, 0.040471366803331854], [-0.3388187589361847, 0.12661195844977374, 0.02469540100224779, 0.25021332652985834, -0.1183871697885718, 0.10025283209006644, 0.27409725035314986, 0.1674305771486709, 0.0675621374442999, 0.20672409122011662, -0.02498794360353575, -0.18689353776159615, -0.2931168145225458, -0.029419446463412945, -0.2405306842540178, 0.023241427853107382, 0.13549373941256196, -0.028532658444079654, 0.20630065068426837, -0.0020256736188134037, 0.183507105426164, -0.19448699596373598, 0.07403451406598716, 0.29133050976427977, 0.16841171334137034, 0.1933407336440422, 0.037532511520088026, -0.14700873587510604, 0.06214367184785631, 0.05252524925495029, 0.017289586543848035, 0.3612467136175962, -0.06297858883513119, -0.12119214437991108, 0.16459683350029383, -0.04430907954110313, 0.16078072004777136, -0.0003282627655974154], [-0.0858788905255739, -0.03175072603616017, -0.17576870953782991, 0.3115199129155141, -0.08738060469079242, 0.11886223066738602, 0.324878085369553, 0.2774043115118897, 0.03633146274001088, 0.253794141593001, -0.19603679016102182, -0.17243072033286286, -0.2558617913143693, -0.07271511663487706, -0.19576793363811382, 0.18011165112211627, 0.16423713362912606, -0.06354474044190586, 0.1740624565999524, 0.06826398568846863, 0.042146875474339845, 0.01925699478250846, 0.014332553722966213, 0.0835367282245884, -0.10390017936210816, 0.09739691912386507, -0.03841171581892583, -0.22790083405543693, 0.15645370163250666, -0.18341269153740009, -0.14995456163121582, -0.014835909297403343, -0.07465070143055073, -0.1659312819693763, -0.09681270138570265, -0.04744492776744041, 0.07181042079663151, -0.18097996362250535], [0.1750907533212853, 0.04797594831565529, 0.0968551110927623, -0.1644828432809811, 0.06291856576224714, 0.06759633552485939, -0.2160205858646108, 0.03059389782273768, -0.04275046506074257, -0.1032789030973948, 0.06002092165607928, -0.01709235465121595, 0.08232924699431635, 0.05300296031978255, -0.014250921831204202, -0.12197797013046971, -0.2013984486106762, -0.13419578191215611, -0.05071458330744865, -0.10458235335478465, -0.004176307124670864, 0.006463799054405076, -0.026845779245780858, -0.009881155666303126, -0.03138996066873358, 0.07963012867926984, 0.058376908509382874, -0.12247672244108956, -0.006027081730278458, 0.1551781898120745, -0.09842727632341039, -0.18178006938922717, 0.1411337743591889, -0.03533402758340415, -0.1759140833477482, -0.13500504379950137, -0.15182685715072772, 0.059817139237267794], [-0.053706754314510205, -0.04835112222588306, 0.17221886596424477, 0.07516637654204687, 0.00496954073156318, -0.11640507531965315, -0.11803543083127134, -0.06992974535376283, 0.009673501775066902, -0.1363814697741613, -0.0664948065734173, 0.1039211793228473, 0.011388187616753294, -0.10633914271266166, 0.08545239111952313, 0.1189579710257844, -0.1655652871428346, 0.06472406758144982, -0.0020844145122944574, -0.052711312715263525, 0.04822010891580032, 0.21742794090781964, 0.10168287799001054, -0.12390288317274603, 0.15150676532826376, -0.018718320109510807, 0.2102328481572249, 0.1382724898655556, 0.019518003656066384, -0.06414448194230711, -0.17676529750066597, 0.07605390997181644, -0.0610019433931711, 0.06662909092835259, 0.03403478963706397, 0.08649295234726621, 0.11215900437246872, -0.026381679626649526], [0.21107275137488718, -0.16292687297472, 0.1553515378774021, -0.12100207701210659, 0.10983799756547173, 0.13864373128312096, 0.03941845484738006, -0.005522512064592296, -0.0447351574519522, 0.07521179243094117, 0.08599934702059285, 0.01933992142861497, 0.18631387858114687, 0.1701962148039127, 0.09966018929003208, -0.05717299391119151, 0.021949965154701257, -0.05662591159225525, -0.19491650916696596, 0.004450154178728768, -0.06707512940374927, -0.029537899000440525, -0.09089999761747036, -0.010878636265456406, -0.04097163939012917, -0.11281323101062216, -0.07981399480126282, -0.12283401315420632, 0.0924930913111951, 0.01843677215290087, -0.17713962591220292, -0.06617526011758636, -0.0725362229363574, 0.15630283266245815, 0.13022816811145324, -0.011640757682817906, 0.14035288956542002, 0.1168768811018515], [0.23164619994278332, -0.19607791208195147, 0.17024725585296926, -0.08772988333164779, 0.05878717310870783, 0.14485196176666373, 0.026004874276628384, -0.21150058947833644, -0.08676661139057994, -0.0806858219905906, -0.04030748649795569, 0.02348045727632457, -0.0860582617344598, 0.04081208554111069, -0.04401885329840877, -0.10633590295913019, -0.036543166097935315, 0.06280109939238362, -0.09794512168812122, 0.14301186621987072, -0.11043346298097753, 0.17962672349606812, -0.05442935859695717, -0.18815413356991478, 0.0004373400546770749, -0.13574099488535257, 0.14015160487449826, 0.18805808113543399, -0.1074690318508082, -0.014476753194799859, -0.09083604375395381, -0.16552035755633754, -0.0750659584340674, 0.19340929450337793, 0.13172290726344787, 0.11344724386720627, 0.08023686770422395, -0.017274437178324924], [0.19854473643124798, -0.058848655494828074, 0.05812031116114771, -0.1482504363900099, 0.18496127810227014, -0.06306248911919396, -0.01807944169550809, -0.2612462841369585, 0.04595725630372931, 0.02415041469090161, 0.15987538927364472, 0.029597069004115822, 0.16398803661827688, 0.0677268480894032, 0.12267882870365701, -0.1783667578805497, -0.01152810489194723, 0.20018390380785023, -0.206366158522835, 0.05847345179812977, -0.010255680282158838, 0.19335567994413036, -0.12940043727945189, -0.0603810052383048, -0.11158410729833472, -0.1433478877572098, 0.2697646812578832, -0.07663243773957142, -0.03527364336643933, -0.04023429552417509, -0.05479177839646227, -0.09031868135446908, -0.11058577539300977, 0.017484718507235143, 0.12129861959611356, 0.08963231669529696, -0.009916869929775023, 0.06110078562998851], [-0.012000005482098439, -0.10003422799697602, -0.021290183038624347, 0.1123260548341905, 0.062386681760107116, 0.14317936863419997, 0.08489890766894945, 0.20441897211914828, 0.00035828371027216317, -0.031422809522710794, 0.05399782717447328, 0.05408527007776383, -0.0651726021157813, -0.07185499028191494, -0.14918602254197041, 0.055000863070937774, -0.09802097051276516, 0.04886514220931025, -0.13227731446315585, 0.1578382627754162, 0.002416549833920639, -0.13367699032018693, -0.042805252882378395, -0.03057547767798711, 0.13401968067810877, 0.10801780577742058, -0.1490063055454752, -0.070099723288475, 0.02380083229300251, 0.043353726275205194, 0.1325748998985555, 0.17258011774595416, -0.03336121279747137, 0.007123685907339667, -0.02541360056322747, -0.0557190024018055, 0.06469072719891916, 0.024714627678703527], [0.08424238031107675, 0.0646966860212932, 0.12994132057618923, 0.16697796871073625, 0.05295020619087481, -0.05938443747116302, 0.12749826930161443, 0.13155204316902094, 0.02515477957597012, 0.1286537973084012, -0.05716610206910773, -0.015526431206917577, 0.12323633108172037, -0.09602378706121618, 0.09767965590924439, 0.0013921907672681186, -0.030275571297883195, -0.04218121774822792, 0.011427336435172604, 0.029961180036077457, 0.0707348796181459, 0.012831969795391834, 0.08561026548925196, -0.08771855977026216, -0.06592575838999648, 0.061448067412157845, -0.03281644493069481, 0.01794646049179378, 0.0239536219870238, -0.1550321605406067, -0.08306477088734174, 0.13404728521168713, 0.0930551579935252, -0.01220680938348026, 0.05654778670089729, 0.0995647330511646, -0.049313453061891305, -0.13399932902411638], [0.07702180490461158, -0.09758416200628016, 0.0005884447442020038, 0.13858350290889104, -0.07754929984660619, 0.07727383575898143, -0.10798408257895752, 0.10242006977978226, 0.022021522846280717, -0.016826137812938086, 0.09523579428335767, -0.15103382517597555, -0.158532914988603, 0.04545775110017055, 0.07414059242629448, 0.07566922044863736, 0.16974405608968182, 0.11484132825912412, 0.12926884923912055, -0.06589483761958027, -0.14221082880428468, -0.0947346842796038, -0.014772178028723541, -0.09490086334420825, -0.020155631606222812, -0.011426901376284628, -0.010611142334485082, 0.06570329340339313, -0.14818302611114012, 0.024868734706530282, -0.07896255675966693, -0.01802965559506242, 0.08633388440247068, 0.026943387087844002, 0.10380041972306818, -0.13070942917827533, -0.015382021097285925, 0.1216558060994348], [-0.03683312556106411, -0.035270443920681, 0.02938465224656969, 0.11769693178762342, 0.17518156714702568, 0.1447184825344306, 0.11628528906067896, 0.06963781062457873, 0.06028704635064893, -0.09574530189754843, 0.015913883579948437, -0.0869363838269586, 0.08281185427860757, -0.10454837705818641, 0.09927144084223548, -0.08380537198491386, -0.10620188038052364, 0.10419563248766137, -0.0192022291904936, 0.09526265217416484, -0.15694873674992516, 0.10841785687676428, 0.014562471839255239, 0.12512722835835458, -0.1325961819429614, 0.07718124742033813, 0.0031438917253544915, 0.05329646490185531, -0.1049639113169355, -0.04486616738814393, 0.15764036948561017, -0.07618561273019273, 0.06430585902340301, -0.027004953861913445, -0.16003292660907684, 0.014162567272525864, -0.1526874734106053, 0.17111066268889172], [-0.06740642383717307, 0.08269994187909623, -0.11108506995952841, 0.045750987504297354, 0.146154015917599, -0.021167696484823136, 0.1457699126565478, -0.07054166337618553, 0.05556645615728974, -0.08305577588574427, -0.10528492854108831, 0.16270953900665833, 0.07942912538637815, -0.021524619452275684, 0.037116024897768794, 0.0769528591980908, 0.04011084319397936, 0.07269955402394686, 0.0006792271762039622, -0.12138010918493727, -0.08437206602294182, 0.052531229100152114, -0.10389227539257898, -0.021431486648467262, 0.13962362798018835, -0.08401790357126125, 0.1414592073826832, -0.05719676850159394, 0.01577155660094626, 0.1000809756333175, 0.15147057029670055, -0.04791944572782512, 0.055014264408858975, -0.04205127366915273, -0.023219056033120102, -0.0490366871681446, 0.012866124712962059, 0.12493058558659778], [0.04052227142947345, 0.18937998755740656, 0.09809493906447463, 0.10210721987254683, -0.05581482528329209, -0.06046057987615725, -0.011049496270055, -0.09602475816144755, -0.15378089997618677, -0.08279105860875713, -0.11599177811961742, -0.017209258824496896, -0.06880213112828128, -0.08551992287874573, -0.18431945986270712, 0.12153883615779945, 0.05536668221073134, -0.11039275296833735, 0.1339355031444441, -0.012800813448170864, -0.005823806417604359, -0.1404006313863047, 0.01309065432700501, 0.07699427319948994, 0.1169206833075943, -0.01062878292932385, -0.12002472621616049, -0.08838552111426308, -0.07427640500186589, 0.11607623782514277, -0.08600146915553884, 0.0916776018550567, -0.15646920228621042, 0.09081128103044117, 0.0021368832537147406, -0.15432385118843714, 0.02598191621064263, 0.021421263119562085], [0.1926725715519966, -0.15089083134794282, -0.023777936310614256, -0.1867554893604267, 0.13842888221152572, -0.14737769547880844, -0.05215936115814312, 0.08116339592606056, 0.10897684315198267, 0.0026322380641295444, 0.007439215727831981, -0.06635472878245843, -0.05899061582089682, -0.06021537984359325, -0.05878438077351992, -0.1869811318593414, -0.11836229833136931, 0.1421184993059515, 0.0016632723899751038, -0.1078599230799673, 0.005074759110037222, 0.1217131841673012, -0.05063684540130822, -0.08681100142282644, -0.07089658958527284, 0.07015253576981273, 0.014979372707270044, -0.02578191687928986, 0.041273461456421065, 0.12508929198741664, -0.10804416317610153, -0.03751968928485251, -0.09739973774442211, -0.11563487710664413, -0.1258559072195834, -0.1024132538234613, 0.14561851404376794, 0.051979827795925276], [-0.039616532928535904, -0.06553804014146389, -0.12463779947079008, 0.14283792550614763, 0.04157510433544663, -0.1359998920897728, -0.12099625587751435, -0.09640964516911144, -0.1581944417985658, 0.17282604073284766, 0.0550300966144577, -0.08668674894038579, -0.12825349665627342, -0.13082871450745684, -0.03598807444992054, -0.004469221770923356, 0.007826657767784989, 0.07926007799320138, -0.15478414793267462, -0.11973880550854882, -0.018044413092828178, 0.028068459795454036, -0.04367305732693916, -0.031213120618089875, -0.05769916531090388, -0.004812248658174807, -0.08940501707021649, 0.12923304648049083, -0.00645484090216281, -0.026826790433447743, 0.1673157515414421, 0.120244107826582, 0.08895238924747251, -0.12417638453304942, -0.06233043673777539, 0.06367534893597795, -0.12896486652712955, 0.13067534893904617], [0.17048012190420525, 0.13379290210124725, -0.10474521632931917, -0.08077358446773535, 0.07942405629976672, 0.13600644974099818, 0.00888058380953483, -0.05603405994975488, 0.09327599017379608, -0.10828547278701642, 0.03585874328762535, 0.12272550480726352, 0.09568816340782954, 0.0927933242214895, 0.12622682183251652, -0.13128134128473182, 0.00815998644548153, -0.09861760220537907, 0.0787808701131246, -0.07695042969474603, -0.14233783801583177, 0.09564142174263479, -0.015526024649169396, -0.034405861485025176, 0.17126317230518462, -0.14293058728588975, -0.03416609862831791, -0.08738887312974515, 0.07576375817192198, 0.14475280804045804, -0.03727738700764061, -0.1726386010075458, 0.10996730279033361, 0.12978161285481915, -0.1565015810018945, -0.10474196883607532, -0.09859320633920354, 0.14485359226434152], [-0.10331632256246007, -0.04800786276725621, -0.07068485753278657, -0.03605313788401937, 0.02384570296465663, -0.10064403927387577, -0.1489514233096929, -0.1237870868526597, -0.0998563178102576, -0.11375629137889132, 0.1767744133808681, -0.018109097368893518, -0.04122095058928073, 0.16725650006636852, 0.10882080012938994, -0.10578387668857948, -0.1279879425877517, -0.0740761459664742, -0.07523466398113535, -0.11970513818847783, 0.11970593155526878, 0.0035303873328510374, 0.07003705622880439, -0.005266207509417562, 0.16257494238993217, -0.17482612411894316, 0.06319425854471615, 0.09631256123722252, -0.17388892588892552, -0.09507949393606469, -0.10954729727277135, -0.05126936070817019, 0.07443090119848628, 0.08376568391741501, -0.10989767562701666, -0.10403280897864571, 0.035303856687445, 0.17026429645344665], [0.16469483924526737, -0.004151847538060248, 0.03409844061982629, -0.09501104411521642, 0.24293953905380122, -0.06736761737984906, -0.2225735179150551, -0.2074024237713908, 0.04685329811691225, -0.13509475159349368, -0.10543058910213127, -0.04830340645870029, 0.2789392784740365, -0.08496128525770001, 0.3520286953566883, -0.1167441218781416, -0.2267537117187247, 0.08842508406171803, -0.11257691536381245, 0.06411196173984811, -0.16521316693503219, 0.28182659832027424, -0.04835945911272344, -0.15166590249691964, 0.13350204748349684, -0.14046623269133854, 0.008542660849547233, 0.03389900235989249, -0.10587057835649112, -0.07064010934452217, -0.20902097262955896, -0.19088155284753877, 0.12376054217136519, -0.03737377601607934, -0.028246731239815807, -0.100423293086199, -0.10983108345499368, 0.20442533794464016], [0.23224604058653062, -0.23400594405487996, 0.1838495620909978, -0.3659488205857139, 0.24343452619360506, -0.16149769308416528, -0.18588685090841148, -0.31001083263157325, 0.1308695930667341, -0.1594584368733564, 0.032745570809921354, 0.13672092212097206, 0.30610940938336, 0.19169106222369084, 0.35397407679422155, -0.11797626974962236, -0.2617928560536497, -0.01830786065757805, 0.06831901114904122, 0.12957028885528327, 0.010106961912744914, 0.07307307881689913, 0.09634897991598868, -0.10591193495620506, -0.0021220773855419534, 0.06041537050393488, 0.03265468828005676, 0.08722957907272223, -0.08153495594642572, 0.23553103050332455, -0.016734359512628756, -0.31567283665469487, 0.024099943074152697, 0.02565114394907098, -0.15884894381984235, 0.13800244568883355, 0.11447362615080994, 0.1995726224777043], [0.26745157505821343, -0.21247100657733178, 0.04540700754484209, -0.2561132126698483, 0.03025327705905259, -0.13779150534479445, -0.13648313219640307, -0.27832080079589105, 0.18644927171829107, -0.20570042940581276, -0.030386694812874242, 0.0005616072992834474, 0.1722966699584577, 0.14650555224750889, 0.07455005090085982, -0.09696246038547972, -0.05672114860744482, 0.19380110020957067, -0.04653780085939046, 0.12534881056619462, -0.0451065400211544, 0.0465596912509467, -0.02179990153442403, -0.29455820740673194, 0.14987509302792784, 0.02594739063198847, 0.15440060637562228, -0.011859339681874996, -0.12890228124576597, 0.29924134135982805, 0.06423256328332838, -0.1736517688569599, 0.09299013711505122, 0.24857483473264547, 0.13187737326315377, 0.1105477166596101, 0.10218674069493991, 0.1230833653703438], [0.1232048441454377, -0.10119683449811964, 0.17241745076891016, -0.1650268038812804, 0.009019999074410963, 0.06058903059893799, -0.06285975958900662, -0.16148212443667953, 0.06282830719750214, -0.24264942919279525, 0.0956152332616592, 0.14187475102125033, 0.13676236409120532, -0.12149351910351783, 0.24405565483013983, -0.12139352673182356, 0.0333362359930655, 0.17296383881468844, -0.23132969171188317, 0.07921839077032376, -0.21878875904985082, 0.014746784233979994, -0.2071214683810018, -0.2462600398172712, -0.0013902566514021552, -0.21711153161983965, 0.23529129110538197, 0.11506150463206587, -0.19558090207670872, 0.3019732616249941, 0.1185934447248179, 0.02720191387400127, 0.1296609608318308, 0.20930873419533993, 0.09619226945267235, 0.03233269074023427, -0.06692211311773685, -0.034653870042008775], [0.36091219732228, -0.19687378196629332, 0.2378597762182979, -0.4119576601551287, 0.1381227354856213, 0.08740959642211263, -0.4325955709439545, -0.31912110326057896, 0.238276908080831, -0.44335192821064795, 0.06617297080749428, 0.11424493798868941, 0.309573203374592, 0.04507145177531371, 0.18563625529661096, -0.15383734211560313, -0.04547132988440741, 0.35086280163774675, -0.03223482425684473, -0.04154720348221324, -0.20348783138549048, 0.17993674066567772, -0.32613545232763963, -0.23034184836636973, 0.08348239594507927, -0.13855070805912034, 0.27526526200788526, 0.25565271813210433, -0.27871662810392556, 0.2628401909578662, -0.17022783788253198, -0.32886724197731537, 0.19624562292572914, 0.18373030191925668, -0.0009259296223564109, -0.0908804314751565, -0.16262180267505377, -0.01667911460637223], [-0.18771062679055409, 0.15121169017747263, -0.05918726380883383, 0.07310461886011277, -0.16469560320616305, 0.01042004455124989, 0.05306612415860124, 0.22904913526921472, -0.10388965402923005, 0.2681558202844099, -0.02226908951156848, -0.06254012885512776, -0.050304062565374535, -0.200183517182714, -0.19004241258772492, 0.1386613729234799, -0.003569462297658328, -0.12522025658173974, 0.16016754343418166, -0.017319635894829804, 0.029973906124071248, -0.021807295433314756, 0.15277624716395055, 0.19370834836354983, 0.1412880540822292, 0.001249613835489317, -0.08655679529678119, -0.20329772218110545, 0.05326491161938048, -0.19828670670220608, 0.03311575212427563, 0.229992958345774, -0.005762480673426898, -0.08740720627931058, -0.17596913991625854, 0.13232647240206227, -0.17488106324421868, -0.09391986461647159], [-0.07484283066576373, 0.05171792783998894, 0.10712377539872671, 0.02773150237009096, 0.0056844891606766135, 0.17694501237953744, -0.030592786296320756, -0.0463399242087456, -0.029498223244171815, 0.015729718699099615, -0.03268934663994924, -0.12230257889481305, -0.24796196914982052, -0.06141780309511478, -0.030969798150391442, 0.10382021140968989, 0.13726402057044174, -0.12989002164341035, -0.011732240535038269, 0.18953647189928463, 0.09877600038489169, -0.10153720651562421, 0.19146851951238605, 0.12672524984712655, 0.1531896792072338, 0.09148829531404382, -0.050531869212515755, 0.04647597136454931, 0.0038691709890206656, -0.18234480813791262, -0.09390916736428666, 0.07029788043116048, 0.08538488081140079, -0.10051883591269573, -0.07860171352717342, 0.1655213607997899, 0.035949198857081116, -0.09281506374820779], [-0.11505389686985651, 0.18343365695466587, -0.08117725055725682, 0.006381692316407628, 0.0008389532745945699, 0.05162862493705027, 0.09233407266039093, 0.16282390550195558, -0.19260334510124819, 0.2506484653315738, 0.11818392235437324, 0.018883238278207943, -0.0890760552046774, -0.0007314594897875978, -0.16216122408309006, 0.036817631599791914, -0.01124758927091602, -0.040398355609572355, -0.13428708782609955, 0.11444653403280315, 0.17016092000183308, -0.09089794141483946, -0.022754118111544576, -0.06929827412474836, 0.006212657747470277, -0.057923214688916105, -0.022402164302472386, 0.10537063959371383, 0.17793753411549457, 0.02075479660667497, 0.015358509107344145, 0.037863972755686495, -0.16156660721184327, -0.15679169163528348, -0.008631652289154485, -0.10617584267453331, -0.05250596095361145, 0.10611262682107911], [0.023513882886168493, -0.11518628415557754, -0.060189938998378656, -0.20506156074429127, -0.06839868508029863, -0.1609308716385166, -0.23040481231902607, -0.12751026858107264, 0.09479549335610443, -0.1811329016510116, 0.1767084413785569, 0.05431879767298913, 0.11158474971665984, 0.12932047651285028, -0.022599218684958317, 0.11072431077162558, -0.09270040473522324, -0.05174747152412555, -0.20699966180675514, 0.029803768359813788, -0.08961538622259049, 0.10116281734405454, -0.1075553127016189, -0.10272760300409946, 0.09670358424577066, 0.02997255393595884, 0.10363043324126449, 0.14270184201380537, 0.013228593646589147, 0.15415846207732944, -0.06730224060302158, -0.04724781121760628, -0.012873872005161742, -0.009144886175308465, -0.07246693153515306, 0.13439730006386752, -0.06714164916109289, 0.07660117682335638], [-0.07965950708304821, 0.008517023477239202, 0.07942377107467438, -0.06605255119011297, 0.0743166638484244, 0.16622163926961164, 0.11802969439546591, 0.12519879128919256, -0.029348188171824205, 0.040346456950457486, -0.02417561298407611, 0.06302216650904487, -0.07225030828884715, 0.06632561712178378, 0.12827880831071198, 0.0773817893417073, 0.08386106246977533, 0.01986323926926688, 0.10926938476527995, 0.10616031069129969, 0.03974083480924008, 0.09560930549741195, 0.24171882458278085, -0.06663565989812154, -0.08022432318805539, -0.054138914559709685, -0.13076068355593118, 0.11715442729062095, 0.1440233934058056, -0.18866455525885303, -0.15634699463554602, -0.041031664559309414, -0.005379828630853825, -0.061621075209395, -0.05838296714121858, 0.1771914667075316, -0.17130787758727894, 0.004560619439768325], [-0.13153779823514886, 0.04310347606030388, -0.13608260869748623, 0.22065431464313662, -0.003915082895140748, -0.13230438926189853, 0.024566299788554718, 0.013065432231758217, -0.14571488595994342, 0.08042104000466614, -0.1571637305386368, -0.007727081414103578, -0.10496837059885712, 0.08932318746744292, -0.19832783195098355, 0.08646533013912136, 0.07182290752848036, -0.06082935316569116, 0.18849011579843383, 0.16254016303544574, 0.19168396053723838, -0.06016707237602053, 0.05259224468225788, 0.2405273906240272, -0.0014082855493287474, -0.09848339658023823, -0.09354653426852072, 0.07467557105412419, 0.1486907156468984, -0.014908202222825743, 0.08627517311156783, 0.11471608304061451, -0.059697364783576685, -0.14252353848861207, 0.003855308654260284, 0.18467616274137047, -0.07380258789379299, 0.06110424056743208], [0.205051719555753, -0.10033835531203548, -0.015744838285281143, -0.1490131647129942, -0.03233137693545773, -0.06671369386332836, -0.14675561199943293, -0.01960851349401471, 0.06159227923063155, -0.09651045985713665, 0.0825669026453616, 0.10241591954767999, -0.0005072266059096601, 0.1973015300725957, 0.07266752666270122, -0.22687824407640847, -0.21214897295959334, 0.009606310071192985, 0.016512770314027918, 0.21081294577849802, -0.07222245238193116, 0.123012858409138, -0.1502526441559408, -0.013867499669087383, -0.036861869633178945, -0.20310276122775683, 0.09911980574181367, -0.11162712357033336, -0.20281579358784826, -0.06550049302262063, 0.007337100531887625, -0.23428575028769696, 0.13097044169950425, 0.09651130856942569, -0.17599995551650327, -0.14406114008860002, 0.15941820937097956, 0.14565713658490168], [-0.1293509605335976, -0.05255416554618065, 0.06920043101383497, 0.14274554804460038, -0.06741785100574348, -0.013674940217169198, 0.1947008772669228, 0.030048446229304887, -0.1726547773934436, 0.0222276305729208, -0.0022498261717499596, -0.19809455527437994, -0.027897087100118883, -0.029404317997844463, 0.04891777570862446, 0.1351678279877657, 0.06564055078915569, 0.005075520651740837, 0.006764473874789887, 0.037228094947020375, -0.12533305401728043, -0.05583622723369788, 0.056252289252313036, 0.1612226945451668, 0.14511085911729998, -0.09752710642999035, 0.026547744311943282, -0.04950357325323365, -0.09597740705990546, -0.08325643939736119, 0.15717678937830717, 0.169785813592372, -0.09267662847109466, 0.12853836584031153, 0.06592892286018008, 0.02855927293884754, 0.0983251058977795, -0.0035233958258128585], [-0.019104927864593592, -0.09914805115300745, -0.09302514630518172, -0.09174720393589152, -0.04001441413180609, -0.04714439244451592, -0.07107540598264538, -0.09096510500137613, 0.10504278448487137, -0.18588281329711667, 0.1984158857989946, -0.03888732114192938, 0.13235674972169167, 0.12852235610261953, 0.1667743034469507, -0.02706467288827281, 0.01897315061280119, 0.19498775049592765, -0.04516729737204236, 0.1525355306605348, 0.023990190946688642, 0.07335878794916538, 0.04469770396624078, -0.05260083788403496, 0.06147071860049231, -0.1857925513516434, 0.17332091085933138, -0.1309151677874645, -0.22792524239535653, 0.21600985392643882, -0.07281924611285577, -0.06660164849851957, 0.09287087068599167, 0.1492835372113535, -0.01012478916272722, -0.15098393545997016, 0.036640822917578135, -0.09150825701816219], [0.18606210830240733, 0.10852381493521128, -0.051979301180776045, -0.20973619128073503, 0.2290404210494184, 0.10717968990671695, -0.20817114682369575, -0.09661135868122918, 0.13197722982743568, 0.02360948410704828, 0.16564896578582256, 0.1766595598974941, 0.11870122507164678, 0.14176630666597612, -0.0434148480617271, -0.19051384845870253, 0.10422698398659024, -0.023920718550569917, 0.07366680148801824, 0.05149092877511773, -0.17217149901759193, -0.05953942384537645, -0.06226957138442168, -0.21936203579615143, 0.10768907131920004, 0.05963230315976683, 0.21239713354590598, -0.12630772648687896, -0.187044214059014, 0.16077890108913792, 0.08431347353209377, -0.19551638537991664, 0.06793648445751754, 0.19771557211314023, 0.13313142133054937, -0.08159898996823883, 0.09171848878801056, -0.027741405472923097], [-0.003347890166544165, -0.059639567907265933, 0.062075111114890995, 0.03829131664965151, 0.1261188414381217, 0.11604144285612969, 0.011049165029146657, 0.045254628895620055, -0.10183289071300938, 0.11357823760450403, -0.1393720067864221, 0.0046897913162885435, 0.0635452025212068, 0.163255719876348, 0.1174230236415077, -0.13624790662527736, -0.1449041114383224, 0.1318776580696937, -0.07514386303416036, -0.11073621285045147, 0.05962733565286096, -0.09076405481314923, -0.13331099735167748, -0.05570572661700239, -0.09237433774576406, -0.014131491691583514, 0.00823712288038411, 0.15930715518017985, -0.04568428711503391, 0.029509548520967592, -0.024608388284791022, -0.047317537864739745, 0.08504482656812161, 0.1794757127712586, -0.02401339244023961, -0.04658239504439371, 0.12843232463587453, -0.0016158354894439757], [0.15129038974981016, 0.03453312478700823, -0.06301977824860824, -0.10506024804746819, 0.03507748296471775, -0.09596257815195758, -0.08455660741526438, -0.09463062853496805, -0.006504917312548227, -0.14930449886851271, -0.06870124655251389, -0.0875859287070197, -0.10493340283453285, 0.11997163486652618, 0.1509601269122207, 0.039966601957995146, -0.10037331940127507, -0.09929488517057214, 0.030165703755965882, -0.01872817353391605, -0.12931437749986383, 0.15469843490672947, -0.17778840851582617, -0.08182242998934508, -0.03222182457198527, -0.044932722194926986, 0.05814990390210359, -0.09959175427584527, 0.09492416579574026, 0.10074269362261865, -0.059706470810318275, -0.12360944450781099, -0.05737363299850482, 0.07556726077333721, 0.05189429791675008, -0.10326354543899587, 0.14745946619485692, -0.09316409542443455], [0.05104211950894542, 0.09295577855199873, 0.14762625188954476, 0.06544507018488842, 0.1889499299277215, 0.02300122021004592, 0.04647443442931641, -0.1840092416136991, -0.15177002426213765, -0.03687971907889295, -0.08574538056922988, -0.08234962587398935, 0.1483910981267726, -0.003896439670436558, 0.08687013210292725, -0.15160898827279917, 0.02404931725680664, 0.08852011303379927, 0.13111058416329888, 0.11305336481336807, -0.010581566950806618, 0.07860527545941161, -0.1269914149226017, -0.12575163705793171, 0.04309515409558049, 0.04626988672961653, 0.15546882033305745, 0.11369077441450944, 0.09149079453105775, 0.17150819902510167, -0.13959798341824375, -0.09205990793668103, -0.13195766246202115, 0.03737278558470705, -0.014039133807913351, 0.07355663906046207, -0.060768525154365684, 0.09155552693854452], [0.16671674535804923, 0.013328175364080009, -0.05235919393282585, -0.024177843393112197, 0.022382813676839364, 0.15929284507445537, 0.007390982503743219, 0.002314761847840794, 0.14264958743396125, 0.05501956010476921, 0.02071963970969798, -0.044056555708257915, 0.01126249465246352, 0.1655586633158892, 0.04002699682306754, -0.17582469609090137, -0.12960601828038348, 0.05675445003656405, -0.1460741581966603, -0.026302080212969196, -0.08076698901914163, 0.013460892111954333, -0.08855891338076712, 0.0353221439526612, -0.05017772607235351, -0.09446396974278556, 0.1232722944401648, -0.052183297486985435, -0.1074238237793046, 0.01342930416443917, -0.06979881475991835, -0.04419325615502143, 0.07670737150842624, -0.03406227775318326, 0.10554144174635055, 0.07994000165453007, 0.10718787415898881, -0.15706077632034476], [0.06915955727421709, 0.03704289477901908, -0.06043730234092737, 0.039183298744186336, 0.012837436081366093, 0.07933254259029326, 0.002493827107493324, -0.18516983413799318, 0.16699786615987197, 0.06769397340751544, 0.1340697980090971, 0.05999441947920506, 0.04514197999509402, 0.050235368094355165, -0.10290938420844453, -0.14780638274349414, -0.012015157581909377, -0.08398332108999053, -0.07070510420071181, 0.14098739737834448, 0.027901514045160662, 0.025161671094588785, -0.11095682339380675, 0.11540754733241416, 0.0014300913941418091, 0.03528712677842392, -0.12969320500465226, 0.060265002053184274, -0.10680955547569929, -0.06550737357349486, 0.06269042429060208, -0.010721111465189493, -0.063995186131524, 0.0964892787043072, -0.00559628360898651, -0.13776113658310984, -0.096682890755234, 0.14264123540028523], [-0.01737687254001831, -0.06931935676744462, 0.11877326387732656, 0.07924126607959103, 0.053166790396526484, 0.04050273560646071, 0.10236531868357505, 0.1321928357614279, 0.0715587475157882, 0.020157475903859506, -0.004934944941675445, -0.09203589896070015, -0.045403586024272656, 0.09083924522904796, -0.13986636874019687, -0.07658385978663484, -0.09330217627353542, 0.060469609147116424, 0.0892552646979725, 0.15097983840153456, 0.11385426067576017, 0.10408319258608706, 0.0306095276879925, 0.0885914378774356, 0.11391296140847393, -0.11194189973449996, 0.023016830638301712, -0.016371307620358953, 0.18103023038121607, -0.10907079937714984, -0.05249770304955973, 0.10975562286218583, -0.12211985954253617, -0.02212917709161551, -0.021274596980838813, 0.1505746869942263, -0.14912838246780874, -0.05193251372715632], [-0.14636882977641116, -0.13759980134175753, 0.03537504599131485, 0.09947874476512863, -0.04401868304265847, -0.1234834918703969, -0.06517774351688436, 0.03428116638495164, -0.07254957791954712, -0.048887045143255974, 0.12105201754153043, -0.019231508909469605, -0.04637067368495983, 0.06385256701801714, 0.04182819752767815, 0.11324738205845783, 0.10122324481354576, -0.12813705776204712, -0.024086919179319394, 0.11663645049703528, 0.14462547713950513, 0.15955573621671984, 0.02865131808481806, -0.007346654707551269, 0.0818771158106758, 0.051857124742789105, -0.014655406715859128, 0.09206336648672152, 0.11014464666666454, 0.013978959272077866, 0.026341554304466625, 0.09835666279500853, 0.15386159062805904, -0.16275680863393982, -0.11781275192753198, -0.05378362288769465, -0.14856643415956794, 0.03733021447047946], [0.09603265193930338, 0.16278514514760298, 0.0755469270777319, 0.12719567876210996, -0.015179797604287955, 0.06324293870140704, 0.12175219907558092, 0.10362335666225159, -0.1124971548102821, 0.16960301094930855, 0.07285745478885296, -0.07635878736199736, 0.008387862445411374, -0.08321671573834565, -0.07699166432950136, -0.16106628874582166, 0.0398054821409899, 0.09148025923993679, -0.11446255753182683, -0.12969153193813984, -0.1515718387403334, -0.006024864414277536, 0.08233321473534504, -0.13799459449601106, -0.14058283573021807, 0.10473284715245706, -0.1423537626159995, -0.07243175068763441, -0.1495312978275784, -0.00670745145733797, -0.15029734596495745, -0.0008122880456218059, 0.1409704125576257, 0.1180055480985312, 0.051756648702909365, 0.13440927747993595, -0.14908825722029284, 0.12272915983759881], [0.16999885555305796, -0.08285896295776307, -0.0019616250251125616, 0.07253602940873022, -0.04456073569892165, -0.06781490658949979, -0.11374467282424454, 0.04310824469178313, -0.12881223466560532, 0.15615884040765687, 0.07194654914588443, 0.11267151116943085, 0.03119235460214448, -0.10776150304312665, 0.04726089470370417, -0.15482716769193614, 0.08902814296280405, 0.06638334608466318, 0.08066768163687323, -0.022553527977012336, -0.037307858040436834, -0.08737828530449687, 0.024883392155525274, -0.08267474635419109, -0.1616025622147958, -0.12907736168317085, -0.014190968555163441, -0.019324167397472912, 0.028313564189832205, 0.04860327042304012, -0.05939854265123936, 0.01902506842908212, 0.004898782321918954, -0.07645861510480452, 0.08669750880022449, 0.08958430069611864, 0.15911255145665296, 0.08741115971837336], [-0.033883241328822415, -0.09677252333945592, -0.08887746453175005, 0.15339121169068826, -0.035673765193454485, -0.055565774192059283, -0.0018537307475727219, -0.10228345277984904, 0.04619906270587791, -0.07406832498505025, -0.048045601418414886, 0.135473951850039, -0.0706331455516168, -0.07667956206359268, 0.07685738407415568, -0.09945336843641342, 0.10895877242108812, 0.04871779914489182, -0.06775105045509634, 0.1161957550129505, 0.002030802178389749, -0.04834067665957609, 0.10057325183256806, -0.026837806310793754, 0.15231812681404266, 0.0005345538990431211, 0.036228312873772546, -0.08328802608303222, -0.03519710187538691, 0.0654141082534583, 0.0004268899187385747, -0.0523889377671675, -0.10139832453209545, -0.12469115147408881, 0.040866906040296955, 0.0015366639131772046, -0.10173508712402536, 0.06563153455672587], [0.03225703293193469, -0.06701071980030776, -0.03360457028256296, 0.1017338627603194, 0.06669084975201246, -0.1508449019577576, -0.062202934001264, 0.1526458320295873, -0.010635548575213047, -0.019841853308773617, 0.05180646306980913, 0.036127459467735754, -0.07273545742739101, 0.008969956450473443, 0.0659935606181315, -0.1634228463672698, 0.1426112363295503, -0.12323845929763355, -0.13584711289277376, -0.0249917463728337, -0.004079798597313658, 0.16276862136804185, -0.04608947339468334, -0.1326653946311568, 0.12722428041114203, 0.046094775658180945, -0.1205513925229897, 0.0028369113568136152, 0.017064592345437595, 0.026115144004980488, -0.047164858698417314, -0.12537630106423597, -0.14615564606816323, -0.062450032837031225, -0.037947681625770086, 0.09272799050527862, 0.050133821388171185, 0.08951627316534128], [-0.04101714557966484, 0.12904946321072513, 0.052305053933323395, 0.014789515812985652, 0.023172909002319466, 0.14278117118977812, 0.06898007531392869, 0.1556283301676869, -0.15860832377182232, 0.009340856052816876, 0.14297915341776798, 0.13045610887573636, 0.15905952099553222, -0.09254477401602271, 0.14094262267200924, 0.10362409156184814, -0.1426809785542733, 0.05045929572389016, 0.012303794418139648, 0.0762114599742873, -0.11254317520296826, 0.17998554503869005, 0.1297294106164119, 0.11801642697079653, -0.08922360955141649, 0.013879488179587852, -0.025863832125350587, 0.016592054405068484, 0.09128290752823136, 0.02668706781492719, -0.13024777650017635, -0.1259522881927032, 0.08319289058094537, -0.01606416398822501, -0.09953979810878183, 0.13576926296918518, -0.08116363926948468, 0.06740634224372141], [0.09179284297424938, -0.07864362388112385, -0.10771296513168163, 0.08946421641047701, -0.027152606637318995, -0.05373139212818352, -0.07776214132177585, 0.04883693321677482, 0.10109133044570512, 0.11713971671910228, 0.012897863430594023, 0.16039254807613318, -0.0032162437633779686, -0.14616697598862524, 0.1668176304986172, -0.10021015311374222, 0.13337743381350894, -0.005051863660086365, -0.08162273407692311, 0.06401849177415678, 0.14524046744140656, -0.13314695059114734, 0.0037054684353505516, -0.1128328245182358, -0.03543861255836182, 0.032994043043212705, -0.1348027581486249, 0.1241760742764949, -0.12467443164875888, 0.09514722458171342, -0.10300292130277401, -0.0040609730613918715, 0.1581955504370608, -0.06725061143999485, 0.13541506001391065, 0.1516806514324728, -0.06670007389457899, 0.09535213768974551], [0.17023391871854734, -0.07463150499055245, -0.009163432526521211, -0.04094286377210475, -0.008791477455303728, 0.033075679938308684, -0.12446951912586182, -0.05247460622337434, 0.12534687831738806, -0.12154280118730036, -0.00482459442724459, 0.02169689680761576, -0.04743162759238279, -0.10218215876397618, -0.0966196004537847, 0.13555111720803464, -0.06962319199328063, 0.04494876738448316, -0.05047067134051169, -0.09440742749646336, 0.11033812790873815, -0.017062767226387318, -0.00011069277553255176, 0.012030358471824112, 0.10568665778655663, 0.08697291360284147, -0.010247580770321502, -0.05938548021271309, 0.03229873119621001, 0.11766757571906881, 0.06516729564337397, -0.008844570665019577, -0.0463810599845471, 0.058727315023296714, -0.02289482710176584, -0.010144854707091706, 0.059147992261043836, -0.13000737666078277], [-0.08553832634380681, 0.09235840915450365, -0.13087234399490794, 0.08260080420938097, -0.06598587347495354, -0.14200220642565833, -0.11391408773822752, -0.09963946886088451, -0.037329376825077386, -0.013643657792396369, 0.06404143795530871, -0.10040281632076033, -0.011819025841404604, 0.1363700050154478, -0.0995104418528407, 0.046119265905872765, 0.11117423963922952, 0.008963191293760286, 0.03215650880727087, -0.13427586139183922, -0.07477696517396401, -0.12193121096196329, -0.015900673696247543, 0.04640695646838232, 0.1269677617665336, -0.1342088231740711, -0.08499515100101947, 0.09371868385933155, -0.057403432833785156, 0.14914823161358487, 0.16439677202273115, -0.1576499587500405, -0.01646657679200715, 0.04546640319923189, -0.09286020321268165, -0.11213008280701464, -0.10016860221914148, 0.14909718906017916]]}, "midLayer": {"midInputDataShape": [10, 39], "weight": [[-0.17068660716150957, 0.03522702575380308, 0.09017109260350563], [-0.3693187998255933, 0.773469658606053, -0.8800302149886231], [-0.16937505464876731, -0.34629122223030845, 0.2892449556205114], [0.011221039662173258, 0.5598770546016665, -0.2606685009523788], [-0.488375725389396, -0.8967545035700432, 0.7738677922112858], [0.11202932683935234, 0.5289543116872586, -0.5507516171968431], [0.12652703685756267, 0.05484517550574677, 0.22292762763649088], [-0.3388251467525161, -0.6316165960574165, 0.5825799935895052], [-0.20234770429918633, -0.6301972348832001, 0.6847290967641161], [-0.2251566871423937, 0.024716992324823873, -0.44913074530614616], [-0.07576339305795453, -0.6116551224938062, 0.8067383889916244], [0.05483154833670401, 0.03442562887785071, -0.5215348178046877], [-0.3922668489355961, 0.21693162502422128, -0.5804168779142157], [-0.2329227963695513, 0.5889382104413204, -0.8326811574342811], [-0.10656211798744251, 0.19512745535245346, -0.3573231358805845], [-0.32819690934370926, 0.758075568521891, -0.5922445184164322], [0.17452507811730095, -0.3453494578438169, 0.327309994669781], [0.19267727648616234, -0.42637902369704256, 0.32762435947932117], [0.11189692758452015, 0.12006508295557522, -0.6008960596259874], [-0.07987332989585415, -0.19945586629964768, 0.4490522069033271], [-0.4747875648197418, 0.24632231638599386, -0.07398296221483493], [0.14545902844628356, -0.45244537025804166, 0.34466263596394614], [-0.3779434651086489, 0.5598255388843744, -0.4392562116994114], [-0.2934695133678983, -0.21389956349225503, 0.6168297815183533], [-0.03432620377771851, -0.8439833586794331, 0.41052635388147785], [-0.5175634123746168, -0.05193448391591585, -0.17762819027830481], [-0.3219700093920883, -0.2582858566516168, 0.2563530926734285], [0.24833343910841718, 0.48225642314853656, -0.5528877025253881], [-0.03144670741693616, 0.16018933501055746, -0.29787656733252105], [-0.25425119482948866, -0.5790678042620117, 0.4007785353965249], [0.20660950534195208, 0.17085288655364372, -0.761369874906304], [-0.22669462810235663, -0.5952470381543836, -0.1946574348559161], [0.3119844930039581, -1.0185860021382298, 0.476687076330573], [0.10296528843576985, 0.009124697412851022, -0.2545876402273158], [0.17481057497930202, 0.3662652433996765, -0.406795278924261], [0.18756923435889614, -0.318160893411617, -0.2615804567365043], [-0.1941710410179079, 0.09870132936042866, 0.1611038773843728], [-0.07886882149464279, -0.29887585978043685, -0.2564094082493526], [-0.16993376669722307, 0.2872001132639949, -0.20469548019667191]], "yclassNum": 3}}, "convLayer": {"combConv": {"take": 2, "all": 4}, "convCore": {"weight": [[[-1.1436703883670625], [0.0862585045940619]], [[1.5422083059424376], [-2.6222327461579154]], [[-0.9916116013717635], [0.4381660463167952]], [[-2.220317444276876], [1.6384727167385773]], [[-0.5988343936840592], [0.13023748889327733]]], "Num": 5}}, "poolingLayer": {"combPooling": {"take": 4, "all": 6}}}