{"convLayer": {"convCore": {"weight": [[[-1.928724092080155], [-2.154455591020889]], [[0.703131518620499], [-0.7696650839916364]], [[-0.9913854440267484], [0.9701574703983782]], [[-0.6476643872500636], [1.888254977432434]], [[-0.9740281579733127], [-2.127385426717774]]], "Num": 5}, "combConv": {"all": 4, "take": 2}}, "fullConnect": {"midLayer": {"yclassNum": 3, "weight": [[-0.14731871910728406, -0.14652161431015825, -0.6762095288833672], [-0.21990555929932792, 0.6570697975119338, -0.6509943233220157], [-0.23513031976190749, -0.4486190422162086, 0.3380341221179862], [-0.674309268219111, 0.8099564136852642, 0.27283326431428134], [-0.08798933851111837, 0.7233633843850684, -0.47605619338744726], [-0.43632486542015153, -0.533577544478358, 0.30862365589377305], [-0.4451738324781574, 0.18108101376782593, -0.10441100504549622], [-0.06711622485752436, 0.40133108605171036, -0.6456304620172313], [-0.26890343760214747, -0.4670086496167509, 0.27913349458453346], [0.3796375867792094, -0.04753818102084629, -0.9616105236859457], [0.2949485579394032, 0.3380520819230841, -0.48202232688912366], [-0.18254908865808497, -0.14425481957645617, 0.002708291671987045], [-0.47670363264013244, -0.44967543101559143, 0.46586496425203805], [-0.7131553135736014, 0.5555090900972092, 0.30851949659073846], [0.14462561458028006, 0.428650015302426, -0.5080786014020133], [-0.24370419283240596, -0.43121808236479386, 0.16202905335955528], [0.4742315393567597, 0.5892396390691338, -0.5231601230714883], [0.23816533387786779, 0.47818106455051496, -0.8958548295750064], [0.22702076894145287, 0.37464661901369445, -0.9794991798565541], [0.0530419501337586, -0.45254076060625537, -0.5988703494943933], [0.23615868456538902, 0.423442476896044, -0.8858066526437752], [-0.1645494550909676, -0.7460262768138319, 0.4456673265962498], [0.40445528685715876, 0.4448617970708681, -1.011578601753177], [0.16683950808781736, -0.131947098461135, -0.05406099426573759], [0.24736640624378173, 0.5032233500314021, -0.8418696876419243], [-0.6223297288320873, -0.17269524975586753, 0.5251313337121634], [0.5492620891588361, 0.22903409385059606, -0.7112484465852846], [-0.031494608715310526, -0.2832446585108484, 0.09045508383560168], [-0.6296205247411438, 0.0737201939736085, 0.5500760508270949], [0.8710664873670424, -1.164963772937726, -0.6388239985603976], [0.8903466911415768, -0.8923210141938647, -0.6086639074027882], [0.07208508841231175, -0.3336387025904934, -0.6241537744668069], [0.5777868745522965, -0.5187659011182831, -0.030219435283393922], [0.6411173454771383, -1.2207042760004445, -0.45657430953281253], [-0.185866874723608, -0.7091994241481955, 0.151981672603813], [-0.5654912634862294, 0.41900157458067266, 0.2827314854675442], [0.2640925555385056, 0.43903203886537395, -0.4839019126554562], [-0.6460838930802968, -0.26878741633169323, 0.39117001860611017], [0.6468571115696393, -0.47858800417605446, -0.18253081591386783]], "midInputDataShape": [90, 37]}, "inputLayer": {"weight": [[0.21181136845327547, -0.24188926759104892, -0.05193099240045877, 0.301307577022917, -0.07960512317962455, -0.11734203051866253, 0.15967187563662685, -0.02339347230325433, 0.15163782773570328, 0.027486914739297125, -0.09801384219052077, -0.16264179798357511, -0.0728523354595915, 0.11229693887263036, -0.08814191549629752, 0.07289980967644541, 0.22353586691624255, 0.3170692481916929, 0.16347960064146957, 0.14814380724349238, -0.1863031850127884, 0.4205946311707225, 0.14758871093023065, 0.3949827202516294, -0.24421879574337468, 0.19693711722754648, 0.10438760211745213, -0.020581027128911134, 0.14583222389897005, 0.0672649109695701, -0.09954760121140359, -0.0038442043354317843, 0.22884377643326467, -0.009718597334414195, -0.031193880014774692, 0.13697446177991918, -0.12525732354901795, 0.20209971256652162], [-0.03668668899653391, 0.10760614559442842, -0.017308184699638816, -0.06306693122433518, 0.10756553229461026, 0.13691526853658456, 0.17025464136214416, -0.0029333098884575214, 0.18106963833831694, 0.14857517888606855, -0.04951204028077109, -0.18528470273887274, -0.16652156175769997, 0.09176718490147986, -0.09487802178432848, 0.019002827571189675, -0.15737151790946968, 0.2151902265984781, 0.1162224899856258, -0.013019933416833648, 0.02436962117740673, -0.0578084428507957, -0.08653873355550706, 0.24517039587188139, 0.002343306622693948, 0.12460223947721862, -0.0014122325386808732, 0.002287217549166471, 0.07487314528686961, 0.09275843481748186, 0.00564280825501665, 0.027910551332039225, 0.045811507620064716, -0.12979901892415024, -0.04378074689287499, -0.02950757670824488, -0.11570568252899828, 0.026345638657021202], [0.05284038887531346, -0.1054292605787387, -0.127104693873438, 0.2152431832547761, -0.0743965799419842, 0.06655815777443128, 0.16472262067563637, -0.000621174960539058, 0.23813935106136916, -0.04315568840194635, -0.04058261942703396, -0.12961203091601614, -0.22055212735918903, -0.0660227179417267, -0.11519986239129355, 0.08242377759200137, 0.1931094039472846, 0.3314840869558105, 0.12049323977709205, 0.25244858918199004, -0.04011862695839507, 0.022181755843518693, 0.06870344867218503, 0.2615044154111452, -0.09290487003118256, 0.06873866591974818, 0.12230177230424985, -0.12721900032919753, 0.3298558129361503, 0.2012337114048785, 0.10301054294011215, 0.14175403706895368, 0.3479900330195425, -0.20998194841562048, -0.17981851328328755, 0.1831420917570739, -0.22406772033915762, -0.0073588014144405755], [-0.26696660163327784, -0.0031570477074623375, -0.13694184944661472, -0.09786291488729441, 0.014387281703000568, -0.16079632977524475, -0.2370447486736686, 0.20954927731069142, 0.1347791225967961, -0.0010379227458641952, -0.10873687809092229, 0.09848137570382513, 0.10080070058932152, -0.11089222582734874, 0.11073470216813847, -0.10767824266545765, -0.27622953676423984, 0.11497857042943996, -0.07510288213509476, 0.1319751414141587, 0.15302326355375367, -0.14236145088895819, -0.11042190387369397, -0.07742351391940351, 0.05475340917351683, 0.06371209036374981, -0.014372105589043966, -0.10338291311859625, 0.06343159548630513, 0.2076482262857836, -0.010184248367387985, 0.21905475044146341, 0.22912588708986042, -0.09078533518382559, -0.0984959598409974, 0.12099212494393062, -0.05431058174779514, 0.06327539919168737], [0.07736098281193507, -0.07390233360885239, -0.1555989717078329, -0.040726641543423814, -0.09006996717212792, 0.05973235827753715, 0.16281747638859212, -0.12298858102125818, 0.11268978368308827, 0.21596010642655092, 0.06305444992997122, -0.024140245153667132, -0.1740547626554235, 0.13536917501981152, 0.03854061795623997, 0.1223696467739852, -0.06297211443814822, -0.007131538983262721, 0.21138074642073706, 0.2143558111234346, -0.10453761333331045, 0.16125934475478698, 0.0008898946808846317, 0.26387070473881147, 0.004347623521108154, 0.039526990378788415, 0.1065075574586378, -0.03378366124057039, 0.1330029640328389, 0.1869765090084258, -0.07650817961259096, 0.17628005813634332, 0.17502444773922257, 0.049004110673931234, -0.17059868130249542, 0.16201037573052884, -0.11412730288531042, 0.2209603221592284], [0.025494662484061032, -0.02969246019605793, -0.12452924126419755, -0.06405049797755023, -0.1717584754004961, 0.09963984600086323, 0.0366903452968085, -0.0020981060815848853, 0.15771924764421114, 0.056769950889012294, 0.00329372763098272, -0.13284562396010158, -0.059001611280976876, 0.08859951939839232, -0.04973403787924984, -0.05725756743368015, -0.1257213278701816, 0.18584766455066903, 0.020859322090768476, 0.23348561681717928, -0.1293971182040561, 0.15145887644531542, 0.11783044243107986, 0.2586622139078412, -0.06420435806164006, 0.23864492885784452, -0.002125205993515471, -0.021038633080652677, 0.18994795776969192, 0.20481272096321365, 0.1352602749804224, 0.10318549233723392, 0.11775591029242437, -0.024662740050317697, 0.0064193831852312425, 0.08878024893603925, 0.051436890104512335, 0.1829481248333938], [0.10560067251896213, -0.16800594354353904, 0.052952557643158905, 0.12383530886246345, 0.015507187283841135, -0.13403364061028913, 0.05196723837147089, -0.01173646072207391, -0.028956262114411015, 0.06436326501043513, 0.057250536061635535, -0.2058360583819927, 0.011544997128074469, 0.21704201283604724, 0.012881800752598102, 0.07357974318513046, 0.22870708013292468, -0.0388839587480058, -0.021727091408354788, 0.26006843679288727, -0.11690557452445748, 0.14627439732548478, -0.1484293055127859, -0.025820635210078505, -0.1458874142580484, -0.06454562693559857, -0.044404118918684225, 0.06905580940033523, 0.07451264147551578, -0.03441474069560599, 0.05417462784432299, 0.09786471538992914, 0.11347138291985069, -0.1254148947422816, 0.03932737468943302, -0.17402586039365198, 0.06959639169265697, 0.056870362599850566], [-0.20993121420709418, -0.02997901014839257, 0.06052659819605967, -0.015232151885121004, 0.02334493688267236, 0.08083147247619527, -0.18003072411214902, -0.02607015079120491, 0.20374227045077667, 0.16529751790619138, 0.13375193186163803, -0.02246532540305322, 0.00018406435191244087, -0.06606824212169128, -0.09115906231674627, 0.09510428645707675, -0.016401618502588512, 0.19938293646735572, 0.000889121660651114, 0.027206457507436922, 0.0003690895524856709, 0.1970800062476568, -0.0011653213287369545, 0.07683060192624581, -0.21323610376481833, 0.12978476397873626, 0.04798309559144309, 0.12704619144408677, 0.1010663873532088, 0.016964442813334923, 0.048112116604190666, 0.088769250977606, 0.11094844781513698, 0.10152974653916966, -0.15586454468327327, -0.00027622733155595216, -0.027217482387130294, 0.19455034904271423], [0.17898342454576724, -0.11423063268187, 0.004758145524051786, 0.018328978810590913, -0.07760655671128147, 0.029615343788020228, 0.18490470671939044, 0.05090403595270171, 0.04027285713499829, 0.2594295967859654, 0.09421331255158613, -0.13703616765558418, -0.26918908395745206, -0.04123236024345408, 0.05498495353236231, 0.004460869742579414, 0.13638520326643291, 0.3475555188961632, 0.21604760991163138, 0.34645917976194696, -0.131849760831206, 0.2188270790096728, 0.14029819359226386, 0.04913696514645649, -0.14788264664273576, 0.014894820410865749, 0.020377583503106516, 0.024972228200983056, 0.00908127832143259, 0.13366362524938852, -0.08401314284891981, 0.120485291238261, 0.03206476011156353, -0.10529708268778885, 0.020580734314500092, -0.09024773119630317, -0.1413316609197609, -0.0630270610459316], [0.14104884632020798, -0.11619825891950364, -0.18279092282203038, 0.033567451951625374, -0.18394155983023916, -0.01950777950929241, -0.08807401236144034, -0.049704106331217794, 0.23850087981578677, 0.08949391326197004, -0.03822638439825466, -0.091006103688154, -0.017789393727878713, 0.1875181661685617, -0.04057069849849772, 0.15275957625709125, 0.1888955875937976, 0.34702238108638617, 0.022621867012198153, 0.27114458217691817, -0.22515000894458545, 0.3067940208133365, -0.05893384045067623, 0.1945123879724285, -0.22792270337471301, 0.08683642306050741, 0.0254777592544455, 0.06468624332348459, 0.14045915883274757, 0.11331575876238191, 0.06503985696549486, 0.16796823365652522, 0.14178844525867468, -0.18351793632424368, -0.0012053430597145846, 0.08330072597708119, -0.0038483076232621516, 0.1666667052371503], [-0.2701349884412878, -0.002893653154165593, -0.1884767103462611, -0.2599882233953719, 0.06058386350243568, -0.035014224179916696, -0.04648826763251471, 0.024591250673324225, 0.04558042378775189, -0.11286692068618104, -0.09999179858296452, 0.07308167895339293, -0.20866198936713665, -0.1563270381970829, 0.06500265325785924, 0.10775213687626073, -0.15627597739808016, 0.09644609003506953, 0.20238075611516437, 0.2073634481489619, 0.1840982450295595, -0.018964761745991446, 0.16656757364990282, 0.17522841311422746, -0.15579813623567518, 0.16073026789381728, 0.16671968184091351, 0.10453325293351141, 0.1056191439583996, 0.11248690988377517, 0.12569916429511444, -0.03406766323776794, 0.1631784620461653, 0.16294739947796488, 0.028254022912068907, 0.10618560662843009, 0.08680681357903917, 0.15871514628363037], [-0.08754035698060042, -0.13304903474271407, -0.18620624013490414, -0.00916084772263737, -0.14431939092532223, -0.1908016163385301, 0.019189764796220136, -0.059416615436786155, 0.002040479502456733, -0.03994023482296, 0.09766032221459547, -0.04554251810865663, -0.1361473755140789, -0.007080874632988722, -3.2637180747622455e-05, 0.2217057615346171, 0.14208216193897372, 0.12532223866422737, 0.15415026157782546, 0.020833059445703482, -0.022491063463875652, 0.27477436826603274, -0.07321435461901726, 0.30059518142476566, -0.25048252458515013, 0.19526527975761557, 0.02962691697913958, -0.14084745800046056, 0.1496521132400443, 0.24572272661415007, -0.025567487373291606, 0.07845458610918907, 0.24561958776304135, 0.0025941140684509834, -0.14067631171400835, -0.02412803395000758, -0.21392092806859184, -0.045540521485691265], [-0.13931849824869164, -0.06619177137080391, -0.2504249131793018, -0.11870960199103425, -0.11399264863998101, 0.010693485134529538, 0.10309798429418167, -0.15856724148841994, 0.15543268438360558, 0.1719439645141336, -0.10931137679835827, -0.1289012723360832, -0.23588577790491103, 0.12323308898023565, -0.013380624365604872, 0.12015142670287715, -0.06512122131248284, 0.28377646120699485, -0.034609503247437404, 0.25736630749072853, 0.11514956469563901, 0.17692933246902398, -0.04678907882561871, 0.3218532596553539, -0.12249983867097614, -0.02171142766325261, 0.07359553390680694, -0.042398965454676474, 0.07539429016050202, 0.11289863026670979, 0.10669996846589944, 0.1888632314316863, 0.024793041561810912, -0.10774490607031947, 0.05088868273313245, 0.10885159234689977, -0.2340307877529035, 0.013077016197291026], [-0.04838857612389495, 0.0904548660094334, -0.1337700855389588, -0.2237492640258668, 0.20940033451478918, 0.06350529937065937, -0.042668334152526785, 0.03616264701450773, 0.03702402931829067, 0.11511194232152801, 0.08794354812349003, -0.019032210735972506, -0.08248100496258298, -0.10391358884742655, 0.10696589151973458, -0.03810421801792496, -0.19828323430359224, 0.1493653630278369, 0.045543332505923295, 0.14999885592816228, 0.05473160366296306, -0.04665468662097596, -0.060394984391939834, -0.11412196146944185, 0.07556134828309069, -0.0813112573253711, 0.011024123846349498, -0.18043807128386075, 0.0958926564455629, 0.17630875113820485, 0.0796545977502983, 0.15410580634216833, 0.16097702499691283, 0.11768983293268737, -0.11648526605316017, 0.04486492415459585, -0.08603791125260749, 0.037768508392789606], [-0.03611034152686606, 0.10428312769891206, -0.20151612632106788, -0.14791806552253545, -0.09325136554067653, 0.07413473077518644, -0.12351586630937761, -0.12655235538985346, 0.21493197414319196, -0.1165794413282003, 0.06402936005597694, -0.08950268892483128, -0.16795540376567136, 0.07626885680049125, 0.04005221463274468, 0.006300293349658978, 0.025348271433062067, 0.04542756388867972, 0.15652411932035537, 0.19365110268201316, -0.06419990830698324, -0.06703657996112569, -0.022266802493562898, -0.009468594080400645, 0.02508447890924721, 0.17028334428362496, 0.16507628273049327, -0.03362133863334229, 0.056299485846402486, -0.053401614117682766, 0.04219434282308118, 0.20687584699798678, 0.01804579779340464, -0.07394685888378247, -0.046001076301598304, -0.10089448945315797, 0.019330785491021397, 0.22595514712431114], [0.06525472861019463, -0.03642513045138814, -0.016310091609293028, -0.1479578168393441, 0.11569627283277423, 0.0609600787219346, 0.008994442281668567, 0.10994000424951217, -0.02072536580564389, 0.0457992312836321, -0.14883237402451185, -0.20678783630868539, 0.018834422994228675, 0.09353106692073986, 0.06367868922827932, -0.0019891766795645575, 0.03722343361472367, 0.051253274703024564, 0.24168363502833448, 0.06556748979880356, 0.003622757885399859, 0.3238287265943499, 0.12429067016384641, 0.1680758144247332, -0.15564405755659638, 0.012978615000727322, 0.11942623551372254, -0.1920290474245317, 0.23229438890734436, 0.2560424944124829, 0.022579461156242833, 0.05196436174192704, 0.22472475733963113, -0.19369533829788851, 0.022021110961874348, 0.1829895492389899, -0.21592054114600637, 0.06518366564272578], [0.035415764217001044, -0.0969265989180623, 0.07965047555512658, 0.028188352534026732, -0.036646038460570074, 0.11847826246366593, -0.04213897029737568, 0.1657643163818154, -0.14337030911232804, 0.07615194368286625, -0.0505638275489133, -0.12932800651459728, 0.11576807595777207, 0.09846564215791562, 0.10947741344284258, 0.145701474845805, -0.09991980404951678, 0.1954925434593822, -0.12724739102344534, 0.09940145505159556, -0.15211436390616248, -0.004056863321323145, -0.007705957963866756, -0.014059536668170572, -0.07596933029101381, 0.17855697674485377, -0.07458145791987644, 0.10302668727329334, 0.21715430219554652, 0.08196142436455212, -0.021080903671584095, 0.0554534431089665, 0.07567225954784344, -0.03689551983512552, -0.026579274568785387, 0.05256864348440777, -0.09236373912944695, -0.11287099044381364], [-0.028089672726696883, -0.18474738717101188, -0.051415021654201684, 0.08243912806386146, 0.04290885141358392, 0.10766181690857234, -0.12197797089630746, -0.07865675102995602, 0.09598495801347043, 0.12068863278564067, 0.1370012516351079, -0.14325175946945076, -0.13073141268960034, -0.023353401394929602, -0.1185195665434891, 0.0862863976346981, 0.10854375731877614, 0.2033901482054663, 0.13118395342039943, 0.13082923473558022, 0.014393904240086828, 0.192849898291515, -0.07783596388888477, 0.17863918788023522, -0.1789123631413418, 0.12602287072348853, 0.08740550695791323, 0.025393088946186675, -0.05422262087426446, 0.14694579719567166, -0.05146721044953147, -0.08803437644079957, 0.011566299602852671, -0.12363575464430031, -0.0878998326244875, 0.012138329146298739, -0.15447564785819448, -0.00998970452264138], [0.09657112007409444, 0.08377472720689058, -0.07733566980972874, 0.10063417763510743, 0.1174790764214235, 0.11719180222389633, 0.15780646165955875, 0.025010783483491342, 0.12473446670474493, 0.0573727245811318, 0.049068762801411564, -0.021082170277759382, 0.05042438497063015, 0.1370150094822158, 0.06474289817668227, 0.04783276522097197, 0.13610495263871805, 0.14202424572318031, 0.04325202317573905, 0.15010284010522548, -0.06348075498372698, 0.0839013295286409, 0.057025191726703006, 0.03323862281758051, -0.07762169962936344, 0.04944598077355119, 0.040810867373328875, 0.07194181931194937, 0.0058815528939844324, -0.0903400256702704, 0.08171189261189438, 0.13810644141854064, 0.093820654699959, -0.161818773838038, -0.1720820428539013, 0.007534456000724027, 0.035083474182313445, -0.08207634110037557], [-0.03217742359661289, -0.10670521068078108, -0.11186034715945453, -0.012335833652383006, -0.05949584919038627, -0.16934627578967956, 0.1432894549004741, 0.0906598481545772, 0.02491600385634992, 0.18096903302117753, -0.15124432695444137, -0.06070349538576425, -0.17964617017870374, -0.008332221070336694, -0.15240986932808437, 0.015387138831829204, 0.03988735096881014, 0.11379562180918329, -0.009891482171573237, 0.06333420270116491, -0.11867636038220561, 0.10409972751858515, 0.15947492854979148, -0.0041752455143125155, -0.08141430433161165, -0.0037800839197893957, -0.07525188154019463, -0.005791891652938083, -0.0330496472321849, 0.19323665041378374, -0.043992842211583505, 0.01226496006063471, 0.06952866105182579, 0.09408488628153752, 0.06616648041310697, -0.06036649467549445, -0.17151224127939815, 0.00460766525007305], [0.026476804091363694, 0.04900571274821857, 0.07347089365355464, -0.002421858471622014, 0.053571302204068055, -0.10830415676951417, -0.03646719203856928, -0.10836768779740905, 0.21861787269824098, 0.006273244635293168, -0.043947965474901256, 0.05075579050120121, -0.0050150877757038, -0.09332257381069953, 0.08427477490524923, 0.03568376238567641, 0.21360960217776312, 0.16088097139305932, -0.11661141877789057, 0.04526230834606103, 0.06615756491987405, 0.14892449260478413, 0.08590241402664034, 0.23249584056855574, -0.060494636465945606, 0.05363866178884595, -0.06917707212635554, 0.04506221067884441, 0.1575144230173641, 0.07723923081011011, -0.024967247943736667, 0.11740504713704678, 0.16018789304645203, -0.08510803689266648, -0.060618304806749804, -0.10491799673047685, -0.15494521081736295, 0.1706535697551274], [-0.06481032547257495, 0.07885025222512686, -0.13544728447025287, 0.03963203822145227, 0.09856786936355356, 0.08401956402756736, -0.09775087341038632, 0.16008280821278742, 0.17828295996688837, -0.028772644114745605, 0.12614927347134272, -0.07877927549286602, 0.05719720219466895, 0.06812778055495157, -0.01560655296379136, 0.1976492879413494, 0.1496407578625612, 0.1532427762214245, 0.12437493339446858, -0.10233283585859732, -0.07053890525550069, 0.005755500655609396, 0.060540115732162315, -0.05859524007659331, -0.09346712028714148, 0.10948140036209497, 0.08398341984999462, -0.018947837864973217, -0.10322325037754641, 0.06678251578051635, -0.06021865394911844, -0.13545940524352054, 0.11436480446666047, -0.0482359550656388, -0.033461614946251717, -0.10691242740893936, 0.02344735342948072, -0.0988246739073308], [-0.10716044170164656, -0.1151070652593878, 0.08354590027892216, 0.09444072801044336, 0.08227714839538385, 0.04729119279625432, 0.09819669655456216, 0.17012118083283825, 0.08125752214396893, 0.1589863468542571, 0.16515217885665506, -0.008781108578633191, -0.16219843346258955, 0.01377684001271971, 0.11019522923648184, 0.10593432024653068, -0.16665939226008925, -0.043859113284371205, -0.06408683044692781, -0.08686108559462975, 0.027858218894601248, -0.06622979500554463, -0.0027292146215048417, -0.06675025196416047, -0.10123356092968762, 0.15223622361980618, -0.0809718994148198, -0.05145640643856238, -0.04361748304968222, 0.09161008513796386, 0.022790473777963574, -0.10154456289477867, -0.04939017965177, -0.06125312173910029, -0.1101842188315712, -0.09119900143563342, -0.14167623084914038, 0.14673005909185655], [-0.08171704577159696, -0.15549999802661393, 0.027038344622908255, -0.04730564903602565, 0.107624653767471, 0.0646063006367561, -0.12864447417501412, -0.009945347184315025, 0.13306599830289625, -0.08405789524017454, 0.004955451765907211, -0.10119356345540816, -0.10816759797622125, 0.012654721312981185, -0.11331848969405806, 0.09910941819192258, -0.0035270895177884395, 0.019135986974362296, -0.046079827742715226, 0.1979170359024443, -0.16307767942577325, -0.026629469217044167, 0.04896692871164223, 0.09226875356794215, -0.10431122340110818, 0.04883074202952587, 0.0578332172942993, 0.0228879475718703, 0.1863817725365005, 0.06209057227597563, 0.14608029480503107, -0.0692262060188626, 0.1890528618073342, -0.13040903894475686, -0.1124752023918083, -0.08818653639298543, -0.0058194364920447945, 0.14310445134775565], [0.04260162621845425, -0.051786406630148996, 0.09466326633615528, 0.014546838819697294, -0.011925347141400214, 0.0431311794138758, 0.17280332441905186, 0.04678210747684359, -0.10155758588373143, 0.07391758639621072, -0.10268363266058904, 0.08525323191865296, 0.02999067079137779, 0.1594623672726371, -0.08541154900164256, 0.22060269246814176, 0.06213219576520993, 0.0663717220633934, -0.12421270786274712, 0.20758842345401343, 0.1088543659564739, -0.06649194677815709, -0.09282849047634867, -0.011056679365503861, 0.08731199802625758, -0.031698680412220945, 0.1428300240942589, -0.14823945076898093, 0.09063791422601224, 0.10170544074621428, -0.019555720903934207, -0.11056785191301956, 0.12705021733759744, -0.1347444093557778, 0.013783053606218659, 0.024078234601701713, 0.10982833785803309, 0.05257666893136668], [0.084089712005729, 0.1020085950683021, -0.1893209123349447, 0.010833297736958262, -0.13136130664262688, -0.07288716526880451, -0.17150347083855505, -0.12981054174534123, -0.03601566194141505, -0.1291121961652293, 0.010596452235498243, 0.022250234190727185, -0.1182533482814899, -0.07265834698321993, -0.07868229854480249, 0.04406114454026381, -0.04584026056868801, 0.02565957513280781, 0.08042601881924386, -0.09605852952265702, 0.17792051870239453, 0.1969021786351347, -0.010426008548868949, -0.005444227093014118, -0.0053839674037329715, 0.05029784542635463, -0.05826227380021905, 0.09368712524879157, 0.06537709331598383, -0.06847473894774227, 0.06268154919326605, 0.1310488681676334, -0.03052186841949989, -0.11881754211169138, -0.1405497342162857, -0.05955190788076215, -0.03229732719779308, 0.11410950866364702], [0.19985667231728915, -0.00040662901794139613, -0.15816292123466294, 0.04664343040294876, 0.04777605317561891, -0.11758987315484012, -0.05208677305311822, -0.15422562951319893, -0.09292793906072597, 0.03766611604631268, 0.09373562613142099, -0.10882623063083803, -0.11941645601517131, 0.09123590907917402, -0.11980051955049, 0.19973870907968, -0.002550141688918433, 0.01736353441643902, -0.011392684768678746, -0.022069515156224687, -0.054118292021589104, 0.16151154206530766, -0.06611036625024669, -0.061122427755650896, 0.040665613525858214, 0.25013703141902965, 0.006955335840862929, 0.08859674970756713, 0.10604906905244989, -0.09189070324433762, 0.042717417276979294, 0.017303428493009598, 0.05897642345319877, 0.03420172272356097, 0.0699302816890677, 0.18270212420234563, 0.03891519556370467, -0.11537794498147452], [0.14284005582178858, -0.12221876092710743, -0.1782425345286939, 0.030672629986493755, 0.0880372982141537, 0.13338823792227966, 0.10450834550209986, 0.15525764494375766, 0.04514598866820025, 0.006812632967325125, -0.044279662385567846, -0.22331436969481153, -0.15155060112894989, 0.03816855062787673, -0.0540267109611071, 0.09485002431717476, 0.01989587724903255, -0.033815754536721414, 0.010348692380390101, 0.22346074137927482, 0.03896280674028951, 0.012846018332976099, -0.15348785762390454, 0.21797519378206512, -0.19182764372500483, 0.17392454125076548, 0.15481617432786401, -0.05403918805149573, -0.027653624351000064, 0.07312446208855804, 0.006998937594608059, 0.004838916025106637, -0.1403233659753266, 0.022407255335620338, 0.03618417230512131, 0.008664744869733534, -0.13822664113573394, 0.10572154464115728], [-0.01309720524508854, -0.12648973832281063, -0.0443611968521049, -0.12858243716780318, 0.1353585796905648, 0.10897773450454526, 0.0939192528062063, 0.04769231899626192, -0.11538327311870997, 0.14189762119322635, -0.051274187119076886, -0.07384309912751125, 0.028790988180714846, 0.09406580278952374, -0.13221892230406795, 0.19262440880511916, 0.1658613031057154, 0.13941720332874016, 0.09186132985542725, 0.16569724721863818, 0.17020537920503526, -0.06920302413094727, 0.0847883581673951, -0.10329566844265968, -0.04077177871812176, -0.08096417294197046, -0.11225970675791798, -0.04581715647892372, 0.11352284617213208, 0.166318170639787, 0.1225569427211772, 0.18723729458504992, 0.10172574962942693, -0.1208082023025981, -0.015021926494669883, -0.012526495378358381, -0.07418518679860965, -0.10451223232689519], [0.09036597263297341, 0.06726728461244505, 0.08962023808120383, -0.030916220503363512, -0.12702913593740073, -0.15097753821946824, -0.04087679737626758, -0.12123926267426147, 0.046143348557981634, -0.12893607570584703, -0.02157531802994017, -0.0022258073302030275, 0.0643398440073111, -0.09815563099092776, -0.0583784019446723, -0.03125744155053052, 0.11687191189224018, -0.08718839690473003, 0.01677811337132273, -0.019647412241713746, 0.05684309028932069, 0.14222459806615703, -0.04735394288025173, 0.1150098511612978, -0.005851971817685856, -0.10704792283976347, 0.007869186148414278, 0.055595615363989846, 0.15335847954749462, -0.015083104128890072, -0.07562268488211203, 0.02644407849831526, 0.1380236986674029, 0.15082520576888364, 0.005734629944255526, -0.057604156509382554, 0.10879780105143269, 0.1092422470170128], [0.011397091367158621, 0.03324049529045307, 0.07398015155098216, 0.07083516550757976, 0.08861103167248065, 0.08788030254619476, -0.022999654906337902, -0.150264924648703, 0.1467365336723852, 0.22289239964710425, 0.04451456619729038, -0.12287747403223302, 0.04291322214140883, -0.10915680354997155, 0.0007037534119828802, 0.004590123736020534, -0.005824144873589253, -0.010367718125924918, 0.1136247063507468, 0.13506452802353106, -0.02546424588321978, 0.0892089751054149, 0.1341573017098917, 0.06111135070305838, -0.0012528839482520671, 0.20603702876154184, -0.12601339413474813, -0.015316982005366592, 0.01669848026144939, 0.1381623473690451, 0.17054688211965197, -0.049685972237903955, -0.04216147687933298, -0.13628404736250868, -0.041972067173959786, -0.1210935254219136, -0.07592673632331158, 0.16079406025369905], [0.04197835859912824, 0.007952730429309855, -0.25298063860132797, -0.009163566328496141, -0.19332567732342035, -0.15643643875383845, 0.035481298400530305, -0.10863155470665971, 0.0439762222858886, 0.17813347722097275, 0.04259953789927652, -0.23224775973606399, -0.18309308720963688, 0.012838220892252922, -0.12326066202052104, 0.13966646897000515, 0.09908228058975461, 0.22231647797079945, -0.06710993247578281, 0.09401607882228635, -0.041477036935669204, 0.15732950578901322, -0.14824313027916014, -0.02061134205757901, -0.16469900945946483, 0.17331707443675531, -0.0038834653364951586, -0.14477206901965628, 0.1949382690274835, 0.22588487497648052, -0.01354759332297498, 0.00013120800375452488, 0.04967895824622817, -0.15874801111334128, 0.010223735695696056, 0.003972163917801777, 0.03889852001083701, 0.17462270691081094], [-0.04333898665815416, 0.009772313618505765, -0.06753093059105066, -0.13436668993113277, 0.14932390589162373, 0.07909196596667209, 0.033479992290611986, 0.004671243046465429, 0.03986861217793313, 0.0747660718151223, 0.10961225950439799, 0.02396093372680395, -0.19861101102340095, -0.0533051533414599, -0.09624563878194267, -0.0928822346849613, 0.14071001077931714, -0.06867463258887571, 0.04727208393177523, -0.0023450715902396365, 0.14733399155976667, -0.034716862943784836, 0.13398601240113073, 0.14352328553525337, -0.18486046391587307, 0.1886967582363906, 0.04360656080983701, -0.19584347068198069, 0.07125737096276237, 0.11678472749367586, -0.0032166252402669707, 0.08846534559164064, 0.008474247620932887, 0.10778080359828165, -0.13273802010665225, -0.021984017531062685, -0.04176747174426754, 0.16417755729287745], [-0.00752565729130785, -0.04704382261595657, -0.07701654832200487, -0.14962567250258363, 0.12746319114101548, -0.03202940632460078, -0.11241784182768566, 0.14537265887099474, 0.23388608932503438, -0.11162637718937234, 0.10471529086128026, -0.14432613257474197, -0.023552727579704263, -0.042593985662657506, 0.1677237833816456, -0.06244144817188951, -0.11923798831224228, -0.03064800012471458, -0.01854501155166868, 0.09592894012422828, 0.13075611281455504, 0.03815836824984324, -0.08632795010567512, -0.01178055961150431, 0.095887484279246, 0.13378909588034738, 0.132808393937415, -0.056765961157354924, 0.030273455404580506, 0.05497066775678339, 0.014111352136341508, 0.17825438552242176, 0.011317647054003949, -0.0899272272747149, -0.1650228975784996, -0.11100082804240882, 0.0872379204856454, -0.07598427609654822], [0.02871783903978701, -0.14845172701738862, -0.010057657490502218, -0.06962898134295158, -0.21201134348685824, 0.1116226332657652, 0.15040420163668483, -0.028240942352115182, 0.18322168631873087, 0.1621482725566453, -0.10282959842188262, 0.02201003441814168, -0.11505288174423114, 0.17281386837821713, -0.0948795010504335, 0.05619062416869124, 0.03663277253070837, 0.09004193580260152, -0.04605482359822494, 0.09233295893160762, -0.19161341382312994, 0.18840415803106556, -0.040165009920392014, 0.11242903933675027, -0.1136536887407533, -0.03995753537264053, 0.05248935930384765, -0.04869905667513638, 0.059545894368126906, 0.14025188686135942, -0.03875866476917984, 0.21143956637108893, 0.15535268667657628, -0.19426262740748798, -0.16713907712679582, 0.08669415164893296, -0.024637781734859684, 0.16812268445746026], [-0.035348982203722214, -0.16193105836123003, 0.166290935204557, 0.17838143879513163, 0.0342337937573782, -0.06945219369100088, -0.04422666685941391, -0.162654796821806, 0.02266317485488148, 0.08005300073389789, 0.13578729337728312, 0.10461243068047901, 0.04074184412963148, 0.03716988757923764, -0.030329124535091286, -0.013590805381716036, 0.013005375127319212, 0.051983962915058836, -0.1532217119685145, -0.07848615075305163, 0.07107213785984562, -0.06591028292876666, -0.024066895511113014, -0.06834994914389131, 0.05626874341290941, -0.007268477607650309, -0.05407283366797626, -0.15032330865055846, 0.04439542140662579, -0.004056132059012352, -0.10675086008286058, -0.14527960312535554, 0.13850378900709245, -0.01846198371211078, -0.08946152205289329, 0.12441124532557589, -0.05960864195473206, -0.0015743003199297913], [-0.18942521730128536, -0.0737011837571983, 0.15752501901268448, -0.10693634748176042, -0.08836795671599186, 0.07838654341331774, -0.024778072192052004, -0.023847076136689547, -0.15199405188012263, -0.2217931349762392, -0.0020447697403121025, 0.17566396983785493, 0.18503936428815118, -0.07584138566718343, 0.12654897942521667, -0.2546111564409206, 0.02316289039830802, -0.07763546576339944, -0.024002851213017935, 0.01865708687990592, -0.008012361692156677, -0.2064523842645767, -0.054183627484286886, -0.014485456600690306, 0.09699203156497008, -0.010956339559014644, 0.10020462571394302, 0.018593368136910895, -0.04097410472759497, -0.14477778102165445, -0.10243736114897194, -0.1920971235555576, -0.061491024552132144, 0.005480277115817653, 0.04419885659312291, -0.20167568527806254, 0.01891628251262482, -0.20338211185200755], [-0.12584243566531078, -0.07282189596593067, -0.11879887866055727, 0.06138227140800886, 0.03039634225441213, 0.07909519454371644, -0.15227160084290572, 0.07655677271934883, 0.12540279431423246, -0.10323893743932266, 0.008578731469271909, -0.122015872443437, 0.1054745467383662, -0.09182709914777192, -0.0970281512978105, -0.15874647844845705, -0.06137813130767853, 0.1363880176308848, -0.12299004152614579, 0.00868460491326412, 0.13341772524256748, -0.0897463246799288, -0.14838745771024492, 0.13516123530722887, 0.044587647553554356, -0.013898744665834954, -0.10146926745466864, -0.0168730899380303, -0.16577235308477603, -0.05070086340186461, 0.09780189746490692, 0.10895354288837115, 0.11909453878512047, 0.022369740401988764, 0.10087503268691761, 0.12284441162647741, 0.09525240360882747, 0.021027470053198234], [0.03097245563009695, -0.10076834332798362, -0.14082779849449775, 0.05062501743056283, 0.026711710989767223, -0.0027236241688702715, 0.13903156049921714, 0.006574994068335978, 0.13585337514397341, -0.11933306352767997, -0.09351679567654611, -0.06726442450083917, 0.05527960494614835, 0.03566389229420719, -0.08857852903715678, -0.15140272380793118, -0.01907878490182924, 0.03133868150058395, -0.032648680625242385, 0.15741628888811163, -0.16658601655940614, 0.13518324654010352, 0.05610707126026849, 0.10170197119006111, 0.0853651444800263, 0.1434264683180195, 0.06914124806430218, 0.01763661073965413, -0.14980726272653205, -0.10770767416950708, 0.0143279687680444, 0.1044785124937625, -0.10760142193468335, -0.020113448945818645, -0.05346894879609178, 0.08794191133449522, -0.00819597487347879, -0.09764473399860278], [0.009946382545202727, 0.1479430766683833, 0.20362460833420276, 0.09158671553953662, 0.11847329875669, -0.11275367266207417, -0.14099222860357763, 0.1072028020771653, -0.09465276912727949, -0.06311019038431012, -0.09849258343100518, 0.028624048037632032, 0.1250586794041697, -0.08408349239708135, 0.09600253214976362, 0.016151945964084962, -0.16412397576656831, 0.022435578206217624, -0.17117423004423493, 0.07650287238950579, -0.09661842363016107, -0.09004499238881253, -0.02712224549345886, 0.09917146182490706, 0.04792597688480282, -0.11737800597560943, 0.17911782011182828, 0.020543148352886773, -0.16932350977329308, 0.03562592050008778, -0.057715683475167326, -0.05005699497682329, -0.1172358969920477, 0.04218049484725877, 0.11615932730497285, -0.0522685262815864, -0.07663604057037045, -0.18229055842457562], [-0.22488963566056167, 0.18052531565772065, -0.03483679811395721, -0.05119203445297913, 0.1106132451418145, 0.08499932911040065, -0.20340577000461846, 0.007842551471848844, 0.0649602756526015, -0.15047495515998122, 0.1392719628422684, -0.019270455144581405, 0.11409746713373654, -0.009270436084584745, 0.007681314811029491, -0.08269619904006044, -0.27665299733925053, 0.048098347403535247, -0.10878675108959579, -0.03265466328743802, 0.22317189961179643, -0.1908502499918124, -0.15200534841822427, -0.030733629279551727, 0.1438579962291701, -0.07372138994104084, -0.0507030867844808, 0.1263419909714456, 0.10047965295760633, -0.11601920857902254, 0.06322814343946698, 0.04822903483738044, -0.02422469768057389, 0.016836418536746736, 0.03352354037113465, 0.03049378861825352, -0.0002974304073722543, -0.12275887518633877], [0.14215876910572614, -0.16275407135496123, -0.15163852828566424, 0.15374745401934561, 0.004477671529080168, 0.06335839882319665, 0.08698287804483462, 0.07991176272125368, -0.016250549556371625, 0.20750084850112455, -0.11449420321052389, -0.18019171064751607, -0.07070581540171296, -0.02470398696711972, -0.08160560820861044, -0.057615985722253814, 0.11521844434436096, 0.20666011281844673, 0.002724301353896478, 0.3194744539894359, -0.1138604122055088, 0.2628729344805473, -0.029754748700055778, 0.14161313003295123, -0.1375588447877995, -0.0805701039132415, -0.06099442903044333, -0.21743695614601546, 0.15303159302898414, -0.006560678019466539, 0.022803711828138968, 0.14158735136807146, 0.06618805465854226, -0.1831772850487672, 0.09989046060229809, 0.01716905114771505, 0.025092014085115848, 0.16017232030755366], [0.021597668801516715, 0.0013259754020056387, 0.1514036693342839, -0.2051880432774862, -0.12036084616801826, 0.011519224079264648, -0.15719879796191358, 0.06005204146707541, -0.1602345654615236, -0.021125565514277404, -0.08598187523607514, 0.02393678774790497, 0.11529258526096325, -0.09757933121579833, 0.14868463938495244, -0.08953270966289628, -0.2636186041799525, -0.1586557263717318, -0.1858521559234919, 0.15518217701143228, -0.03229717769739105, 0.014396895333589947, -0.07291792296906618, 0.013023383509196709, 0.1738095100771283, -0.09323329877059178, 0.03276683933022882, 0.11135286332842832, -0.21601498485039092, 0.034093148082416966, -0.17264982514791163, 0.0875536686047957, -0.23312030920741336, 0.06988886328443289, 0.19264387928803872, -0.004149082173250894, -0.09892750934126364, -0.21218639438535147], [-0.1450380309456693, -0.06755213655624587, 0.13321249178984143, -0.1417932818533819, -0.19818751328409795, -0.15931775696336353, -0.019547531392065103, -0.16267604380432935, 0.13147398039313932, 0.17202480872094786, 0.13704258977524592, -0.041331545627763075, 0.009758899589058843, 0.14474695147808747, 0.1436215626403247, 0.0904774932028237, -0.09862635546848332, 0.03832813280064116, 0.007261880441224752, 0.23287861903357623, -0.05191655409626476, 0.14751467609972216, -0.10824055280523617, 0.23241757698026919, 0.03435386632110809, -0.17447964398216856, 0.08221631333749539, -0.043485644770496296, 0.04227595511395164, 0.10072036651753671, -0.07287008454987172, 0.04024090524372072, 0.13847725166679337, -0.016980854413848563, 0.09659030456632639, 0.11835829067189255, 0.10214244172613432, -0.05011296170224251], [-0.2060457915018784, -0.12823120320516418, 0.18662470442525442, -0.011923717519036458, -0.15886369492342653, 0.03403782906528415, -0.0868809620823248, 0.07910306247567449, 0.12682937046230328, 0.06711350419521521, -0.039762795492455254, -0.05129304760240211, 0.08263637896767137, -0.14690144936744, -0.06825857884074785, -0.09884320473120016, -0.08019134812504428, -0.06186014533427111, 0.0927879231189738, 0.01842152385757827, -0.12468419021007789, -0.01942926553469766, -0.053371744308868714, 0.16088735158333983, -0.09179363168110968, -0.18235193966331306, 0.07889767740210606, 0.14366023067504166, -0.16741427314045473, -0.04780234229629386, -0.18580646974364043, -0.18312372156650594, -0.24607286005758403, -0.050628285732796104, 0.19393028923249028, 0.04878232326215884, 0.02595061139968128, -0.13440688792755426], [-0.31897243606462566, 0.19319355333630256, 0.23795518945775163, -0.2990512271393745, 0.16720074230618337, -0.09407165492594398, -0.19548498039816029, -0.06461441001796228, -0.22218573212844525, -0.1876570293070341, -0.09827687794510864, 0.15843814580576102, 0.2464542388648714, -0.22592676466223557, -0.04183692800148086, -0.051754289023704776, -0.25240210304455035, -0.23192613216637875, 0.03127787607881156, -0.11907471536317553, 0.2574667022914561, -0.24024181831504796, -0.09511680271485456, -0.051169629738144755, 0.21957190048416717, -0.03209817795704452, -0.0639887135960224, 0.1455497164095362, -0.0957128605595252, -0.07084099885832074, 0.06741938874212113, 0.08421705119867841, -0.13125040486165815, -0.0136244908687727, 0.1384900887871324, -0.038549455713550465, 0.1292014026950488, -0.10033399386427867], [0.22680756087552276, -0.010837328452206921, -0.12269637564544382, 0.2203195126837118, -0.14184136405176206, 0.06599954864204663, 0.09708484419166466, -0.08890906734208512, 0.14778265827563566, 0.20820155992340333, 0.011145666034605827, -0.24493974445589198, 0.040084489161127265, 0.20984729935975624, 0.09695593390231734, 0.16759540629613554, 0.1588894559671267, 0.18899968480720697, -0.11370044815869132, 0.22514059339150072, -0.0258863655266015, 0.2228065558675756, -0.029403757652334942, 0.1401623061577828, -0.21078499358234123, 0.02980087827503139, -0.13004271127567194, -0.10585855839560651, 0.2086595503241633, 0.16655290418295016, 0.23350151553050863, -0.012590521663529657, 0.1902699577718736, -0.0914340741226377, -0.16898500426278665, -0.05010198400568621, -0.006003906164549825, 0.16688407781629452], [0.19774914596328855, 0.03378478935887866, -0.1529306628604036, 0.26678839673580224, -0.10440858683073112, 0.07256280356151669, -0.017230258035877837, 0.03797565017831482, 0.051279701418844845, 0.010504228346269783, -0.015641897828379187, -0.0762100225401446, 0.04021550291257918, -0.00043605217950672907, -0.14271131091663303, -0.09826044455555388, 0.3037096154714365, 0.01828738974170973, 0.0923369635955229, 0.054062104080333885, -0.025105081102814078, 0.3165742790042195, 0.14020503734844394, 0.013358390512223945, -0.15606063961627972, 0.029534170182209447, -0.1567855969224122, -0.07613746323977034, -0.1439091603314634, -0.006536404613741343, -0.061623751965873504, 0.09492071313018337, 0.10106497763082896, -0.1148991594907739, 0.009195129189930377, 0.04272426315742085, -0.1201752672673327, -0.011044500966997061], [0.18023836197422866, -0.14598381752825612, -0.15605486476285266, 0.1134128316330949, 0.03926110061175535, 0.07400182950860905, 0.08872456935079975, -0.07717225430368108, 0.035994314755032876, -0.027243750043591565, 0.07978881555182481, 0.01360642229209964, -0.08082292238937688, 0.17353466686368993, -0.1197887826131307, 0.10238099682505358, 0.23169813976762027, 0.3066843416537094, 0.18042673723020022, 0.21869714867791615, -0.24769547839795325, 0.2702918256904486, -0.15571170496365316, 0.2988402969830501, -0.07588777586979933, 0.2143178314732693, -0.10006763301569442, -0.23654890019750016, 0.2615534352252554, 0.2266766128820409, -0.035152520935337536, -0.06413916730933156, 0.011979388035793697, -0.12263183001858877, -0.20353542668568253, 0.08437942218018567, -0.22641574667405545, 0.19198540087677668], [-0.2155564195361018, -0.10648899460210665, -0.06598690521675188, -0.0517648949378283, 0.1250984367278142, 0.006292878032720036, -0.13195858968640908, 0.14829981598706196, 0.0460612829916305, 0.10919709293365434, 0.11198225149219686, -0.11095874635386312, -0.21119952513014453, -0.16396446978780937, 0.12688405705809747, 0.31473383593233967, 0.0950162637379375, 0.25446899920510807, 0.16515967104526616, 0.14071089885626836, 0.01166685828576933, 0.20340201368638505, -0.14794193794025912, -0.12207222168762175, -0.11378923592252316, 0.05424197272166865, 0.04163282178495599, -0.12622196424244794, 0.2943349160526875, -0.01535460502112687, 0.08042919969868079, 0.04325313066254544, 0.12009827272410507, 0.22509487547368145, -0.0946120758666122, 0.055050459699102966, 0.02884043628073346, 0.12034646006298987], [0.1072867030341449, -0.14978691000587102, 0.17129562112820562, 0.05314826107998292, -0.09045810590530506, -0.15938317738818736, 0.10817778314727121, -0.084648803095427, -0.11802238299252389, 0.05937112368708258, 0.12895414728486493, -0.10544877537716021, 0.13809800442528092, 0.08851594619251967, -0.1398269523669646, -0.031550207317400124, -0.10579413732290502, -0.08652064040043284, -0.011466008033892678, 0.10225558532672256, -0.07886612559608318, 0.013279157295772354, -0.04807369591215939, 0.14623645763594212, 0.03905649939221475, -0.10836428553923198, 0.013180530712364691, 0.15617213751040815, -0.14132191779525582, -0.06799343652686717, -0.13180465735578176, -0.1395186634894009, -0.16264769328927284, -0.09950400900114974, 0.17882766523258492, -0.06260590902000808, -0.11803157571960385, -0.20892150051708158], [0.0029738674310074093, 0.15312071635837932, -0.008371803203300011, 0.07036566355559008, 0.07569266899960005, 0.19835621026690586, -0.04314118234407307, 0.09555107756561014, -0.04862755761515429, -0.15383779776658252, 0.0670463585346749, 0.12386567319728958, 0.06197275440987271, 0.06895901264596088, 0.14079930624076079, -0.34006535020083445, 0.040630005548264084, 0.036309597453130275, -0.1739534616007075, -0.21597241878581275, 0.09710973713890866, -0.0447792867354731, -0.11244907609124709, -0.2399613589687467, 0.018065227163963096, -0.21393305960407463, 0.019944517636866194, 0.1841327001974763, -0.2095149089084029, 0.01422958780500578, 0.008439730953566123, -0.2294645053752028, -0.16647935266090605, 0.21218350317680815, 0.18137615962574868, 0.008152645982422803, 0.24386903909137828, -0.2851721370922222], [-0.24543762984352793, 0.2300550092772913, -0.06024018047568918, -0.26154219931164363, 0.07749438511864691, 0.04100853538381295, -0.18144778664814884, 0.04774981726518588, 0.15917938328201148, 0.0796066209902061, 0.06583251962053546, 0.14778651584330635, 0.023159121383731617, -0.13277127378410167, 0.1062278476624926, 0.01423239190348211, -0.17105421004200885, -0.09528368594321149, 0.027430260462545812, 0.08202791976494533, 0.22651527679944142, -0.09156418375014863, 0.03346739939797515, 0.08122086355743952, 0.08276497636590457, -0.10568714688443498, 0.1940401252394152, -0.0878356688195861, 0.20320447693838306, -0.03213449887480141, 0.07446917670462896, 0.02896435106196909, -0.013292386984893902, 0.12990207850125152, 0.04540067289833911, 0.034835438607325984, -0.14841571239204643, 0.10125240359282653], [-0.15744332011468287, 0.2598808313556172, 0.06621034944345723, -0.42267957690917324, 0.11055417322799485, 0.12365165700826704, -0.15118232156678918, -0.007162655682368041, -0.17799576149326354, -0.19634838143543537, -0.016364246607487525, 0.13305969750246235, -0.14568443088803812, -0.34187359920104765, 0.22237324404917747, -0.12434592539316669, -0.06510875460981322, -0.1838296210987652, 0.13237607719700742, -0.2655797267668702, 0.19719295400839965, -0.20531584455530427, 0.08465257662431155, -0.26171600140498685, -0.019670926229059266, 0.09879307544690095, 0.05078899632015339, 0.061578134541891406, 0.12787911266480245, 0.10784497373755131, 0.024540293679739807, 0.13722895682781944, 0.20955255353273528, 0.36117684780420306, -0.035890068143642505, -0.28730591363902275, -0.03979529240656317, 0.190147235265158], [-0.015148799985189497, 0.12278444528355804, 0.07860825887770108, -0.06649910822749952, -0.11788413448847673, 0.17722114730833802, -0.004679442371276496, -0.037827121455599015, -0.1305538478457696, -0.013187167442716021, -0.10443656408301757, 0.03233523607615399, 0.1905639915384134, -0.03559029993014988, 0.14852827587383075, 0.06037541166681154, -0.12619226475054113, 0.02767942849957607, -0.03136282187607768, -0.08569405668307342, -0.25179449275272553, -0.09059010555493857, -0.06688437979452452, -0.011014483807998668, 0.2373738317134715, -0.04581149018706772, -0.13417804219015764, 0.18731004511057986, -0.4227338518388181, -0.45430341260039436, -0.18580473024500058, -0.28235735680430574, -0.17579693609676336, -0.14819315280465756, 0.09867236696329931, 0.11804411610461749, 0.10489787389161276, -0.11175597247911623], [-0.20219289931582543, -0.023960583317612014, 0.14904589808901125, -0.18903469546496007, 0.08024838781878882, 0.20619126444422456, -0.011735023410941374, 0.06947394332904883, 0.09981685459781364, -0.06995827303928798, 0.12519061107272336, 0.071555465390946, -0.13421882912457858, -0.08854419063217964, -0.025766982741357636, -0.24238570578419974, -0.050459027682052314, -0.12792769127095038, 0.03640780373624032, -0.21839201159602775, -0.03798162659141432, 0.07956939608358723, 0.024832352364466546, -0.22051759930816098, -0.03850103254407182, -0.2292895809230828, 0.10651476067118257, -0.1963110941740936, -0.057180580683391685, 0.04185342802377405, 0.11061185725614195, 0.004266789227923803, -0.15292715430448733, 0.19734642696520932, -0.028542731518063098, -0.22461641870796475, 0.05645775583426477, -0.116363569396373], [0.18177832655318066, -0.18099313069963527, -0.13642801600666846, 0.13369268632343026, -0.09198026677562643, 0.07574041979219624, 0.24603400509805862, 0.03920277187599585, 0.2656911366467163, 0.23029432210764023, 0.015273580771451, -0.35424432075664564, 0.01820368937631027, 0.16461444247983262, -0.10018023303925812, -0.09982725887968605, 0.514664277328825, 0.4100478410376108, 0.12327485466391976, 0.20135032396265382, -0.17511201750800537, 0.4597959892439187, 0.031471097763665835, 0.23084810868510774, -0.11338902566831513, 0.2815003564248044, 0.016031751211215906, -0.17443485427598604, 0.07316695004744764, 0.042743041288142256, -0.04915277350942297, 0.20274786659466812, 0.17939834520744158, 0.12334242208977753, -0.23769899062445216, 0.06907716343223885, -0.27047391358014145, 0.18000186089369402], [0.20957495188835554, -0.014107419399885862, 0.4269349474861088, -0.033981150047954316, 0.11541589862867034, 0.044612449295926726, 0.11077964756801754, -0.09999740021517438, -0.055884434316972154, -0.03208216449186201, -0.11474127017371923, 0.12279279256348548, 0.35533430083146217, -0.06578990499993573, -0.05879492018106773, 0.007750906729358664, -0.05857058942661951, -0.17992445230066972, -0.23063854060317315, -0.058665872076301175, -0.029727338452581208, -0.290177129103419, -0.1587412678302129, -0.1958503380540307, 0.2421720890452961, -0.11375993030869803, 0.12857433359201778, 0.213913653015807, -0.39956058738950584, -0.4791129098066766, -0.08718445751816085, -0.32117237974007895, -0.5207717189792516, 0.0011162915812438583, 0.17574581398141814, 0.02748479811704725, 0.21658353021835175, -0.15359323629608493], [-0.4248404242060644, 0.2518837302039183, -0.09871227826040548, -0.2328854972732378, 0.16420946167439868, 0.10283156682192153, -0.06685305304280251, 0.16896670277640535, -0.0055691777180080036, -0.08164798424824862, 0.14749732166615243, 0.07625134191060749, -0.11855395962221107, -0.15361917739580375, 0.298983732884741, -0.17598299624602737, -0.09656388653484983, -0.2719364491570202, 0.11934791468764354, -0.21776909073317305, 0.451459845961277, -0.18588513412753277, -0.025348786054929108, -0.03304200852933496, 0.13324460972506014, -0.16585505995109864, 0.15385761678101503, 0.10239074063264703, 0.023956637701609884, 0.06554738353136619, 0.1811116156785577, 0.09919269729980575, 0.16919152847105967, 0.1484074547602614, 0.008539611488331544, -0.05004371617061345, -0.03316224254152168, -0.08726132863585219], [0.17889350499782689, -0.003849238570895791, 0.32724440814796374, 0.10029394014252052, -0.04625341590897368, 0.11980443925294061, 0.22097081093254003, 0.02574334321956153, -0.14468340959987283, 0.10626845482340994, 0.07727368630895842, 0.03999524782872779, 0.2771033708912282, 0.15828025670530055, -0.10709766539696476, -0.0829169069509948, -0.07918613216017298, -0.005939537172861662, -0.10377987568318624, -0.13185653798178165, -0.25779122060537746, -0.15852575047500683, -0.09866099137156584, 0.04233198924539712, -0.018441753618695246, -0.05687740587765039, -0.06151457480544843, 0.069236406992088, -0.2591161351159976, -0.46244940266561924, -0.12567060716696607, -0.1625616173315773, -0.3165227397717403, -0.20655130659331616, 0.2841036354988171, 0.16116289449324336, 0.10548454208733904, -0.11951830927616541], [0.010407740679154492, 0.04282474806942226, 0.147225546592433, 0.012053520942099862, -0.09141661297737541, 0.03650450587763898, -0.07771909482294094, 0.03591398260038216, -0.32979671311118497, -0.24440036428696976, -0.06035213306980197, 0.32552372338074814, 0.1768676279720401, 0.0505152373941282, 0.0672444068429229, 0.07540579923704517, -0.3961810704709894, -0.13888547746512275, -0.25406599643434574, -0.20153861547494148, 0.0922171992715086, -0.2803028846071294, 0.017488519841399573, -0.2442613706557838, 0.06827994104144429, -0.03770696914666696, 0.09640362131744898, 0.16442901801352583, -0.43018612466995976, -0.3780617126343862, -0.2558532792476497, -0.1464025639067355, -0.4482172287296032, 0.16118897371150698, 0.30755939789254, -0.05718066775503222, 0.3078709532421398, -0.3456209212710801], [-0.02467331744291318, -0.03981809121383801, 0.09780880511690139, -0.08204428282873683, 0.051399416112534374, 0.10281427825450323, -0.0115954499282959, 0.06929656645644705, -0.07718142325773167, 0.01593592692915059, -0.13059920429817856, -0.07386099495430382, 0.12659189522735492, -0.11153393143655582, -0.17080824509251177, 0.10820296340135405, 0.1422797960853358, 0.07043475133132819, -0.05545393762375292, -0.07160443862251019, 0.0455319282386288, 0.09762112331372481, -0.03334875049683956, 0.2071165671935892, -0.06015219383458193, -0.00581659000941609, 0.13400698504374028, 0.12029322948645006, 0.1271057906724808, -0.13903593304716394, -0.10678441289835931, -0.07931429684013437, 0.1445546450840387, 0.013601659371965188, -0.09621422813889917, -0.06787889875407604, -0.02520711735407085, 0.10061497818866658], [0.002693269015685472, 0.03699210137312065, -0.13775216410925453, 0.12458187987261927, 0.05407370704261727, 0.07856616524132592, 0.036908157106044934, 0.06605436976986659, 0.11360877292280146, 0.09421439953488545, 0.012319371868251118, -0.20222255056669133, 0.001040598848684327, -0.09047094093099545, 0.13072028025300292, 0.19270639962737254, -0.06836197538101807, 0.18830209148219848, -0.06009436069608916, 0.015045151851348004, 0.12457074174064493, 0.14371742039308724, -0.0273234650070673, 0.06208848795354282, -0.19476102073450852, 0.19841495817758692, 0.12804076576030746, -0.2079179688201218, 0.23862600427986239, -0.019360210017816543, 0.18415217978717566, -0.10027624358592152, 0.15378511549228077, 0.09929620599816816, 0.08257469494217362, 0.05207246548051004, -0.19523109165230446, 0.2185981723058831], [-0.09059928052352775, -0.023653038915582597, 0.01245439401496312, 0.06688050245973685, 0.04518386314026441, -0.0648307140416975, 0.07791482739034049, 0.12873139123066046, -0.11170746764753657, -0.035839494466998335, 0.08506684811212759, 0.13660814055144588, 0.03588315361136295, -0.20628577291152347, 0.13553935436594233, 0.0822274523817677, -0.18673737335305768, 0.059744877103648494, -0.12202126352160216, -0.06958277236082111, 0.0323051295499335, 0.009346126277584008, 0.04117852575353811, 0.09492528951216334, -0.008733256825199483, 0.12787867198803407, -0.0571967973896247, 0.02172209086631517, -0.01884340084377112, 0.0005455279945434633, 0.09509160174589694, -0.1307966629469539, -0.08442751799636385, -0.09748803976436908, 0.12623428328188863, 0.06899859973345031, 0.0067933928425475115, -0.07121385347531112], [0.1066394043204334, 0.012622414815619994, -0.036091054821293156, 0.17412426796895938, -0.05155937138997225, 0.03817125831368727, 0.09431697458836268, -0.043721477883425286, -0.06335211215802118, -0.07404580217587976, -0.015314080816203272, 0.05421531886841599, -0.04141860045741287, 0.07283491539115934, 0.06776856240992632, 0.09648937992674979, 0.08177319210632177, 0.07509711830834345, -0.09780894686895043, 0.12208748996403403, -0.21073636263093173, 0.2320621998101535, 0.11671752238135316, 0.18532488787816864, 0.01508676463335723, -0.06830690267270054, -0.17709013427399178, 0.0011412490942990657, 0.1376229099951662, 0.137741862074225, 0.12030792216525342, -0.0014988375757088836, 0.12886129905179594, -0.12942632936771872, 0.028199358419486138, 0.15686106315356171, -0.20076468199106007, -0.13053927607078689], [0.16385479091606195, -0.1068317577197731, -0.11596024223509517, 0.07057368266930379, -0.14604546206135557, 0.08533845685437089, 0.13474910279076482, 0.09440392675837181, 0.0436703378607837, 0.012940748176856639, -0.06866648317479011, -0.26328509219744356, -0.10924651066172329, -0.07807836322435885, 0.11458573792303414, 0.21628100500184164, 0.03687635648474922, 0.22613512402243405, -0.10064998365698634, 0.02873071971002728, -0.20809447506623865, 0.07906446404834894, -0.10754561739944647, 0.2795151978823244, -0.17421737684604977, -0.03636651592744682, 0.02457603365749734, -0.16630042424857705, 0.004758235271127718, -0.007617235563084917, -0.08246189758268009, -0.12957138753924075, -0.03631023338006167, 0.06679210948219003, 0.09004018770171646, -0.05825142807163234, 0.02738210906485563, 0.11085476473157982], [0.17861146993910285, -0.046442028511676524, -0.15680297093673903, 0.24078219253292568, -0.20548987654276923, 0.15248782730680172, 0.08763504786543871, -0.09344677284387913, 0.08170303276514332, -0.05692643178634778, 0.09244317410145192, -0.24000292473977572, 0.04123816851336742, 0.021105538023992225, -0.21414113099893395, 0.0896823843391095, 0.21921266373476087, 0.1214013703048108, -0.09280786008627652, 0.1245308070061199, -0.22964527764249035, 0.29687435299531373, 0.05101861033403842, 0.1503178933265718, -0.17157701276582238, 0.09240289602295433, -0.04313256047111403, 0.11521558965176226, -0.012795288780381206, 0.00585425437753844, 0.1618644865613747, -0.08961966290135645, 0.024033497891635152, -0.06603961950732457, -0.11761493031617296, 0.014346722470593327, 0.07348276834622304, -0.025395531228226294], [0.06778427833848541, 0.15436473138115842, 0.11726020729384906, -0.08408065378993869, 0.10832520997368883, 0.10993315172770729, -0.1206271863490658, 0.04825144785885544, 0.10285220884535913, 0.007805140666913081, 0.030449159985167906, 0.07492762840614076, -0.0033055276419799873, -0.10857557147089084, 0.13297232277236257, -0.041389882160088744, -0.153480776772545, -0.05690196491685527, 0.07297029273003842, -0.2357829476709604, 0.09437624770023348, -0.007066840627843714, 0.12045566376845175, -0.21174369066869592, 0.137265949906251, -0.014368863082696987, -0.09982007780305303, -0.026386024713643333, -0.14694086380692375, -9.841317881054135e-05, -0.0796906864359016, -0.09240097895765129, -0.13986542380831396, 0.1374053742306384, -0.1306880784840175, -0.12861112568265068, 0.18251571024897909, -0.011489413931555033], [0.22514009763077322, -0.09831774214924226, 0.05265904494123727, -0.011149421292691674, -0.0015723302717861498, 0.01243213820993485, -0.03713207893399919, -0.07489096055803572, -0.07962118860901571, 0.15600878643630525, 0.015210053951473505, 0.0859781318181928, 0.03784585427484226, -0.03178036489730362, 0.0644131721452483, 0.028687214797276584, 0.07995302698911685, 0.1621653314491881, -0.125232554845008, 0.07863581854750004, -0.2060484983332576, -0.00884167596531585, -0.03364771493901769, 0.2099865126729652, 0.056605900046105655, 0.14916806515008976, -0.16138872315878108, 0.10251741985581546, -0.020967394750243385, -0.08090231877180684, 0.1740952116118137, -0.07869924728968536, -0.05462131776234307, -0.07667158858800442, 0.05771260924736934, 0.07116498329306063, 0.07852223108173148, -0.12256718120105208], [0.23235254489478077, 0.05481437647696248, -0.19701405666535832, 0.1575569380897159, 0.03491679853279943, 0.16105069935565572, -0.029815429538545317, -0.00907736016831746, -0.024314696910048547, 0.22680261539247165, -0.015314930615353125, -0.018841299155262604, -0.09185245789063709, 0.23704521083642058, -0.059442627701343495, 0.18528139586237258, 0.1756248242412549, 0.2602422581747437, 0.010554537723891207, 0.22300455728144875, -0.012013923009452955, 0.18236225824233956, -0.014284157668768864, 0.0075158182081972915, 0.010432205984590296, 0.014717696014060177, -0.07647195675943147, -0.1546116268779255, 0.15920247425102071, 0.05059657988225299, -0.12508270938790522, 0.1540499889413594, 0.14690641104283295, 0.06853954051642483, -0.1287018950489488, 0.09607416239451728, -0.11254230016406702, 0.02535115088574542], [-0.05037344129120337, 0.1417593485695745, 0.09052333590700652, -0.10991832122402365, -0.0023372674763838027, -0.14307272170124538, 0.10095571385841076, 0.1494528167922223, -0.0017062920521937032, -0.08998235929297739, -0.0803545083818456, 0.11286633341280373, 0.06265466420434593, 0.07944713380947414, 0.07268505748463107, 0.12356520396694771, -0.04810032232138137, -0.019082811155738063, -0.08388569909367745, 0.14465414503405746, 0.028511636404681368, 0.18188404530706323, -0.10975057513682265, 0.04388184746175674, 0.112177214347122, 0.11563180374450094, 0.050840631358458614, 0.04403410616086713, 0.08535108580748767, 0.046979251759759186, 0.13163201695764215, 0.20571129458261725, 0.1476500901552319, 0.14392183816553294, -0.20310472645967667, -0.009336639519102786, 0.09078351525208064, 0.18375139995164172], [-0.05100021984765137, -0.20143605444246981, -0.24619173221702367, -0.0552283705351251, -0.05455014617588272, -0.1601022123692112, 0.2110941359633744, 0.07217865594497441, 0.26496794397623535, 0.15790864413233963, -0.07988138969758168, -0.170647867591877, -0.0932449000899255, 0.22839165312626286, 0.10684553764483522, 0.04918990811853861, 0.2429432049207738, 0.08276903156745279, 0.20444574350862427, 0.29150101939922124, -0.23976645362847643, 0.14516196056576897, -0.02056820456191145, 0.22945047158968793, 0.03356227023027584, 0.1565075472481145, 0.06607415975440298, -0.12158685245576635, -0.03357811785840781, 0.059716695209575565, 0.15332938986548492, -0.05032528017513099, 0.11843971880500116, 0.06420615470850757, 0.01644730845486334, 0.026287768977602412, -0.2367596721705187, 0.10628420348634653], [0.198948760541063, -0.02882142552144068, -0.23876112620980197, 0.019964891235216515, 0.06554284492038714, 0.010594537336360293, -0.030998933895091976, -0.030967394708436263, 0.1423414335246102, 0.1726678635962218, 0.006959133942057475, -0.21363706678276262, 0.010299996812716867, 0.09144490067888213, -0.16847624980202355, 0.13416542269562587, 0.20919714745447746, 0.27254679329250125, 0.05787915597037003, 0.16419756981795203, 0.04271792111606172, 0.18592104863361705, -0.08778241960065918, 0.2925994444876507, -0.15749560804775029, 0.061255057044386774, -0.06291709574980119, -0.0013184980269055507, 0.24129479703019777, 0.24000196454535103, 0.0018030040680669808, -0.0708495082765422, 0.2293903670678406, -0.25173097589892707, -0.19806711568986418, 0.1871642375648977, -0.14776343282764204, -0.06767687218519282], [-0.2663007338356401, 0.11544578469173358, -0.2131274476851444, -0.07552989759466001, 0.20257574613959412, 0.12363812569774649, -0.19901630534640513, -0.09700238688928957, -0.09830511244305636, 0.032890704924019444, -0.07570019737561802, 0.03740268544659389, -0.0008979830124399452, -0.028451746551976794, -0.022541808556092596, 0.16163751563593484, -0.18280523155054737, 0.11849365965998448, -0.07853566051349893, 0.008229219456322165, 0.039118544972105485, -0.005653749858784948, 0.10418011467733612, -0.20843710123876844, 0.1255324326305727, 0.18986186880831143, 0.1788808418117764, 0.005934803284792361, 0.10877966730014314, -0.07403633336854659, 0.06910395136860932, -0.08178458155098256, 0.03278593715815192, -0.09030267762473773, 0.10509625419095468, -0.05493484713916982, 0.15691770924775653, -0.0344271298856424], [-0.05951819308924298, -0.0021293647653736186, -0.13202167039008952, -0.057807122026900665, -0.12458277356384707, 0.1288966839324037, -0.1190782667475901, -0.0426110464514715, 0.004595257371701826, 0.1827488672767166, -0.1632428946936599, -0.182686438715642, 0.04286937038197188, -0.14668889820116257, 0.05976252000697437, 0.201168697526291, -0.1144391146709947, -0.03916509197583927, 0.0737999363376793, 0.0729508769495355, -0.07909505280405342, 0.12133183542829847, -0.12412185920552354, 0.0862218525362744, -0.01300690612878334, 0.17736457363161953, -0.03471565820843433, 0.011212008811957592, 0.218015349687914, 0.17765975271577963, 0.08815234562647715, 0.004537875451048284, 0.011700659455255683, -0.125545180498023, 0.11756670102336003, 0.08360178198573488, -0.009028429046963111, -0.04462536033660513], [0.13261250374727235, -0.2139190941431602, 0.0151414447862712, -0.11814853337314392, -0.006881196112159164, -0.14364099028578314, -0.0479408795600906, -0.15512736730653703, 0.05388095347273838, 0.06771026456173371, -0.04229904020377076, -0.2344588778424097, 0.065701058207641, -0.06771448693247853, -0.04310540489799103, 0.1709445908182693, 0.1875292094040398, 0.18487557866942286, 0.03409909356104834, 0.11383581231883944, -0.17401002213305694, 0.0186541872022352, 0.02536337738693897, 0.008848198758245005, 0.006851475728929898, 0.14164390772583058, -0.034116441895660744, -0.20834331629773237, -0.04012159883184698, 0.002104966472413238, -0.01927322889604255, 0.013670768749335156, 0.05312631437910345, -0.01901955785016099, 0.019591457538154403, 0.1785128904648094, -0.0837463768666289, -0.07260936947353519]], "inputDataShape": [90, 75]}}, "poolingLayer": {"combPooling": {"all": 6, "take": 4}}}