{"convLayer": {"combConv": {"take": 2, "all": 4}, "convCore": {"weight": [[[-0.5297981381700057], [-0.9078712600024031]], [[-1.4605440221600972], [-0.3785442247474442]], [[-2.1583468241448402], [2.4154956552593396]], [[-0.4390624046386745], [0.6649137444018568]], [[1.0490560775565325], [-0.9545620085465215]]], "Num": 5}}, "poolingLayer": {"combPooling": {"take": 4, "all": 6}}, "fullConnect": {"inputLayer": {"weight": [[-0.1389878595678348, -0.10934668696501552, -0.11979894231071987, -0.19342030363024748, 0.04545694850523174, -0.15366716423242116, -0.007956750985064157, -0.10301442917519964, -0.13066587315311112, -0.06031921862671866, -0.00459941095047665, 0.23078108377325993, 0.10978160507353203, 0.12214997197021622, 0.06281184960650696, -0.0031688812999270412, -0.0847760841049728, -0.0665732551982496, 0.1527718009046943, -0.11528868330454872, 0.01342946752384774, -0.010155206482145728, 0.05064460098326869, 0.05847880107216021, -0.12233285928260017, 0.14656504224576078, 0.14759066902686477, 0.1442838369962545, 0.23476151366077794, -0.10219645260656596, 0.08460278141808765, -0.1682108781239569, -0.12797717156360786, -0.10502910660907311, 0.24532892244041848, 0.07888541041788133, 0.015991632213602912, -0.012614584212358344], [-0.17914979970772488, 0.029893996630499794, -0.014055066763116658, 0.1276014246737787, 0.06173815987452024, 0.08485886184942343, -0.10878636911598312, 0.12978338636533282, -0.06135483131978135, -0.06379324176711583, 0.006828926169476804, -0.14098695869579464, 0.12922205858540325, 0.07948639669619895, 0.1302660964439147, 0.013256082693236587, -0.010935690345538146, -0.010317236223498297, -0.13174946891819955, 0.020863424518685177, -0.019317600888236766, -0.11423413509004467, -0.0159803921200015, 0.13232159329746018, -0.157223933549116, 0.1810876125698015, -0.030047358233628047, 0.10619152416990256, 0.14420427356186988, -0.01698444120956051, 0.0005033661852366705, -0.15269171957373034, -0.13030129569015844, -0.13566840047653883, -0.1924274054144575, 0.06592916637515034, -0.08415321173236873, 0.04552664960175516], [-0.08091838703828351, 0.10213557273198143, -0.04621665394158412, -0.1509132488581632, 0.13029724443324664, -0.12650024469848042, -0.006584763723619933, -0.057860663150860255, 0.1510615322465548, -0.1334091620990563, -0.07788310980488183, 0.1356966247514438, -0.07718560961733695, -0.1072158067503824, -0.023998727409989484, 0.11884666859821252, -0.03955360456187121, -0.16071673894238367, 0.09487446538394077, 0.10616534817962511, 0.015054254536814766, -0.04384720754403672, 0.014971365635371435, -0.0761719659466899, 0.09742806779747537, 0.05811015908074841, 0.1610624134857456, 0.08699951597453054, 0.09277210528367384, -0.07842726938783529, -0.12372904739278207, 0.15718661381305277, -0.10342628859573776, -0.021303074494175966, -0.0082252690257953, -0.0891262227327813, -0.01243800113887237, 0.1551118067810307], [-0.036169574544300066, 0.1226701493942429, -0.0859035547711261, -0.08754330745930716, 0.056670037307881095, 0.10307701157120534, 0.12900290769110037, 0.03173900537717361, -0.02802725661789955, 0.0447621703346317, 0.0924308722968626, -0.05523603394930844, -0.1296795810021774, -0.003939010270410053, -0.13289320754430978, -0.10338260923533596, -0.07947635688676762, -0.08884863151175455, 0.11666425166900511, -0.14491733915078664, -0.15392871054723287, -0.09390404865366551, 0.0926779916655352, 0.019643183762729697, -0.093294622051872, 0.08332648713889533, 0.01076266160458252, 0.08287416770561803, 0.14090404187333444, 0.13159053331154041, 0.011892469909930965, 0.0885991899130685, -0.17699523082131471, -0.15674802530190649, 0.14870584437528275, 0.12829944037421653, 0.08784436292527477, -0.11595911349288512], [-0.1279933512989036, -0.1453687114118064, -0.10317380915137395, -0.13230372723462525, 0.10735859858717892, 0.15454237446571614, -0.0004631087369430927, 0.13746783483676825, 0.08060460835529558, -0.03311208152394855, 0.1556414314644394, 0.15506310331911008, 0.05810830129956418, -0.14353840807001864, -0.06270209244598383, -0.01818424707770766, 0.062292771015297455, 0.023496690751027734, -0.05347781960640588, 0.14298287627744474, -0.0071124834673203605, -0.04796545595362117, -0.18617858769900456, 0.0014656510435154487, -0.11788693421400188, 0.08394619606001054, 0.06553578309835795, -0.1572051832260776, -0.07720529971008579, 0.04677986889236627, 0.1823401490296313, -0.030687465509445948, -0.02045548450260562, 0.10160665589688644, 0.0553774207577982, -0.031527504166000635, 0.019906403323664223, 0.15215304175612343], [0.0747317940603719, 0.09453425559315798, 0.05338749393779067, -0.012764206102713168, -0.05883574661387898, 0.06568768462978687, 0.10589569938236272, 0.08510072862636961, -0.04530967880268217, -0.14382572418561973, -0.05346852520467212, -0.12107267937362183, 0.053169710675627486, -0.14415745682782174, 0.08821354994011117, -0.08777579618107523, -0.06036559356786649, -0.03225033242743232, -0.05980027463822958, 0.02336069733479935, -0.07920671972870964, 0.029654465297484087, 0.03653822907113341, -0.1271528410371856, -0.11472374370948374, 0.043355102215079606, -0.012525696655968957, -0.11033438109786836, 0.140347126516163, -0.0906958430578364, 0.15746997026935325, -0.13087778932523159, -0.07981958020689427, 0.01703633727330214, 0.013741749971924984, -0.03097885492618925, 0.04388736859097629, 0.13348989837646003], [-0.1404273435256073, 0.02078003426575089, 0.13334987513932095, 0.045668112173061326, -0.09393904855587225, 0.1602897730827169, 0.02400362759206918, 0.16742000929647752, -0.19147667865221338, -0.08951516425403651, 0.14225087835203723, 0.056778717229819295, -0.13155411732706432, -0.17487161163876977, -0.008912107494388555, 0.07826455538928434, -0.047969310985477784, 0.13040215770766833, 0.1659035367923353, -0.026071349589983445, 0.01837681722004548, -0.07729815023454645, -0.0719426869221269, -0.11316047313048677, 0.13470903892333203, 0.07839796306915907, 0.06485425801864675, 0.1386002934805945, -0.12765963821722817, -0.04909721849541282, -0.04951343099409346, -0.030553603743092975, -0.02121147780864921, 0.13278395442856405, 0.044145703291967014, -0.054421039431072064, -0.13308121503450632, 0.08193873936518256], [-0.16724576769703264, -0.06891042233582197, -0.010630329799373972, -0.10926426834194762, -0.0231387115416991, 0.02441430696482682, 0.11153176900856612, 0.10258938560595152, -0.14378999272856585, -0.15312878604433378, -0.1324149406295905, 0.13005753815281756, -0.11425177837325352, 0.08094863762226322, 0.0218068834604153, 0.11339551820319035, -0.13124759241901976, 0.05484833951419871, -0.03827161831878475, 0.1694431048489928, -0.13280230172139815, -0.05414316628179285, -0.13894926281364062, -0.009466415350850422, -0.0782406666889861, -0.02893710995409469, 0.11822025627666313, 0.09091737337245019, 0.17588284651563182, -0.06815511564296377, -0.12108735598278395, 0.059097671589253845, 0.005722390766511918, -0.0017104557113038355, -0.07388094477979382, 0.062028723363813744, -0.03913730535506724, 0.10294545416564732], [0.06838119863457759, 0.09808134929083331, -0.011572049609098491, -0.11438298379316357, -0.13414889513644468, -0.11570861922127401, 0.14526894819563635, -0.04178673144439139, -0.04613968833785985, -0.07484814015188397, -0.12067603695200153, 0.15419757872573148, 0.062136621196288586, -0.1010206097243148, -0.06942391973480273, 0.2109663970945848, 0.16768428302465746, 0.09785828459870315, -0.03132038049182483, 0.2153599058791137, -0.17125515356769, 0.004371230140775441, 0.020473474194554718, 0.030492383541306095, -0.15579104693660334, 0.13161778213689787, 0.1677045768263749, -0.03452784100230171, 0.11033363546924532, 0.09038776197019865, -0.10707132461534653, -0.13998826709485512, 0.09450323332795499, 0.043588827738006486, 0.1361521893010483, 0.07980560265377418, -0.06203025895937364, -0.041035785649624484], [-0.1035071496908492, -0.058648265106981436, 0.18453594154842765, -0.17769094743829744, 0.03069603393197035, -0.0900638601714896, -0.11804628427842646, -0.05967534842390035, 0.06521710209057448, 0.08834677291771258, 0.15853946112230052, 0.10112215740715944, -0.0768344304847156, -0.15206999616503203, -0.04078248974860926, 0.19332749548713102, -0.09372246472502271, 0.13553314892351437, 0.20833414492000205, -0.0377149078449127, 0.10746975851003378, -0.020263289636083294, -0.09723745909047353, 0.09857807563729837, 0.13475957592065388, 0.07666040489644062, 0.0373021779416669, 0.1602425765724866, -0.0983071514473147, 0.1822848175867623, 0.014081666290499036, -0.17919850270132404, 0.11724736922650605, -0.0373697499698198, 0.19008859665974215, -0.07718372487891728, -0.11455226184004148, 0.1267279988168463], [-0.1207559595869181, 0.05723029209671965, -0.11221417630426689, -0.13054117224868708, 0.15870747105723648, -0.11442573702583933, 0.10450854810241056, -0.07467450900449574, -0.009665208510390792, 0.11165416799478065, -0.07247362087730669, 0.18683993253227585, 0.129285168341223, -0.04960929766896206, 0.16294019991239486, -0.07952475475234089, -0.11793172646746791, 0.09499278959101554, 0.19124450700047071, 0.07555216612813564, -0.054981435486015216, -0.06159915102350483, -0.15418729514059662, 0.04592749692516349, 0.1341627327838353, 0.03924688046965423, 0.007363112254581594, -0.01815248940592209, -0.00889331208790609, 0.015518927224758079, -0.11539456777856506, 0.1288597686422958, -0.09500929620375938, 0.14652527304204704, 0.04155062569143136, -0.09532945918826763, -0.12364683972893897, -0.14146735884842335], [-0.10821430569480422, 0.0314115484610028, -0.056737236125905574, -0.1828285463754256, 0.15713724478355767, 0.11154099467470709, 0.1669998926509408, 0.05218517916329698, 0.05874080353234669, 0.020637443938566716, 0.0540938758154011, -0.02103620045876342, -0.06111835263777347, -0.1114019591074693, -0.07975477470266318, 0.051351522981267356, 0.05528800652156093, 0.01370198375401743, 0.19067145821512824, 0.03097870025536196, -0.17216620200797733, -0.0321000480498328, -0.061709403866066534, -0.16246927212988274, -0.11488311596122451, 0.049026131496146534, 0.0719065180324287, 0.14223679722210483, 0.158766433893999, -0.08583168871564571, -0.12649502812040847, -0.01987430358165821, 0.05837973927832992, -0.13362199688849488, -0.07203952157711602, 0.014497259463841353, -0.08249768190360918, 0.03423124578285623], [-0.05664636362545137, -0.10831695857026223, 0.1275825856248266, -0.1842180610022319, -0.12002746121213975, 0.06039721903603476, -0.010663516001816354, 0.10741806601996932, 0.022025161992986406, 0.025176580259449854, 0.13060172191460762, 0.11516504158531166, 0.07036916182424528, -0.048479466553131526, 0.1372088564454019, 0.11056032013817035, 0.043688207596939414, -0.004455937215195543, 0.11208309800206417, 0.14132890212923835, -0.1115971252616443, -0.06361241295680567, -0.0706804543014381, -0.06327561864836036, 0.05548906598984429, -0.05555009891129097, 0.1603986032706208, -0.07842613039686093, 0.10295292489230926, -0.07132633944907714, 0.015337272465929842, 0.13959411658029036, -0.011975519116246414, 0.10850095728851622, 0.08500195469712646, -0.11098241723505989, -0.023262771216921538, -0.021609627846375632], [0.09052973958322472, 0.055203798796000306, 0.10071147535583468, 0.10641601822470838, 0.1285222945816081, -0.0859799477808879, 0.017435438938906533, 0.023002039742758187, -0.07298275663143558, 0.09274188636220007, -0.124526739753798, 0.05838843454400574, -0.04953095346246166, -0.10794196324302856, -0.04071253832922657, -0.1091602716524009, 0.03280717204518873, 0.13769972414076595, 0.05110922726347826, 0.05412898857834129, -0.003829232053029882, 0.12187639563511646, 0.14958325876655623, 0.12534104416565056, -0.0002512812219407364, -0.12121207058100142, 0.1008416171677802, 0.014063482547538924, 0.043867468535804005, 0.15552603823515002, 0.042176802260761224, -0.023095635770955893, 0.1550876329571998, 0.005673308112284549, -0.05689414462116254, -0.16194956124852938, 0.036514494885510465, 0.11491980959398371], [0.12360885904904714, -0.12512769765243117, 0.11609390017795997, -0.07754917194539164, -0.04640888838609419, 0.018825028105312672, 0.03846007284993728, -0.06689673074631469, 0.10552310369690086, 0.13482991680773512, -0.05627571838307688, 0.128842325622206, -0.03779874977407601, -0.050379912351158726, -0.11370430125549727, 0.0009635650012010107, -0.0007515174118729499, 0.0886492908765346, -0.08451057228079512, -0.05944792094305849, 0.01729859978748158, 0.04889763340039115, -0.09454463385238951, 0.06437472882836123, -0.14607143322433827, 0.14942971700324725, -0.08017500311913542, 0.08888205502415084, 0.014977263061351059, -0.10394260062024975, 0.11373748775629039, -0.17464725229465655, 0.11374011031572796, 0.024586720470435502, -0.024196369078507106, 0.12687993441609513, -0.008075622492957998, 0.03571867347034798], [-0.09651905106584147, -0.17356507831175536, 0.05115896992841483, 0.11282162891541621, 0.04679142639385284, 0.12822225433523846, 0.11070541903203641, 0.18063999762015304, 0.024457830618694065, -0.14745218621692577, -0.10550811285444192, 0.06418863832333424, -0.1415384836400266, -0.17569150891785165, -0.0674828593222042, -0.09074901841127456, -0.10560153487866293, 0.022991513589975154, 0.0036690746933190866, -0.08717331196916915, 0.10321154268701203, -0.1396765946331953, 0.028362233900231033, -0.11509541309787538, -0.06480443547762729, 0.1477850973215877, -0.11463529104614315, 0.10405368921716918, -0.08293213944522704, -0.12424710153111265, 0.12017737461264189, 0.11352873617535404, -0.13785490594968924, 0.09905068263500723, -0.138048472302997, -0.06904298921995912, -0.1090226145648088, 0.1581129686682142], [-0.030091022602851878, -0.1623882260230061, -0.14285220848715607, -0.01261997639480241, -0.044527149073638014, -0.13493508748806068, -0.012336428546013977, -0.08697031173148735, 0.1319458785648279, 0.02454362183440372, -0.025647616046940946, -0.1940555115046175, 0.05580705594780867, -0.0858343640310917, -0.07401344430103363, -0.15898152273920596, -0.05844314574393615, -0.11623964854966438, -0.008536891778028723, -0.06321592996906858, -0.19112246067579383, 0.1577667887402474, 0.09881815134744147, 0.1339665040736777, -0.030408604759044364, -0.05678997244785388, 0.01203089381641325, -0.10015946286158746, 0.14176364197887664, 0.057964559452036615, 0.1625372012712626, -0.010643956228261569, 0.0659971819676141, 0.03871010027638745, 0.07608576349496605, 0.028365613585756788, 0.1033507103119103, 0.11042769951208653], [0.08033493729394503, 0.13451163761052315, -0.16029603585853813, 0.09432242006879744, 0.0626155171830182, -0.011312969399104374, -0.21086798487867692, -0.005765003460538292, -0.08486342036643699, -0.15272041912878737, 0.12408359524819747, 0.0070150972132164684, 0.016959744355519266, 0.04922003915732668, 0.03245574873488276, 0.032337018437533935, -0.014810590510844856, -0.10607792084008084, 0.06823542939770166, 0.05458731676335386, -0.157423048432477, 0.19248576288424962, 0.14689308767886997, -0.003892826332049119, -0.13024036411154508, -0.0963705985177453, -0.1047361667692716, -0.20771395390546044, 0.1038633928606973, -0.13707418541151997, 0.06008876221445491, -0.0611397869615602, 0.01657219356921837, -0.07733104355268729, 0.059770480141413625, 0.010567411797703792, 0.047357124072031236, 0.15351744199941228], [0.07210305520524991, 0.11249033171223789, -0.06381782282383497, 0.06422967635047068, 0.055703807908082915, -0.16112020822168166, -0.027489184865616214, -0.14688436315856118, 0.1551826886389042, 0.018776428485100534, -0.0679560962743873, 0.031994333007462857, -0.004046618002835062, 0.10688705341929293, 0.027614844189741385, 0.0438144603080341, -0.06475548649150693, -0.03238276579702081, -0.09602730301956203, -0.035427830076892444, 0.0753742769801924, 0.102020377003165, -0.13603360670210343, 0.019303429150629572, 0.12046103745942205, -0.1672750922186948, 0.000612422563822741, 0.009208175839463956, 0.09743542553088823, -0.05583797302769429, -0.05844402548382498, -0.12302376750161259, 0.10011397844100665, -0.12323265768660936, -0.028104820771273034, 0.1791399335724796, -0.011782531164958266, -0.05330019316834035], [0.09327360593091594, -0.16290250212454604, 0.07538993150891378, -0.07316622250777892, -0.08646462012757403, -0.1125728297380073, 0.11106510224560107, 0.05944228041776746, 0.08474282786728331, 0.03744933713332454, -0.04463290523569825, 0.02929033125438081, -0.002450371623395156, -0.1293355840770576, -0.15039045406521387, -0.16243144449814992, 0.036565917243725814, -0.160191381828668, 0.011853433773257755, 0.028108285091894645, 0.1337474401249359, 0.03147077356765545, 0.127651462376193, 0.05157998695419044, 0.14541323606168247, -0.14419455899919292, -0.09720142214182544, -0.09318151135701896, -0.031873399341838714, -0.20153082505768574, 0.09119182903691155, 0.057393480062594364, -0.03314190921455993, 0.028688459296449243, -0.16117880596437645, 0.1610324280187067, 0.023545600846874324, 0.001802429692494555], [0.020573631839025112, -0.1744303541282352, 0.08856724547983726, -0.04782121974768824, 0.10507084146394483, 0.03323432528451029, 0.03089872660295868, -0.17122241917499337, -0.12816629439032917, 0.1308621148012578, -0.05240621255633296, 0.06683112277219777, 0.07118263317343924, 0.04905711950945769, -0.14106440416863944, -0.19019314490594758, 0.10798006112986039, 0.0880543857985167, -0.0058081284715412835, 0.04386434146059405, 0.07533241174911097, 0.13994670254789182, -0.06706403480274442, 0.07688731442481614, 0.08336008334430806, 0.12252507556656432, 0.044299164861106695, -0.05524347690365476, -0.036907630214138794, 0.04702409388702415, -0.08198654216495328, 0.1442836764895305, -0.17671968232174767, -0.14696926595151483, -0.18826679197408153, 0.040176646392387425, 0.03532322973080709, -0.055111104764869606], [-0.01421788090208423, -0.15199847210092, 0.23298678119919605, -0.12986419644032293, 0.11604300413818697, -0.04303691378425798, 0.07052844168688745, -0.07516126700598232, 0.05816602990930454, -0.13701221044222206, 0.008622759400708752, 0.21234006250739268, -0.15733253280947207, 0.07977393827815858, 0.07127787663056263, 0.14062615739642012, 0.15363956114841326, 0.035606559019669026, 0.052823203609743165, 0.22435298719278493, -0.17156480145631484, -0.19967457038957015, -0.002303084890237641, -0.19545624947835705, 0.12392269005866742, 0.04222246266470889, -0.050716720229541906, 0.11892906113986963, -0.11451974763107448, 0.15092998065331048, -0.016832862887208158, 0.07565651137508328, 0.012553147110194918, 0.02152090990222911, -0.008073852783614955, -2.640925544806393e-05, -0.1303291147409058, 0.112927156681954], [-0.09883740113097136, -0.22536385944039317, 0.1798857361830993, -0.050868561195554024, -0.01082332969363152, 0.12208605164642078, 0.08933511724014928, 0.07664970825131584, 0.11212924122687973, 0.01801771743847484, 0.11734427877664154, 0.1067805590059477, -0.04549797456847602, -0.10841863670085013, 0.11976711013479084, -0.05390380739372702, -0.09930431907562487, 0.10090273639615258, -0.09744140651099893, 0.20207838493118702, -0.06319570694867714, -0.12898231363198906, 0.11223535087019033, 0.12869640566999313, -0.0871836272522339, 0.0970129148169709, 0.006023038405035699, -0.1162660240865128, 0.05284621991345355, 0.1284016224326592, -0.17309393523856176, -0.14424781610081766, 0.1354635399068961, 0.03953537104164524, -0.02972465538810213, -0.07865681832968295, 0.16709210413117184, -0.020425998810873373], [-0.11698862228341061, -0.18599654509459296, 0.0876111216116942, 0.056846610874843266, -0.09330051128460971, -0.10602510663339286, 0.11835646753371164, 0.19712095181590245, 0.019924169403645293, 0.11374691350493499, -0.03847538252522058, -0.0504081227487219, 0.047487986729499256, -0.21394299467778422, -0.12334859217696424, 0.04711994038324276, -0.040906807084344264, -0.0737920044254587, -0.08743480899765106, 0.09679164214084292, -0.07084866314488737, -0.1993637322412112, 0.05888467301466768, -0.11326954173909358, -0.15041173314226405, 0.11541250117601831, 0.022793179669361827, -0.10245020717399729, -0.0841073888389626, 0.14790858530022855, -0.09886218142308105, 0.0019109002182391341, 0.012445687759677507, 0.18384243549625984, -0.1401552143116362, -0.07639763112988522, -0.09087395200964211, 0.14741208558646213], [-0.002117240698579206, -0.2307400494111319, 0.026193073583531696, -0.1630595099553464, 0.0208015770241957, -0.04768233054058574, 0.15465450353726448, -0.07778055268997067, -0.03464864573139588, 0.15894524079612998, 0.08090913515252786, -0.07919108870746466, -0.08674454562255224, 0.027286286319616177, -0.0736368873127546, -0.043365145175547154, 0.09511030438656423, 0.16087877137225629, 0.08807660603156647, 0.1248187004742972, -0.03734509320259133, -0.19855091474935763, -0.11194079491559382, -0.1395064902874622, -0.057762655626797214, 0.25849685567465386, 0.013475882338541557, 0.014413936971894501, -0.2188914196959964, 0.20161255234846237, 0.043915101687917006, -0.1868401488364384, 0.11848199085715463, 0.02786939882060794, 0.005455809974037153, 0.07382552899374856, 0.12179952409795816, -0.06893097972175838], [-0.027389380133796822, 0.07560255845567747, 0.19793575674800062, -0.031749205541645155, 0.05594617332027947, 0.15734318308635367, 0.1328166137866382, 0.01703243310111516, -0.08478387292284568, 0.18995920187969734, 0.12730850554763753, 0.12105975126746205, -0.10918702646038311, 0.10319427850584866, 0.0834940720868554, 0.18646864637867183, -0.16134466636559056, -0.08224615590744769, 0.10902614643239553, 0.016164740050007422, -0.030482350988423633, -0.16366933064003655, 0.14169549701477013, 0.07981572016766714, -0.06415617197959825, 0.13548879672198574, 0.07970022729464538, -0.03941638846276814, -0.12327675547365058, -0.04473171731383057, 0.02107967801911842, 0.05378763766536783, 0.10829660003209107, 0.10723214725319863, -0.0075027242282273265, -0.06659062266712577, -0.09430087248006357, 0.05936049775988723], [-0.18535745994513333, 0.08397511815412449, 0.15013146240443093, -0.010156391898700049, 0.0036856764634200013, -0.0768142502787508, 0.14214327039032046, -0.04390027474554035, -0.09939994468392753, 0.14491252578150965, 0.18018035249403294, -0.14238008217735637, -0.18660303381056156, -0.10276212164026736, 0.1556662047699616, 0.010884588975660239, 0.08906539675841045, 0.05784812065408004, 0.10160994875027357, 0.19272502643251033, 0.09142697092966558, -0.18782140825510543, 0.0962172664804916, 0.07064137212602131, -0.06507193073113397, 0.21164465173448158, 0.09274099029214089, 0.07016397238970434, 0.041216223391332456, 0.08476364930880279, -0.01422115573341265, 0.10325565679037153, 0.03826589490934034, -0.0745953921795374, -0.1011373947641178, 0.04214328346261359, 0.15545520106806313, -0.10663381936898612], [-0.11384832612579207, 0.0788261732351643, 0.0797477612277394, 0.0979666694705149, -0.0832211110204653, 0.14050998879250542, 0.06203913275256619, 0.04525898844841224, 0.1264915477479478, 0.08454093766948936, -0.09698942826788134, -0.1606105894648952, -0.10497570495710279, -0.08907255020099585, -0.02613084684118088, 0.2008620629470589, 0.031352250740823186, -0.11036880520355581, -0.10100957976369265, 0.1870063736632286, 0.07798059589438518, 0.0970195511033103, -0.12785977568645124, 0.09633467408706034, 0.11660924915997527, -0.08285256047861446, 0.006120473666018593, 0.00732438905680159, 0.005086808173253125, 0.09607346518735141, 0.009901695666809282, -0.10809725071930204, -0.04837253036598297, 0.15720953201125898, 0.09513222857855815, -0.09429276258100498, 0.0016880044029623374, -0.10722090123257645], [-0.21163521022247958, 0.06603341529945916, 0.14747347806711825, 0.08670667013954035, -0.02331381856702501, 0.12272759710073697, 0.13192969805028912, 0.07867107830523305, -0.10601053492435507, -0.025522346833707115, -0.14092512571994856, -0.06883858145620603, -0.02075603412848952, -0.11375373425509981, -0.022936225892995862, 0.019400793679335233, -0.00743949490685777, -0.08931372155218141, -0.06353712049448376, 0.08621161134876898, -0.1647630349701838, -0.0910979538408745, 0.06431768580043042, -0.10788918641263864, 0.03864434631812258, 0.20575251577374173, 0.14748055929825077, 0.1161619625011833, -0.1897243224507061, 0.04989704351691886, 0.060486409839051604, 0.055949178498458915, 0.044605191913547636, -0.018457086609858918, -0.07588493199530487, 0.14819341989175663, 0.19066172123407663, -0.1292036872110714], [-0.10553859921742598, 0.11164661458664385, 0.07460287121671892, 0.05915838345794942, -0.01684614576157211, -0.0391405717690099, -0.15406105535340653, -0.04138302486555805, -0.14331121060619123, -0.09908663442701193, 0.08196079690843863, 0.03568079235879205, 0.032577585419806696, 0.006993676581901368, -0.14094388889534956, 0.13814923605398519, -0.07322873811908971, 0.15694830149022357, -0.0041527479533736925, -0.05869658713973944, -0.10371022414413066, 0.025568423367801053, -0.006934111677177593, 0.05406203121721655, -0.029420192110658334, 0.04112311291163154, -0.1412148472224366, 0.14679001522691462, -0.012254971242403873, -0.019299184622220904, 0.12601158983566446, 0.1263580547426588, -0.09744847407184729, 0.12996233715818048, -0.1303039087177708, -0.07715077740869979, -0.0865586713226411, 0.07614896684102902], [-0.17894771651211497, -0.05921800402515268, -0.031949027895696, 0.04559992156822755, -0.156129862341066, -0.050460595805228804, 0.14257570253411642, 0.18681357653336214, 0.06434849026401786, 0.19518442745719716, 0.06777400337410354, -0.0032232513496432955, 0.1112644433790386, -0.012786061867254435, -0.02281561030678797, 0.14137872305990612, 0.03213853490917825, 0.14301805040474125, -0.13075758774650076, 0.17707840207108644, 0.0746853711399665, -0.09273146585522997, 0.10751596463114553, -0.05821506420534934, 0.10997759502155442, 0.19412998145403623, -0.05732666145678449, 0.035546928887809026, -0.046565363996402175, 0.029191318863178127, -0.020193390113185196, -0.172743307537979, 0.08401980963121694, 0.08039968173693242, 0.07329682435061725, -0.08727792617156625, 0.12684661351598134, -0.11549326793338331], [0.0652686524165794, 0.07323010504197461, 0.0004998625779306244, 0.01260434753392306, 0.07138330556965117, -0.20947058635020788, -0.028215636751793123, -0.0768392763820478, -0.09299102283584794, 0.20255362602194663, -0.07408946701568316, -0.3417949630195625, 0.11877937416825676, 0.19936949851812738, 0.1317690633576745, -0.19042605885314515, -0.21646350104100584, -0.13581389495523546, -0.28801685957227596, -0.28105156740031384, 0.1481199601728249, 0.2022998398795331, 0.00018082372235957655, 0.04251077705280995, -0.010385664622287231, -0.2945736414855825, -0.18759525120942067, -0.13746623745571446, -0.1694285094216702, 0.01451448121873946, -0.12218980067753625, 0.03370874240370357, -0.1489915647479668, -0.1799146464266061, -0.136351603894605, 0.06958718637518108, -0.012863574999452732, 0.14245281222788395], [-0.12080830883636487, -0.048798424415824604, -0.13841943665993092, 0.16995379782820025, -0.04896808365283047, -0.06603082314797123, 0.0014541725867411582, 0.09498119342746777, 0.1030143914602363, 0.32772930008195517, -0.07222893438693506, -0.3033051241306698, -0.022919832235158644, 0.05674286384965699, 0.131142290867784, -0.051754105021724256, 0.044865608414076205, -0.021663410800053604, -0.28330677782527997, -0.015225259086897279, -0.13644673260238527, 0.14528807867000995, 0.02434854802914366, 0.23002068738045708, 0.24635294042545597, -0.11336955385918912, 0.013577319521505074, -0.07968758729541596, -0.29436674990981615, 0.07174253373986848, -0.15400459753413087, -0.12780945963111362, 0.11754839289480032, -0.09857837265633106, -0.16070671479741822, 0.18725104053887234, 0.24842865820413038, 0.06727757255276619], [0.10534257638943412, -0.06598443531131655, -0.007702393497007585, 0.013719316298283258, 0.06431417078973739, -0.22865872679808197, -0.20617041330901967, -0.13197515928625347, 0.12740862566790134, 0.1987698943101813, -0.2287468070313311, -0.22933482743605102, 0.10923487576309815, -0.033551366703302145, 0.012937828278052618, -0.275953723903514, -0.23280341173048494, 0.13981534078478577, -0.1326292183499014, -0.2601328979550389, 0.011000844243540043, 0.005301524376064278, 0.1566263242050924, 0.1661146551444909, 0.03249828074716537, 0.010057725207031827, -0.12359438486307964, -0.0753578402752621, -0.20437692603670693, -0.23299540280494443, -0.027382202147974266, 0.18673696139126827, -0.23944998611762988, 0.006150827968988607, -0.14671720561215476, 0.13130109480923804, 0.09500469657098651, 0.07767208057297154], [0.26547544143640855, 0.12729832089624848, -0.09184520271664337, 0.015348252026362192, -0.13424425530248757, -0.09106619507146274, -0.12912221175468655, -0.2479085501011989, 0.20689813180202232, 0.2187028906145412, -0.19399513776813798, -0.26675224328232944, -0.001672170399283557, 0.24829854414073096, -0.02146782525164301, -0.012657806812198849, -0.04458481758201096, -0.015308669182282034, -0.150544939329229, -0.15347021718770867, 0.015864311100836435, 0.07366252602129886, 0.02092433670362288, -0.046127780651501187, 0.19864720731418584, -0.002120404161378581, -0.13904227515950457, -0.1059865134346286, -0.0530619724127563, -0.08655502182757718, -0.04239671702922278, 0.201233635890215, -0.18523721916023375, -0.15313156507121345, -0.2907900404664105, -0.055404284239743515, 0.08693190753130921, -0.11515415532850308], [0.28631640036636324, 0.11988872231852667, -0.32370890703998445, 0.00040143262197960564, 0.005523110217355563, -0.09589010707021171, -0.18054692542761736, -0.22101022180238356, 0.034668345002337016, 0.025137048478385406, -0.06287921755498764, -0.06883544972008585, 0.2220261993158489, 0.2529018424840778, -0.13951914635643073, -0.18114515339157586, 0.010577503196120636, 0.17426424298090878, -0.21082785894086992, -0.05991002567960319, -0.12165086718877119, 0.15563140238322137, 0.27392294598339034, 0.24815228347177404, 0.19490984037721812, -0.15231193821921205, 0.03182055618331353, -0.06807616109818783, -0.005896776602672331, -0.2755194999981755, -0.05321285353680815, 0.2518482410288991, -0.1817540273074318, -0.1841952566016457, -0.18541962349567856, -0.0874821726474859, 0.16507672937500173, -0.05024029487722495], [0.04150749529504175, 0.13386077804065702, -0.14875868020974192, 0.02710062618558862, -0.1934511518012772, -0.07287634708544967, -0.03645044212420077, 0.01119317059385897, -0.07490373588095443, 0.4144752862947099, 0.03390125662266019, -0.5461179345610253, -0.1364289572516004, 0.004123699078201314, -0.05308160019240323, 0.1311968518704594, -0.057767782557531705, 0.14546178298777981, -0.29192460304448997, 0.051167492703809804, 0.10744853403572666, -0.12982568100108838, 0.34076264619505137, 0.12321442582446086, 0.2116571200633625, -0.11538845995166497, -0.04050779562115505, 0.09324491516482263, -0.22106696046242427, 0.10547302870064455, -0.3486593687468755, -0.02928375349558515, 0.13259188837528174, 0.08731170738463503, -0.16488661504114602, -0.026229745190463997, 0.1769962487292837, 0.07646522133322907], [0.17157293547260022, 0.0286635308314186, -0.12440864304934411, -0.019259264139068574, 0.08749917783671278, -0.14022108925371157, -0.15798555881939777, -0.11938237572365928, 0.01622300266779256, 0.18190595806673998, -0.051506871136963485, -0.2654838530327172, -0.05704429433167711, 0.18385917708183944, -0.02990776872068403, -0.17333273545437447, 0.01899918644476281, -0.10332036578127775, -0.1417059650846865, -0.006189877344334724, 0.042965066853482496, 0.19854309161834305, 0.06945679796281805, 0.07648348274022383, 0.03962081030877745, -0.28843342181560677, 0.11193439859934684, -0.0027461652752989183, 0.0025638572106771174, -0.1497596823714703, -0.18528756214630557, 0.19583125830669523, -0.17603324761267813, -0.14327800835357282, -0.2717367898592711, -0.04503904512584193, 0.10353349330964942, -0.03465312817247371], [0.1581872872617054, 0.1647184956658095, -0.2389757411418132, -0.07338630743768303, -0.13563735012114947, -0.23482440254212286, -0.02489263236381142, 0.021104579101027622, 0.1511878496820975, 0.08709904481878696, -0.20459929409183947, -0.17996818911429496, 0.15879761075506074, 0.15021589038601174, -0.10838093877856805, -0.018302133305296814, 0.07660356292992379, -0.0974991121184521, -0.007132655230444127, -0.1863723006810678, -0.05556916787631227, 0.05331896654936843, 0.26008068297071857, 0.10392041069974643, 0.16059418528115332, -0.10637444923494745, 0.12567511693940123, -0.23502459003549117, 0.022573964702848785, -0.18217212220665624, -0.12170046959498544, 0.007697634967131826, 0.04843040421749904, -0.029528907340812073, -0.10545794300612496, 0.14521537510918694, 0.22819553677281162, -0.05261366735324882], [0.21069687600330436, 0.15605393569187656, -0.1849963027643265, 0.19723284013767745, 0.05370006686724471, -0.13629804254148167, 0.04295872935042284, -0.1784631353292805, -0.08419170371210226, 0.2688656163400509, -0.15450388580373856, -0.24390086769998037, -0.052109773579848175, -0.029935111462702734, -0.043729224576499325, -0.21864646220801312, 0.07139168558386556, 0.09231057227361593, -0.18029913695649075, -0.07548256749376343, -0.02993679492666559, 0.2302006989729927, 0.01633872414340465, 0.14202750475554382, -0.027969274369018034, -0.14618485624521366, 0.0809060880357989, 0.03127612687753953, -0.19027608528424506, -0.02482528161132098, -0.26805397286129695, -0.09356267569169852, -0.1082919929260479, -0.2709134469659563, -0.018257237274745375, 0.1685077949810282, 0.22193191741696622, 0.11261529767117633], [0.013117235981311912, 0.00037792323078235894, 0.08759162234070457, 0.1040017978452353, -0.22421378899519456, 0.14660025058971501, -0.10141984967812254, -0.045441869863301086, -0.026343335508773474, 0.06989093634972951, 0.0187795106474896, -0.33668032026018613, 0.05450862729023982, -0.06750153452183819, 0.06853149208501162, -0.02726610276703278, -0.18727760155032352, -0.03586316162649043, -0.2466301822814186, -0.11358267542002035, -0.05227369281835339, -0.0772037111301544, 0.18554575033682036, 0.15598960497445907, 0.065758983811427, -0.08018582960297722, -0.06533980076320148, -0.023182685656290877, -0.09797254311024177, 0.09488668777798852, -0.07612422260403064, 0.01644499082494326, 0.0877036679634345, -0.0953135941034606, -0.30205397111064025, 0.19946582081131461, 0.010778219706829174, -0.04419315406295545], [0.014566467959860184, 0.05414836246574406, 0.0949066441549434, 0.060155007656581765, 0.03285336004718841, 0.04096777851551893, 0.0044424915092384516, -0.000974163653075647, 0.13241200728436128, 0.036905375097257075, 0.09431955610747629, -0.2320727524014747, -0.11159994160759293, 0.10392510429707043, 0.13332043301924262, -0.114442340372539, -0.17496968729267698, 0.05066489990967473, 0.0515651765706981, 0.10779561766021527, 0.1304930146398362, -0.0677920965925786, 0.0717361137846264, 0.19847585270752288, 0.09457062080661689, 0.10490498795571333, 0.08312519476547367, -0.19657679880939702, -0.15763571310864133, -0.0897338127988933, -0.020859958331365367, -0.0033515294216706726, 0.10733853228809515, -0.19305638014949458, -0.15280126677115277, 0.15083225672781156, 0.23778078718248982, -0.13028913648093524], [-0.17178761049255356, -0.09451891797066138, -0.1384539221133845, 0.10924094353982002, -0.20732903544771245, -0.05159802138859694, 0.0480204938573292, -0.027952687307930976, -0.08043244283893349, 0.09848627811566214, 0.10733147460488811, -0.09142127668709966, 0.012647314752611903, -0.0852322175235322, -0.03527905265796828, -0.036871610140339066, 0.11151166411203078, -0.10583292651494207, -0.05199068001304894, -0.02496692199642069, -0.005970470374505413, -0.10943254221351925, 0.22600871111652174, 0.21822597885053036, -0.032910481522460705, -0.02832716478375406, -0.13661571460468147, 0.11991824456511661, -0.012704360595697238, 0.1323184893253966, -0.044115356649520564, -0.12057453927777059, -0.12829264412832156, -0.05384669642992682, -0.22329436899742353, -0.10718180465945601, 0.18216971219872996, -0.09197361689677397], [0.10298113540331155, 0.0047692186417339025, -0.2216086962681138, -0.010939466015035464, -0.1374287352071172, -0.06010687147704236, -0.18356480718582505, -0.2598904143796002, 0.2068175652467209, 0.1983335682866495, -0.05677471632666448, -0.26228775377982944, 0.14217022781899327, 0.02681564227983935, 0.11853640172482743, -0.268712492733888, -0.22379097583516927, 0.15773518844218884, -0.21690467813748396, -0.07758636963485185, 0.05190074322590247, 0.21187928785240878, 0.1048901065883412, 0.034517329127527537, -0.019159390021360655, -0.009665863626113535, -0.10789152971438262, -0.264268483609831, -0.24111841735348508, -0.20690560064753333, 0.0170950299656558, 0.0449915848596358, 0.054314401553894345, -0.20547877637359238, -0.1656475129941922, 0.108983428145533, -0.03755169113392427, 0.13630765655829102], [0.18982474833008242, -0.09283101069125876, -0.2293291624711886, 0.19971309751404348, -0.10989418182083928, -0.13581918256576547, 0.006358894943734282, -0.16258626926342265, 0.04470089378085003, 0.029251489241052978, -0.09732562497493341, -0.03170840151477535, 0.12756297519336945, -0.03408811462022803, 0.011046547275671297, -0.23196647322257305, 0.09373091055498549, 0.009813084139233664, -0.05146591766770734, -0.21670739414265375, 0.04236807026422853, 0.1312823704551747, 0.27649584071914757, 0.23641517500977494, 0.08200849598550414, -0.011079310108727303, -0.15004323566116473, 0.058320573879327334, -0.04452797992602705, 0.0155193495513219, -0.21324244402706988, 0.2164564413943107, -0.12129288050253735, -0.16239560078691645, -0.20454403723316025, 0.1630101266352817, 0.2687713923719955, -0.16821827728244912], [0.10345597157834074, -0.049726804185792825, 0.025509610279436833, 0.051189333923724815, -0.11186560934872992, 0.008659545593768971, 0.004914388470786616, -0.2736674586902875, 0.16399917265981853, 0.06900513124547072, -0.07384365902116093, -0.08780726755537836, 0.08469656282523756, 0.18749493214738078, 0.025983178086521855, -0.16169345734106133, -0.21317279001282494, 0.043712811326011985, -0.12742504833599658, -0.2611900431704556, 0.11604390680803692, -0.04023561029731887, 0.15749187194620465, 0.027822035623258336, 0.22182595488544718, -0.14109538464398724, -0.16769381219014928, -0.07240040027860781, -0.030696654337442418, -0.24943783316427265, -0.043801103806878475, 0.1751485234178402, 0.01955834783113851, -0.27053324215653574, 0.010053481796015918, 0.16582939230482557, 0.2591900494445885, 0.11520855856996012], [0.0765398862559084, 0.1293233189635632, 0.015680223049303135, 0.08553116876808202, -0.06507327804943484, 0.05693595807733434, -0.1727816803967551, 0.026841122360024856, -0.09310593440384758, 0.08854181255055041, -0.06781570015253992, -0.0942847167803941, -0.04294838136154541, 0.010868008647467111, 0.14200819721534616, 0.09847254062815172, -0.1306241626483003, -0.0564099759665441, 0.11005840637675546, -0.09519933367683311, 0.10664166163121304, -0.09987405087283947, 0.15941283150635938, 0.17395079872247315, 0.11672407261737569, -0.1918678427323037, 0.11158728959852414, -0.0406503229949614, -0.10979122908185096, 0.10164705210885953, 0.03877326333301341, 0.1389090753804806, 0.04461554834659175, -0.05648757032981162, -0.08107221606067888, 0.03613775990755152, 0.15807046198568478, -0.04293933255339971], [0.14123081582040922, -0.10191264212008212, -0.10998220898826297, 0.15389736151482328, -0.1427083706181832, -0.06556349944694101, 0.1275925610161812, -0.06492268223486586, -0.04310810839744147, 0.22353467429098053, 0.047759067090661314, -0.08224633169736971, 0.08607390692257616, -0.10742893676662194, 0.1854004495041546, -0.06014462658860157, 0.058001119060443286, 0.1476617298565635, 0.01768175660629749, 0.11797208776774355, -0.1195130408734824, 0.1658547668062129, -0.0734064233473029, 0.028007491679028072, -0.025506576088980423, -0.06439197304834583, 0.05497550948787901, -0.12269496290951093, 0.06258456901684667, -0.1540459134152342, -0.1362686155590104, 0.1266391466594025, -0.0945115335207708, -0.07998140980720009, -0.04300164728277795, -0.1176444229717602, 0.06267425936955716, -0.03340246832148003], [0.014571135164105428, 0.12306916750028363, -0.09518421128190598, -0.03702193003598762, 0.02983702193950982, -0.11677008546209879, 0.06673942790041955, -0.09028058548028384, 0.07290800047228213, 0.17065960904726896, -0.039467697987062664, -0.011084799305919381, -0.0788010243190544, 0.05448015306813387, -0.05987229052486388, -0.050182501496011056, 0.02575584196483077, -0.09087936097838448, 0.08219199645274164, -0.11411146532829347, -0.1334551091452669, -0.09966154228266062, 0.09757075536811691, 0.17593022925846552, 0.07199477175887847, 0.11185889041622625, 0.11560583673728368, -0.027076203448947594, 0.052702297776290354, -0.11799029160682915, 0.1338119386932316, 0.12853961844675627, 0.07870669419746244, 0.13833918404090986, -0.018935308810213363, -0.016499550012608263, 0.0008462444318073046, 0.09192534129424433], [0.021099765595127794, -0.09714967242586127, 0.15158917879395317, -0.08934311144583247, 0.022563782083049076, -0.05577441144358648, -0.11240003059672483, -0.022381080835810998, 0.015887622576868363, 0.01744646436127455, -0.09914206699678149, -0.0023185158826679823, -0.03168256501065293, 0.07425418584526118, -0.028202769411288152, -0.015867373198654347, -0.05092742676671515, 0.034167588926353916, -0.0031368100299307843, 0.12008837377891964, 0.12758317915299136, 0.16531509358965346, 0.08595794094075201, 0.027592284992563585, -0.030699699366049906, -0.16617178754460687, 0.08947306061570195, -0.12778625637285357, 0.005561799076287192, 0.11014040580093734, -0.13885488696984288, -0.06208544719905446, 0.07046563969892296, 0.05350454993166516, 0.0024316442039632024, -0.1270271506126149, -0.09697918934787271, 0.10921228100331874], [-0.0019111646712703897, 0.10689892096691933, -0.12086201612845728, 0.16086246266495888, -0.07594021295664614, 0.11661316847571643, 0.052348804781681024, -0.18320526533046294, 0.1461389266768019, -0.02778615006847944, 0.055333812630718904, -0.15638054224079673, -0.09742184661502383, 0.07050406364382894, -0.07113081049578689, -0.15426023825271992, 0.09612029468865761, 0.10700248366257369, 0.11471868759846666, -0.06467132522924693, 0.14639731858587182, 0.09710769989394917, 0.09876150681561842, 0.09406872517446453, 0.07131236854820673, -0.14476415937698817, -0.12155022975270323, -0.006721282424133586, 0.03829726629284474, -0.0022942369532252477, 0.01647895074239575, -0.02098417397699925, -0.18356991731926506, -0.02905253184971017, -0.08391238658160591, 0.009733981311370779, -0.05282057995106052, -0.03397710594124904], [-0.025481212965182833, -0.1277858909787636, -0.08931453833552208, -0.031053872143056518, 0.0832923181394489, 0.12381881553831627, -0.15768151975675077, -0.03527771825315995, -0.10973366671116978, 0.20448963078306664, -0.037128209938574235, -0.12042772052628678, 0.08436285900534608, -0.019982780090854566, 0.1407318307829878, 0.13919520581796188, 0.05039720458697448, -0.09648052818934048, -0.019658498965925267, 0.04036210189778652, -0.09895073223537457, 0.07367928510819816, 0.09102855163227029, 0.048576425488925844, 0.03443912571031748, 0.09617682047463573, -0.01611062776086177, 0.0724334042284672, -0.07575264901751644, -0.012985727741168794, -0.1244452196436136, -0.07607626300220752, 0.08100011757593811, -0.08472383380768966, 0.06948158587970264, -0.11633027429115522, -0.08224476282658262, -0.09522821188828429], [0.08436078439585719, -0.13297970431584874, 0.0641279471854534, 0.08206455697990268, -0.12272414475538816, -0.15484574686000804, 0.04636535021396641, -0.18884844646867746, 0.00905614962283103, -0.10945703271196858, -0.044660523913278884, -0.06818504227365885, -0.007169313901727438, 0.10865634887801622, -0.05790144019012104, 0.048327491289017206, 0.07671272324487259, 0.12166118563876013, 0.03158973867762819, 0.10345964094013803, 0.10879715300085, 0.030401687432214542, 0.01739653302077904, 0.15277282409604614, -0.056274141546000155, -0.18418710639822589, -0.08087807854619938, -0.010013992601727818, -0.10266954577067317, -0.00337042742106872, -0.1524904122603056, -0.011263471506958, -0.1629655393849148, 0.09389190446839486, 0.05349983505809175, -0.13061392194570784, -0.0059583386391140886, -0.13618335820859778], [0.03914253716491732, 0.09058725653264639, 0.11427966157391073, -0.13353067690747503, 0.040016643403218866, 0.02713302377760606, -0.13072077811545627, -0.10678751505471906, 0.057093703490464755, 0.0013451013193632895, 0.0020175766954255723, -0.052337507793194536, -0.1172320010168269, 0.17018225708664222, 0.08948829219379618, 0.05635935192176693, -0.05337908913338442, 0.1645264976689002, 0.020615235280155436, -0.042011503101272704, 0.05088292300125901, 0.008867146188419366, -0.12091152648547782, -0.1390257320081021, 0.06490986808540614, 0.12363107425581357, 0.05344909507210732, -0.08856682885032424, -0.11972732546828779, 0.03358886152629778, 0.08190694769371938, -0.11809365412772473, -0.14107540815872482, -0.05303381820838771, -0.08924395078107811, 0.1310884010497946, 0.14326464523343987, -0.09492475505121323], [0.060281358369611855, 0.09640706399390411, -0.10565634403382891, 0.18057867028357555, -0.16643386661105064, -0.12541614248907285, -0.08181239202388475, 0.09949401393919027, -0.12354263527537279, 0.04383705591184276, 0.0703967976842281, -0.11508058941433737, 0.06428373482446699, -0.09096490672179128, 0.14155192799584043, -0.14583821381748893, -0.18628845614233558, -0.027789292500603715, -0.1671093933780825, -0.0010370302317982481, -0.050448268586232144, -0.05811986276780486, 0.007858519317856073, -0.0101863127570014, 0.08502060107437365, -0.040965563990074075, -0.04075978094677075, -0.10874465585666433, 0.09154780757499606, -0.08227241495754335, 0.002954278556251627, 0.019282224922866197, 0.02500970887345211, 0.06404700313309887, -0.10898546033347532, 0.024829087323551404, -0.09726341254873053, 0.13266718528202642], [0.10335906675525251, -0.04389216811109892, -0.013267370869126598, 0.17820063514042492, -0.06441301851369353, -0.1120416969402347, 0.01101113989196292, -0.07663330825160435, 0.17506813677163752, -0.01790196510713897, 0.07780997833458364, -0.04835922035575097, 0.05584820622425338, 0.10064357607034005, 0.18328970900149427, -0.07063237806371765, 0.10478063684334728, -0.06764175921767458, -0.045227707899281835, -0.1244799028125008, 0.06057129536163502, -0.047424343289561445, -0.029093223605910858, 0.11465777491927268, -0.10187599095978118, -0.07309932428875934, 0.011423348980379307, 0.13780524200270222, -0.019278917109059077, -0.14322887554353944, -0.14200681871682722, 0.06272301521156576, 0.16795675490954845, 0.12012387773908231, -0.1542628862700149, 0.1172038798730344, 0.008606310172519208, 0.08025308443115343], [0.09278511023080808, 0.13469859297006484, 0.08181255412735396, 0.13023879328859844, 0.09894920936802774, 0.09507804036270737, -0.10808894800912801, 0.000821315517976312, 0.13997446358626175, 0.007490312420887877, 0.06335089270178249, -0.04888745366906861, 0.04665147018618044, -0.10851418107851786, 0.13164159835619535, -0.06926234254294478, -0.0187694875195224, -0.14859098027247178, -0.1072598982252091, -0.07060279062687186, 0.10832427387894905, -0.020953304204029865, 0.021897487413766067, -0.10025073883265843, -0.11097042752695867, -0.0276885363136603, -0.08113985242303387, 0.13790660994987933, -0.12633775956605658, 0.14108764258392859, -0.03152362008166815, 0.09233637039951764, 0.03991198713954722, -0.0009960790885505035, -0.018518749268968484, 0.080446431114318, 0.07272645301270562, 0.09614726696485316], [0.0150816864556561, -0.09787305454759182, 0.05227179013938669, 0.18749348098713375, -0.15921359341737062, 0.13856219692190677, 0.07738074637855806, -0.011151235091562559, 0.07449099956103548, -0.0530035612038356, 0.004249161401520648, -0.2076361917110456, -0.03578333019848421, 0.0833387882098318, -0.13611481222008318, -0.00532670064006394, -0.07504443846132952, 0.06038992159391078, -0.06580004600535637, -0.051436983275944426, -0.09839666745455747, 0.17819013026713065, 0.10864637506137623, -0.08882629934517797, -0.12745987620738036, 0.13790220763452277, -0.11334593626465089, -0.0569280128125975, -0.03948576871634975, 0.06542996603823416, -0.042003752948324105, 0.04071794760303891, 0.027214375877107354, 0.12179898646073935, -0.22728791562375836, -0.1050880947169311, 0.23258430222108203, -0.03962759638830372], [0.15915141618633472, 0.12419331642450308, 0.05550715290155931, -0.02268285966968853, 0.1452314941994041, -0.1381020831407287, 0.028665391795353365, -0.06140666279512591, 0.09105315240587358, 0.014218387081075565, -0.03509896585330114, -0.11665854169012621, 0.07829298758943301, -0.06597240018482162, -0.08775629294624, -0.11342588494380114, 0.08169740131598477, -0.07887327757579406, -0.08122656063256373, 0.052922754973095634, 0.09048036560571432, 0.13946350455925563, -0.12634993407806547, 0.06332547526643682, 0.14110390084612842, 0.06709018075460568, -0.09290843874188474, -0.13226938436501334, 0.11698399229981285, -0.12635249101939025, -0.03933261352899147, 0.10379552188444406, -0.00020074404961495552, 0.04584549432572986, -0.046624745409404825, -0.08805960686549703, 0.12488460542304604, -0.009762494479913683], [0.07198043238409398, -0.014241160183373222, -0.1171501652334763, 0.03311743293702237, -0.10183182437847406, -0.13599831003079413, -0.0133257347863645, -0.005544981420820108, 0.07464630541070219, 0.010295925531717987, 0.0059285202229928564, -0.1387828719844388, 0.005262362822719454, 0.19010786128175405, 0.07899440002158072, -0.14615710130464402, 0.052771174317021136, -0.02297662668327384, 0.0803460813080149, -0.07518500461817176, 0.0353760445490104, -0.09946720066602667, 0.15999350696802503, 0.12406738620448834, 0.1773265149756314, -0.19168073428428029, 0.0347008896987266, -0.12870376909297812, -0.017582066773334303, -0.17087505074147283, -0.031049230571292864, -0.010479864294995941, -0.05581716622809823, -0.1932060769132256, -0.1189726834938691, 0.008996515479895413, 0.11029722091248326, 0.11760859031706247], [0.15091288517249943, 0.12868487987095825, -0.06928787679476857, 0.019783238007182728, -0.0720461515796003, 0.07751188677781325, -0.08932950057178198, 0.0666353433623681, 0.055016608956753754, 0.10413384241155753, 0.07180758491253887, 0.08503266464322755, 0.057118797710298576, -0.048635928246985254, 0.1105875650068595, -0.12765201438361415, -0.12218814350535216, -0.0940246069095996, -0.17534236187724916, 0.021635338816448354, -0.04394474315610721, 0.11712919918785632, 0.14974595172256625, 0.03862651591156009, -0.14001919828275938, 0.09970219501790911, 0.14958886359762683, -0.02933062077454605, 0.10343070363908616, -0.17351869839709402, 0.011575851572658107, 0.17603548347728537, 0.08656248443702147, 0.12184165983947885, -0.1548471138706666, 0.003935234743102248, -0.0030840729705921776, -0.15869283859135905], [-0.1313996170274548, -0.1093634962075021, -0.01558192033610601, 0.06740430576592449, 0.07371828502245785, -0.10922482618965852, 0.11006268744506047, 0.05584058055405547, -0.12786187862741732, -0.2326640117214545, -0.022691994048321763, 0.10485876358102794, 0.02966074122086073, -0.09910341967673021, -0.13163052245690765, 0.0085352414743945, 0.2149515958765298, -0.10999089563584932, 0.13339309283504686, 0.08723775487537658, 0.009907307397309864, -0.06052822404859615, -0.22982204095809125, -0.11252333051176035, -0.02831251876793781, -0.14127747199179289, 0.09386877148726344, -0.1003413525491098, 0.1597681528570793, 0.03632443518008153, 0.26847534146428514, -0.0609039345381051, -0.08608519919834388, 0.04479910864572005, 0.009707538890942268, -0.1725773580238681, -0.008953868651740166, -0.06127188274259226], [0.10461734398802953, 0.1342140580472489, 0.14181718094835652, -0.1744252739801352, 0.17477187825662263, -0.05176053105575328, -0.0404587561324739, 0.005260385672152546, 0.12190138441001501, -0.1405439694279309, 0.033826264402680696, 0.17634023759974568, -0.16235813205990154, 0.12620775976374526, 0.059968253017624956, 0.10764031335707483, -0.06643398079342372, 0.09491343104459027, 0.11563488475376751, 0.09779890928673535, -0.03331117993600069, -0.01718152812867551, -0.06888261253610974, -0.06610763308514724, 0.026207181084677816, -0.028854894041285956, 0.04611224414342973, 0.006207047502044344, 0.16813963760337325, 0.18845041886739278, -0.04768985537381351, -0.13718680332913408, 0.07834779247686197, 0.02167929913663246, 0.1612690649409734, -0.02113471489992861, -0.2067726653772801, 0.10609154177582783], [-0.10199966362416818, -0.11935129941356128, -0.03528435755010556, -0.09306968438111973, -0.029933557958559658, 0.11457796576999926, 0.08427297680839847, 0.17096982213002396, -0.1565644128464938, 0.012318077068204538, 0.11279647277740167, 0.25961346174532957, -0.1883591286294409, 0.11313237855168587, 0.07982223133998681, 0.0915133127732288, -0.08983818423214603, 0.14781588147807595, 0.15987609354136648, 0.031695608746137596, -0.058735372284648604, 0.09822942751867655, 0.11266580012672661, -0.08827537679649855, 0.037501322564154706, 0.01293739498989294, -0.12165233384930471, -0.09430716539530534, -0.0396149911703263, 0.022014151348397345, -0.004734526091676249, -0.11910584895375595, 0.10479934285116213, 0.20109577413823013, 0.03959632657918434, -0.1167265551686342, -0.23236185215115965, 0.047018410006998815], [0.10007351536234084, -0.14675151541618353, 0.1757510976148732, -0.02807137690698596, 0.052835116290815734, 0.049917352071047506, -0.015469127677384325, -0.018064535890757037, -0.13723206949281402, -0.13226977032304546, 0.01296808863884094, 0.30243874516874203, -0.008291141142856149, 0.098063046854737, 0.14389065894379513, -0.08639890197198055, 0.13637597324269657, 0.0370122659231422, 0.1773918153137242, -0.05032227461023887, -0.1290036300198758, -0.17654454146032778, -0.11887859189682713, -0.24886503724066675, -0.23993379291617686, 0.004866082022917576, 0.11912945551617503, -0.06415049068230293, -0.011829447309727284, -0.07068708035824589, 0.10285884994970253, -0.038140719430849394, -0.06250223906600531, -0.039868738147771435, 0.033726397621030024, 0.04133273464794594, -0.18401062544963567, -0.11548177604904555], [-0.08304532792126516, 0.016556431472241333, -0.030299482472080867, -0.0391411050888604, -0.0602304975883814, -0.09191191082990766, 0.1921664958005431, 0.08965659511210723, -0.1288300853124622, -0.0008999187765528011, 0.13352991486460422, 0.054794701939537026, -0.055217378929987224, -0.04713283536773298, -0.15876477494792562, 0.13345496033780505, -0.0600189142764011, 0.1454465841045436, 0.18968444601540238, 0.029698732304757, -0.1398438128317846, -0.012246434016853117, 0.005041394967171724, 0.010401329870632777, -0.1377888164678971, 0.14466226138859606, 0.22207411115079767, 0.17413782882246037, -0.02566842987956606, 0.2002776780819538, 0.20069673383524345, -0.18290136317556735, 0.13761051746185876, 0.1905796097225899, 0.03791571946428057, 0.01673980607825441, 0.004071839863870579, -0.046101848558673025], [-0.10420715560697233, -0.17535610428484077, 0.16359125664757937, -0.11612541089477182, 0.15325711567624628, 0.13882544148904016, 0.1438695950149737, 0.12097060204710412, -0.11713198377676858, -0.28442635473475264, -0.1026201868637363, 0.28841939080382784, -0.15331485017402985, -0.10230973622571686, -0.1316691940877903, 0.004433871125014803, 0.15725032880162576, -0.04845890905083596, 0.1254917106630846, 0.17838147667721163, 0.027607324416181196, -0.03079174016320574, -0.22676996256432047, -0.21670092325425225, -0.17217835681397572, 0.12066063913582255, 0.1672409650096452, 0.18111502388679523, 0.05058045950559557, -0.10196023433966775, 0.09021930361982805, 0.054461557736002995, 0.06833316971272636, -0.04014346896183585, 0.03262311189783789, 0.09693834182741753, -0.06428793782659895, -0.11730946372596443], [-0.15831310379059949, -0.17334826955088958, 0.16320683601066713, -0.10051441032735474, -0.05855276016749851, 0.03682953499336244, -0.09002845034331586, -0.05948851295314899, 0.06705915451482647, -0.18895471154785964, -0.08321916703647288, 0.15292012467344931, -0.14502829881078058, -0.02870212115783126, 0.033707868111022866, -0.01698060175332851, 0.027876390289336618, -0.12463099756860868, 0.05379049191875244, 0.08343512932416838, -0.10006968487317498, -0.04027649981718507, -0.05960860462190482, -0.008736899223709758, 0.07132851398037272, -0.013153416325562217, -0.06202440682971345, -0.08134353996784788, 0.10291041082478933, 0.13027159561974067, 0.08469094743948621, -0.02501321092945764, -0.027613923308324, -0.10705796591042065, 0.029373566166019563, -0.05265442674641783, -0.04429034011756799, -0.05889920726207087], [-0.07257820324066352, -0.12891469105722553, 0.021149942832348556, -0.05554905411340786, 0.07384786970417746, 0.14254572057314496, -0.05126186578744222, -0.07633491687161888, 0.13163610540112763, -0.033927629897732986, 0.04290243336074664, 0.1464084530361745, -0.15138602278709817, -0.15429348622630332, 0.008687237395408874, 0.14876726867599335, -0.08399729868645044, 0.023257313035645807, 0.02315243775587137, 0.17939804597176454, -0.14533321274589667, 0.07374753820721941, -0.15946902234486565, -0.14509242245232795, -0.15318370274127172, -0.0016102141061303489, 0.16048663694418924, 0.013538482000287077, -0.004220323011017115, -0.048111625384550535, -0.03872553598685355, -0.12601963730899102, -0.09754934859277074, -0.07334846103543179, 0.08594161438276636, 0.07740928241708597, -0.0011169688876854916, -0.011184240464563629], [-0.12377778837324191, -0.02470588987434908, 0.08362184119639818, -0.22076927295519672, -0.07183134669619963, -0.06371241815972348, 0.18624371000997103, -0.05639947788043886, -0.16784734225144707, -0.04671122001617949, 0.12683659281761045, 0.15799624724581046, -0.047959825675250436, -0.13961978741217992, 0.08442007792928513, 0.11315686816417342, -0.043690663570390864, 0.059830186609765725, -0.03346055959302648, -0.044950519728781176, -0.12915560236012036, 0.06136964449944315, -0.1874486286379519, 0.02605631955436188, -0.13816491750189897, -0.04491380856668598, -0.0817354146097743, 0.009981368003294827, 0.04688049343094073, -0.11627714087193255, 0.12290417500152735, 0.13484397636558917, -0.029358958329190964, 0.14158709953321538, 0.30814472887080635, 0.09603084308814477, -0.10429600125892138, 0.08651689762523118], [0.09317471406707854, 0.021907562075274393, 0.04395837391510197, -0.03385144985904337, -0.09385478748978067, -0.008977913478225392, -0.0009637816487934425, -0.07898430318619594, -0.042623297131459466, -0.13842771404254922, 0.18222048203996105, 0.11586474947557511, -0.0539305628746925, 0.03918741994326575, -0.09067464340976085, -0.03540881290158313, -0.04371503387779238, -0.11381632104850249, 0.1981294122597269, 0.1349184603269153, 0.05118726156164476, -0.1148366853777117, 0.05246300119757149, -0.038633097306746446, -0.06475615524708814, 0.1639909095159197, -0.00903445773356517, 0.016740669537265232, 0.20913034063229338, 0.1844704530482267, 0.05976741999615112, -0.006424996303017557, 0.08719548592401109, -0.07431783420429403, -0.04784792814590703, -0.05786574574851087, 0.009132690965689753, 0.012069035411634186], [-0.054482471957315745, -0.08066528141403406, -0.09934259264876916, -0.08488535372273405, 0.047467618004125293, -0.10511997333828234, -0.01587664735287123, 0.06772860884942855, 0.09302259470801032, -0.10091475738932809, -0.08454255717264089, 0.3521885818436454, -0.09908436461146779, -0.08429684698349472, 0.10475893920383225, -0.060004272415461316, 0.12744801711276588, 0.08565468452551159, 0.12010275291661963, 0.14084632104487235, 0.15608739110264336, -0.17395034873440052, -0.10295679913511578, -0.23159032583020064, -0.05362775932158169, 0.1673966821410267, -0.03898330949911973, -0.00390999062000052, -0.028315278283712768, 0.14037652511464063, 0.06127246336348725, 0.10783297070524309, 0.15222732306767134, -0.07285805524686234, 0.32179047873882693, -0.08622751959091407, -0.18770474077116447, -0.07250769799496887], [-0.1515786966541423, -0.17523278245241397, -0.046441754947144025, -0.05179257135092869, -0.05373113926957302, 0.18459341998953172, 0.020691984997475276, 0.07732815272831206, -0.15405801989595128, -0.2570334264221731, 0.09270074901828199, 0.17747022032102402, 0.11856404882787408, -0.1739994845072759, -0.048034337459724186, -0.09838019974709575, 0.11101820465236467, 0.0019440213399063177, 0.27472726365703, 0.0075597846341469484, 0.05505456354502393, -0.054651510099272944, -0.26755056103677793, -0.17660944778078055, -0.06318707115167432, 0.11590054146112445, 0.1308384970523132, -0.03275970744365401, 0.23234711487115223, 0.1654596889021671, 0.12864102062021185, -0.012595499342380839, -0.03286670630432267, -0.044575158805824966, 0.07764722524155833, -0.19222784467543647, -0.20797161647909643, 0.1252898785457015], [-0.09892489041230557, -0.015103007761993524, -0.08908925665679344, -0.042654425778811254, 0.21160952050001952, 0.0038503976526459024, 0.03533878348733586, -0.01594233419603534, -0.16013441480482007, -0.003899384901431581, 0.05806112437613014, 0.16863177293667758, 0.036783169293608114, -0.12052509582267504, 0.026065263927712908, -0.008820184094180603, 0.08522543606807197, 0.13840841534638287, 0.10053244046791532, -0.014452569666919669, 0.1198357387593175, 0.018161767642778284, -0.14712946666859616, -0.07781099962248784, -0.07159604572594933, -0.007809172438997628, -0.12103386802459198, -0.02315997260755952, 0.044400465815306094, -0.049802388870630765, 0.07260766068042523, 0.14319220794327311, -0.10703419927329157, 0.10745412406261011, 0.14114640492564492, -0.1342183787817334, 0.015268761222802947, -0.09315460178709874], [-0.12578932502427786, 0.03136569546081829, -0.11930589332029028, 0.043987309806792003, -0.01608147565349595, -0.03634464613702518, -0.025902944751166872, 0.1260591654580459, 0.09284490490458122, 0.11151916069779014, 0.03238919593623435, 0.06841417601575554, -0.09384322339996234, -0.11195168917733499, -0.11660116120894194, -0.12214683337262114, 0.016899673465717746, -0.09089364382082579, 0.12980266993353395, 0.10666547509144678, 0.09770644348088277, -0.008107544905620505, -0.09696113917395137, -0.08415006366572324, -0.1475749549742913, 0.07170728068319868, -0.129411646886142, 0.07988710003797356, -0.04737696169808725, -0.008803741212435384, -0.12740033068021991, 0.09390863584417208, 0.048310415231753, -0.0735389243277645, 0.017544409918229573, -0.04093849254393239, -0.164350575079151, -0.15714398833389986], [-0.06384249526971765, -0.16468839176260403, 0.1762224226290768, 0.07442728862311997, 0.06168145668345159, -0.09891530352070707, -0.011039901593957848, -0.10968696446214009, -0.07998976048302285, 0.002414478821809271, -0.11990280545047421, 0.19626868926980617, -0.14022661846879494, -0.01645869703816997, 0.07314718378190918, -0.015295471898738835, -0.06409064170128097, 0.021130046993422157, 0.07643105378081491, 0.1601353257510735, 0.17680287004027823, 0.026997288382392702, -0.02556121382132286, 0.07434760579727936, -0.04043312716037776, 0.17360435238593214, 0.13655390735965367, -0.06590816474367144, 0.016296716351490964, -0.12602186024973008, 0.19603276350173449, 0.031234540807013104, 0.10226769931785908, -0.02738861790480048, 0.25088911378182766, -0.05087048373609779, -0.15942574888792846, -0.03273845559258999]], "inputDataShape": [10, 75]}, "midLayer": {"midInputDataShape": [10, 39], "yclassNum": 3, "weight": [[-0.221127581071375, -0.39924732040243194, -0.3782399998725488], [-0.6839645769404574, 0.6302272171860257, 0.02725390495231763], [-0.24683637375832188, -0.02577665571877103, 0.3646835876366041], [0.4516001692409106, -0.6223133581989477, -0.5884244090830524], [-0.2839639794885367, -0.24011333891234926, 0.4399233146306111], [0.07590682511432623, 0.11876225742616651, -0.49660014891470994], [0.17475695016887846, -0.44491863064966153, -0.23234596068835456], [0.4582442215319173, -0.29943398905878915, -0.1069711276906293], [0.485597185863712, -0.5893593306641167, -0.3956367796976956], [-0.5270886786058024, -0.08585005646293765, 0.23224157099686124], [0.034855279454139645, -0.9210165227688686, 0.455209407010338], [0.23156709525961758, -0.3767389247892344, -0.24719529606743082], [0.3635525794119826, 1.209175951517825, -1.2055052005515239], [-0.5207726195965541, 0.0884569846291012, 0.4303638571992101], [-0.3744355581177216, 0.42130805121780723, 0.1648996012666876], [-0.01958982667551905, -0.383786651136872, -0.07114549479732668], [0.6020905943768109, -0.6600295465944364, -0.5518303090300127], [0.1272843504729416, -0.12678043202382747, -0.5179641069940097], [-0.005783713023968737, -0.09678478603023763, 0.05151458245721596], [0.07256811945242167, 0.5169282169711505, -0.8543882731268686], [0.5479724582545263, -0.7621299018560022, -0.015419757023532075], [-0.4833279112036979, -0.15675729109245104, -0.18015493057489973], [-0.6969125698890587, 0.4257958928873626, -0.17666302852467455], [0.127489233067703, -0.7984388460528087, 0.44921961772210983], [-0.315704872705408, -0.5146463626029287, 0.40911331996774125], [0.08557207174581766, -0.3422759044889831, 0.4098081663240043], [0.3688625085951325, -0.6412682190943624, -0.45952049441712395], [-0.06958862472388296, 0.0009383378507613304, -0.5450979802414775], [0.44470197383839627, -0.28633335424225387, -0.40584137426996764], [-0.2392322734797975, 0.4847424581836551, -0.5224247684385259], [0.4916633382804221, -0.6192511723304631, 0.12758170373595712], [-0.19498541752196505, 0.5544304820054731, -0.4904781889457813], [-0.6138030779070348, 0.13381631151510795, -0.07038095823997981], [0.12542512385430651, -0.44246288229682695, -0.1273514732902424], [0.21878719842588026, -0.6423065430062369, -0.4801347965934458], [0.11803416127422214, 0.6340425918695988, -0.8538212221381367], [-0.2995430557626382, -0.04266076663620861, 0.41756452206867045], [-0.5320608666468243, -0.7305318800520949, 0.4946356127285172], [0.15310440523177693, 0.18429534412400556, 0.02665921711136276]]}}}